5 4 3 1 1 0 0 1 2 3 2 3 3 3 2 1 1 -1 -2 -2 -2 -2 -2 -2 -2 -2 -3 -3 -3 -4 -4 -5 -5 -5 -4 -4 -4 -3 -4 -3 -3 -4 -4 -4 -4 -4 -4 -4 -4 -4 -4 -3 -2 -2 -1 -1 0 1 0 1 0 0 -1 -1 -2 -2 -2 -1 -1 0 -1 0 0 -1 -2 -2 -2 -1 0 0 1 1 2 2 1 1 0 0 0 0 -1 0 1 1 1 0 0 -1 -1 -1 -1 -1 -1 -1 0 -1 -1 -2 -1 -2 -2 -2 -3 -2 -1 -1 -1 -1 -1 -1 -1 -2 -1 -2 -2 -1 -1 0 -1 -1 -1 -1 -1 -2 -3 -3 -2 -2 -1 0 1 1 1 1 0 0 0 0 0 1 2 2 2 1 1 0 -1 0 0 0 2 3 4 3 3 2 1 -1 -2 -3 -3 -1 1 2 3 4 4 3 2 1 -1 -2 -2 -2 -1 0 2 2 3 1 0 -3 -3 -2 0 3 6 8 7 6 4 1 -1 -1 1 4 7 9 9 9 6 4 1 -1 0 3 6 10 12 12 11 5 -1 -7 -12 -13 -12 -8 -2 3 6 5 0 -6 -14 -18 -18 -15 -8 -2 2 1 -6 -17 -28 -33 -26 -4 32 75 0 0 0 0 0 0
1 2 1 2 2 2 3 2 2 2 2 2 2 1 1 1 1 0 0 -1 -1 -1 -2 -2 -2 -2 -2 -3 -2 -2 -2 -3 -3 -3 -4 -3 -4 -4 -4 -4 -4 -3 -4 -3 -3 -3 -3 -3 -3 -4 -3 -5 -4 -4 -5 -4 -4 -3 -2 -2 -1 0 2 2 3 3 4 5 4 4 4 4 4 3 3 2 2 1 1 1 1 1 1 1 1 0 0 1 1 1 2 1 1 1 2 1 1 2 2 1 1 1 0 0 -1 -1 -1 -2 -2 -2 -3 -2 -3 -3 -2 -2 -2 -1 -1 -1 -1 0 0 1 1 1 0 1 1 1 0 0 -1 -1 -1 -1 0 0 -1 -1 0 -1 -1 -1 -1 -1 0 -1 -1 0 0 -1 -1 -2 -2 -2 -3 -3 -3 -3 -4 -3 -4 -3 -3 -3 -2 -2 -2 -2 -1 -1 0 0 1 2 3 4 4 6 5 6 5 5 5 5 5 5 3 3 3 2 2 0 1 1 1 1 0 0 -1 0 -1 -1 -1 -1 -2 -1 -1 -3 -3 -2 -3 -4 -3 -3 -3 -2 -1 0 1 2 2 3 4 4 3 3 3 1 1 -1 -1 -1 -2 -3 -2 -1 0 1 3 5 6 7 7 7 5 1 -2 -6 0 0 0 0 0 0
-1 -2 -2 -2 -2 -2 -2 -2 -1 -2 -1 -1 -2 -3 -3 -4 -4 -3 -3 -2 -1 0 1 1 0 0 1 0 0 0 -1 -1 -1 -1 -1 -1 -1 0 -1 0 1 1 0 1 1 2 2 2 2 3 3 3 2 3 2 2 2 0 0 0 0 -1 -1 -1 -1 0 1 0 1 1 1 1 0 1 1 0 0 2 1 1 1 1 1 1 0 0 1 2 1 2 3 4 4 5 4 3 2 2 2 0 0 -1 -2 -3 -4 -5 -5 -7 -7 -8 -8 -8 -8 -8 -8 -7 -7 -6 -6 -5 -4 -3 -2 -2 -1 -1 0 0 -1 -1 -1 -1 -1 -1 -1 -1 0 0 1 1 2 1 2 2 3 2 3 4 4 4 4 4 2 2 1 1 1 1 1 1 1 2 3 4 3 3 3 2 2 3 1 2 2 2 2 2 2 2 2 2 3 2 2 2 1 1 0 -1 -1 -2 -1 -1 -2 -1 -1 -1 0 0 0 0 0 -1 -1 -1 0 0 -1 0 -1 -1 -2 -2 -3 -3 -3 -2 -2 -1 0 1 1 1 2 1 2 1 2 2 1 1 0 0 0 0 0 0 1 0 1 1 2 1 0 0 -1 -1 -1 -1 0 1 0 0 0 0 0 0
7 7 6 6 5 4 3 3 2 2 1 1 1 0 1 0 0 0 -1 -1 0 0 1 1 0 2 1 1 0 1 1 0 0 0 0 0 0 1 0 1 1 1 2 1 1 1 0 2 1 1 1 2 2 2 2 2 2 1 1 0 0 -1 -2 -3 -3 -3 -4 -3 -3 -4 -4 -4 -5 -5 -5 -5 -6 -6 -6 -6 -6 -6 -6 -6 -6 -6 -7 -7 -7 -8 -8 -7 -7 -7 -6 -6 -5 -4 -4 -4 -3 -4 -4 -4 -5 -4 -4 -5 -5 -5 -4 -5 -5 -5 -5 -5 -6 -7 -7 -8 -9 -9 -10 -11 -11 -11 -11 -12 -13 -13 -13 -14 -16 -16 -16 -17 -17 -17 -17 -17 -16 -15 -15 -15 -14 -13 -12 -12 -11 -10 -9 -7 -7 -6 -5 -5 -4 -3 -2 -1 0 1 2 3 4 4 4 4 4 4 3 3 2 2 1 2 1 1 1 1 1 1 2 2 2 2 2 2 1 1 1 1 0 1 1 2 2 2 2 2 3 2 1 2 1 0 0 0 -1 -2 -2 -3 -3 -2 -1 -1 -1 0 1 2 3 3 3 1 0 -1 -3 -5 -6 -7 -6 -4 -3 0 2 3 5 6 8 13 17 20 19 16 11 11 16 27 45 67 0 0 0 0 0 0
2 2 2 2 2 2 3 3 3 4 3 2 2 1 0 0 -1 -2 -1 -2 -2 -2 -2 -2 -3 -3 -2 -1 0 0 -1 0 1 0 0 0 0 0 -1 -1 -1 -1 -2 -1 -1 0 0 0 1 2 2 2 3 3 3 2 2 1 0 0 -2 -2 -3 -4 -5 -5 -6 -6 -6 -7 -6 -7 -7 -6 -5 -5 -4 -4 -3 -3 -3 -3 -3 -3 -2 -2 -2 -2 -1 -1 0 1 1 2 3 4 4 6 5 6 5 5 5 4 4 3 2 2 1 1 0 0 1 1 2 2 2 2 2 1 0 0 -1 -3 -3 -4 -4 -5 -5 -6 -5 -5 -6 -6 -5 -5 -4 -3 -2 -1 0 1 2 2 3 3 3 2 3 2 1 1 0 0 0 0 -1 0 -1 0 1 1 2 2 3 3 3 3 3 2 2 1 1 0 0 -1 -2 -2 -3 -3 -2 -2 -2 -1 -1 -2 -2 -1 -1 -2 -3 -3 -4 -4 -5 -5 -5 -4 -4 -3 -3 -1 0 0 1 1 1 1 1 0 0 0 0 0 1 1 0 0 0 1 1 1 0 1 1 3 4 3 4 4 5 5 5 5 5 5 4 5 5 5 4 2 1 0 -1 -1 -1 0 3 5 0 0 0 0 0 0
-7 -8 -7 -7 -7 -6 -6 -5 -5 -4 -4 -3 -4 -4 -5 -5 -5 -6 -6 -5 -5 -4 -4 -3 -3 -2 -3 -3 -3 -3 -5 -5 -4 -4 -5 -4 -4 -4 -3 -2 -2 -2 -2 -2 -3 -3 -3 -3 -2 -2 -2 -2 -1 -2 -2 -1 -1 -1 -2 -1 -1 0 0 0 1 1 2 1 1 0 -1 -1 -1 -2 -2 -2 -1 -1 0 1 1 0 0 0 0 -1 -1 -1 -1 -1 0 0 1 2 2 3 3 3 3 3 2 2 2 1 1 1 2 2 3 3 2 3 3 3 2 2 1 1 1 1 0 1 2 2 3 3 3 4 3 3 2 2 1 0 0 0 -1 -1 0 0 0 0 -1 -1 -2 -3 -3 -3 -3 -3 -2 -3 -2 -3 -4 -3 -4 -4 -5 -6 -5 -5 -4 -4 -2 -2 -1 0 -1 0 -2 -2 -4 -5 -5 -5 -4 -4 -3 -1 1 2 3 2 2 1 0 -1 -2 -4 -3 -4 -3 -2 -1 1 1 2 3 3 3 4 4 3 2 2 1 2 2 2 2 2 2 2 3 2 3 1 1 0 -1 -1 -2 -2 -1 -1 -1 0 1 3 3 4 3 2 0 -2 -4 -5 -5 -3 0 3 8 10 11 9 1 -12 -28 -47 0 0 0 0 0 0
5 4 3 2 1 1 0 0 -1 0 0 -1 -1 -1 -1 -2 -2 -2 -2 -2 -3 -2 -2 -1 -1 0 0 1 1 1 1 1 1 0 0 -1 -1 -1 -1 -2 -2 -2 -2 -1 -1 0 -1 0 1 0 1 -1 0 -1 -1 -2 -2 -2 -3 -3 -2 -2 -1 -1 0 0 0 0 1 1 1 1 1 0 1 2 1 2 3 2 2 2 2 2 1 2 1 2 1 2 2 2 2 3 3 3 3 2 2 2 2 1 1 1 0 -1 -1 -1 -1 -1 -1 -1 -1 -2 -2 -1 -2 -2 -2 -2 -2 -2 -2 -3 -3 -3 -4 -3 -3 -4 -3 -3 -3 -3 -3 -3 -2 -1 -1 -1 0 0 1 0 1 1 1 0 1 1 0 -1 -1 -1 -2 -2 -2 -3 -3 -2 -2 -1 1 1 2 2 3 3 2 1 1 0 1 1 0 0 0 0 -1 -1 -2 -2 -1 -2 -1 -1 0 0 1 1 1 1 1 1 0 1 0 1 1 0 -1 -1 -1 -1 -1 -1 0 1 1 2 1 -1 -2 -3 -3 -4 -4 -4 -3 -3 -2 -1 0 0 -1 -3 -3 -4 -5 -4 -4 -3 -1 1 2 3 5 6 9 10 13 14 15 16 14 11 4 -4 -16 -28 0 0 0 0 0 0
6 5 4 4 4 4 3 2 3 2 2 1 1 1 1 0 -1 0 -1 -2 -1 -2 -2 -2 -2 -2 -3 -1 -2 -2 -2 -1 -1 -1 -1 1 1 0 1 0 0 -1 -1 -2 -3 -4 -4 -5 -6 -6 -6 -6 -6 -5 -5 -4 -3 -1 -1 1 1 2 3 3 4 4 4 4 4 5 5 5 5 5 5 5 5 5 5 4 4 3 3 2 1 2 1 1 0 0 -1 -1 -1 -2 -2 -2 -2 -2 -3 -3 -3 -3 -4 -4 -4 -4 -4 -3 -3 -3 -3 -2 -2 -1 -1 -1 -1 0 -1 0 0 0 0 0 -1 -1 0 0 0 0 0 1 0 0 0 0 0 -1 0 -1 -1 -1 -1 -1 0 0 0 0 1 0 0 0 1 1 1 1 1 1 1 1 1 1 1 1 2 1 1 0 0 1 1 0 1 1 1 1 0 0 1 0 1 0 0 -1 -1 -2 -3 -3 -3 -3 -3 -3 -3 -2 -2 -1 0 0 2 2 1 2 2 2 2 0 -1 -1 -2 -2 -2 -2 -1 -1 -1 0 1 1 1 2 2 2 2 0 0 1 1 0 0 0 0 1 1 1 1 1 1 -1 -1 -1 0 -1 -1 -1 -1 0 2 4 6 8 0 0 0 0 0 0
-3 -2 -2 -2 -2 -2 -1 -1 0 0 1 1 0 0 1 1 0 0 -1 0 -1 0 0 0 1 1 1 2 2 1 0 0 -2 -2 -3 -3 -4 -4 -3 -4 -3 -3 -2 -2 -2 -2 -4 -4 -4 -4 -4 -4 -3 -1 0 1 0 1 -1 -1 -3 -4 -5 -6 -6 -6 -7 -7 -7 -7 -7 -8 -7 -8 -7 -6 -5 -4 -3 -2 -1 0 0 0 0 0 0 0 0 -1 -1 0 0 1 2 3 4 5 4 5 3 2 1 0 -2 -3 -4 -4 -3 -2 -1 0 1 2 2 1 1 0 0 0 0 1 1 1 2 2 1 1 0 -1 -2 -2 -2 -3 -2 -1 -1 0 1 1 1 0 0 -1 -1 -3 -3 -3 -3 -3 -3 -3 -2 -1 0 0 1 1 2 1 2 3 3 3 4 5 5 5 6 6 6 5 5 4 2 2 1 2 2 3 4 5 6 6 6 5 4 3 2 1 0 0 0 0 -1 0 0 -1 -1 -1 -2 -2 -2 -2 -2 -2 -2 -2 -2 -2 -2 -2 -2 -4 -4 -6 -7 -8 -7 -6 -4 -3 0 1 3 4 4 2 0 -2 -5 -7 -8 -9 -7 -7 -5 -3 -1 0 -1 0 -1 0 0 0 1 3 7 10 0 0 0 0 0 0
-4 -3 -2 -3 -3 -3 -3 -4 -4 -4 -4 -4 -4 -3 -2 -2 -1 -1 0 1 3 4 5 6 7 8 7 7 7 6 4 3 1 1 -1 -2 -3 -3 -3 -4 -3 -2 -2 -1 0 1 2 2 2 2 1 0 -1 -2 -3 -4 -5 -5 -6 -6 -6 -6 -5 -5 -5 -3 -1 -1 0 1 2 2 2 1 2 1 0 -1 -1 -1 -1 -1 -1 -1 -1 1 1 3 3 4 6 7 7 6 6 6 4 3 1 0 -1 -3 -3 -3 -4 -4 -4 -3 -3 -2 -2 -2 0 0 0 0 1 1 1 0 -1 -1 -1 -2 -2 -2 -2 -2 -2 -2 -2 -2 -1 -1 -2 -1 -1 -2 -1 -1 -1 -1 -1 -1 -2 -1 -2 -3 -3 -2 -2 -2 -1 0 1 2 2 3 3 5 4 5 5 5 5 4 5 4 3 2 2 1 1 0 0 0 1 2 2 1 1 1 1 0 -1 -2 -2 -3 -4 -5 -5 -4 -4 -5 -4 -4 -4 -2 -3 -1 -1 -1 -1 -1 -1 -1 -2 -1 -2 -2 -2 -3 -4 -5 -6 -6 -6 -6 -6 -3 -2 0 2 4 5 6 6 6 6 5 4 4 3 2 0 0 0 1 1 2 4 5 8 9 10 9 7 3 -2 -8 0 0 0 0 0 0
5 4 3 2 2 2 1 1 2 1 2 3 2 2 3 2 2 1 0 1 1 1 0 0 0 -1 0 -1 -1 -1 -3 -3 -4 -4 -4 -4 -4 -3 -3 -2 -1 -1 -1 -2 -2 -3 -4 -5 -6 -6 -5 -5 -5 -4 -4 -3 -3 -3 -3 -2 -3 -3 -2 -2 -2 -1 0 0 1 1 1 0 -1 -2 -4 -3 -3 -3 -1 0 2 4 5 7 7 6 5 3 2 0 0 -2 -2 -2 -1 1 1 2 1 2 1 0 0 0 1 1 1 2 3 3 4 3 2 1 0 -2 -3 -4 -4 -4 -4 -3 -3 -1 -1 -1 0 -1 -2 -3 -3 -4 -4 -4 -3 -3 -2 -1 0 0 -1 -1 -2 -3 -4 -4 -5 -4 -2 -1 0 1 2 3 2 2 0 -1 -1 -2 -1 0 1 2 4 4 5 5 5 3 2 1 -1 -1 -1 -2 -1 0 1 1 2 1 1 -1 -2 -3 -4 -5 -5 -4 -3 -3 -1 -1 0 -1 -1 -2 -3 -3 -3 -2 -2 -1 0 1 1 3 3 2 3 2 1 1 1 1 2 2 4 4 5 6 6 6 5 5 4 4 3 3 3 3 4 5 7 8 8 9 8 6 5 1 -2 -5 -7 -9 -9 -8 -7 -5 0 0 0 0 0 0
2 2 2 2 2 1 1 1 1 1 1 1 0 0 0 -1 -1 -1 -1 -2 -3 -3 -3 -3 -3 -2 -2 -2 -2 -2 -2 -2 -1 -1 -1 -1 -1 -1 -1 -3 -3 -4 -4 -3 -4 -3 -2 -2 -1 0 0 1 2 3 3 4 4 3 3 3 2 2 1 1 1 1 2 2 3 3 3 4 3 3 3 2 3 2 1 1 0 0 0 -1 -1 -1 -2 -2 -2 -2 -1 -1 0 1 1 1 1 0 0 -1 -1 -3 -4 -4 -5 -5 -5 -5 -5 -4 -4 -5 -4 -3 -2 -1 0 2 3 4 4 3 3 3 4 2 2 1 1 -1 -1 -2 -2 -3 -3 -2 -3 -2 -1 0 -1 0 0 1 1 1 2 2 1 1 1 1 1 1 1 0 0 -2 -1 -2 -2 -2 -2 -2 -1 -1 0 0 -1 0 -1 0 -1 -1 0 0 0 1 1 1 1 0 0 0 0 0 2 2 3 4 4 4 4 3 3 2 1 -1 -1 -2 -2 -3 -2 -3 -2 -3 -1 -1 0 2 4 5 7 7 6 6 5 3 2 -1 -2 -3 -4 -5 -4 -4 -3 -2 -2 -1 0 1 2 3 3 4 3 2 0 -4 -7 -11 -14 -15 -15 -12 -5 7 22 40 0 0 0 0 0 0
1 1 1 0 1 0 -1 0 -1 -1 0 -1 -1 -1 0 -1 0 -1 -1 -1 -1 -1 -1 0 0 1 1 1 2 2 2 2 3 2 2 1 1 1 1 1 0 0 1 0 0 0 0 0 -1 -1 1 1 0 1 0 0 0 0 -1 -2 -2 -3 -3 -4 -4 -4 -3 -2 -2 -1 -1 1 1 2 2 3 2 2 2 2 2 2 1 1 0 0 -1 0 -1 -1 -1 0 -1 0 0 -1 0 -1 -1 -1 0 -1 -1 -1 -1 -1 -1 -2 -2 -1 0 0 0 -1 0 -1 -1 -1 -1 -1 -1 -1 -1 0 0 1 1 2 2 2 2 2 2 2 2 2 2 2 2 1 1 1 1 0 0 1 1 1 2 2 3 4 4 4 3 3 2 2 1 0 0 0 0 0 0 1 0 -2 -3 -4 -5 -6 -8 -9 -9 -9 -9 -9 -7 -5 -5 -3 -2 -1 -1 -1 -2 -3 -3 -3 -3 -2 -1 -1 -1 0 1 2 2 2 2 2 2 2 2 3 4 4 5 6 6 5 4 4 2 1 1 0 0 0 1 1 1 0 1 0 -1 -2 -1 -1 -1 1 2 3 4 4 5 5 3 2 0 -2 -4 -6 -7 -7 -6 -4 -1 5 0 0 0 0 0 0
2 1 1 1 1 2 3 4 4 4 5 5 5 5 4 3 2 2 2 1 0 0 0 -1 -1 -1 -1 -2 -2 -3 -3 -3 -3 -3 -2 -3 -3 -4 -4 -5 -5 -5 -6 -5 -6 -6 -6 -5 -4 -4 -4 -3 -2 -3 -1 -1 0 0 0 1 0 1 2 2 2 1 2 0 1 1 1 1 2 3 4 5 5 6 7 6 6 6 6 4 4 4 4 3 2 2 2 1 0 -1 -1 -1 -1 0 1 1 2 1 1 0 -1 -2 -3 -3 -3 -3 -2 -3 -2 -3 -2 -4 -5 -5 -7 -6 -6 -6 -5 -5 -5 -5 -5 -6 -7 -7 -8 -8 -7 -6 -5 -4 -4 -3 -3 -3 -3 -3 -3 -3 -1 0 1 1 3 3 2 1 1 0 0 -1 1 1 2 2 4 3 4 3 3 2 2 1 2 1 1 1 0 0 -1 -1 -3 -2 -3 -4 -4 -4 -3 -3 -2 -2 -2 -1 -1 -1 0 0 0 0 0 0 0 0 0 0 -1 0 0 0 0 0 0 0 0 0 0 1 1 2 2 2 3 2 2 0 -1 -1 -1 -1 -1 0 0 1 1 1 0 0 0 1 2 3 5 7 8 9 8 8 6 4 2 1 0 0 2 3 0 0 0 0 0 0
8 8 7 7 7 6 6 4 4 2 2 0 -1 -2 -4 -5 -7 -8 -8 -8 -10 -9 -9 -8 -6 -5 -3 -1 0 2 5 6 8 9 9 11 10 10 9 7 6 5 4 3 2 2 1 0 1 1 0 1 0 -1 -1 -1 -3 -3 -4 -5 -6 -7 -8 -9 -9 -9 -9 -8 -7 -7 -6 -5 -5 -4 -3 -3 -2 -2 -1 0 0 0 1 1 2 2 3 3 4 5 6 6 7 6 6 6 5 5 4 3 3 3 3 3 4 3 3 3 3 3 1 1 0 -1 -2 -3 -3 -2 -2 -2 -2 -2 -1 -1 -1 0 0 0 1 1 2 2 1 1 1 0 0 -1 -1 -1 -1 -1 0 0 0 0 -1 -1 -1 -1 -2 -2 -2 -2 -2 -3 -2 -2 -2 -3 -4 -4 -5 -5 -5 -5 -5 -5 -4 -4 -3 -3 -3 -2 -1 -1 -1 -1 -1 0 0 -1 -1 -1 -2 -2 -2 -2 -2 -2 -1 -1 0 0 1 1 2 3 2 2 3 4 3 3 3 3 3 3 3 2 1 1 1 -1 -1 -1 -2 -1 -2 -2 -3 -3 -3 -3 -2 -2 -1 -1 0 1 2 1 2 0 0 -1 -2 -3 -3 -3 -2 -2 0 1 3 4 5 8 9 10 0 0 0 0 0 0
-6 -6 -5 -5 -6 -5 -6 -6 -6 -5 -6 -5 -4 -3 -1 0 0 1 1 2 2 2 2 3 3 3 4 4 3 4 3 3 2 2 2 1 1 1 1 1 0 1 0 -1 -1 -2 -2 -2 -2 -1 0 0 1 0 0 0 -1 -1 -1 -2 -2 -2 -1 -2 -2 -3 -3 -4 -4 -4 -3 -4 -3 -3 -2 -1 0 0 0 -1 -1 -2 -2 -2 -1 -1 -1 -1 0 0 0 1 2 2 2 3 3 3 4 4 3 3 3 1 2 1 1 1 0 1 1 1 1 0 0 0 -1 0 0 1 1 1 0 0 0 -1 -2 -3 -2 -3 -3 -2 -2 -2 -1 -1 -2 -1 -1 -1 0 1 1 2 2 2 2 2 1 0 -1 -1 -2 -2 -2 -2 -2 -1 0 1 1 2 1 2 2 1 1 1 1 1 0 0 -1 -1 -2 -3 -3 -2 -3 -3 -2 -2 -2 -2 -3 -3 -4 -3 -3 -1 0 2 3 4 4 3 2 0 -2 -3 -3 -3 -2 0 2 2 2 1 -2 -3 -3 -4 -3 0 3 6 8 8 6 3 1 -2 -4 -6 -6 -4 -2 0 1 1 1 0 0 -1 0 1 3 3 4 3 -1 -4 -8 -12 -13 -10 -2 11 29 51 0 0 0 0 0 0
-2 -1 -3 -2 -2 -2 -2 -1 -1 -1 -1 -1 -1 -1 -1 0 0 0 1 1 1 2 2 1 2 2 1 2 1 1 1 1 1 2 1 1 1 1 1 1 1 0 0 0 0 0 -1 0 0 0 1 1 1 0 0 0 1 0 0 -1 0 0 -1 0 -1 -1 -1 -1 -1 -1 -1 -2 -1 -2 -2 -2 -2 -1 -1 -2 -1 -1 -1 -2 -2 -1 -1 -1 -1 -1 1 0 0 1 1 0 0 0 0 0 0 -1 0 -1 -1 -1 0 0 -1 -1 -1 -1 -2 -2 -1 -1 -2 -1 -2 -2 -1 -2 -2 -3 -2 -2 -2 -2 -1 0 0 1 1 1 2 1 1 1 0 0 -1 0 0 0 0 0 0 0 0 0 0 0 -1 -1 -2 -2 -2 -2 -3 -3 -3 -4 -3 -5 -5 -5 -6 -5 -6 -6 -7 -6 -6 -7 -7 -6 -7 -7 -6 -6 -6 -6 -6 -5 -5 -5 -3 -3 -3 -2 -1 -1 -1 0 1 2 3 2 3 3 3 2 2 1 1 0 0 -1 -1 -2 -2 -1 -1 -1 0 1 1 2 2 2 2 2 1 1 1 1 0 -1 0 0 0 1 1 3 3 3 3 3 2 1 0 0 -1 1 2 6 11 17 24 31 0 0 0 0 0 0
4 4 4 3 4 3 3 1 2 1 0 -1 -1 -2 -1 -1 -1 0 0 0 0 0 0 0 -1 0 -1 0 0 0 0 0 0 0 0 0 1 1 2 1 2 2 2 1 1 -1 -1 -1 -2 -1 -1 0 0 1 2 2 2 3 2 2 2 1 1 0 0 1 1 0 0 0 0 1 1 1 2 2 1 1 0 0 -1 -1 -2 -2 -1 0 0 1 2 1 2 2 1 -1 -2 -2 -3 -3 -3 -3 -4 -3 -3 -2 -2 -2 -1 0 1 2 3 3 4 4 4 3 2 2 1 0 0 1 1 1 3 4 4 4 4 4 4 3 3 2 1 0 -1 -1 -2 -2 -3 -3 -3 -3 -1 -1 0 0 0 0 -1 -1 -2 -2 -2 -1 -1 0 0 1 0 1 1 1 1 1 1 1 1 0 1 0 0 0 0 -1 -1 0 0 0 1 1 2 0 0 -1 -2 -3 -4 -5 -6 -6 -5 -4 -4 -3 -3 -2 -2 -3 -3 -4 -5 -6 -6 -6 -5 -5 -5 -3 -1 0 3 4 5 5 5 4 2 0 -1 -1 -1 -1 0 2 4 6 6 6 6 5 2 -1 -3 -6 -6 -7 -6 -4 -1 1 2 3 3 2 1 -2 -4 -6 0 0 0 0 0 0
2 3 4 4 4 4 4 4 4 3 2 1 0 1 0 1 1 1 1 0 -1 -1 -2 -3 -3 -4 -4 -4 -3 -3 -3 -3 -4 -3 -4 -3 -3 -3 -3 -3 -3 -3 -2 -3 -3 -2 -1 -1 0 0 1 1 2 2 2 2 1 1 1 0 1 1 1 0 0 0 0 0 -1 0 -1 0 0 -1 -1 0 -1 0 -1 -1 -2 -3 -3 -3 -3 -2 -2 -1 0 1 1 3 3 3 4 3 3 3 3 2 1 1 0 0 -1 -1 -2 -1 -1 0 -1 0 0 -1 -1 -1 -1 0 0 1 1 1 0 0 -2 -2 -2 -2 -2 0 0 1 2 1 2 2 1 1 1 1 2 3 3 3 4 4 3 2 0 -2 -3 -4 -5 -5 -5 -5 -5 -6 -7 -8 -9 -11 -11 -10 -10 -8 -6 -4 -3 -2 -3 -1 -2 -1 -1 0 2 2 4 5 5 5 4 2 1 0 -1 -1 0 1 1 2 2 1 0 0 -1 -1 0 0 2 4 6 7 7 5 4 2 0 -1 -3 -2 -1 1 2 4 4 3 2 0 -1 -2 -2 0 1 4 5 6 6 3 1 -4 -8 -10 -13 -13 -12 -10 -7 -4 -2 1 2 3 4 6 10 14 18 23 0 0 0 0 0 0
-2 -3 -2 -3 -3 -3 -2 -3 -1 -1 -1 0 0 1 1 2 1 2 3 2 3 2 2 3 2 2 1 2 2 1 0 0 0 0 -2 -1 -2 -3 -2 -2 -2 -1 -1 -1 0 -1 0 0 -1 -1 0 1 0 0 0 1 1 0 0 0 0 0 1 1 1 1 2 2 2 2 1 1 1 1 1 1 1 0 0 -1 -2 -2 -2 -2 -2 -1 0 -1 1 1 1 1 1 1 2 1 1 1 1 1 0 1 0 -1 -2 -1 -2 -2 -2 -2 -1 0 0 1 1 2 2 2 1 1 1 1 1 1 1 -1 -1 -2 -2 -2 -4 -4 -3 -3 -3 -2 -1 0 1 1 2 3 3 3 2 3 2 3 2 2 1 1 0 -1 -1 -2 -2 -2 -2 -2 -2 -2 -2 -1 -1 0 1 1 2 3 3 3 2 2 1 1 0 -1 -1 -2 -2 -2 -2 -2 -2 -1 -1 1 1 2 4 5 6 5 6 4 3 2 -1 -2 -4 -5 -7 -9 -9 -9 -9 -9 -8 -8 -7 -5 -3 0 2 4 6 8 10 9 10 9 9 8 7 5 3 1 0 -3 -5 -8 -10 -11 -12 -12 -11 -10 -8 -5 -2 1 3 5 7 8 9 9 7 6 0 0 0 0 0 0
-5 -5 -4 -3 -3 -3 -2 -2 -1 -2 -2 -2 -1 -1 -1 -1 1 0 2 2 4 4 5 5 6 6 7 7 7 7 6 6 5 5 5 3 2 2 1 0 -1 -1 -2 -2 -2 -3 -3 -3 -3 -4 -4 -4 -4 -4 -5 -5 -5 -5 -5 -5 -5 -5 -5 -3 -3 -3 -3 -2 -2 -1 -1 0 1 1 2 2 3 3 3 3 3 2 1 1 0 0 0 1 1 1 2 2 2 3 3 2 3 2 1 1 0 0 0 -2 -1 -2 -2 -2 -3 -3 -3 -4 -3 -2 -2 -1 0 0 1 0 1 2 2 2 2 2 2 2 2 2 2 2 2 2 2 2 2 2 2 2 1 2 2 0 0 0 -1 -1 -2 -2 -3 -3 -4 -4 -5 -5 -5 -4 -4 -3 -2 -2 0 0 0 1 1 1 1 1 2 1 0 0 0 0 -1 -1 -1 -1 -1 0 1 2 2 3 3 4 3 4 3 3 2 1 2 0 0 -1 -1 -2 -2 -2 -3 -3 -4 -4 -3 -3 -3 -2 -2 -1 0 0 0 0 0 1 1 2 2 3 4 4 6 6 7 7 8 7 6 4 2 -1 -4 -6 -8 -9 -9 -8 -6 -4 -2 1 3 4 5 3 1 -1 0 0 0 0 0 0
-1 -1 0 -1 0 0 0 1 0 0 0 1 1 1 0 0 0 -1 -1 -2 -2 -2 -2 -2 -2 -2 -1 -1 0 1 0 2 1 1 1 1 1 1 0 0 0 0 -1 -1 0 1 1 1 2 2 2 2 2 3 3 3 3 3 3 3 2 3 2 2 1 2 2 1 1 1 0 0 0 -1 -1 -1 -1 -1 -1 -1 0 -1 -1 -1 -1 -2 -2 -2 -2 -3 -3 -3 -2 -3 -2 -2 -2 -2 -2 -2 -2 -2 -2 -3 -3 -3 -3 -3 -3 -4 -4 -3 -4 -4 -4 -3 -3 -2 -2 -1 -1 -1 -1 0 0 1 1 0 1 1 2 2 3 2 3 3 3 3 4 3 3 3 3 2 2 2 2 1 2 1 0 0 0 -1 -1 -1 -2 -2 -2 -2 -2 -2 -2 -2 -3 -3 -3 -3 -3 -2 -2 -2 0 -1 1 1 2 2 2 2 2 2 1 2 1 2 2 1 2 1 1 1 1 1 -1 0 -1 -2 -1 -3 -2 -2 -3 -2 -2 -1 0 0 1 0 0 1 1 0 -1 -1 -1 -1 0 -1 0 0 0 1 1 1 1 1 1 2 1 0 -1 -1 -2 -2 -2 -3 -2 -2 -1 0 0 1 2 3 4 6 8 9 0 0 0 0 0 0
1 1 0 1 1 1 2 3 3 3 2 2 2 1 1 1 1 2 2 2 1 2 1 0 -1 -2 -2 -2 -1 -1 -2 -2 -1 -2 -2 -2 -2 -2 -2 -2 -1 -1 -1 -2 -3 -4 -4 -4 -4 -3 -2 -1 -1 1 0 0 0 0 0 0 1 1 2 3 3 5 5 4 4 3 2 2 3 3 4 5 5 5 5 4 3 1 -1 -2 -3 -3 -3 -2 -2 -1 -2 -2 -3 -5 -6 -6 -6 -6 -6 -5 -3 -3 -2 -1 -2 -2 -2 -1 -1 0 1 1 1 2 2 1 0 0 0 -1 1 1 2 2 3 2 1 0 -2 -2 -2 -2 -1 -1 0 0 0 0 -2 -3 -4 -7 -7 -6 -5 -4 -3 -1 1 1 1 0 -2 -4 -5 -6 -7 -6 -5 -4 -3 -2 -1 -2 -2 -3 -4 -5 -6 -6 -6 -5 -3 -2 -2 -1 -1 0 -1 -1 -2 -2 -3 -4 -5 -5 -5 -4 -3 -2 0 1 2 2 1 0 -2 -4 -6 -6 -6 -5 -3 -2 1 2 2 1 -1 -2 -5 -7 -7 -7 -4 -2 1 4 6 6 5 4 0 -2 -4 -4 -4 -2 2 5 8 9 7 4 -2 -10 -17 -23 -24 -21 -14 -5 6 17 23 26 22 11 -6 -28 0 0 0 0 0 0
1 0 0 -1 0 -1 0 0 1 1 0 0 0 -1 -1 -1 -2 -3 -2 -3 -3 -3 -3 -2 -1 0 0 1 2 2 3 4 4 4 4 4 4 4 3 2 3 1 0 -1 -2 -3 -4 -5 -6 -7 -6 -7 -6 -7 -6 -5 -4 -3 -2 -1 -1 0 0 -1 -1 -1 -1 -1 -2 -2 -1 -2 -1 -2 0 0 0 1 1 1 2 1 1 1 1 0 -1 -1 -1 -1 -1 -1 -1 0 -1 0 -1 0 1 0 1 1 2 2 2 2 2 2 2 3 3 2 3 2 3 2 2 2 1 1 1 -1 -1 -2 -3 -3 -4 -5 -5 -6 -6 -6 -6 -5 -4 -3 -2 -1 0 2 2 4 5 6 6 7 7 6 5 4 4 2 1 0 -1 -1 -2 -3 -3 -3 -3 -3 -2 -2 -2 -1 -1 -2 -1 -1 -2 -2 -2 -2 -3 -4 -4 -4 -3 -2 -1 -1 -1 1 1 2 3 3 3 3 2 1 1 0 0 0 0 0 0 0 1 2 2 3 3 3 5 5 6 6 6 7 6 7 6 6 6 5 5 4 2 1 0 0 -1 -1 -1 -1 0 0 1 0 1 1 0 0 0 -1 -1 -2 -3 -4 -5 -7 -8 -9 -8 -8 -6 -4 0 0 0 0 0 0
-1 -1 0 0 0 1 0 1 1 1 0 0 0 0 -1 0 1 1 1 0 0 0 0 0 0 0 0 0 0 0 0 -1 -1 -1 -2 -1 -1 1 0 2 2 1 1 0 0 -1 -3 -2 -3 -3 -3 -1 -1 0 -1 0 -1 -3 -2 -3 -2 -1 -1 0 1 0 0 0 -1 -2 -3 -3 -4 -3 -3 -3 -3 -2 -1 -1 -1 -1 -1 -1 -1 -1 0 -1 0 -1 0 -1 -1 0 0 -1 -1 1 0 0 1 1 0 0 1 1 1 1 1 1 1 0 0 0 -1 -2 -2 -2 -2 0 0 0 -1 -1 0 -1 -1 -2 -2 -2 -2 -3 -3 -2 -2 -1 1 0 0 0 -1 -2 -3 -3 -3 -2 -1 0 0 1 2 2 3 2 0 0 -1 -1 -1 0 0 2 3 2 2 2 2 2 1 0 0 0 1 0 1 1 1 2 1 1 0 0 -1 -1 -1 -1 -1 -2 -2 -3 -3 -3 -2 -2 -2 -2 -1 -2 -2 -2 -2 -3 -2 -2 -2 -2 -2 -2 -2 -1 -2 -2 -2 -3 -3 -3 -2 -1 -1 0 1 1 1 1 0 -1 -3 -6 -8 -10 -12 -13 -11 -8 -2 4 11 16 15 12 4 -6 -18 -30 -39 -41 -35 -19 7 41 0 0 0 0 0 0
2 2 2 1 1 1 1 2 1 1 0 0 0 0 -1 -2 -1 -2 -2 -1 0 1 0 0 0 -1 -3 -3 -4 -4 -4 -5 -4 -3 -2 -2 -1 -1 0 -1 -1 0 0 1 1 1 2 1 1 1 1 1 1 0 1 1 2 2 2 1 0 0 -1 0 -1 1 1 1 1 1 0 0 -2 -2 -2 -2 -1 -1 0 1 1 0 1 0 0 -1 -1 0 0 1 1 2 2 2 1 0 0 -1 -2 -2 -1 0 0 0 0 1 0 0 0 -1 0 -1 -1 0 0 1 1 1 1 1 2 2 2 2 3 2 1 1 0 0 -1 -1 -1 0 0 1 0 1 1 0 0 -2 -1 -2 -2 -2 -1 0 1 2 2 2 0 0 -1 -3 -3 -3 -3 -3 -1 0 0 1 1 1 0 -1 -2 -3 -3 -3 -3 -1 -1 0 2 2 3 2 2 0 0 0 0 1 0 1 0 -1 -1 -2 -3 -3 -2 -2 1 2 2 1 -1 -3 -6 -8 -9 -7 -3 0 4 6 7 6 2 -3 -8 -12 -13 -11 -6 1 7 13 14 10 4 -5 -14 -21 -23 -21 -14 -3 8 17 20 17 8 -4 -17 -26 -28 -25 -16 -1 12 20 23 15 -1 -23 0 0 0 0 0 0
-11 -11 -11 -11 -11 -11 -10 -11 -10 -9 -8 -7 -6 -5 -5 -3 -3 -2 -2 -1 -2 -1 -1 -1 -1 0 -1 0 1 0 0 0 1 1 1 2 2 3 4 3 3 3 4 3 3 3 2 3 2 3 3 2 3 3 2 2 2 2 2 2 2 1 1 1 1 0 1 1 0 0 0 -1 -1 -1 -2 -1 -2 -2 -2 -2 -3 -3 -3 -3 -2 -3 -2 -2 -3 -3 -3 -3 -3 -3 -2 -2 -1 -1 -1 -1 -1 0 0 1 1 3 3 3 3 4 3 3 3 2 1 1 1 0 0 0 0 -1 -1 -1 -1 -1 -1 0 -1 0 1 2 2 2 2 1 2 1 2 1 2 3 3 3 3 3 3 4 4 5 5 7 7 7 7 7 7 6 5 5 4 4 4 3 2 3 2 1 1 1 1 2 3 2 2 2 0 0 -1 -2 -2 -2 -2 -1 -2 -2 -2 -2 -2 -2 -2 -2 -2 0 0 1 1 0 -1 -2 -4 -5 -5 -6 -7 -6 -5 -5 -5 -5 -5 -4 -4 -4 -4 -4 -3 -3 -4 -5 -6 -7 -8 -8 -8 -6 -6 -5 -4 -3 -3 -4 -4 -5 -5 -3 -3 0 2 3 2 1 -1 -3 -5 -5 -4 1 7 16 0 0 0 0 0 0
8 8 8 7 8 8 6 6 5 4 3 2 0 -1 -2 -3 -4 -5 -5 -6 -6 -6 -6 -6 -5 -5 -4 -4 -4 -3 -3 -2 -2 -2 -2 -1 -1 -1 -1 0 0 0 -1 0 0 0 1 0 0 -1 0 0 1 0 2 2 2 3 4 3 3 4 4 4 4 5 5 5 5 5 4 4 3 4 4 3 3 2 1 0 0 0 -1 -1 -2 -1 -2 -2 -1 -2 -1 -2 -2 -2 -3 -2 -2 -1 -1 -1 -1 -1 -2 -1 -2 -3 -4 -5 -4 -5 -3 -3 -2 -1 -1 -1 -1 -2 -2 -2 -2 -3 -3 -3 -3 -4 -5 -5 -5 -5 -5 -5 -5 -3 -2 -1 -1 1 1 1 1 2 2 2 2 3 2 2 2 3 2 1 1 0 0 1 0 1 0 1 1 1 0 0 0 0 0 0 0 0 1 0 1 1 0 -2 -2 -2 -3 -2 -3 -1 -2 -1 -2 -2 -1 -2 -3 -3 -3 -3 -2 -2 -1 0 1 2 3 3 3 3 3 3 2 2 1 1 0 0 -1 -1 -1 -1 0 0 0 1 0 0 0 0 0 -1 -1 -1 -2 -2 -1 -1 -2 -1 -1 -1 -1 -2 -2 -2 -2 -3 -2 -3 -3 -3 -1 2 5 11 17 23 0 0 0 0 0 0
1 1 0 -1 -3 -3 -4 -3 -4 -4 -4 -4 -5 -6 -6 -6 -7 -5 -6 -5 -4 -3 -2 0 0 0 1 1 0 0 -2 -1 -1 -2 -2 -1 -1 -1 -1 -1 -2 -2 -3 -3 -4 -4 -5 -5 -4 -3 -2 -2 -1 1 1 1 1 1 1 1 1 1 1 2 1 2 2 3 2 3 1 2 1 1 1 0 0 1 1 0 1 1 0 0 0 -1 -1 -2 -2 -2 -2 -1 -1 -1 0 0 0 1 1 0 0 1 1 1 1 2 3 3 3 2 2 1 1 0 -1 -2 -2 -2 -1 -2 -1 -1 -1 -2 -2 -3 -2 -3 -3 -3 -3 -1 -1 -1 -1 1 0 1 1 1 1 2 2 3 2 3 3 3 3 3 3 2 3 3 3 3 2 2 1 2 1 2 2 3 3 3 2 2 1 0 -1 -2 -3 -4 -3 -3 -3 -3 -1 -1 -1 -2 -2 -2 -2 -2 -1 -1 0 1 3 4 4 4 3 2 1 -1 -3 -4 -5 -7 -7 -7 -8 -8 -6 -5 -5 -3 -1 0 1 3 3 3 3 1 0 -1 0 2 5 7 10 9 9 7 2 -3 -7 -11 -12 -10 -6 0 7 12 15 14 8 0 -10 -19 -26 -26 -20 -6 14 40 0 0 0 0 0 0
3 4 4 4 4 3 3 3 2 2 1 1 1 1 1 0 0 -1 0 0 -1 -2 -3 -2 -4 -4 -4 -5 -4 -5 -4 -5 -5 -5 -5 -6 -6 -6 -6 -6 -4 -5 -4 -3 -2 -1 -1 -1 0 0 0 1 0 0 1 1 1 1 1 1 1 1 1 1 1 1 2 2 2 3 3 3 3 3 3 4 3 3 4 3 2 2 2 1 0 1 0 0 0 0 -1 -1 -1 -1 -1 -2 -2 -2 -2 -2 -2 -2 -2 -3 -2 -2 -3 -2 -2 -2 -2 -2 -1 -1 -1 0 1 1 2 2 2 3 3 3 2 2 1 1 1 1 1 0 1 1 1 1 2 2 2 2 2 1 1 -1 -1 -3 -3 -4 -6 -6 -6 -6 -7 -6 -6 -4 -3 -2 -2 -1 0 0 1 0 1 0 1 1 1 1 1 1 2 2 1 2 2 1 2 2 2 3 2 3 2 3 3 2 1 0 0 0 0 0 1 2 3 4 4 4 4 4 3 3 3 3 2 1 1 1 1 1 0 0 -1 -1 -1 -1 -1 -1 -1 -1 0 0 1 1 1 3 4 4 5 4 4 3 2 1 0 -2 -2 -2 -2 -2 -1 -2 -2 -3 -4 -6 -9 -13 0 0 0 0 0 0
-3 -2 -2 -2 -1 -2 -1 -1 -2 -2 -2 -3 -3 -2 -2 -1 -2 -1 -1 0 0 -1 0 0 0 -1 0 0 0 0 1 1 0 1 0 1 0 0 1 0 0 0 0 0 0 0 0 1 1 1 2 2 2 3 3 2 2 1 1 0 0 0 1 1 1 1 1 0 -1 -1 -2 -3 -3 -4 -4 -4 -4 -4 -2 -3 -2 -1 0 -1 0 1 0 1 1 2 3 3 2 4 3 3 3 3 3 3 2 2 2 1 1 1 0 0 0 0 -1 -1 -1 -1 -2 -3 -3 -3 -3 -4 -3 -2 -1 -1 0 1 1 1 1 2 2 2 2 2 2 3 2 3 3 2 2 2 1 1 1 1 1 0 1 0 0 -1 -1 -2 -1 -2 -2 -2 -2 -1 -1 -1 -1 -1 -1 -1 -1 -2 -1 -1 -1 0 1 2 3 4 4 5 5 6 5 6 6 5 4 4 3 3 3 3 3 4 4 4 5 4 3 2 1 1 0 -1 0 0 0 0 1 1 1 0 1 0 0 0 0 0 -1 -1 -2 -4 -6 -8 -9 -11 -10 -11 -10 -10 -9 -9 -9 -8 -9 -8 -9 -9 -8 -6 -4 -4 -2 -2 -1 0 1 3 5 9 13 18 0 0 0 0 0 0
2 2 1 1 0 0 -2 -2 -3 -4 -4 -4 -5 -5 -5 -4 -5 -5 -5 -4 -5 -3 -3 -2 -2 0 -1 0 1 0 1 1 0 1 1 1 2 2 2 1 1 2 1 1 2 1 2 2 1 2 2 1 2 1 0 0 0 -1 -1 -1 0 -1 -1 -2 -2 -2 -2 -2 -2 -2 -1 -1 1 0 0 0 0 0 -1 0 -1 -1 0 -1 0 1 1 0 1 1 2 2 3 3 4 4 4 4 4 4 2 2 2 1 1 0 0 0 -2 -2 -2 -3 -3 -3 -3 -4 -5 -4 -5 -5 -7 -6 -8 -8 -8 -7 -7 -5 -5 -4 -4 -3 -3 -3 -3 -2 -2 -1 1 1 2 4 5 6 5 6 5 5 5 5 5 6 6 5 5 5 5 4 2 2 1 1 1 2 2 2 1 0 -1 -2 -3 -5 -6 -6 -6 -6 -4 -4 -3 -3 -5 -5 -5 -5 -4 -3 -1 1 2 3 3 2 1 1 0 -1 0 1 2 2 3 4 4 3 3 2 1 1 0 1 1 1 1 0 0 -2 -3 -4 -4 -2 -2 -1 0 1 -1 -2 -4 -5 -6 -6 -5 -3 0 1 3 4 3 1 -2 -4 -6 -7 -6 -3 -1 4 9 14 19 24 0 0 0 0 0 0
-2 -3 -3 -4 -5 -5 -5 -4 -3 -3 -2 -2 -2 -2 -2 -1 -3 -2 -3 -3 -3 -4 -4 -4 -5 -5 -6 -6 -5 -4 -3 -2 -2 -2 -1 -1 -1 0 -1 -1 0 -1 1 1 1 0 1 0 0 -1 -1 -2 -2 -1 -1 -1 0 -1 0 0 -1 -1 -1 -1 -1 -2 -2 -2 -2 -2 -2 -2 -3 -2 -3 -3 -3 -2 -2 -2 -2 -3 -3 -2 -2 -2 -2 0 0 1 1 2 3 2 3 3 2 2 2 1 2 1 2 3 2 3 3 3 3 4 3 3 3 3 2 3 3 2 2 2 2 2 2 1 1 0 -1 -1 -1 -3 -3 -3 -3 -4 -4 -3 -4 -4 -4 -3 -4 -3 -3 -3 -2 -2 -2 -2 -1 -1 -2 -3 -4 -6 -5 -5 -4 -3 -2 -1 0 0 0 -1 -2 -3 -3 -3 -3 -3 -2 -1 0 1 0 0 1 -1 -2 -2 -3 -3 -4 -5 -4 -5 -4 -3 -2 -1 0 1 2 4 4 4 4 3 2 2 1 1 1 2 2 2 2 3 2 2 1 0 -1 -1 -3 -3 -3 -1 -1 1 1 0 0 1 1 1 1 0 1 0 -2 -4 -8 -10 -14 -18 -18 -17 -14 -8 -1 8 18 25 29 30 24 13 -3 -24 0 0 0 0 0 0
-3 -2 -1 -1 -1 0 0 0 0 0 1 0 0 0 0 0 0 0 1 1 2 1 2 2 1 2 1 1 1 0 0 0 1 0 1 1 1 0 0 0 1 1 1 2 2 2 2 2 1 2 0 0 1 1 1 1 1 1 0 0 0 0 -1 0 0 -1 0 1 0 0 0 1 0 0 0 0 -1 -2 -2 -2 -4 -4 -5 -6 -7 -7 -7 -7 -7 -7 -7 -6 -5 -4 -3 -3 -2 -1 -1 0 0 0 1 2 1 2 2 2 2 3 3 3 3 2 3 3 2 3 2 2 2 1 1 2 1 1 1 2 1 1 0 0 -1 -1 -1 -2 -2 -3 -2 -2 -2 -1 -1 0 1 1 2 2 2 2 1 2 1 1 0 0 0 0 -1 -1 0 0 0 0 1 1 0 1 1 1 1 0 1 1 1 1 0 1 1 0 0 0 0 -1 -1 0 -1 -2 -1 -1 -1 -1 0 0 -1 -1 -1 0 -1 0 -1 -1 -2 -2 -4 -5 -6 -6 -8 -7 -6 -6 -4 -3 -1 -1 0 1 1 1 0 0 1 2 2 3 4 5 5 4 4 4 3 3 2 1 2 1 2 1 0 0 -2 -3 -3 -2 1 4 10 16 0 0 0 0 0 0
-1 -1 -1 -2 -3 -4 -3 -3 -2 -3 -2 -2 -2 -2 -2 -1 -1 -1 -1 -1 -1 -2 -2 -2 -2 -2 -2 -1 -1 -1 -2 -2 -2 -2 -4 -3 -4 -3 -3 -2 -2 -1 -1 0 0 0 -1 -1 -1 0 -1 -1 0 1 0 1 0 -1 -1 -1 -2 -3 -2 -2 -1 0 -1 0 1 1 0 0 -1 -1 -1 -1 0 1 2 1 1 1 0 0 -1 -1 -1 -1 -1 0 -1 0 -1 0 -1 0 -1 -1 -1 -1 -1 -1 0 0 -1 -2 -1 -2 -1 -1 -1 -1 -1 -1 -1 -1 0 0 -1 0 0 0 0 0 1 1 1 1 0 0 0 -1 -1 -1 -2 -1 -1 0 0 0 0 0 -1 -1 -1 -1 -1 -2 -1 -1 0 0 1 1 1 0 1 0 -1 -1 -1 -2 -2 -1 0 0 0 0 0 0 0 -1 -1 -1 -2 -2 -1 -1 0 1 0 0 0 0 0 1 0 0 0 0 1 1 1 1 2 1 0 0 0 0 0 -1 -2 -2 -2 -2 -2 -1 0 0 2 3 3 3 3 1 0 -2 -3 -4 -3 -1 2 4 6 8 7 4 1 -4 -9 -13 -15 -13 -6 3 11 19 22 20 12 0 -13 -25 -33 -34 -25 -4 27 64 0 0 0 0 0 0
-2 -1 -2 -2 -2 -3 -3 -4 -3 -4 -4 -4 -4 -4 -3 -2 -1 -1 1 2 3 3 4 3 4 4 4 4 5 5 4 4 4 4 3 2 2 0 0 0 0 1 1 1 2 1 1 0 -1 -2 -4 -4 -5 -6 -7 -6 -7 -7 -6 -6 -5 -5 -4 -3 -1 1 2 4 3 4 4 4 3 3 2 1 1 1 1 1 1 1 1 1 0 0 0 0 1 1 3 3 2 2 2 3 3 2 2 2 2 2 2 1 1 0 -1 -1 -1 0 0 1 1 2 2 3 3 2 2 2 1 1 2 2 1 1 1 1 1 0 0 0 -1 -1 -1 -1 -1 -2 -2 -2 -3 -3 -3 -3 -4 -4 -4 -3 -4 -3 -3 -2 -1 -1 -1 0 1 0 1 1 0 0 -1 -2 -1 -2 -3 -3 -3 -4 -4 -4 -4 -3 -4 -4 -3 -2 0 1 2 4 5 7 7 8 8 8 7 6 5 5 4 3 2 2 2 1 1 2 1 1 1 1 1 0 0 -1 -2 -2 -4 -4 -6 -4 -4 -3 -2 -1 1 2 2 3 2 2 0 0 -1 -1 -1 -1 -1 -2 -3 -4 -7 -11 -13 -14 -14 -11 -7 -2 3 8 11 12 11 5 -3 -13 0 0 0 0 0 0
-1 -1 -2 -1 -2 -2 -2 -1 -1 0 1 1 1 2 2 3 2 2 2 2 2 1 1 1 1 0 -1 -1 -1 -2 -3 -2 -3 -3 -3 -4 -4 -4 -4 -3 -3 -3 -2 -2 -1 -1 -1 0 0 0 1 1 0 1 0 0 0 0 0 0 0 -1 -1 0 -1 -1 0 0 -1 -1 -2 -2 -3 -4 -4 -4 -5 -4 -4 -3 -3 -2 -3 -1 -1 0 0 1 1 3 3 3 3 3 4 3 3 3 4 3 3 4 3 3 3 3 2 2 2 2 1 1 0 0 0 -1 -1 -1 -1 -2 -2 -2 -2 -2 -2 -2 -2 -2 -2 -1 -1 -1 0 0 2 2 3 3 3 2 2 1 1 0 0 0 0 -1 0 0 -1 0 0 -1 -2 -2 -2 -3 -3 -3 -3 -5 -4 -5 -4 -5 -5 -5 -4 -4 -3 -3 -2 -1 0 -1 0 1 1 1 1 2 2 2 2 2 2 1 1 1 1 2 1 2 2 2 2 2 1 2 2 2 1 1 0 0 1 0 1 1 1 1 1 1 0 1 1 1 2 2 3 4 4 5 5 5 5 5 5 4 4 5 4 4 3 3 1 2 1 1 1 1 -1 -1 -2 -3 -3 -5 -7 -8 0 0 0 0 0 0
-7 -7 -7 -7 -6 -6 -5 -5 -5 -4 -4 -4 -2 -3 -2 -2 -1 -1 -1 0 0 0 1 1 1 1 1 1 1 1 1 1 1 1 2 1 1 1 0 0 0 0 0 1 1 1 1 0 1 1 0 0 1 0 0 0 0 1 0 0 0 1 1 0 1 1 0 0 -1 -1 -2 -2 -2 -3 -2 -3 -2 -3 -2 -1 -1 -1 -1 0 0 1 2 2 2 2 2 2 2 1 1 1 1 1 0 0 -1 0 0 -1 -1 -1 -1 -2 -3 -3 -4 -4 -5 -4 -5 -5 -4 -4 -4 -4 -4 -2 -2 -2 -1 0 0 1 1 3 3 2 3 3 3 4 3 4 4 4 4 4 3 4 4 3 3 3 3 4 3 4 4 4 3 4 3 3 2 1 1 0 0 0 0 -1 -1 -2 -2 -2 -2 -2 -2 -2 -1 -1 0 0 1 1 2 2 3 3 3 3 3 3 2 2 1 1 1 -1 -1 -2 -2 -3 -4 -3 -4 -4 -4 -3 -3 -2 -2 -1 0 0 0 1 1 2 1 2 2 2 2 3 2 2 2 2 1 0 -1 -1 -3 -3 -3 -2 -3 -3 -3 -3 -2 -2 -2 -1 -1 -1 1 2 3 4 5 6 6 6 0 0 0 0 0 0
4 4 3 3 3 3 2 2 1 1 0 -1 -2 -1 -3 -3 -4 -4 -4 -4 -4 -3 -3 -3 -3 -3 -2 -2 -2 -1 -1 -1 -1 -2 -2 -1 -2 -1 -2 -1 -2 -2 -3 -3 -3 -3 -4 -3 -4 -3 -2 -3 -3 -2 -2 -3 -3 -4 -4 -5 -5 -5 -5 -6 -5 -5 -5 -4 -4 -4 -4 -4 -3 -3 -3 -2 -3 -3 -3 -3 -3 -3 -4 -4 -4 -3 -3 -3 -3 -2 -2 -1 0 1 1 2 2 3 3 3 3 3 2 2 2 2 2 2 1 1 1 0 0 -1 -1 -1 -1 -1 -2 -1 -1 -1 -2 -2 -1 0 0 0 0 1 1 1 2 2 2 1 2 1 1 1 1 2 2 1 2 1 1 2 1 2 1 1 0 0 -1 -1 -2 -2 -3 -2 -2 -2 -2 -3 -3 -3 -3 -4 -4 -4 -4 -2 -1 0 -1 0 0 0 -1 0 0 1 1 2 3 3 2 2 2 0 1 1 2 3 4 4 4 3 2 1 1 -1 0 1 1 3 3 3 3 2 0 -1 -2 -1 0 0 1 2 1 -1 -3 -5 -8 -9 -8 -8 -6 -4 -1 -1 0 -3 -5 -7 -8 -9 -7 -4 0 3 5 5 5 4 4 6 9 13 20 26 0 0 0 0 0 0
1 1 1 1 -1 0 -1 -1 -2 -2 -2 -1 -2 -2 -1 -2 -2 -2 -1 -1 -1 -2 -1 -1 -1 0 1 1 2 2 3 3 3 3 3 3 3 3 2 2 1 0 0 0 -1 -3 -3 -4 -4 -4 -3 -3 -4 -4 -4 -3 -3 -2 -2 -3 -3 -2 -2 -2 -2 -1 -1 -1 0 0 -1 1 1 1 0 2 2 2 2 1 1 2 1 1 1 0 -1 0 -1 -1 -1 -1 -2 -1 -1 -1 -1 0 0 1 1 1 1 2 2 2 1 1 1 1 1 0 0 -1 -1 -1 -1 -1 0 0 1 1 2 1 1 1 1 1 0 0 -1 -1 -2 -2 -2 -2 -2 -2 -1 0 -1 0 1 0 1 1 2 2 3 2 3 2 1 0 -1 -2 -3 -4 -6 -6 -7 -8 -8 -8 -7 -7 -6 -6 -5 -3 -2 0 1 1 2 3 2 2 3 2 2 2 2 1 2 1 2 2 2 2 2 3 2 2 3 2 2 1 0 -1 -2 -4 -5 -4 -5 -5 -5 -4 -3 -2 -1 -1 0 0 0 0 1 0 1 0 1 1 1 0 0 -1 -2 -2 -1 -1 0 1 2 4 5 6 7 8 9 10 10 11 11 10 9 6 2 -4 -9 -16 0 0 0 0 0 0
0 -1 -1 0 -1 -1 0 -1 0 -1 0 0 1 1 1 1 2 1 1 1 1 1 1 1 1 1 1 1 1 1 2 1 2 1 2 1 1 1 1 1 1 1 1 1 0 0 1 1 1 1 0 -1 -1 -1 -1 -1 -1 -3 -3 -3 -3 -3 -3 -3 -3 -3 -2 -2 -3 -3 -3 -2 -1 -2 -1 -1 -1 -1 -2 -1 -2 -1 -3 -2 -2 -2 -1 -1 -1 0 0 1 1 1 1 1 1 1 1 0 1 0 0 0 1 0 1 2 1 2 3 2 4 3 3 4 3 3 3 3 3 3 3 3 3 3 3 2 2 2 2 2 1 1 1 1 1 1 1 1 1 1 1 0 -1 -1 -1 -2 -2 -3 -3 -3 -4 -4 -4 -4 -4 -4 -4 -3 -4 -3 -3 -3 -3 -2 -3 -2 -2 -1 -2 -1 -1 0 0 -1 0 0 0 -1 -1 -1 -2 -2 -3 -2 -3 -3 -2 -2 -2 -2 0 -1 0 0 1 1 1 1 1 1 1 0 0 0 0 1 2 3 2 3 3 2 2 1 0 0 0 0 1 1 2 3 3 5 6 6 7 6 6 6 4 3 3 2 3 3 3 3 2 2 2 1 -1 -3 -6 -9 -13 -17 0 0 0 0 0 0
-1 -2 -1 0 -1 1 1 2 2 2 2 1 1 1 2 1 2 2 3 2 2 0 0 -1 -1 -1 0 0 2 3 3 4 4 5 4 2 2 1 1 0 1 0 0 0 -1 0 0 0 0 1 2 3 3 4 4 3 4 3 3 2 2 2 3 3 4 4 3 3 0 -1 -2 -4 -3 -3 -3 -1 0 1 1 1 1 0 -1 -1 -1 -2 -2 -1 0 1 0 -1 -1 -2 -3 -3 -4 -3 -2 0 1 2 2 2 0 0 -1 -1 -2 -1 0 1 2 1 2 1 0 -1 -2 -3 -3 -2 -1 0 2 3 3 3 3 2 1 1 2 1 2 3 2 2 2 1 -1 -2 -2 -4 -3 -3 -2 0 0 1 1 0 0 -2 -2 -2 -4 -3 -3 -2 -1 -2 -2 -2 -3 -2 -3 -2 0 0 2 2 2 2 2 2 1 0 -1 0 0 1 2 2 2 1 1 1 0 -2 -2 -3 -2 -2 0 0 -1 0 -3 -4 -6 -6 -7 -6 -6 -4 -2 -1 0 0 -1 -2 -4 -5 -7 -7 -8 -7 -8 -6 -5 -5 -3 -3 -2 -1 0 1 2 1 2 1 -1 -3 -5 -9 -11 -11 -10 -8 -3 2 5 9 9 4 -5 -18 -37 -57 0 0 0 0 0 0
-1 -1 0 0 -1 -1 -1 0 0 2 2 4 5 4 5 3 3 2 1 1 1 0 0 0 0 0 0 -1 -1 -1 0 0 0 1 0 1 -1 -2 -2 -2 -3 -3 -3 -3 -2 -2 -1 -2 -2 -2 -3 -3 -3 -2 -2 -2 -1 1 1 2 1 0 -1 -1 -2 -2 -3 -3 -2 -2 0 0 0 -1 -2 -3 -3 -4 -3 -2 -1 1 2 4 4 4 3 3 3 3 3 3 3 4 3 4 4 4 2 1 1 0 0 0 -1 -1 -1 -2 -1 -3 -3 -3 -4 -3 -3 -2 -1 -1 0 1 1 0 0 0 0 1 1 2 2 2 2 2 0 0 -1 -2 -2 -2 -1 -1 1 0 1 2 2 0 0 -1 -2 -1 -1 -1 0 1 2 3 3 4 4 2 2 2 3 4 4 4 4 3 2 2 0 -1 -2 -3 -4 -6 -7 -9 -10 -11 -12 -13 -13 -14 -13 -12 -10 -9 -9 -9 -9 -11 -10 -10 -9 -8 -5 -3 -1 0 0 1 0 -1 -2 0 0 2 3 5 7 7 7 5 4 1 -1 -2 -3 -2 1 3 5 5 5 4 2 1 0 1 1 4 7 10 13 12 11 9 7 4 2 1 2 2 3 1 -1 -6 -12 -18 0 0 0 0 0 0
1 1 1 1 0 1 0 0 0 0 0 0 0 1 1 2 3 2 2 3 3 3 3 2 2 2 1 1 0 -1 -1 -2 -2 -3 -3 -3 -4 -4 -5 -4 -3 -4 -3 -3 -3 -2 -1 -1 -1 0 0 1 1 2 1 2 2 2 2 2 2 3 4 3 3 2 2 1 2 1 1 1 0 0 1 0 1 1 1 1 1 2 1 2 2 1 1 1 0 0 -1 -1 -2 -1 -2 -3 -2 -2 -2 -2 -2 -2 -2 -1 -1 -1 -2 -2 -3 -3 -3 -5 -5 -5 -6 -5 -5 -5 -5 -4 -3 -2 -1 1 1 3 5 5 6 6 6 6 5 6 5 4 2 2 0 0 -2 -3 -4 -5 -6 -6 -7 -7 -7 -7 -7 -6 -6 -5 -4 -3 -2 -1 1 2 3 5 5 6 6 6 5 5 3 3 2 0 -1 -2 -3 -5 -5 -5 -4 -4 -2 -2 -1 -1 0 0 0 1 1 0 -1 0 -1 0 0 -1 -1 0 0 0 0 0 0 -1 -2 -3 -3 -4 -4 -3 -3 -3 -3 -2 -1 0 1 1 1 2 3 4 4 4 5 5 5 4 4 4 3 1 1 0 0 1 0 1 1 1 1 0 0 -1 -1 -2 1 3 7 12 0 0 0 0 0 0
1 1 0 -1 -1 -1 -2 -3 -2 -2 -2 -2 -2 -1 -2 -1 0 -1 0 1 0 1 1 1 1 2 2 2 3 3 3 4 3 2 1 -1 -3 -4 -3 -4 -5 -4 -3 -3 -2 -2 -1 -1 -2 -2 -2 -1 -2 -1 0 0 2 3 3 3 3 3 3 2 1 1 1 1 0 1 1 1 2 2 3 3 2 1 1 1 0 0 -1 -1 -1 -2 -1 0 0 0 1 0 0 -1 -2 -3 -4 -3 -4 -2 -1 0 0 1 1 2 1 2 1 1 2 1 1 3 3 2 2 1 0 -1 -2 -3 -3 -3 -1 -1 0 0 1 1 1 2 2 2 2 1 1 1 1 0 0 1 1 1 1 1 0 0 0 -1 -1 -2 -2 -2 -2 -2 -1 0 1 1 2 2 3 3 3 4 3 4 5 5 6 6 5 5 4 3 2 1 0 -1 -2 -3 -3 -3 -4 -4 -4 -3 -3 -3 -4 -3 -4 -3 -2 -2 -1 -1 -2 -1 0 0 -1 0 0 0 0 0 -1 -2 -3 -4 -5 -6 -6 -6 -5 -5 -4 -3 -2 -2 -1 -1 -1 -1 -1 0 -1 0 -1 -2 -2 -3 -3 -5 -5 -4 -3 0 3 8 11 15 15 14 10 3 -9 -23 0 0 0 0 0 0
1 1 2 3 2 2 1 1 1 0 0 -1 0 0 0 0 0 0 -1 -1 -1 -1 -1 -1 -1 -1 -2 -2 -2 -3 -3 -3 -2 -2 -1 0 1 2 2 1 0 0 0 0 1 0 2 2 3 2 2 2 0 0 0 -1 -2 -1 -1 0 1 0 0 0 0 -1 -1 -2 -1 -2 -2 -1 -1 -1 -2 -2 -3 -3 -4 -4 -3 -3 -3 -3 -3 -3 -3 -4 -4 -4 -5 -4 -2 -1 -1 0 -1 -1 -2 -2 -2 -2 -2 -2 -1 0 1 1 1 0 -1 -2 -2 -3 -2 -2 -1 1 1 1 1 0 -1 -3 -3 -3 -4 -3 -2 -1 0 0 -1 0 -1 -2 -3 -3 -3 -3 -1 0 1 2 1 0 0 -2 -2 -3 -4 -3 -2 -1 -1 0 -1 -1 -3 -5 -6 -6 -6 -6 -4 -3 -2 -2 -1 -1 -3 -4 -4 -4 -3 -1 0 2 4 4 4 2 1 -1 -2 -2 -1 1 2 4 5 4 2 0 -1 -3 -4 -4 -3 -2 0 1 2 2 -1 -3 -5 -5 -6 -5 -3 0 2 3 4 3 2 -1 -2 -2 -2 0 2 3 5 5 2 -1 -4 -7 -9 -9 -7 -3 2 6 10 11 8 3 -5 -15 -22 -27 -29 -24 -14 5 30 60 0 0 0 0 0 0
-1 -1 -1 -2 -2 -2 -3 -2 -3 -3 -2 -2 -2 -2 -1 -1 -1 0 0 1 0 1 0 1 1 2 2 2 2 2 1 2 2 2 2 2 2 2 1 2 1 1 1 0 1 0 -1 -1 -1 -1 -1 -2 -3 -2 -3 -3 -3 -3 -2 -2 -2 -1 -1 0 0 1 0 1 1 1 2 1 1 1 0 1 0 0 0 0 -1 -1 -1 -1 -2 -2 -2 -3 -3 -3 -3 -3 -4 -3 -4 -4 -4 -5 -5 -5 -5 -4 -5 -4 -4 -3 -1 0 0 1 2 3 4 4 4 3 4 3 3 3 3 2 2 3 3 3 3 3 3 3 2 2 3 2 2 1 1 0 0 -1 -2 -2 -1 -2 -2 -3 -3 -3 -3 -3 -4 -3 -3 -3 -2 -3 -2 -1 -2 -1 0 0 1 1 2 2 3 3 3 3 4 3 3 3 3 3 2 2 2 1 1 1 0 0 -1 -2 -1 -1 -2 -2 -2 -2 -2 -1 -2 -2 0 0 1 1 1 1 1 1 1 2 2 2 1 2 2 3 2 2 2 2 1 2 0 1 0 -1 0 -2 -2 -2 -2 -2 -1 -2 -2 -1 -1 0 0 0 0 0 0 -1 -1 -1 0 0 1 1 1 3 4 5 0 0 0 0 0 0
4 5 5 4 4 3 4 3 2 1 1 0 -1 0 -2 -2 -3 -3 -3 -4 -3 -4 -4 -3 -3 -3 -3 -2 -2 -2 -1 -1 -1 -1 -1 -2 -2 -2 -1 -2 -2 -2 -2 -2 -1 -1 -1 -1 -1 -1 0 1 0 1 1 2 2 2 2 2 3 3 3 3 2 3 2 2 2 1 1 1 1 0 1 1 1 0 0 1 1 0 0 1 0 1 0 0 1 0 1 0 0 0 0 -1 -1 -3 -3 -4 -4 -4 -4 -6 -6 -6 -6 -5 -4 -4 -4 -3 -2 -1 0 1 2 2 3 3 4 3 4 4 4 4 5 4 4 4 3 3 2 2 2 1 0 1 0 0 0 0 0 -1 0 0 -1 -1 -1 -1 -2 -2 -2 -2 -3 -4 -3 -3 -3 -3 -3 -3 -2 -2 -2 -2 -1 -1 0 0 1 2 2 2 3 2 2 3 2 3 2 2 3 1 2 0 0 0 0 -1 -1 -1 -1 -2 -1 -1 -1 -1 -2 -2 -3 -4 -4 -4 -4 -4 -5 -4 -4 -3 -3 -3 -3 -1 -1 -1 0 1 1 2 3 3 4 4 4 4 4 4 4 4 3 4 3 1 1 0 -1 0 -1 0 0 1 2 2 3 3 2 1 1 -1 0 0 0 0 0 0
5 4 4 3 2 1 1 0 0 0 1 0 0 0 0 -1 -2 -3 -4 -4 -3 -3 -3 -2 -3 -3 -3 -4 -4 -5 -5 -5 -5 -5 -4 -4 -2 -1 -2 -3 -3 -4 -4 -4 -5 -4 -4 -4 -3 -3 -3 -1 -1 -1 0 -1 0 -1 -1 -1 -1 -1 0 -1 -1 0 -1 0 0 0 0 0 0 0 0 1 2 1 1 2 2 2 1 1 0 1 1 0 1 1 1 1 2 2 2 2 2 2 2 3 3 2 3 2 3 1 1 0 1 0 -1 0 -1 0 -1 -1 0 0 0 -1 0 -1 -1 -1 -1 0 0 0 1 1 0 0 -1 -2 -3 -3 -3 -3 -2 -2 -2 -1 -1 -2 -4 -3 -3 -3 -2 -1 -1 0 0 -1 -2 -2 -3 -2 -1 0 2 3 5 6 6 5 5 4 2 3 2 4 4 6 6 7 6 4 3 1 -1 -2 -3 -2 -1 0 -1 -2 -3 -5 -6 -7 -8 -7 -6 -5 -3 -3 -3 -4 -4 -5 -5 -5 -3 -1 0 3 3 3 3 2 2 0 0 0 1 0 1 0 -1 -2 -3 -4 -4 -3 -2 -1 1 2 2 1 1 1 1 1 2 3 4 3 0 -5 -10 -16 -18 -18 -11 3 22 45 0 0 0 0 0 0
-6 -6 -7 -6 -6 -6 -6 -5 -5 -4 -5 -5 -4 -4 -4 -4 -3 -2 -2 -2 -1 0 1 0 1 1 1 1 2 1 1 2 1 0 0 0 0 0 0 0 1 2 2 4 3 4 3 4 3 3 2 1 -1 -1 -2 -3 -4 -5 -4 -5 -5 -4 -3 -3 -3 -1 0 -1 -1 0 0 0 0 0 -1 0 -1 -1 -1 -1 -1 -2 -3 -2 -3 -3 -4 -3 -3 -2 -2 -2 -2 -2 -2 -2 -1 -1 0 0 0 0 0 -1 -1 -1 -2 -1 -2 -1 0 0 0 1 1 2 2 2 2 2 2 2 2 2 2 1 2 1 1 0 0 -1 0 -1 0 0 0 1 1 1 2 1 1 1 1 2 1 2 2 2 2 1 1 1 0 0 -1 -1 -1 0 0 1 0 1 1 1 2 2 1 2 1 2 1 1 1 1 0 -1 -1 -1 -2 -3 -4 -4 -4 -5 -5 -6 -6 -6 -6 -6 -6 -5 -5 -5 -5 -5 -4 -4 -5 -4 -4 -3 -3 -3 -2 -1 -1 -1 -1 -1 -1 -1 -2 -3 -2 -2 -2 0 0 1 3 4 5 5 6 6 7 6 7 7 7 7 6 6 5 6 6 7 8 8 10 11 10 10 8 5 0 -5 0 0 0 0 0 0
1 1 1 1 1 1 1 0 -1 -1 -1 -2 -3 -3 -4 -4 -4 -4 -3 -2 -1 -1 0 1 1 2 2 2 2 2 2 1 1 1 0 -1 -1 -1 -1 -2 -3 -2 -2 -3 -3 -2 -3 -2 -3 -3 -2 -1 -2 -1 0 1 1 2 3 3 4 3 3 3 2 2 1 1 0 0 0 0 0 -1 -1 -1 -1 -1 0 -1 -1 1 0 0 0 1 0 -1 -1 -1 -2 -2 -3 -3 -3 -2 -2 -1 -1 0 0 1 2 4 5 5 5 6 6 6 6 5 4 4 4 4 4 3 3 3 3 3 3 4 4 4 4 4 3 3 2 0 -1 -2 -2 -3 -3 -3 -5 -4 -5 -6 -6 -6 -6 -6 -5 -6 -6 -5 -6 -7 -6 -6 -7 -7 -7 -6 -5 -4 -4 -3 -4 -3 -4 -4 -5 -5 -5 -5 -4 -4 -4 -5 -4 -4 -4 -5 -5 -5 -4 -4 -3 -2 -2 -3 -4 -5 -6 -6 -6 -4 -3 -2 0 1 2 2 1 0 -1 -2 -3 -4 -4 -4 -4 -4 -2 -1 -1 2 3 4 5 6 6 4 2 0 -2 -3 -4 -3 -2 -2 0 0 2 2 3 2 3 4 4 5 7 8 9 7 3 0 -4 -8 -11 -11 -7 2 15 30 0 0 0 0 0 0
0 0 0 0 -1 0 -1 0 -1 0 0 -1 -1 -1 -2 -2 -2 -2 -2 -2 -1 -1 -1 -1 -1 -1 -1 -1 -1 0 0 0 1 0 0 0 0 0 1 0 0 0 0 0 -1 -1 0 -1 -1 -1 0 0 0 1 1 0 2 1 1 1 2 2 2 3 3 3 3 2 2 2 1 0 0 1 0 0 0 0 -1 0 -1 1 0 0 0 0 0 -1 -1 -1 -2 -2 -2 -2 -2 -1 -1 -1 -1 0 0 1 1 0 1 1 1 2 1 2 1 1 1 1 0 0 0 -1 0 -1 -1 -1 -1 0 0 0 -1 -1 -2 -2 -3 -3 -4 -4 -5 -4 -4 -4 -3 -3 -2 -1 0 1 2 3 3 3 4 4 4 4 4 4 4 4 4 4 4 3 3 3 3 3 2 2 2 2 2 2 2 2 2 3 3 2 2 1 0 0 -2 -3 -3 -3 -4 -4 -5 -5 -6 -6 -4 -5 -4 -3 -2 0 0 1 3 3 5 5 5 5 4 3 2 0 -1 -2 -4 -4 -4 -4 -3 -2 0 0 2 3 4 5 5 5 4 3 2 2 0 -2 -3 -3 -4 -5 -5 -5 -6 -7 -7 -6 -6 -5 -4 -3 -1 1 4 8 11 14 0 0 0 0 0 0
0 0 0 1 1 1 2 2 2 2 3 2 2 2 2 1 2 2 2 2 2 3 2 2 2 1 0 -1 -1 -2 -4 -3 -5 -5 -5 -5 -5 -4 -4 -4 -4 -4 -2 -2 -2 -2 -1 0 0 1 1 1 0 0 -1 -1 -1 -1 -1 0 1 2 3 5 5 5 6 6 7 6 5 5 5 5 4 3 4 3 2 2 0 -1 -1 -2 -3 -3 -3 -4 -5 -4 -5 -6 -7 -7 -8 -7 -8 -8 -8 -8 -7 -7 -7 -6 -6 -5 -5 -4 -5 -4 -4 -3 -2 -2 -1 -1 0 1 3 4 5 5 6 7 8 7 8 7 7 6 5 4 4 4 4 3 2 3 2 2 1 0 0 0 -1 -2 -1 -1 -2 -2 -2 -2 -3 -4 -4 -5 -5 -6 -6 -6 -5 -4 -3 -2 -1 0 0 0 1 2 2 1 1 2 1 0 1 0 0 0 0 -1 -1 -2 -2 -2 -2 -2 -2 -2 -1 0 0 0 0 0 0 -1 0 0 0 0 1 1 1 1 1 1 0 0 0 2 2 3 4 4 4 3 2 2 1 0 1 1 2 3 3 4 3 2 1 -1 -3 -3 -3 -3 -1 0 2 3 4 3 1 0 -2 -3 -3 -2 0 2 0 0 0 0 0 0
0 -1 -1 -2 -2 -3 -2 -2 -1 -1 -1 -1 -1 -2 -1 -1 0 1 2 2 3 4 4 4 3 4 3 3 3 2 2 2 1 1 0 -1 -2 -3 -3 -4 -4 -4 -3 -4 -4 -3 -4 -3 -3 -4 -3 -3 -3 -2 -1 -1 0 0 0 0 0 1 1 0 1 0 0 0 0 0 0 0 0 0 0 1 1 1 1 0 -1 0 0 -1 0 0 1 0 1 1 1 2 2 1 2 1 2 2 3 3 2 1 1 0 -2 -3 -4 -4 -4 -5 -3 -4 -3 -2 -2 -4 -4 -4 -4 -5 -5 -5 -4 -2 -1 -1 1 1 1 2 2 2 3 3 4 4 4 3 3 2 2 0 -1 -2 -2 -2 -2 -1 -1 -1 -1 -2 -2 -2 -2 -2 -1 -1 1 3 3 4 3 2 2 1 1 2 2 3 4 4 5 4 3 1 -1 -3 -3 -3 -4 -2 -2 -2 -3 -4 -6 -7 -10 -11 -13 -12 -12 -10 -8 -7 -6 -7 -7 -7 -8 -7 -7 -6 -4 -2 -1 0 0 0 -1 -1 -2 -2 -1 -1 1 2 2 2 2 2 2 1 2 3 2 3 1 1 -1 -1 -3 -3 -2 0 2 3 5 5 3 0 -3 -5 -6 -2 5 16 30 44 0 0 0 0 0 0
-1 -1 0 0 0 1 1 0 0 -2 -2 -4 -4 -3 -4 -3 -2 0 0 1 1 2 0 -1 -2 -3 -2 -2 -2 -1 1 0 2 1 1 1 1 0 0 1 1 0 0 0 0 -1 -1 -1 -1 -1 -1 -1 0 1 1 0 1 2 1 1 2 2 2 2 1 2 1 0 -1 -1 -2 -3 -2 -1 0 1 1 2 3 3 2 2 2 1 1 2 3 3 3 4 3 3 3 1 0 -1 -1 -1 -1 -1 1 1 2 2 2 3 3 2 2 2 2 2 0 -1 -2 -3 -5 -5 -6 -6 -6 -6 -4 -4 -2 -2 0 0 1 1 0 0 -1 -1 -1 -2 -2 -3 -4 -5 -5 -6 -6 -6 -5 -5 -4 -2 -1 0 1 2 2 2 2 1 2 2 2 2 2 2 2 2 1 0 0 -1 0 -1 0 0 0 0 -1 -3 -3 -3 -4 -4 -4 -3 -2 -2 -1 0 0 1 1 1 2 1 2 3 4 5 6 6 6 5 4 2 1 0 -1 -1 -1 -1 -1 1 2 4 4 5 6 5 4 3 3 2 0 -1 0 -1 0 1 2 3 4 4 3 3 1 -1 -3 -6 -7 -8 -7 -5 -1 3 6 7 8 4 -1 -11 -22 -36 0 0 0 0 0 0
-3 -3 -2 -2 -2 -2 -1 0 0 0 0 0 1 1 1 1 2 1 2 1 2 2 1 1 1 1 1 1 2 2 1 1 0 0 -1 -1 -2 -3 -3 -3 -5 -5 -5 -6 -5 -5 -6 -5 -5 -4 -3 -3 -2 -1 0 0 2 2 3 3 3 3 3 3 3 3 3 3 3 2 2 2 1 1 1 0 -1 0 -1 -1 -2 -2 -2 -2 -2 -3 -2 -2 -2 -1 -1 -1 -1 -1 -1 -1 0 0 0 0 1 0 1 1 1 1 1 1 1 1 1 0 0 -1 -1 -1 -1 -1 -1 0 -1 -1 0 1 1 0 2 1 1 2 3 3 2 3 2 3 2 2 2 1 1 1 1 1 0 0 0 0 -1 -1 0 0 0 0 0 0 0 1 0 1 0 0 -1 -1 -1 -1 -1 -1 -1 -1 -1 0 -1 0 1 1 0 0 1 0 0 0 0 0 -2 -2 -2 -3 -4 -4 -3 -4 -4 -4 -4 -3 -3 -3 -4 -3 -2 -2 -2 -1 -1 0 1 2 2 2 4 4 5 5 6 5 5 4 3 2 1 1 0 0 0 0 1 0 -1 0 -1 -2 -3 -4 -4 -5 -5 -5 -5 -4 -4 -3 -2 0 1 3 6 9 12 16 0 0 0 0 0 0
-5 -5 -5 -5 -6 -6 -5 -5 -5 -5 -4 -3 -3 -3 -2 -1 -1 -1 0 1 1 1 2 1 0 1 1 -1 0 -1 -1 -1 -2 -2 -3 -3 -3 -3 -3 -3 -2 -2 -2 -2 -1 -1 -1 -1 -1 0 -1 1 1 0 0 1 1 0 1 0 1 0 0 0 1 1 1 1 1 0 0 -1 -1 -2 -1 -3 -3 -2 -2 -3 -3 -3 -3 -4 -4 -3 -3 -4 -4 -3 -3 -3 -2 -2 -1 -1 -1 0 0 0 0 0 0 1 1 0 1 1 1 2 3 4 4 5 6 6 6 6 5 5 5 4 3 2 2 0 0 -2 -3 -3 -5 -5 -5 -5 -5 -5 -4 -3 -3 -3 -3 -3 -3 -4 -4 -4 -5 -4 -4 -3 -3 -2 -1 0 0 1 2 3 4 5 6 7 7 7 7 7 6 6 5 5 4 4 3 3 3 3 3 3 3 3 3 3 3 4 4 3 2 1 0 -1 -3 -4 -5 -6 -6 -6 -6 -7 -7 -7 -8 -8 -8 -9 -8 -8 -6 -5 -4 -3 -2 -3 -2 -2 -1 -2 -1 -1 0 1 2 3 4 5 5 5 5 4 3 2 1 1 0 0 0 1 3 4 5 6 5 6 5 3 2 -1 -3 -6 -8 -9 0 0 0 0 0 0
-3 -4 -4 -5 -5 -4 -2 -3 -2 -3 -3 -3 -3 -1 -1 0 1 1 2 1 0 -1 -2 -3 -5 -4 -4 -6 -6 -7 -8 -9 -10 -11 -11 -12 -13 -12 -10 -9 -7 -5 -4 -4 -4 -5 -6 -7 -8 -8 -6 -5 -4 -2 -2 -1 -1 -1 -2 -3 -3 -2 -2 0 1 3 3 2 1 1 0 -1 -1 -2 -2 -1 0 1 1 1 0 0 -1 0 0 1 3 4 4 4 3 3 1 0 0 -1 -1 -1 0 0 0 0 -1 -2 -3 -4 -5 -4 -5 -4 -3 -2 -2 -3 -3 -6 -7 -8 -9 -9 -9 -8 -6 -5 -4 -2 -3 -3 -2 -2 -1 -1 0 2 4 5 6 7 6 6 5 4 4 3 3 2 3 3 3 2 1 0 -1 -2 -2 -2 -2 0 0 0 0 -1 -1 -3 -5 -5 -6 -6 -5 -3 -3 -2 -2 -3 -4 -5 -6 -7 -7 -6 -5 -2 1 3 3 4 3 2 0 -1 -1 0 1 3 5 6 6 5 3 1 -1 -2 -3 -2 0 2 4 6 7 7 5 4 2 -1 -1 -1 0 2 4 5 4 3 1 -1 -4 -6 -8 -7 -6 -4 -1 2 4 5 5 5 3 3 2 2 4 6 8 9 8 5 -1 -10 -21 -33 0 0 0 0 0 0
2 1 1 0 0 -1 -1 0 -1 -1 -2 -2 -2 -2 -2 -1 -1 -1 -1 -2 -2 -1 -2 -2 -1 0 0 1 2 2 2 2 2 1 2 2 2 1 1 1 1 1 1 1 1 1 0 1 2 2 2 2 3 3 2 1 0 -1 -1 -2 -3 -3 -4 -5 -6 -5 -5 -5 -4 -4 -3 -1 0 2 2 4 5 5 6 6 7 6 5 4 2 2 1 -2 -2 -3 -4 -4 -4 -3 -2 -1 -1 -1 -1 -2 -1 -1 -2 -3 -2 -2 -1 -1 0 0 1 1 1 1 2 1 1 1 1 0 0 0 0 -1 -1 -2 -2 -3 -3 -3 -2 -3 -3 -2 -2 -2 -1 -2 -1 0 1 1 2 2 3 3 2 1 1 2 1 1 1 2 2 2 2 2 1 1 1 1 2 1 1 2 1 2 1 0 -1 -2 -3 -4 -4 -4 -5 -3 -3 -2 -2 -1 -2 -1 -1 0 1 1 1 1 1 0 1 1 0 0 0 0 0 0 0 0 -1 -1 -3 -2 -2 -2 -2 -1 0 2 3 3 4 3 2 1 0 -2 -2 -3 -2 -1 0 0 1 1 1 0 0 -2 -2 -1 0 1 2 1 1 -2 -4 -7 -9 -11 -10 -7 0 10 24 41 0 0 0 0 0 0
1 0 0 0 -1 -1 0 -1 -1 0 0 1 1 0 0 0 0 -1 -1 -2 -2 -1 -1 -1 -1 -1 -1 0 0 0 -1 -1 -1 0 0 1 0 0 -1 -1 -2 -3 -4 -5 -6 -7 -8 -8 -7 -7 -6 -5 -4 -4 -2 -1 -1 0 1 2 2 1 2 2 0 0 -1 -1 -2 -3 -2 -3 -2 -2 -2 -1 0 1 2 2 2 3 3 3 2 2 1 0 -1 -2 -3 -3 -4 -3 -2 -2 0 0 1 3 2 4 4 4 5 5 5 6 6 5 5 5 4 3 2 2 0 -1 -2 -2 -2 -2 -2 -2 -3 -3 -1 -1 -1 0 -1 0 0 -1 -1 0 -1 -1 -2 -1 -1 -1 -1 0 0 0 0 0 0 -1 -1 -2 -3 -2 -3 -4 -4 -3 -4 -3 -4 -4 -4 -4 -4 -5 -5 -5 -5 -5 -4 -5 -5 -4 -4 -5 -5 -5 -5 -4 -4 -3 -3 -2 -2 -2 -2 -2 -2 -2 -1 -1 0 1 1 1 1 0 0 -1 -1 -1 -1 -1 -2 -1 -2 -2 -1 -2 -1 0 2 2 4 4 5 5 4 3 2 1 0 0 0 0 0 0 0 0 -1 -1 -1 -2 -1 1 1 2 3 3 1 -1 -4 -5 -5 -4 0 7 16 26 0 0 0 0 0 0
3 3 3 2 2 1 0 0 0 0 -1 -1 0 0 0 0 0 0 2 2 2 3 3 3 2 1 0 -1 -1 -1 -1 -2 -3 -3 -4 -4 -5 -4 -4 -4 -5 -3 -3 -3 -3 -3 -2 -2 -3 -3 -4 -4 -4 -5 -4 -4 -3 -2 -2 -1 -1 0 0 1 1 1 1 0 0 0 -1 -1 0 0 0 1 2 1 1 1 2 1 1 1 1 1 1 1 2 2 3 3 2 2 2 1 1 1 1 0 0 0 -1 -1 -2 -1 -2 -2 -1 0 0 1 1 1 3 3 3 2 2 2 2 2 2 2 2 2 3 2 3 4 4 5 4 4 3 4 3 3 1 1 -1 -1 -1 -3 -3 -3 -3 -3 -3 -2 -3 -3 -4 -4 -4 -5 -4 -4 -4 -4 -3 -3 -4 -4 -4 -3 -4 -4 -3 -3 -3 -2 -1 -1 -1 0 -1 0 0 0 0 0 1 0 0 0 -2 -4 -5 -6 -6 -7 -6 -5 -4 -4 -3 -3 -3 -3 -3 -5 -4 -4 -4 -4 -3 -3 -3 -3 -4 -4 -5 -5 -5 -4 -3 -2 0 1 1 1 3 2 2 2 3 3 3 4 3 2 2 0 0 -1 0 1 3 5 7 9 10 10 11 10 10 8 6 2 0 0 0 0 0 0
-7 -8 -8 -8 -8 -7 -6 -5 -4 -4 -4 -4 -3 -2 -2 -1 -1 0 1 0 0 -1 -1 0 0 0 0 -1 0 0 0 0 -1 -1 -1 -2 -2 -2 -3 -4 -4 -4 -5 -6 -6 -6 -6 -5 -6 -5 -5 -5 -5 -5 -5 -4 -3 -3 -3 -2 -3 -3 -4 -4 -4 -5 -5 -4 -4 -4 -4 -4 -3 -3 -2 -2 -1 -1 -1 -1 0 -1 0 -1 0 0 0 1 1 2 2 2 3 3 4 3 3 4 4 3 4 3 2 2 1 0 -1 -2 -3 -3 -4 -4 -5 -5 -5 -5 -6 -5 -5 -5 -4 -4 -4 -4 -4 -4 -3 -3 -2 -2 -1 -1 0 0 0 0 0 -1 -1 0 1 2 3 2 3 4 3 2 2 0 0 -1 -1 0 0 0 0 1 0 -1 -1 -1 -2 -3 -3 -2 -2 -2 -2 -2 -1 0 0 0 0 0 0 1 1 1 0 0 0 0 0 0 1 2 2 1 2 2 1 0 -1 -3 -3 -4 -3 -4 -3 -3 -3 -4 -4 -5 -5 -6 -5 -4 -2 1 2 4 6 8 7 6 5 3 2 2 2 2 4 4 5 6 6 5 4 3 1 1 0 0 0 0 -2 -4 -6 -9 -12 -13 -12 -8 0 14 29 47 0 0 0 0 0 0
-2 1 2 3 3 3 2 3 2 2 3 4 5 6 6 6 6 4 3 3 2 2 1 1 2 2 2 1 -1 -2 -4 -6 -6 -7 -6 -6 -6 -5 -4 -5 -5 -6 -7 -8 -8 -7 -6 -5 -3 -1 0 0 0 1 -1 0 -1 0 1 2 3 4 5 4 4 4 3 3 3 3 4 6 6 7 8 7 7 5 5 3 4 3 4 5 5 5 3 2 -1 -3 -4 -6 -5 -6 -5 -4 -4 -4 -4 -6 -7 -9 -9 -9 -8 -5 -3 -1 1 2 2 1 0 -1 -3 -2 -2 -1 0 1 2 2 2 1 -1 -2 -4 -3 -2 -1 1 3 4 4 4 3 1 0 -1 -1 0 1 3 5 7 7 7 5 3 2 1 1 1 3 4 5 6 6 6 4 1 -1 -4 -5 -5 -5 -3 -1 0 0 -2 -5 -7 -10 -11 -12 -11 -8 -5 -1 1 3 2 1 -2 -4 -5 -6 -6 -4 -3 -1 1 2 2 1 -2 -3 -6 -7 -7 -6 -4 0 3 6 8 7 5 2 -2 -5 -6 -6 -4 0 4 8 11 12 10 7 3 -1 -3 -3 1 7 14 20 24 23 18 7 -5 -15 -21 -20 -15 -6 2 4 -4 -18 -35 -45 -43 -21 17 63 0 0 0 0 0 0
1 2 1 1 1 1 2 2 1 1 1 2 2 2 1 1 2 1 1 0 0 0 -1 -1 -1 -2 -2 -2 -3 -2 -3 -3 -4 -4 -3 -4 -4 -4 -4 -5 -4 -4 -4 -3 -3 -3 -2 -2 -1 -1 0 1 0 1 1 2 2 2 3 3 3 3 4 3 4 3 2 2 2 0 0 -1 -2 -2 -3 -3 -4 -3 -4 -3 -4 -4 -3 -2 -1 -2 -2 -2 0 0 0 0 0 -1 0 0 -1 0 0 0 0 0 0 1 1 1 1 1 1 1 0 1 1 1 1 1 2 1 2 2 2 2 2 3 2 3 3 3 3 3 3 3 3 4 4 3 3 3 3 3 3 3 4 3 3 3 2 2 2 1 0 0 -1 -3 -3 -4 -5 -6 -7 -7 -8 -10 -9 -10 -10 -11 -11 -10 -9 -9 -8 -6 -6 -5 -4 -4 -4 -3 -3 -2 -1 1 1 3 3 4 4 5 5 6 5 5 4 3 2 2 0 -1 -3 -5 -6 -7 -7 -7 -7 -7 -6 -6 -4 -3 -2 -1 0 1 2 2 2 3 3 4 4 3 3 3 3 4 4 3 3 3 3 3 2 3 3 2 1 2 1 2 3 4 4 5 5 4 2 1 -3 -6 0 0 0 0 0 0
5 4 3 3 3 3 2 2 2 2 2 2 2 2 2 3 2 2 2 1 2 1 1 0 -1 -1 -1 -2 -2 -3 -3 -4 -4 -3 -3 -3 -2 -1 -1 -1 0 0 0 1 0 1 0 1 0 1 1 2 1 2 2 2 2 2 1 1 1 1 1 0 0 0 0 0 0 0 0 1 1 1 0 0 -1 -1 -1 -2 -3 -3 -4 -5 -5 -5 -4 -4 -4 -4 -4 -3 -2 -2 -1 -2 -2 -2 -3 -3 -3 -4 -5 -4 -5 -4 -3 -2 -1 1 1 3 3 4 4 3 3 3 2 2 2 2 2 2 2 3 3 3 3 3 3 2 1 0 0 -1 -1 -2 -2 -3 -3 -3 -2 -1 -1 0 1 1 1 0 0 1 0 0 -1 -2 -3 -3 -4 -3 -3 -3 -3 -3 -2 -3 -4 -4 -5 -6 -5 -5 -4 -4 -4 -3 -2 0 1 1 1 2 1 2 2 1 1 1 0 1 1 1 2 2 3 3 4 3 3 3 3 1 1 1 1 0 1 2 3 3 4 5 5 6 6 7 7 6 4 4 3 2 1 -1 -1 -2 -4 -4 -3 -4 -3 -2 0 1 3 5 5 5 4 1 -1 -4 -7 -10 -12 -13 -12 -7 -2 6 0 0 0 0 0 0
0 1 1 1 0 -1 -1 -1 -2 -3 -3 -4 -3 -2 -2 -1 -2 0 0 2 2 3 2 2 3 2 2 1 0 -1 -2 -3 -4 -4 -5 -5 -4 -4 -5 -4 -4 -3 -2 -1 0 1 1 2 3 3 3 2 3 2 2 1 0 0 -1 0 0 0 0 0 1 1 1 2 2 3 3 3 4 3 3 3 3 3 3 3 2 2 1 1 1 0 -1 0 0 0 0 0 -1 -1 -2 -2 -2 -3 -3 -4 -3 -4 -5 -5 -4 -5 -5 -6 -7 -6 -7 -6 -6 -6 -6 -6 -5 -4 -4 -3 -1 0 1 2 2 4 4 5 6 6 6 6 6 6 6 5 6 6 5 5 4 5 5 5 5 4 4 4 2 1 0 0 -2 -2 -2 -3 -4 -4 -4 -4 -5 -4 -4 -5 -4 -4 -4 -3 -3 -3 -3 -3 -2 -2 -2 -1 1 1 1 2 2 3 3 4 4 4 4 5 4 5 4 5 5 4 4 5 5 4 4 4 3 4 2 2 1 1 -1 -1 -2 -2 -2 -3 -3 -3 -4 -3 -3 -3 -2 -1 0 0 0 1 0 0 -1 -1 -3 -3 -5 -7 -8 -8 -9 -10 -9 -8 -8 -5 -4 -1 1 3 4 5 7 8 9 8 0 0 0 0 0 0
1 1 2 1 2 2 2 2 2 2 2 1 1 1 1 1 1 1 0 -1 -1 -1 -2 -2 -2 -1 -1 0 1 2 1 1 2 1 1 0 -1 -1 -2 -3 -3 -3 -3 -4 -4 -4 -4 -3 -3 -3 -2 -1 -1 1 1 1 2 2 3 3 2 1 1 -1 -2 -2 -4 -3 -3 -2 -1 -1 0 1 2 1 2 1 1 0 -1 -1 -2 -2 -3 -3 -3 -3 -4 -4 -3 -4 -3 -3 -3 -2 -1 -1 0 1 1 2 2 0 0 -1 -2 -2 -3 -5 -5 -5 -5 -3 -3 -3 -2 -3 -2 -3 -4 -5 -5 -5 -5 -5 -4 -3 -2 -2 -1 0 0 0 -1 -1 0 -1 -1 -1 -1 0 0 0 -1 -1 -3 -3 -4 -4 -5 -5 -4 -4 -2 -1 0 1 1 3 3 3 3 2 2 2 0 1 0 0 -1 -1 -2 -1 -3 -2 -3 -3 -3 -3 -3 -2 -2 0 0 0 1 0 1 0 -2 -2 -2 -2 -3 -2 -2 -2 -2 -2 -1 -2 -2 -2 -2 -2 -1 -2 -2 -2 -2 -2 -1 -2 -2 -2 -2 -3 -2 -2 -2 -1 1 2 2 3 4 5 4 5 3 3 4 2 2 2 2 3 3 5 6 7 7 8 9 11 14 15 18 20 0 0 0 0 0 0
0 -1 -1 -1 0 -1 -1 -1 -2 -1 -2 -2 -2 -2 -3 -3 -4 -5 -5 -6 -6 -5 -6 -5 -4 -4 -4 -4 -4 -4 -4 -4 -4 -4 -4 -4 -4 -4 -4 -5 -5 -6 -7 -7 -8 -8 -7 -7 -5 -5 -3 -1 -1 0 0 1 1 2 2 2 2 2 1 1 0 -1 -1 -2 -2 -2 -2 -2 -1 -2 -1 -1 0 0 0 0 0 0 0 1 1 0 0 0 -1 0 -1 0 0 1 1 3 2 2 2 2 1 1 2 2 2 2 2 3 3 3 2 2 2 2 1 1 0 0 -1 -1 -1 -1 -3 -3 -3 -5 -4 -5 -6 -6 -5 -5 -5 -5 -4 -4 -3 -2 -2 -1 -2 -2 -3 -2 -2 -2 -1 -2 0 0 1 2 4 5 5 5 6 5 6 5 5 4 5 5 5 4 5 4 3 2 2 2 2 1 2 2 3 2 1 1 0 -1 -2 -2 -3 -5 -5 -6 -5 -6 -5 -4 -3 -2 0 1 1 2 1 2 2 2 2 2 2 2 2 3 3 3 3 3 4 5 5 5 5 3 2 1 0 -1 -2 -2 -1 -2 -2 -2 -3 -3 -3 -3 -3 -1 0 1 2 1 -2 -4 -8 -13 -18 -21 -23 -22 -16 -5 9 27 0 0 0 0 0 0
7 7 7 6 6 5 5 5 4 3 3 2 2 2 1 0 0 0 0 -1 -1 -1 -1 0 -1 -1 -2 -2 -4 -4 -5 -4 -5 -5 -5 -5 -4 -3 -3 -1 0 1 1 1 1 1 0 0 -1 -1 -2 -1 -2 -2 -2 -1 -1 0 0 0 1 1 1 1 1 0 0 -1 -1 -1 -2 -3 -2 -3 -2 -2 -1 0 1 1 2 2 3 2 3 2 2 3 2 2 1 1 1 0 -1 -1 -1 -1 -1 -1 0 0 0 1 1 1 2 2 2 2 2 2 2 2 2 1 2 1 1 0 0 1 0 1 1 1 0 1 1 1 1 1 0 0 0 0 -1 -2 -3 -4 -5 -6 -8 -9 -9 -9 -9 -9 -10 -8 -8 -8 -6 -5 -4 -2 -1 1 2 4 4 6 7 8 8 7 7 6 6 4 3 1 0 -1 -2 -2 -3 -2 -3 -2 -2 -2 -1 -1 0 -1 0 0 -1 -1 -1 -1 -1 -1 -2 -1 -1 0 0 0 1 0 1 1 1 0 0 0 -1 -1 -1 -1 -1 0 0 0 1 2 3 4 4 4 5 4 3 2 2 1 0 0 -1 -1 -1 -2 -3 -3 -3 -3 -2 -2 0 1 3 3 4 4 3 2 -1 -5 0 0 0 0 0 0
-1 0 1 1 1 1 1 2 1 0 0 0 0 0 0 0 0 0 0 0 0 0 0 0 -1 -1 0 -1 0 0 0 0 0 0 -2 -2 -2 -2 -2 -1 0 1 0 0 0 -1 -1 -2 -2 -2 -2 -1 -2 -1 0 1 1 1 1 1 1 1 0 0 1 1 2 1 2 1 0 0 -1 0 0 0 0 0 1 2 1 0 0 -1 -1 -1 0 0 1 1 2 2 1 0 0 0 -1 0 0 1 1 1 1 1 0 0 0 -2 -2 -2 -1 0 0 1 0 1 0 0 -1 -1 -2 -2 -1 -1 0 1 0 1 -1 -1 -1 -1 -1 0 0 0 0 0 -1 -1 -1 -2 -2 -2 -1 0 0 1 1 0 0 0 -2 -1 -2 -2 -2 -1 0 1 1 1 2 1 1 0 0 0 1 1 1 2 2 2 0 0 -2 -2 -3 -3 -3 -2 0 0 1 1 1 0 -1 -2 -2 -1 -1 1 2 2 4 3 2 1 0 0 -1 -1 1 2 3 4 5 5 3 2 1 1 1 1 1 2 2 1 -1 -3 -4 -3 -2 0 2 2 1 -1 -4 -5 -5 -2 3 9 12 9 4 -5 -11 -11 0 17 38 49 42 7 -55 -128 0 0 0 0 0 0
1 1 0 1 0 0 0 1 1 1 2 2 1 2 1 1 2 2 3 4 4 4 5 5 5 4 4 4 3 3 1 1 0 -1 -1 -2 -3 -3 -2 -3 -3 -3 -2 -1 -1 -2 -1 -1 -2 -2 -3 -3 -3 -4 -3 -3 -4 -3 -2 -3 -2 -2 -1 -1 0 0 1 0 1 0 0 -1 -1 -1 -2 -2 -2 -3 -2 -2 -2 -2 -1 -1 0 0 0 1 2 3 4 5 4 5 5 4 4 4 2 2 1 -1 -1 -2 -3 -3 -3 -3 -2 -2 -1 -1 0 1 0 0 1 1 0 1 0 1 0 1 1 2 2 2 2 3 2 2 2 2 1 1 1 0 0 0 0 -1 -1 -1 -1 -1 -1 -2 -1 -2 -2 -3 -3 -2 -2 -2 -2 0 0 1 1 2 2 2 3 3 3 3 3 2 3 2 2 1 1 0 0 0 0 0 1 1 0 1 0 0 -1 -1 -1 -2 -2 -3 -3 -3 -2 -3 -2 -2 -2 -2 -2 -2 -2 -2 -2 -3 -2 -3 -2 -3 -3 -4 -4 -4 -4 -4 -4 -4 -4 -4 -4 -3 -2 0 0 2 3 4 4 4 3 2 2 0 -1 -2 -2 -2 -1 0 2 4 5 6 6 6 5 3 0 -4 0 0 0 0 0 0
1 1 1 1 1 1 1 1 0 0 0 -1 -1 -2 -3 -3 -3 -3 -3 -3 -3 -2 -3 -2 -2 -2 -2 -1 0 0 2 2 3 4 4 5 5 6 5 5 5 5 4 4 3 3 3 1 1 1 0 -1 -1 -1 -1 -1 -1 0 -1 0 0 0 1 0 1 0 0 0 -1 -1 -1 -1 -2 0 -1 -1 0 0 0 0 -1 -1 -1 -2 -3 -4 -5 -4 -5 -6 -5 -4 -5 -5 -5 -4 -4 -3 -3 -2 -2 -1 -1 0 -1 0 -1 -1 -1 -2 -2 -1 -2 -2 -2 -2 -2 -2 -3 -3 -4 -5 -5 -5 -6 -7 -7 -6 -5 -4 -3 -1 0 2 2 4 5 5 7 7 7 6 6 6 6 6 6 4 3 3 2 1 0 -1 -2 -2 -2 -2 -2 -2 -2 -2 -2 -2 -3 -2 -3 -3 -3 -4 -3 -2 -3 -2 -2 -2 -2 -1 -1 -1 -1 -1 -1 -1 0 -1 0 0 0 0 -1 -1 -1 -1 -1 -1 -2 -2 -1 -2 -1 -1 0 1 1 0 0 -1 -2 -3 -2 -3 -3 -3 -2 -2 -1 0 0 1 1 2 2 3 2 2 2 2 2 3 2 2 1 1 0 -1 0 0 0 0 1 3 4 5 6 8 9 11 13 13 0 0 0 0 0 0
3 3 2 2 2 3 3 3 4 3 2 2 2 2 1 1 0 0 -2 -1 -3 -3 -3 -4 -4 -4 -4 -4 -3 -3 -3 -2 -1 -1 0 1 1 1 1 1 0 1 1 1 1 1 0 1 1 1 1 1 0 0 -1 -3 -3 -4 -5 -6 -7 -7 -7 -8 -8 -7 -7 -6 -5 -5 -4 -2 -1 1 1 3 4 4 4 5 5 5 4 4 3 2 2 2 1 2 1 1 2 2 3 2 2 2 1 1 1 0 0 -1 -1 -1 -1 -1 0 0 0 0 0 0 0 1 1 1 1 0 1 0 1 0 0 0 -1 -1 -3 -3 -5 -5 -5 -5 -6 -5 -6 -4 -4 -2 -2 0 1 2 4 4 5 5 6 5 4 3 2 1 0 -1 -3 -3 -4 -4 -5 -4 -4 -3 -4 -4 -3 -3 -1 -1 0 1 1 2 2 2 1 0 -1 -1 -2 -2 -3 -3 -3 -2 -2 -1 0 1 2 3 3 3 4 4 5 6 6 5 5 5 5 3 3 3 2 2 2 2 1 1 1 0 1 2 1 1 2 2 1 1 2 1 1 1 2 2 2 3 4 3 3 1 1 0 -2 -3 -4 -5 -4 -5 -5 -5 -5 -5 -3 -3 0 1 0 0 0 0 0 0
5 5 5 4 4 2 1 0 0 0 -1 0 -1 0 0 1 1 2 1 1 1 1 0 -1 -1 -2 -3 -4 -4 -3 -5 -5 -5 -6 -6 -7 -6 -7 -7 -6 -6 -5 -4 -4 -3 -2 -3 -3 -3 -3 -4 -5 -4 -5 -4 -3 -3 -2 -1 -1 0 0 0 0 1 3 3 3 4 4 5 4 2 2 0 -1 -2 -2 -3 -4 -4 -4 -4 -3 -3 -3 -2 -3 -3 -3 -4 -4 -5 -5 -5 -4 -3 -2 -2 -1 0 0 0 0 0 0 0 1 1 2 1 1 0 0 -1 -1 -3 -4 -3 -3 -3 -3 -4 -3 -2 -2 -2 -2 -2 -2 -1 -1 -1 -1 -1 -1 -1 -2 -2 -2 -3 -2 -2 -3 -3 -3 -2 -1 -1 1 1 2 2 2 2 3 2 2 0 0 -1 -1 -2 -2 -2 -1 -2 -1 -1 -1 0 0 0 1 1 1 1 1 0 0 -1 0 0 0 0 1 1 1 2 3 3 4 4 4 5 7 7 7 8 8 7 6 6 5 6 5 4 3 4 3 3 3 2 2 1 1 1 1 1 2 2 2 3 2 3 2 3 2 2 1 0 -1 -2 -2 -4 -4 -3 -1 0 3 5 6 7 7 5 1 -4 -8 -15 -22 0 0 0 0 0 0
1 0 0 0 0 0 0 -1 -2 -2 -3 -3 -3 -3 -3 -4 -3 -4 -3 -5 -5 -5 -5 -6 -6 -5 -6 -5 -5 -5 -5 -4 -4 -3 -3 -2 -1 -1 -1 0 -1 -1 -2 -3 -2 -3 -3 -2 -3 -2 -1 -1 -2 -1 0 1 1 1 2 3 3 2 1 2 0 0 -1 -1 -1 -2 0 -1 0 0 1 0 0 1 1 1 2 2 3 4 4 4 3 3 2 2 1 2 1 2 3 3 2 2 1 0 0 0 0 1 0 1 3 3 3 3 1 0 -2 -4 -4 -5 -5 -4 -3 -3 -3 -3 -3 -3 -3 -3 -2 -1 0 0 1 1 1 0 -2 -3 -4 -5 -4 -5 -4 -3 -3 -2 -2 -2 -1 -1 -2 -1 0 1 1 2 3 4 4 3 3 3 3 3 3 4 4 4 5 5 5 4 4 2 2 1 0 1 0 0 0 0 1 1 1 1 1 1 1 2 2 3 2 2 2 1 0 -1 -2 -3 -3 -2 -1 0 0 1 1 0 0 -2 -2 -2 -2 -1 0 -1 -1 -2 -3 -6 -7 -9 -10 -11 -10 -8 -7 -4 -3 -1 -1 -1 0 0 0 0 0 0 -2 -3 -6 -8 -9 -11 -12 -10 -7 -2 6 16 28 42 0 0 0 0 0 0
0 0 -1 -1 -1 0 0 1 1 1 1 1 0 1 0 -1 -1 -1 -1 -1 -1 -1 -1 -2 -2 -2 -2 -3 -3 -2 -2 -2 -2 -2 0 0 0 1 1 1 2 2 3 4 4 3 3 2 2 2 1 1 1 0 1 0 1 1 1 1 1 0 0 0 -1 0 0 -1 -1 -1 -1 -1 -1 -2 -2 -2 -2 -3 -3 -3 -3 -3 -3 -4 -4 -5 -5 -6 -5 -6 -6 -5 -5 -5 -5 -5 -5 -3 -4 -3 -2 -2 -2 -1 -1 0 0 0 0 0 1 1 1 1 2 2 2 2 2 2 2 2 2 3 2 2 2 1 1 1 1 0 0 1 1 2 1 2 2 3 2 2 2 1 1 1 0 1 1 2 2 1 1 1 1 1 1 1 0 0 1 1 1 1 1 0 0 -1 0 -1 -1 -1 0 0 1 0 0 0 -2 -2 -2 -3 -3 -4 -4 -3 -3 -4 -4 -3 -3 -1 -1 0 1 1 1 1 0 -1 -2 -3 -4 -3 -2 -2 -1 -1 0 0 1 0 -1 -1 -2 -2 -2 -1 -1 0 2 4 5 7 7 7 7 7 6 6 4 2 0 -3 -4 -5 -5 -4 -2 0 3 6 8 9 9 6 1 -5 -14 -23 0 0 0 0 0 0
3 2 2 1 1 -1 0 -1 0 -1 -1 -2 -1 -1 -1 -1 0 -1 1 0 1 0 0 0 0 0 0 -1 0 0 1 0 1 0 0 0 1 0 0 0 0 -1 0 0 -1 0 0 1 1 0 0 1 0 1 2 1 0 0 -1 0 0 0 0 -1 0 0 0 -1 0 -1 -1 -1 -1 -1 -1 -1 0 -1 -1 -2 -1 0 -1 0 1 1 0 0 -1 -1 -1 -2 -2 -2 -2 -1 -1 -1 0 0 0 0 1 1 0 1 1 1 2 2 2 2 1 1 1 1 0 0 1 1 0 1 1 1 0 0 0 0 -1 0 -1 -2 -1 -1 -2 -1 -1 -1 0 0 0 1 1 1 0 1 0 0 1 0 0 0 0 0 1 2 2 2 3 2 2 1 1 0 -1 0 -1 0 0 1 2 2 1 1 -1 -1 -1 -1 0 0 1 1 1 0 0 -2 -2 -2 -3 -2 -1 1 1 2 2 3 2 2 2 1 1 1 1 0 0 0 -2 -2 -1 -1 0 2 2 3 2 1 -1 -3 -4 -4 -3 -1 0 2 3 5 5 5 6 6 5 3 -2 -6 -11 -12 -9 0 11 21 27 25 8 -17 -46 -67 -64 -31 34 116 0 0 0 0 0 0
3 2 2 2 1 1 0 1 1 1 1 2 3 2 2 2 1 1 1 0 0 2 1 2 2 2 2 3 3 3 2 2 2 3 4 4 4 4 2 2 0 -1 -2 -3 -3 -4 -4 -4 -3 -3 -2 -1 -1 -2 -1 -2 -3 -3 -4 -3 -4 -5 -4 -4 -4 -4 -3 -4 -4 -5 -5 -6 -5 -5 -5 -5 -4 -3 -3 -2 -2 -2 -2 -3 -2 -1 -2 -1 -2 -1 -1 -1 -1 -2 -2 -3 -3 -3 -4 -4 -3 -4 -3 -3 -2 -3 -2 -2 -3 -3 -2 -2 -2 -2 -1 -1 -2 -1 -1 0 2 2 3 3 3 2 2 0 0 -1 -2 -3 -2 -2 -1 -1 0 1 1 1 0 -1 -2 -2 -2 -2 -2 -1 0 1 1 1 0 -1 -1 -3 -4 -5 -5 -5 -4 -3 -3 -2 -1 -2 -2 -4 -4 -5 -5 -6 -5 -6 -5 -5 -4 -3 -4 -6 -6 -8 -8 -9 -8 -7 -5 -2 1 3 5 6 6 5 3 3 1 1 -1 0 0 0 0 2 1 1 0 -1 0 -2 -2 -2 -1 -1 0 2 2 2 3 3 2 1 2 1 1 1 1 0 -1 -2 -3 -5 -5 -5 -4 -2 0 3 6 9 13 15 16 16 16 13 9 5 -2 -9 0 0 0 0 0 0
-5 -6 -6 -6 -6 -5 -6 -6 -6 -7 -7 -6 -6 -6 -5 -5 -4 -3 -3 -3 -2 -1 -1 0 -1 0 0 1 1 1 1 1 1 1 0 0 0 0 -1 -1 -1 -1 -1 -1 -1 -2 -2 -3 -3 -3 -4 -3 -3 -3 -3 -3 -2 -1 -1 -1 -1 -1 -1 -1 0 0 0 0 0 0 0 0 1 0 1 0 -1 0 -1 0 -1 -1 -1 -2 -1 -1 -1 -2 -2 -2 -2 -3 -3 -4 -4 -4 -4 -4 -3 -3 -3 -2 -1 0 0 2 2 2 3 3 4 4 3 4 4 3 4 4 3 2 2 2 1 1 1 2 2 3 2 2 2 3 2 2 1 1 2 2 2 2 3 3 3 3 3 2 3 2 3 3 2 2 3 3 1 0 0 -2 -2 -3 -3 -2 -1 -2 -2 -3 -3 -4 -5 -6 -6 -6 -6 -5 -5 -5 -6 -5 -6 -7 -7 -5 -5 -3 -2 -2 -2 -1 -2 -2 -2 -1 0 1 2 4 5 5 5 4 3 3 3 4 5 7 8 9 9 8 6 5 3 3 3 5 6 7 8 6 4 2 0 -1 -2 0 2 3 5 3 2 -1 -2 -3 -3 -3 -1 -1 -2 -3 -2 3 13 27 40 46 36 4 -46 -109 0 0 0 0 0 0
-2 -2 -2 -2 -3 -3 -4 -4 -4 -4 -4 -4 -3 -3 -3 -3 -2 -2 -2 -2 -2 -1 0 1 1 1 2 2 2 2 2 2 2 4 4 4 4 4 4 4 3 3 3 2 1 1 0 0 0 1 0 0 0 1 1 1 1 1 2 2 2 3 2 1 1 0 0 -1 -2 -3 -2 -2 -1 -1 -1 0 0 0 -2 -2 -2 -2 -2 -2 -1 -2 -2 -1 -1 -2 -3 -4 -4 -5 -6 -6 -7 -7 -5 -3 -3 0 1 3 4 4 4 4 3 1 1 0 -1 -1 -1 -1 0 0 1 2 3 3 3 2 2 1 1 1 1 1 2 1 2 2 1 1 0 0 -1 0 0 0 0 1 0 0 0 -1 -1 -1 -2 -1 -1 -1 0 0 2 2 2 2 2 1 0 0 -1 -2 -2 -2 -2 -1 0 0 1 2 1 2 1 1 0 0 -1 -1 -2 -2 -2 -1 0 0 1 2 1 1 1 0 -1 -2 -2 -2 -2 0 1 3 5 6 5 5 3 2 -1 -1 -1 -1 0 2 4 6 7 7 6 4 0 -3 -5 -6 -6 -4 -2 1 3 5 4 4 1 -2 -6 -8 -10 -12 -12 -11 -10 -8 -7 -5 -3 0 3 7 10 14 0 0 0 0 0 0
2 1 1 -1 -1 -2 -3 -3 -3 -3 -2 -1 -1 0 1 1 1 0 0 -2 -2 -3 -3 -3 -4 -3 -3 -2 -3 -2 -2 0 -1 1 1 1 3 2 2 2 1 1 1 -1 -2 -2 -3 -2 -2 -1 -1 0 1 1 3 2 3 3 2 1 1 0 0 -1 -1 -2 -2 -2 -2 -2 -2 -1 -2 -2 -1 -1 0 -1 0 1 1 1 1 1 2 1 1 0 0 0 0 0 0 2 1 2 2 2 3 2 3 3 2 2 2 3 2 1 2 2 2 1 1 1 0 -1 -1 -2 -2 -2 -3 -4 -3 -2 -3 -2 -2 -2 -2 -1 -1 -2 -3 -2 -3 -4 -5 -5 -5 -5 -5 -6 -5 -6 -5 -5 -4 -4 -3 -2 -2 0 1 1 2 1 1 0 -1 -2 -3 -4 -3 -4 -4 -3 -2 -1 0 1 3 5 6 7 7 8 6 6 5 3 1 0 -2 -2 -4 -4 -4 -3 -3 -2 0 2 3 4 4 4 4 2 1 -1 -3 -4 -6 -6 -6 -6 -5 -4 -3 -1 1 2 3 3 3 2 0 -2 -5 -6 -7 -7 -6 -5 -3 -1 1 3 4 5 4 4 4 3 3 4 4 4 3 2 -1 -3 -6 -9 -10 -6 -1 9 23 39 0 0 0 0 0 0
2 1 -1 -2 -3 -3 -3 -2 -1 0 1 2 2 1 0 -2 -3 -4 -3 -2 -1 0 2 2 1 1 -1 -3 -4 -6 -6 -6 -5 -4 -3 -2 -2 -2 -3 -4 -5 -6 -6 -5 -4 -3 -2 -1 -1 -1 -1 -2 -3 -4 -4 -5 -5 -5 -4 -5 -5 -5 -5 -5 -6 -7 -7 -6 -6 -6 -7 -7 -8 -10 -11 -11 -11 -12 -11 -11 -11 -11 -11 -10 -10 -10 -9 -9 -7 -6 -5 -3 -2 -1 -1 -1 -1 -2 -3 -4 -4 -4 -2 -2 -1 -1 -1 -1 -2 -2 -4 -4 -4 -4 -2 -1 1 2 2 2 1 0 -1 -2 -3 -2 -1 0 1 2 3 3 2 2 2 3 3 5 6 7 8 7 7 6 3 3 2 2 2 4 4 6 6 6 5 4 2 0 0 2 4 6 7 8 8 6 3 1 -3 -5 -6 -7 -4 -2 0 3 3 4 2 1 -2 -4 -4 -3 -1 1 4 6 5 5 2 -1 -4 -7 -9 -10 -8 -6 -4 -3 -1 -1 -2 -3 -6 -8 -9 -10 -11 -11 -10 -8 -5 -3 -1 -1 -1 -1 -5 -7 -10 -13 -14 -12 -9 -4 1 4 7 7 4 -1 -6 -11 -14 -12 -8 1 10 20 26 29 26 19 9 2 -4 -3 5 14 0 0 0 0 0 0
0 1 0 1 0 0 1 1 0 1 1 0 0 1 1 0 1 0 1 1 1 2 1 2 2 2 3 3 3 4 3 4 3 3 4 4 4 2 2 1 1 -1 -1 -2 -2 -3 -3 -4 -4 -4 -4 -4 -5 -4 -4 -3 -2 -2 -2 -2 -1 -2 -2 -3 -3 -4 -4 -5 -4 -4 -3 -3 -3 -3 -3 -3 -3 -4 -4 -4 -4 -4 -4 -4 -3 -3 -1 -2 -1 0 0 0 0 1 1 1 1 2 1 1 1 1 1 2 2 2 2 2 2 2 2 2 2 2 2 3 3 3 3 4 3 4 3 3 2 2 2 2 2 2 1 0 0 -1 -2 -2 -3 -3 -2 -2 -2 -1 -1 0 -1 0 -2 -2 -2 -3 -3 -3 -3 -4 -3 -4 -3 -3 -4 -5 -6 -7 -7 -7 -6 -5 -5 -4 -2 -2 -2 -1 -1 0 1 1 2 3 3 4 5 5 6 7 6 7 7 6 5 4 3 3 1 0 0 0 -1 -1 0 -1 0 0 0 0 0 0 0 1 1 1 1 2 2 3 3 2 2 3 3 2 4 4 4 4 3 3 2 1 0 1 0 0 0 0 0 -1 -2 -3 -4 -3 -4 -3 -3 -2 -1 -1 -1 -3 -6 -9 0 0 0 0 0 0
0 -1 -1 -1 -3 -4 -5 -4 -4 -3 -3 -2 -1 -1 -1 -1 -1 -2 -2 -2 -2 -1 -1 0 -1 -1 -1 -1 -3 -3 -3 -3 -3 -2 -3 -2 -2 -2 -2 -2 -2 -2 -2 -2 -2 -1 0 0 2 2 2 1 0 -1 -2 -2 -1 -1 0 0 2 1 2 2 2 2 0 0 0 -1 -1 0 0 0 1 0 0 1 0 0 1 0 0 -1 -1 -1 -2 -2 -2 -2 -1 -2 -1 -1 -1 -1 -1 -1 0 -1 -1 0 0 1 0 1 1 1 2 2 1 1 1 0 1 0 -1 -1 -1 -2 -2 -2 -2 -2 -1 -1 0 1 1 1 2 2 2 2 1 1 0 0 0 0 -1 -1 -1 -1 -1 -1 -1 0 1 0 1 0 0 0 1 1 1 1 2 1 2 1 1 1 0 0 0 -1 0 0 1 2 2 2 2 2 2 3 1 1 2 2 2 2 2 2 2 2 2 1 1 0 -1 -1 -1 -1 0 0 1 0 0 0 -1 -2 -3 -2 -3 -2 -2 -1 0 0 0 -1 -1 -1 -1 -1 -1 -1 0 1 0 0 0 0 1 2 4 6 7 5 3 -2 -8 -16 -21 -26 -25 -21 -11 1 15 27 35 36 27 10 -18 -52 0 0 0 0 0 0
2 2 2 1 2 1 2 2 2 2 3 3 4 3 3 2 2 2 0 1 0 -2 -2 -2 -3 -3 -3 -4 -3 -3 -2 -1 0 0 1 1 1 2 2 2 2 3 3 3 2 2 1 2 1 0 0 -1 -2 -3 -3 -4 -4 -4 -4 -5 -4 -4 -4 -3 -3 -2 -1 -1 -1 0 0 0 0 -1 0 -1 0 0 0 0 0 0 0 0 1 0 0 1 1 1 1 0 1 0 1 1 0 0 0 0 1 0 0 0 0 0 0 0 -1 -1 -1 -1 -2 -1 -1 0 0 0 1 1 0 0 0 0 1 1 1 0 1 1 1 1 1 0 0 1 0 1 0 0 1 0 0 0 0 0 0 0 0 -1 0 0 0 0 0 0 -1 -1 -2 -2 -2 -3 -3 -3 -4 -4 -4 -4 -5 -4 -5 -5 -4 -5 -5 -3 -3 -3 -2 -2 -1 0 -1 0 1 1 1 1 1 1 1 0 0 0 -1 -2 -2 -2 -3 -3 -2 -2 -1 -1 0 1 1 2 3 2 4 4 3 4 3 3 3 4 3 2 2 2 1 1 1 0 1 0 1 1 2 3 3 4 4 4 4 4 4 4 3 3 3 3 3 1 -1 -3 -6 -9 0 0 0 0 0 0
2 2 3 3 2 2 3 3 2 1 1 1 1 0 0 -1 -1 -2 -2 -2 -2 -3 -3 -3 -3 -3 -3 -2 -2 -2 -2 -2 -1 -2 -1 -1 -2 -1 -1 -2 -1 -1 0 0 1 1 1 2 1 1 2 2 1 1 1 0 -1 -2 -2 -3 -3 -3 -4 -4 -5 -5 -4 -4 -4 -4 -5 -4 -4 -3 -3 -3 -1 -1 0 -1 0 0 1 2 3 3 4 4 4 5 6 5 5 5 5 4 4 4 5 5 5 5 4 5 4 3 3 2 2 1 0 -1 -1 -2 -3 -4 -5 -5 -5 -5 -4 -4 -4 -3 -2 -2 -2 -2 -2 -2 -2 -3 -3 -3 -4 -4 -4 -4 -4 -4 -4 -3 -3 -3 -2 -1 0 1 1 2 3 3 2 3 2 1 1 1 1 1 0 0 0 0 1 0 1 2 2 3 3 3 3 3 2 3 2 2 1 1 1 1 1 1 0 1 2 2 2 2 3 3 3 4 3 4 3 4 3 4 4 3 3 4 3 3 3 3 3 2 2 1 -1 -1 -1 -3 -4 -4 -4 -4 -5 -5 -6 -6 -7 -7 -6 -6 -5 -4 -3 -2 -1 -1 0 -1 -1 0 0 1 2 2 4 5 5 5 3 1 -3 -6 0 0 0 0 0 0
3 2 2 2 0 0 0 -1 -1 -2 -2 -3 -2 -2 -2 -3 -3 -2 -3 -3 -2 -1 -1 0 1 1 1 3 3 3 4 4 4 3 3 3 3 3 2 2 2 1 0 0 -1 -2 -2 -2 -2 -3 -3 -3 -3 -3 -3 -3 -3 -2 -2 -2 -2 -2 -1 -1 0 0 0 0 0 1 1 1 1 1 0 1 1 1 0 -1 -1 -1 -2 -2 -2 -2 -2 -2 -2 -3 -2 -1 -1 -1 0 0 0 0 0 0 1 1 1 2 1 1 1 2 2 2 2 2 2 1 2 1 1 0 0 -1 -1 -1 -2 -1 -1 -1 -1 0 0 0 0 1 1 1 1 1 1 1 1 1 1 2 1 3 2 3 2 3 1 1 1 0 -1 -1 -1 -1 -2 -2 -2 -2 -1 -2 -2 -2 -3 -3 -4 -4 -6 -6 -6 -6 -7 -7 -7 -6 -6 -6 -5 -5 -4 -3 -1 -1 0 0 2 2 3 2 3 3 4 3 4 3 3 3 2 2 2 1 0 0 -1 -3 -3 -3 -4 -3 -3 -2 -2 -1 0 0 0 1 1 1 1 2 2 2 3 3 3 3 3 3 2 3 2 2 1 0 0 -1 -2 -3 -4 -5 -5 -5 -3 -1 5 11 19 28 0 0 0 0 0 0
-4 -4 -4 -4 -4 -4 -3 -3 -3 -3 -2 -1 0 1 2 2 4 4 4 4 5 4 5 4 4 3 3 2 1 0 0 0 0 0 1 1 1 1 1 2 2 2 1 1 1 1 0 0 1 0 0 -1 -2 -1 -3 -3 -4 -4 -4 -4 -4 -4 -5 -4 -4 -4 -2 -2 -1 -1 0 1 1 2 2 2 2 3 2 3 3 3 2 2 2 2 2 2 3 3 3 4 4 3 4 3 2 2 2 2 1 1 1 0 0 -1 -1 -1 -3 -3 -4 -4 -4 -4 -4 -3 -3 -3 -3 -3 -3 -4 -4 -4 -3 -3 -3 -2 0 0 1 1 1 2 3 2 3 4 3 3 4 3 3 3 3 4 3 3 3 2 1 1 1 0 -1 -1 -2 -3 -3 -3 -3 -3 -4 -4 -4 -3 -3 -3 -3 -2 -2 -1 0 0 1 1 1 1 1 1 1 1 1 1 0 0 -1 -1 -1 0 -1 -1 -1 1 1 2 2 2 2 2 2 3 2 2 1 1 0 -1 -1 -3 -3 -4 -5 -5 -5 -6 -6 -5 -6 -6 -5 -6 -5 -4 -5 -3 -3 -2 -1 0 0 2 3 4 4 5 5 5 5 4 5 5 5 5 5 4 4 2 2 0 0 0 0 0 0 0
0 0 0 0 -1 -2 -3 -3 -3 -4 -4 -4 -4 -4 -3 -3 -3 -2 -2 0 0 1 1 1 1 1 2 2 2 2 2 2 2 2 2 2 3 3 4 3 3 3 3 2 3 2 2 1 2 2 1 1 2 1 1 1 0 1 0 1 1 1 1 1 1 1 1 1 1 1 1 1 0 0 -1 -1 -1 -1 -2 -2 -2 -3 -2 -2 -3 -3 -3 -3 -4 -3 -4 -4 -4 -4 -3 -3 -4 -3 -3 -4 -4 -3 -3 -3 -1 -1 0 1 2 2 2 1 1 0 -1 -1 -2 -2 -2 -1 -2 -1 -1 0 2 3 3 4 5 6 6 5 5 5 4 3 3 2 2 1 1 0 0 -1 -3 -4 -5 -4 -4 -3 -3 -1 -2 -1 -1 -1 -2 -3 -2 -3 -3 -2 -2 -1 -1 -1 -1 -1 -2 -2 -3 -2 0 2 3 4 6 6 7 6 6 4 2 1 1 1 0 0 0 -1 -2 -3 -5 -5 -5 -5 -4 -4 -2 -2 -1 -2 -2 -2 -3 -3 -3 -2 -1 -1 0 0 0 -1 -2 -4 -4 -3 -2 -1 2 3 3 4 3 2 0 -1 -3 -4 -4 -4 -3 -4 -4 -4 -5 -5 -7 -7 -5 -3 -1 3 7 10 14 15 17 18 0 0 0 0 0 0
-3 -3 -3 -2 -1 -1 -1 0 0 1 0 1 1 1 1 1 2 1 2 1 1 1 1 1 0 0 0 0 0 0 0 0 0 1 0 1 0 1 0 0 0 0 0 0 0 1 1 1 0 0 -1 -1 0 0 0 1 0 2 1 1 2 2 2 2 1 1 0 0 0 0 -1 -1 -1 0 0 1 1 1 2 1 2 2 2 2 2 2 2 2 1 1 0 -1 -1 -2 -3 -3 -3 -3 -3 -3 -2 -2 -1 -1 0 1 2 4 4 4 4 6 5 5 4 4 5 4 3 2 2 1 -1 -1 -1 -2 -2 -3 -3 -2 -2 -3 -3 -4 -5 -5 -6 -6 -6 -7 -7 -7 -6 -7 -5 -5 -4 -3 -1 0 1 0 1 2 2 1 0 0 0 1 1 1 2 3 3 4 5 6 6 6 5 4 3 3 1 1 0 1 1 2 2 2 3 3 3 3 2 1 -1 -2 -4 -4 -5 -6 -6 -6 -5 -6 -5 -4 -4 -4 -5 -5 -5 -6 -7 -7 -6 -7 -6 -6 -4 -1 0 2 4 5 5 5 5 3 2 0 0 -2 -2 -2 -1 0 2 4 5 6 6 5 5 4 2 0 0 -1 -1 -1 -2 -1 -1 -2 -2 -2 0 0 0 0 0 0
-2 -2 -1 0 0 1 3 4 5 5 6 6 6 5 5 4 3 2 2 1 0 -1 -1 -1 -2 -2 -3 -3 -3 -3 -3 -3 -3 -4 -4 -4 -4 -4 -4 -4 -3 -2 -2 -2 -1 -1 0 0 1 1 2 1 2 2 1 1 0 0 -1 -1 -2 -2 -2 -1 -1 -1 -1 -1 0 -1 -1 0 0 0 1 0 1 2 1 2 1 0 1 0 0 0 -1 -1 -2 -3 -2 -2 -2 -1 0 0 1 2 2 2 2 3 3 3 2 2 1 0 -1 -2 -2 -1 -1 -1 -1 0 0 0 1 1 2 2 2 2 1 0 0 -1 -1 -2 -2 -2 -2 -2 -2 -2 -1 0 1 2 3 4 4 4 5 5 4 3 2 1 1 0 0 -1 -2 -2 -2 -2 -2 -2 0 0 1 2 3 3 3 2 2 1 1 0 0 -1 -2 -3 -4 -4 -5 -5 -4 -4 -3 -2 -2 -2 -1 -1 -1 -1 -2 -3 -4 -4 -6 -7 -8 -8 -8 -9 -8 -8 -6 -5 -3 -1 2 4 6 7 8 9 8 8 7 6 4 3 2 0 -1 0 0 0 2 4 5 7 8 7 6 4 1 -1 -3 -5 -6 -6 -7 -8 -9 -10 -11 -11 -10 -8 -3 8 22 39 0 0 0 0 0 0
3 2 2 1 1 1 0 0 0 0 1 0 1 0 1 1 2 1 2 2 1 2 1 1 1 1 0 0 -1 -1 -2 -1 -2 -1 -2 -2 -1 -2 -1 -1 -2 -2 -1 -2 -1 -2 -1 -2 -1 -1 0 -1 -1 -1 -1 -1 0 -1 -2 -2 -2 -3 -4 -4 -4 -4 -5 -5 -6 -6 -5 -4 -3 -4 -2 -2 0 0 2 2 3 4 3 4 5 5 5 6 5 5 6 6 6 6 5 4 4 3 1 0 -1 -2 -3 -4 -5 -5 -6 -6 -6 -6 -6 -6 -6 -4 -4 -3 -3 -2 -1 0 0 1 1 2 3 3 4 4 5 5 5 4 5 5 4 3 3 1 1 0 -1 -1 -2 -2 -3 -3 -3 -3 -4 -4 -4 -4 -4 -4 -3 -4 -4 -3 -4 -4 -4 -5 -4 -4 -4 -4 -3 -3 -3 -2 -1 0 1 2 3 4 4 5 5 6 5 5 4 4 3 2 2 1 0 -1 -1 -1 -2 -1 0 -1 -1 0 1 1 2 3 3 3 3 3 4 4 5 4 4 3 3 3 2 1 1 0 -1 -1 -1 -2 -3 -3 -3 -3 -2 -2 -2 0 0 1 2 1 1 1 2 2 1 1 1 0 0 -1 -1 -1 -1 -1 -1 -2 0 0 0 0 0 0
0 0 1 1 1 1 1 1 2 2 2 1 1 1 1 0 0 0 0 -1 -1 -1 -1 -2 -1 -1 -1 -1 0 0 0 0 1 1 1 0 0 -2 -1 -3 -3 -3 -3 -3 -2 -3 -2 -1 -1 -1 0 1 1 2 2 4 3 3 3 3 2 1 1 0 -1 -2 -2 -2 -3 -3 -3 -4 -5 -5 -5 -5 -6 -6 -5 -5 -6 -6 -5 -5 -4 -3 -2 -2 0 0 1 1 2 2 3 3 3 3 3 3 3 3 1 1 1 0 -1 -1 -1 -1 -1 -1 -1 -1 0 -1 0 0 0 0 1 2 1 2 3 4 5 5 5 4 4 4 3 2 2 1 0 -1 -1 -2 -2 -2 -3 -3 -3 -4 -4 -3 -3 -3 -2 -3 -2 -2 -3 -4 -4 -4 -5 -4 -5 -4 -3 -3 -3 -2 -1 -1 -1 0 2 2 2 3 4 4 4 4 4 4 3 3 2 0 0 -1 -2 -2 -3 -4 -5 -5 -5 -5 -5 -5 -5 -4 -3 -3 -2 -1 0 1 1 2 2 3 4 4 4 6 6 8 7 9 8 7 6 6 5 3 3 2 3 3 3 4 4 3 3 2 1 0 -1 -1 -1 -2 -3 -3 -5 -7 -9 -10 -9 -8 -5 0 6 15 0 0 0 0 0 0
0 0 0 0 1 1 1 1 1 1 1 1 1 1 1 2 2 2 1 2 2 1 1 1 2 2 2 2 2 2 2 1 1 1 1 1 0 -1 -1 -1 -2 -3 -3 -4 -4 -4 -4 -5 -6 -5 -6 -6 -6 -5 -5 -4 -4 -3 -3 -2 -1 -1 -1 0 -1 0 0 0 0 1 1 2 3 4 5 5 5 5 5 4 4 4 3 3 3 3 2 3 3 2 1 1 2 1 1 1 0 0 -1 -1 -3 -3 -3 -3 -3 -3 -3 -2 -3 -2 -3 -3 -2 -3 -3 -3 -3 -2 -3 -3 -3 -2 -3 -2 -2 -1 -1 -1 1 1 1 1 1 1 0 0 -1 -1 0 -1 0 0 0 1 1 1 1 2 1 2 3 2 4 3 4 4 5 4 3 3 2 2 0 1 0 1 1 1 1 1 -1 -2 -2 -2 -2 -2 -2 -1 -1 0 1 0 0 -1 -1 -1 -1 -1 -2 -2 -1 -2 -2 -3 -3 -3 -3 -3 -2 -2 -1 -2 -3 -4 -3 -4 -3 -2 -1 1 1 1 1 1 0 0 -1 0 1 1 3 3 2 0 -1 -3 -5 -6 -4 -2 2 7 11 14 15 13 9 5 0 -2 -2 -1 2 6 7 6 1 -7 -20 -34 0 0 0 0 0 0
-1 -2 -1 -2 -1 -1 -1 0 0 0 0 1 1 1 1 1 2 3 2 3 3 2 3 3 3 3 3 2 2 2 1 1 1 0 -1 -1 -2 -2 -3 -3 -4 -4 -5 -4 -4 -4 -3 -3 -2 -2 -2 -1 -1 0 0 1 1 1 2 3 3 4 3 3 4 4 3 2 2 1 1 -1 -1 -2 -3 -3 -4 -4 -3 -4 -4 -4 -3 -4 -3 -3 -2 -2 -1 0 0 0 1 1 1 1 3 3 3 3 3 4 5 4 5 5 5 4 5 5 5 4 4 3 3 3 3 2 2 2 1 1 0 0 -1 -1 -2 -2 -2 -3 -3 -4 -5 -3 -4 -4 -3 -3 -2 -2 -2 -1 0 0 1 1 1 2 1 2 3 3 3 4 4 4 4 3 2 3 2 1 1 0 0 0 -2 -2 -2 -4 -4 -5 -6 -7 -7 -7 -8 -7 -7 -7 -6 -4 -4 -2 -1 0 2 3 3 4 3 3 3 2 2 1 1 2 1 2 2 2 3 3 2 2 2 2 2 0 0 -1 0 -1 -1 -1 -1 -1 -1 -1 -1 1 1 1 3 3 4 3 2 2 1 1 -1 -1 0 -1 -1 -2 -2 -4 -6 -7 -8 -10 -10 -10 -7 -2 4 12 0 0 0 0 0 0
1 0 0 0 0 -1 -1 -2 -1 -2 -1 -1 -2 -2 -1 -1 -1 0 0 0 1 1 1 2 2 2 2 3 2 2 2 2 1 1 0 -1 0 0 0 -2 -2 -1 -3 -3 -3 -4 -4 -4 -5 -4 -4 -4 -5 -4 -3 -2 -2 -2 -2 -1 0 1 1 2 3 3 3 3 3 3 4 3 3 3 3 2 3 1 1 1 0 0 0 -1 -1 0 -1 0 -1 0 -1 0 1 0 0 0 0 1 0 0 -1 -1 0 -1 -2 -2 -1 -1 -1 -1 -1 -1 -1 -1 -1 0 0 1 1 0 1 1 2 2 2 3 2 3 2 2 2 1 1 2 2 1 1 2 1 1 0 0 -1 -1 -1 -2 -2 -3 -2 -3 -3 -3 -3 -3 -3 -4 -4 -4 -5 -4 -4 -5 -4 -4 -3 -2 -2 0 1 1 2 3 4 5 5 5 5 5 5 5 5 5 4 3 3 2 1 -1 -1 -2 -2 -4 -4 -4 -4 -5 -5 -5 -5 -5 -4 -4 -4 -2 -2 -1 0 0 1 1 2 3 3 3 3 3 4 3 2 3 3 4 4 4 4 4 3 2 2 0 0 -2 -2 -2 -2 -2 -2 -3 -3 -2 -2 -2 -1 -2 -1 0 0 1 3 4 0 0 0 0 0 0
0 1 1 1 1 1 2 2 2 1 1 1 2 2 1 2 1 1 1 2 1 1 0 0 -1 -2 -2 -3 -2 -2 -2 -2 -2 -2 -2 -3 -2 -3 -3 -4 -4 -4 -5 -4 -4 -4 -4 -3 -3 -3 -1 -1 0 1 2 3 3 4 4 4 3 2 3 3 1 1 0 1 1 -1 -1 0 -1 0 0 -1 1 0 0 0 0 0 1 0 0 1 1 0 1 1 1 0 -1 0 0 -1 -1 -1 -1 -1 -1 -2 -1 0 0 0 1 0 1 1 0 0 0 -1 -1 0 -1 -1 -1 -2 -2 -2 -2 -2 -2 -3 -2 -2 -2 -1 -1 -1 -1 0 0 0 1 1 1 1 1 1 2 2 2 1 0 0 0 0 1 1 1 1 1 2 2 3 2 3 2 2 1 1 1 0 -1 -2 -1 -1 -2 -2 -1 -1 -1 0 0 0 -1 0 0 0 0 0 -1 -1 -1 -1 0 0 1 0 1 0 1 1 0 0 -2 -3 -4 -5 -6 -6 -7 -7 -7 -6 -4 -3 -1 0 2 3 4 6 6 6 5 5 4 2 2 2 2 3 3 4 5 5 5 6 5 3 2 0 -1 -3 -4 -4 -4 -4 -3 -2 0 0 1 1 0 0 0 0 0 0 0 0
-14 -9 -7 -5 -4 -3 -1 -1 -1 -1 0 0 0 1 1 0 0 0 0 0 0 0 0 0 0 0 1 1 1 1 1 0 0 0 0 0 0 0 0 0 0 1 1 1 1 2 2 2 2 2 2 3 3 3 2 3 2 2 2 2 3 3 3 3 3 3 3 3 2 2 2 2 2 1 1 1 1 0 -1 0 -1 -2 -2 -1 -2 -2 -1 -2 -1 -2 -1 -2 -1 -2 -1 -2 -2 -2 -1 -2 -2 -3 -2 -3 -3 -2 -3 -2 -2 -2 -2 -2 -1 -1 -1 -2 -1 -1 -1 -1 0 -1 -1 0 0 0 0 -1 -1 0 -1 -1 -1 -1 -2 -2 -3 -3 -4 -5 -6 -7 -8 -9 -9 -10 -12 -13 -14 -15 -17 -18 -19 -20 -20 -20 -18 -18 -19 -17 -17 -16 -16 -16 -14 -14 -11 -10 -8 -6 -5 -4 -3 -2 -2 -2 -2 -1 -2 -2 -2 -1 -1 -1 -2 -2 -1 -1 -1 -1 -1 0 0 0 1 0 1 1 0 0 0 0 -1 -1 -1 -1 -1 -1 -1 0 0 2 1 3 2 2 3 3 4 4 4 5 6 8 8 9 9 10 11 11 10 11 10 9 8 8 6 5 4 2 -1 -4 -7 -8 -4 2 2 -2 -14 -29 0 0 0 0 0 0
-4 -4 -4 -3 -4 -4 -4 -4 -3 -4 -4 -4 -4 -4 -4 -4 -5 -5 -5 -6 -4 -4 -3 -3 -2 -2 -2 -2 -3 -4 -4 -4 -4 -4 -3 -3 -2 -2 -2 -2 -3 -2 -3 -3 -2 -2 -2 -1 -1 0 0 0 -1 -1 0 -1 -1 0 0 1 1 2 2 2 2 1 0 0 -1 -1 -1 -1 -1 -2 -2 -2 -1 -1 -2 -1 -1 -1 -1 0 0 0 0 0 0 0 0 0 1 1 1 2 1 1 1 0 0 0 1 1 1 2 2 2 2 1 1 1 -1 -1 -3 -2 -3 -3 -2 -3 -3 -1 -2 -2 -1 0 0 1 3 3 4 4 4 4 3 2 1 1 0 0 0 0 0 -1 -1 -2 -1 -2 -1 -2 -2 -1 -1 -2 -1 -2 -2 -2 -1 -1 0 1 1 1 2 2 3 2 2 2 2 3 3 3 3 3 3 4 4 4 4 4 4 4 3 4 4 4 4 4 3 3 2 2 1 -1 -2 -3 -4 -4 -3 -4 -3 -2 -1 -1 -1 -2 -2 -4 -4 -4 -4 -4 -3 -2 -1 -2 -1 -1 -1 0 0 1 4 5 8 9 10 10 9 7 5 3 2 2 1 -1 -2 -5 -8 -13 -18 -22 -24 -22 -15 -4 13 34 0 0 0 0 0 0
-2 -2 -1 -1 -1 0 0 0 0 0 0 1 1 1 0 0 0 0 0 1 1 0 0 0 1 0 0 0 0 1 1 1 2 2 2 3 3 3 3 2 1 0 0 0 -2 -2 -2 -2 -3 -3 -3 -3 -2 -2 -3 -2 -2 -2 -1 0 -1 0 0 0 1 1 1 2 2 1 2 2 1 0 0 -1 -1 -2 -3 -3 -3 -4 -3 -3 -3 -2 -2 0 0 0 2 2 3 3 4 3 3 3 3 2 1 1 0 0 -1 -1 -1 -2 -2 -1 -1 -1 0 0 1 2 2 3 3 4 4 3 3 2 1 1 0 0 -2 -2 -2 -2 -2 -2 -3 -3 -2 -2 -2 -2 -1 -1 0 0 1 1 2 2 2 2 2 2 1 1 1 1 0 1 0 0 1 -1 0 0 0 0 0 0 -1 -1 0 0 0 0 0 1 0 0 0 1 0 0 1 1 2 2 2 1 2 2 2 2 1 2 1 1 0 -1 -3 -3 -5 -5 -6 -6 -6 -6 -6 -6 -4 -4 -5 -3 -3 -2 -1 1 2 3 5 6 7 8 8 8 9 8 8 7 6 6 6 5 4 3 3 2 2 0 -1 -1 -3 -3 -5 -6 -7 -8 -9 -10 -11 -13 0 0 0 0 0 0
8 7 7 7 7 6 6 6 5 5 5 5 4 4 3 4 3 3 4 3 3 3 2 3 2 2 1 1 1 1 1 0 1 1 0 -1 -2 -2 -2 -3 -3 -3 -2 -3 -2 -3 -3 -2 -3 -2 -3 -3 -3 -4 -4 -4 -4 -4 -4 -3 -3 -3 -2 -3 -2 -3 -3 -2 -3 -2 -2 -1 -1 0 0 1 1 0 0 -1 -1 -2 -3 -3 -2 -3 -2 -2 -2 -2 -1 -1 -1 -1 -1 -1 -1 -1 0 1 2 3 5 6 6 6 6 5 5 4 4 3 3 2 2 2 1 0 -1 -2 -4 -5 -6 -7 -7 -8 -8 -7 -7 -6 -5 -4 -4 -3 -2 -2 -2 -2 -3 -3 -3 -4 -4 -4 -3 -3 -1 -1 -1 0 -1 -2 -2 -3 -5 -6 -6 -6 -6 -5 -4 -4 -4 -3 -4 -4 -4 -5 -5 -3 -4 -2 -2 -1 -1 -1 -1 -2 -2 -2 -2 -1 -1 0 0 1 1 1 1 2 1 0 -1 -1 -1 -1 -1 -1 -1 0 0 0 0 0 0 -1 -1 -1 -1 -2 -1 -3 -3 -3 -3 -3 -3 -3 -2 -3 -3 -3 -3 -2 -2 -1 -1 0 0 2 2 3 3 4 5 5 6 6 6 6 7 6 6 5 5 4 4 5 6 7 0 0 0 0 0 0
-3 -2 -2 -1 0 -1 0 1 1 2 2 3 3 3 4 4 4 3 3 3 2 0 1 0 0 -1 -2 -1 -1 -1 -1 -2 -2 -2 -3 -2 -2 -3 -3 -4 -5 -5 -5 -5 -5 -4 -4 -2 -1 0 0 2 2 1 2 2 1 0 0 0 0 -1 -1 -1 -1 -1 0 0 0 1 2 2 2 2 3 3 3 3 3 2 2 1 1 0 -1 0 -2 -1 -2 -2 -2 -2 -1 -2 -1 0 -1 0 0 1 0 1 0 1 0 1 0 -1 0 -1 -1 -1 -1 -1 -1 0 0 1 1 1 2 1 1 1 1 2 1 1 1 0 0 1 0 0 0 0 1 0 0 0 0 0 -1 -1 -1 -2 -1 -1 -2 -1 -1 0 0 -1 0 0 1 1 1 1 1 1 1 1 1 1 0 0 0 0 -2 -1 -2 -2 -2 -3 -3 -3 -3 -4 -4 -5 -5 -5 -4 -4 -3 -2 -1 1 1 1 1 2 2 1 0 0 0 0 0 1 1 2 4 4 6 7 7 9 8 9 9 8 7 6 4 2 0 -2 -2 -2 -2 -1 0 1 2 4 5 6 6 5 4 2 1 -2 -5 -8 -11 -14 -15 -16 -16 -15 -13 -10 -4 4 15 27 0 0 0 0 0 0
6 5 5 6 5 5 5 6 6 6 6 5 5 4 4 3 2 1 0 -1 -2 -2 -3 -3 -5 -5 -5 -5 -5 -5 -4 -3 -3 -3 -3 -3 -3 -3 -2 -2 -3 -2 -2 -2 -1 -1 -2 -2 -2 -2 -3 -2 -2 -2 -2 -2 0 -1 -1 -1 -1 -2 -2 -2 -3 -3 -2 -2 -2 -2 -1 -2 -2 0 0 1 3 3 5 5 6 5 5 5 4 2 2 0 0 -1 -2 -2 -2 -2 -2 -2 -1 0 1 0 1 2 1 2 1 0 0 -1 -1 -2 -2 -3 -3 -3 -4 -4 -3 -3 -2 -2 0 1 2 3 4 5 6 5 3 4 2 1 0 -1 -2 -3 -4 -4 -4 -5 -5 -5 -5 -4 -4 -4 -3 -2 -2 -1 0 0 0 -1 -1 -1 -1 -1 -1 0 0 0 1 1 1 2 1 2 1 1 0 -2 -2 -4 -5 -5 -5 -5 -4 -3 -2 -1 0 2 3 3 3 4 5 5 6 6 6 6 6 5 4 4 2 1 0 -1 -1 -2 -2 -2 -1 0 1 0 -1 -1 -2 -3 -3 -3 -3 -3 -3 -3 -2 -2 -2 -2 -2 -1 -1 -1 0 1 2 3 4 5 5 6 6 7 7 6 6 5 4 2 1 -1 -2 -3 -5 -7 0 0 0 0 0 0
0 0 -1 -1 0 -1 0 -1 0 1 0 0 1 1 1 2 2 2 2 2 2 2 2 2 1 1 1 0 0 -1 -1 -1 -1 -1 -2 -2 -1 -1 -1 0 0 0 0 1 0 1 1 1 1 1 1 1 1 1 1 0 0 1 1 1 0 0 0 0 0 0 -1 -1 -1 -1 -1 -1 -2 -2 -2 -1 -2 -1 -1 -1 -1 -1 -1 -1 -1 0 1 1 1 3 3 4 4 5 5 4 4 4 3 2 2 2 1 0 0 0 0 -1 -1 -1 -1 0 0 0 -1 -1 -2 -3 -4 -5 -5 -6 -7 -7 -6 -6 -5 -5 -5 -5 -4 -3 -3 -2 -2 -1 0 0 0 0 0 -2 -1 -1 -2 -1 -1 -1 0 0 0 0 0 0 0 0 0 1 2 1 2 3 3 3 3 3 3 3 2 2 1 0 -1 -2 -3 -3 -2 -2 -2 -1 0 1 1 1 1 1 0 -1 -1 -1 -2 -1 -2 -1 -1 -1 0 0 0 0 1 1 0 -1 -1 -1 -3 -4 -4 -5 -5 -5 -5 -4 -2 -2 -2 -1 -1 0 0 -1 -1 -1 -1 0 0 1 1 2 2 3 3 4 3 5 5 5 5 5 5 5 4 4 3 3 3 3 2 3 0 0 0 0 0 0
0 0 0 -1 -1 -2 -1 -1 -1 -1 0 -1 -1 0 -1 -1 -1 -1 -2 -3 -3 -3 -3 -3 -3 -3 -1 0 1 2 3 4 5 5 6 6 6 5 6 5 5 4 3 2 2 1 0 -1 -2 -1 -1 -2 -1 -1 0 0 1 1 1 1 1 0 -1 -1 -2 -3 -4 -5 -6 -7 -7 -8 -7 -6 -6 -5 -4 -3 -3 -3 -1 -2 -2 -1 -1 -1 -1 -2 -2 -3 -3 -3 -5 -4 -5 -5 -4 -4 -3 -2 0 0 1 2 2 3 3 3 2 1 2 0 0 0 -1 -1 0 0 0 2 2 3 4 3 4 4 5 4 5 5 4 4 3 2 2 1 0 -2 -3 -4 -5 -6 -7 -8 -8 -9 -9 -8 -9 -8 -8 -8 -7 -7 -6 -6 -5 -4 -4 -3 -3 -3 -3 -2 -1 -1 -1 0 0 1 1 1 0 0 -1 -1 -2 -1 -1 -1 0 0 0 1 3 3 3 3 4 3 3 2 2 2 2 2 2 2 1 1 1 1 1 0 1 0 0 0 0 1 1 1 1 1 1 0 -1 -1 -2 -3 -4 -4 -5 -5 -4 -4 -3 -2 -1 -1 -2 -2 -2 -2 0 0 2 4 6 8 9 9 9 8 9 8 8 9 9 11 0 0 0 0 0 0
-3 -2 -2 -2 -2 -1 -1 -2 -2 -2 -2 -1 -1 -1 0 0 1 1 1 1 1 0 1 1 1 1 1 1 2 2 2 2 3 3 3 3 3 3 3 2 3 2 2 0 0 1 0 -1 0 -1 -1 -1 -2 -2 -3 -4 -5 -5 -4 -3 -2 0 1 2 4 5 5 4 4 2 1 0 -1 -2 -4 -4 -4 -4 -5 -5 -4 -6 -6 -6 -5 -6 -5 -5 -4 -4 -1 1 2 4 6 7 8 8 8 6 5 3 2 0 0 -2 -2 -1 -1 -1 0 0 -1 -1 0 -1 -1 1 2 3 5 5 7 6 5 6 5 3 3 2 2 1 1 1 1 3 3 2 2 2 1 1 0 0 0 -1 -1 -1 -1 0 0 0 0 1 3 3 3 2 1 0 -2 -2 -4 -4 -5 -4 -4 -3 -3 -2 -2 -2 -1 -1 0 1 1 1 1 1 0 1 1 0 0 0 0 -1 0 0 -1 -1 -2 -3 -2 -4 -4 -4 -5 -4 -3 -3 -1 0 2 2 1 1 1 0 -1 -1 -2 -4 -3 -4 -4 -5 -5 -3 -3 -1 0 0 0 1 1 0 -1 -1 -3 -4 -5 -5 -5 -2 0 3 5 6 6 4 0 -2 -5 -7 -7 -4 2 10 0 0 0 0 0 0
-3 -3 -3 -2 -1 1 2 2 3 3 2 1 2 0 1 1 1 2 1 3 2 2 2 2 1 1 0 2 2 2 1 1 1 1 0 -2 -3 -3 -4 -3 -3 -1 -1 -1 0 1 1 1 0 -1 -1 -1 -1 -1 0 1 0 1 1 1 1 1 1 -1 -1 -1 -2 -2 -1 -2 -1 -2 -1 -1 -1 -2 -2 -2 -3 -3 -2 -2 -1 0 1 2 3 3 2 1 0 -1 -3 -3 -2 -3 -2 -2 -1 -2 -2 -2 -3 -3 -2 -2 -2 0 1 2 3 3 2 1 -1 -1 -3 -3 -2 -2 -2 0 1 0 0 -1 -2 -2 -2 -2 0 0 2 3 5 5 4 3 1 0 0 0 0 1 2 3 4 4 3 1 0 -3 -4 -4 -4 -3 -1 -1 0 0 -1 -2 -4 -5 -6 -6 -5 -3 -1 2 3 3 2 1 -1 -3 -4 -5 -5 -4 -1 1 2 3 3 3 2 -1 -2 -2 -2 -1 1 3 4 5 5 4 2 0 -2 -3 -3 -2 -2 0 0 1 1 0 -2 -4 -7 -8 -8 -8 -7 -6 -4 -2 -2 -2 -3 -3 -4 -5 -4 -4 -3 -1 0 2 5 7 7 8 7 6 4 2 1 -1 -4 -5 -4 -1 2 9 18 28 0 0 0 0 0 0
-6 -7 -7 -7 -7 -7 -6 -6 -5 -5 -4 -4 -4 -4 -3 -3 -1 -1 -1 0 0 0 0 0 0 1 1 2 2 2 3 3 3 3 3 4 3 4 2 2 2 1 1 0 0 0 -1 -1 -1 -2 -2 -3 -3 -2 -3 -3 -3 -3 -3 -2 -2 -2 -1 0 0 1 1 1 2 2 3 3 4 3 4 3 3 3 3 3 2 2 3 1 1 2 1 1 1 -1 -1 -1 -1 -1 -2 -2 -2 -2 -2 -3 -3 -3 -2 -3 -3 -2 -1 -1 -1 -2 -1 -2 -1 -1 -2 -2 -2 -2 -2 -1 -2 -1 -2 -1 -2 -1 -1 0 0 0 1 0 1 1 1 1 1 2 2 2 3 3 2 3 3 3 3 4 3 4 4 4 4 4 4 4 5 4 4 4 3 3 4 4 3 2 1 1 0 0 -1 0 -1 -1 -1 -1 -1 0 0 0 0 -1 -1 -2 -1 -1 -2 -2 -3 -3 -4 -4 -4 -3 -2 -3 -3 -3 -3 -3 -4 -4 -4 -6 -5 -5 -5 -4 -3 -4 -3 -3 -3 -2 -3 -3 -3 -3 -3 -4 -3 -4 -4 -5 -4 -4 -4 -2 -1 0 2 4 6 6 6 6 6 6 6 6 5 5 5 5 5 3 1 -1 -2 -5 0 0 0 0 0 0
3 2 1 0 0 0 -1 -1 0 -1 -1 -2 -2 -2 -2 -2 -2 -2 -1 -1 -2 -1 -1 -1 -1 -1 0 0 0 1 1 1 2 1 1 1 2 2 1 1 2 1 2 1 2 1 2 1 2 1 1 1 2 2 1 2 1 0 0 0 -1 -1 0 0 0 0 0 0 -1 -1 0 0 -1 0 -1 -1 -2 -1 -2 -2 -2 -2 -1 -2 -1 -2 -1 -1 -2 -1 -2 -1 -1 -1 -1 -1 -1 -1 -1 -1 -1 -1 0 0 1 1 2 2 2 1 1 1 1 1 1 1 1 0 1 0 0 0 0 0 -1 -1 0 -1 0 0 0 0 -1 0 -1 -1 -1 0 0 0 -1 0 -1 -1 0 0 0 0 0 -1 -1 0 -1 -2 -2 -2 -2 -2 -3 -2 -2 -2 -2 -3 -3 -3 -4 -3 -3 -2 -1 -1 0 1 1 1 1 2 2 3 2 2 2 3 2 2 1 2 2 1 1 2 0 0 0 0 0 1 1 2 2 3 2 2 1 0 -1 -1 -1 0 1 1 1 1 0 -1 -2 -2 -2 -1 0 1 2 2 -1 -3 -5 -5 -3 0 4 7 7 5 0 -6 -9 -8 -4 3 8 7 -2 -21 -41 -52 -45 -9 53 121 0 0 0 0 0 0
-5 -5 -4 -5 -4 -4 -4 -3 -2 -2 -2 -1 -1 0 0 0 1 1 1 0 0 0 -1 -2 -2 -3 -3 -2 -2 -1 -1 -1 0 0 0 -1 -1 -1 -1 0 0 0 0 1 1 0 0 0 -1 -1 -1 -1 -1 -1 0 0 0 1 1 0 0 0 -1 -1 -2 -3 -3 -3 -2 -2 -1 0 0 1 1 1 1 1 0 -1 -1 0 1 2 2 3 4 4 3 2 1 0 0 -1 -1 -2 -1 1 0 0 0 0 -1 -2 -4 -5 -5 -5 -4 -3 -2 -2 -1 0 -2 -2 -2 -2 -2 -1 0 0 1 2 1 1 1 0 -2 -2 -3 -4 -3 -3 -2 -2 -1 -1 -1 0 -2 -1 -2 -1 0 1 2 2 3 1 1 0 0 0 0 1 2 3 5 5 6 5 4 4 3 2 2 1 2 2 3 2 2 0 -1 -3 -4 -4 -3 -2 -2 -1 0 0 0 -2 -3 -4 -6 -7 -5 -4 -1 2 5 7 7 7 6 3 1 -1 -1 -1 1 3 5 7 8 7 4 2 -1 -4 -5 -4 -2 0 4 7 10 11 10 7 3 -1 -4 -7 -8 -7 -5 -2 3 6 9 10 9 6 1 -5 -10 -16 -20 -21 -21 -18 -10 1 18 35 0 0 0 0 0 0
-9 -8 -7 -6 -6 -5 -4 -4 -4 -4 -4 -3 -3 -1 -1 0 0 2 2 3 2 3 3 2 3 1 1 1 1 1 2 2 1 2 2 3 2 2 1 1 0 0 -1 -2 -1 -1 -2 -1 -1 -1 -2 -3 -4 -5 -6 -7 -6 -8 -8 -8 -7 -7 -6 -6 -6 -5 -5 -6 -6 -5 -6 -4 -3 -3 -2 -1 0 0 0 -1 -1 -1 -2 -1 -1 -1 0 1 2 3 3 4 4 5 4 4 3 3 3 3 2 2 2 2 1 2 0 0 -1 -1 -1 -1 -2 -1 0 0 0 1 2 2 2 2 2 2 2 2 2 2 2 3 3 3 4 4 3 3 3 2 1 1 0 0 0 0 0 0 0 0 0 -1 -2 -3 -4 -5 -5 -5 -4 -4 -3 -2 -2 -1 -1 -1 -2 -3 -3 -3 -4 -3 -2 -2 -2 -2 -1 -2 -3 -3 -4 -4 -5 -4 -4 -4 -3 -3 -2 -2 -2 -2 -3 -3 -4 -3 -4 -4 -4 -4 -5 -4 -4 -4 -3 -3 -2 -2 -2 -1 -1 -1 -1 -1 -1 -1 -2 -2 -2 -3 -2 -3 -3 -3 -3 -3 -1 0 2 4 5 7 7 7 5 4 2 1 -1 -1 0 1 4 8 10 12 14 14 13 9 5 -2 0 0 0 0 0 0
0 1 1 1 1 1 0 0 0 0 0 -1 -1 0 0 0 0 0 2 2 2 2 2 1 1 1 0 -1 -2 -2 -3 -3 -3 -3 -2 -2 -1 0 0 0 1 1 1 1 1 1 0 0 1 0 1 1 2 2 2 1 2 2 2 2 2 1 1 1 0 0 -1 0 -2 -2 -2 -2 -2 -2 -2 -3 -3 -3 -3 -3 -3 -3 -1 -1 -1 -1 0 1 1 1 2 3 3 4 4 3 3 2 1 0 -1 -2 -2 -2 -3 -4 -3 -3 -2 -2 0 0 1 2 3 3 3 3 4 4 4 5 4 4 4 3 3 2 1 0 -1 -1 -1 -2 -1 -1 -1 0 2 2 3 3 4 5 5 5 5 4 4 4 3 3 3 3 3 3 3 3 3 1 2 1 -1 0 -2 -2 -3 -4 -4 -4 -4 -4 -4 -5 -6 -5 -6 -7 -7 -7 -7 -8 -8 -7 -7 -7 -7 -8 -8 -8 -8 -8 -6 -6 -5 -3 -3 -1 0 1 2 3 3 3 5 4 4 3 2 2 2 2 1 2 2 3 3 4 4 3 3 2 2 2 0 0 -1 -2 -2 -2 -3 -3 -4 -3 -3 -3 -2 -2 -2 -2 -2 -3 -4 -4 -5 -4 -1 3 9 17 0 0 0 0 0 0
-2 -2 -2 -1 -1 -1 0 0 1 1 1 1 1 1 2 1 1 1 1 1 1 2 1 1 2 1 1 1 1 2 2 2 2 2 2 1 2 1 1 0 -1 -1 -1 -1 -2 0 -1 -2 -2 -1 -2 -2 -3 -3 -3 -3 -4 -3 -2 -2 -1 -1 -1 0 0 0 0 0 -1 -1 -1 -2 -2 -2 -2 -3 -3 -4 -5 -5 -5 -4 -3 -3 -1 0 1 3 4 4 6 6 6 5 4 4 3 1 0 -1 -2 -2 -1 -1 0 1 3 3 4 5 4 3 2 1 1 -1 -2 -3 -3 -3 -3 -3 -3 -2 -1 0 1 3 4 4 5 5 4 4 3 2 0 -1 -2 -2 -3 -3 -4 -4 -4 -4 -4 -3 -1 1 3 4 6 6 5 4 2 -1 -2 -4 -4 -4 -3 -2 -1 1 2 2 3 3 2 2 1 1 0 0 0 0 0 1 1 2 0 0 0 0 -1 -1 -2 -2 -2 -3 -3 -4 -4 -4 -4 -4 -4 -3 -2 -2 -3 -4 -4 -4 -4 -4 -3 -3 -2 -2 -2 -1 -1 0 0 1 1 3 3 4 5 5 4 3 2 1 -1 -2 -2 -1 0 2 6 9 11 13 11 8 4 0 -4 -9 -11 -12 -11 -7 1 12 0 0 0 0 0 0
-49 -43 -39 -34 -31 -27 -24 -20 -17 -13 -11 -9 -8 -8 -7 -6 -7 -6 -7 -6 -5 -4 -4 -3 -4 -4 -4 -4 -4 -3 -3 -3 -1 -1 -1 -1 0 -1 -1 -1 -1 -1 -1 -2 -2 -2 -2 -2 -2 -2 -1 0 1 1 2 2 2 1 1 1 1 1 2 4 5 6 6 6 6 5 4 3 4 3 4 5 6 7 7 6 6 6 4 3 4 4 4 5 6 7 6 6 5 3 2 0 -1 -1 0 0 1 1 1 0 0 -1 -2 -4 -4 -3 -3 -2 -1 -1 -1 -1 -1 -2 -3 -3 -3 -1 0 1 1 1 1 0 -1 -2 -3 -4 -3 -3 -3 -1 -1 -1 -1 -1 -2 -3 -5 -6 -6 -7 -6 -6 -6 -6 -7 -7 -8 -9 -10 -10 -9 -9 -7 -7 -5 -6 -6 -7 -9 -10 -11 -12 -13 -14 -13 -13 -12 -13 -13 -14 -15 -16 -17 -18 -18 -18 -17 -15 -13 -12 -10 -9 -9 -9 -10 -10 -9 -9 -8 -6 -4 -2 1 4 4 6 7 6 5 4 2 1 1 1 2 4 6 7 8 6 5 2 -1 -3 -5 -5 -4 -1 3 5 9 11 10 9 4 2 0 -2 0 4 10 16 20 24 25 24 19 15 9 4 1 3 10 14 0 0 0 0 0 0
0 -1 -1 -1 -1 0 0 1 2 2 2 1 0 -1 -2 -3 -2 -2 -1 0 0 0 -1 -1 -2 -2 -3 -3 -2 -2 -1 1 3 3 3 4 4 3 3 2 1 1 0 1 1 1 1 2 1 1 1 1 1 0 1 0 0 0 0 -1 -1 0 0 -1 -1 -1 -1 -1 -2 -1 -2 -2 -2 -1 -1 -1 0 0 0 0 0 0 -2 -2 -2 -2 -2 -1 -1 -1 -2 -2 -2 -3 -3 -4 -4 -4 -2 -2 0 2 3 3 3 3 2 2 2 2 3 4 4 5 5 6 5 5 4 3 3 3 2 3 2 3 2 3 3 2 1 1 1 1 1 1 1 1 2 1 1 -1 -1 -1 -1 -1 -1 -2 -1 -3 -4 -5 -6 -8 -9 -10 -9 -7 -6 -4 -3 -1 -1 -1 -2 -2 -2 -2 -2 0 1 4 5 6 5 5 3 1 0 -2 -2 -3 -2 0 1 2 3 2 3 1 0 -1 -2 -3 -3 -2 -1 0 1 2 2 2 1 0 0 -1 -1 -1 0 1 3 4 5 6 6 6 4 3 1 -1 -3 -4 -4 -3 -2 -1 -1 -1 -1 -3 -5 -7 -9 -9 -9 -7 -4 0 5 8 10 12 11 10 7 3 -2 -6 -12 -17 0 0 0 0 0 0
6 6 6 5 5 4 4 4 2 3 2 1 0 1 0 -1 0 0 -1 -1 -2 -2 -3 -3 -3 -4 -3 -4 -3 -2 -3 -2 -2 -1 -1 -1 0 0 1 1 2 2 3 3 2 3 1 2 2 1 1 0 0 -1 -1 -2 -1 -2 -1 0 -1 1 1 1 2 2 2 2 2 1 0 0 0 0 0 1 0 1 1 1 1 1 1 2 2 2 2 1 2 1 0 0 -1 -2 -2 -3 -3 -3 -3 -3 -4 -3 -3 -4 -4 -5 -4 -5 -4 -4 -4 -4 -3 -2 -2 -1 1 2 2 3 3 4 5 5 5 5 5 6 6 6 6 5 4 3 2 2 1 0 -1 -3 -3 -4 -5 -6 -6 -6 -6 -7 -7 -7 -7 -7 -6 -6 -5 -6 -4 -3 -2 -1 -1 0 1 2 2 2 3 2 3 3 3 3 3 4 3 4 4 3 3 3 3 4 4 3 2 2 1 0 -1 -1 -2 -2 -3 -3 -4 -4 -4 -6 -5 -5 -5 -4 -3 -3 -2 -2 -1 -1 -1 0 0 0 0 0 0 1 0 0 0 0 0 0 0 0 1 1 2 2 2 1 1 -1 -1 -2 -3 -4 -3 -4 -3 -4 -3 -2 -2 0 1 3 6 9 14 19 0 0 0 0 0 0
2 1 0 0 -1 -2 -2 -2 -1 -2 -1 -2 -2 -2 -2 -2 -2 -2 -1 -1 -2 -2 -1 -2 -2 -2 -3 -4 -3 -4 -4 -5 -6 -5 -5 -5 -4 -4 -4 -4 -4 -4 -4 -4 -4 -4 -3 -3 -2 -2 -1 -1 0 0 0 -2 -2 -3 -3 -3 -3 -2 -2 0 1 0 2 2 2 2 2 2 2 2 2 2 2 2 2 2 2 1 1 0 0 -1 0 1 1 1 1 1 2 2 2 2 2 2 2 3 3 3 3 3 3 4 3 3 3 3 3 2 1 1 0 0 -1 -1 -1 -1 -1 -1 -1 1 0 0 -1 -1 -2 -4 -4 -5 -5 -5 -5 -5 -5 -4 -5 -5 -6 -6 -6 -6 -5 -4 -2 -1 -1 -1 -1 -1 -1 -1 -1 -2 -1 -1 0 1 2 2 3 2 2 2 1 1 0 0 0 -1 0 0 0 -1 -2 -1 -2 -1 -2 -1 -2 -3 -3 -3 -4 -5 -5 -5 -6 -4 -3 -2 -1 0 1 1 0 0 0 -1 -1 -1 0 0 0 2 2 3 3 4 6 6 6 6 5 3 2 0 -1 -3 -2 -1 -1 0 2 3 3 3 4 2 2 1 2 3 4 4 4 3 0 -4 -7 -11 -13 -12 -7 2 15 32 0 0 0 0 0 0
1 1 0 0 -1 -1 -1 0 1 2 2 2 2 3 3 3 3 2 2 2 2 2 1 1 1 1 1 1 0 -1 -1 -1 -1 -1 0 -1 -1 -2 -2 -3 -3 -4 -5 -4 -4 -3 -2 -2 -1 0 0 -1 0 0 -1 -2 -2 -2 -2 -2 -1 -1 -1 -1 0 -1 0 0 1 1 1 2 3 3 4 5 4 4 4 4 3 5 5 5 6 6 6 6 5 4 3 2 1 0 0 0 0 -1 -1 -2 -2 -2 -2 -3 -3 -2 -3 -3 -2 -2 -2 -3 -3 -3 -4 -3 -4 -3 -2 -2 -1 0 0 0 0 -1 -2 -2 -2 -2 -2 -2 -1 -1 0 0 2 2 2 2 1 1 1 1 1 1 1 1 1 1 2 2 2 3 3 3 3 3 2 3 2 1 1 1 1 0 1 1 2 3 3 3 2 1 1 0 -1 -1 -2 -1 -3 -2 -4 -4 -4 -4 -4 -4 -3 -2 -1 0 -1 -1 -1 -1 -1 -2 -2 -1 -2 -1 -1 -2 -1 -1 0 1 2 3 3 3 2 1 -1 -2 -3 -3 -2 1 4 8 10 9 8 6 3 1 0 2 5 7 9 8 5 3 1 2 5 9 10 5 -7 -29 -52 -69 -64 -32 27 105 0 0 0 0 0 0
-1 0 0 1 0 0 0 0 0 0 0 0 0 0 1 0 0 0 0 -1 -1 -1 -2 -2 -2 -2 0 1 2 2 3 3 3 3 2 1 1 0 1 0 0 1 0 0 0 -1 -2 -2 -2 -1 -1 -1 0 0 1 1 1 0 1 0 0 0 0 0 -1 -1 -1 -1 -2 -2 -3 -2 -2 -2 -2 -1 -1 0 1 2 3 3 4 4 5 4 4 3 3 3 3 2 2 2 0 1 0 0 -1 0 -1 -1 -1 -2 -2 -1 -2 -3 -1 -1 -1 -1 0 -1 0 0 0 1 1 2 2 2 1 1 0 0 0 -1 -1 0 -1 -1 0 0 1 1 2 2 2 2 2 2 1 2 1 1 1 0 0 0 -1 0 -1 0 0 0 -1 -2 -2 -3 -3 -3 -1 -1 0 1 1 3 3 3 3 2 2 1 0 0 -1 -2 -2 -3 -3 -4 -4 -3 -3 -3 -3 -1 1 3 3 5 5 5 5 4 3 2 0 0 -1 -1 0 2 2 4 4 4 4 3 3 1 0 0 -1 -1 0 0 0 0 1 2 2 2 2 2 1 0 -2 -4 -6 -8 -10 -9 -9 -6 -1 2 4 4 2 -2 -8 -14 -19 -20 -18 -10 5 25 0 0 0 0 0 0
-1 -1 -1 1 1 2 1 3 3 4 3 3 3 3 3 2 2 2 2 1 1 0 1 0 0 0 0 0 -1 0 0 0 0 -1 -1 -1 -1 -1 -1 0 0 0 -1 0 -1 -1 -1 -1 -1 -1 -1 -1 -2 -1 -2 -2 -2 -2 -3 -3 -3 -3 -3 -3 -2 -3 -3 -2 -2 -1 -1 -1 -1 0 1 1 2 3 4 4 6 6 7 7 7 6 6 6 5 5 4 4 3 3 2 1 1 -1 -1 -2 -3 -2 -4 -4 -5 -5 -4 -4 -4 -4 -5 -4 -4 -3 -4 -3 -3 -2 -2 -2 -2 -2 -1 -1 -1 0 0 1 1 1 1 1 1 0 1 0 -1 -1 -1 -1 -1 -1 -1 0 -1 0 0 -1 -1 0 0 1 0 1 1 0 0 0 0 0 0 0 0 1 1 1 2 2 3 2 2 2 2 2 2 1 1 2 2 3 3 2 3 2 1 0 -1 -1 -2 -4 -3 -4 -4 -4 -4 -4 -3 -3 -3 -2 -2 -2 -1 0 1 1 1 2 2 1 2 1 1 1 0 1 0 -1 -1 -1 -1 -2 -1 -1 0 2 3 3 4 3 3 4 2 2 2 2 1 1 0 0 -2 -3 -4 -6 -6 -6 -3 1 6 11 0 0 0 0 0 0
1 0 1 0 0 0 0 0 0 0 0 1 0 0 0 0 -1 0 1 1 2 2 2 2 1 0 -1 -1 -1 -1 0 1 1 1 0 0 -2 -3 -4 -4 -4 -3 -2 -2 0 1 2 1 0 -1 -2 -3 -3 -3 -4 -4 -2 -2 -2 -1 -1 -2 -1 -1 0 -1 1 0 0 0 0 0 -1 -1 -1 -1 -1 -1 0 -1 0 -1 -1 -1 -1 0 -1 -1 0 -1 0 0 0 0 1 1 1 1 1 0 0 0 0 0 0 -1 -2 -2 -2 -2 -3 -3 -2 -1 -2 -1 -1 -1 0 -1 -2 -2 -2 -3 -2 -2 -3 -2 -2 -1 0 0 0 1 1 1 0 -1 -1 -1 -1 -1 -1 0 -1 0 0 0 1 2 3 2 3 4 4 4 5 5 4 2 2 0 0 0 -2 -1 -1 0 -1 0 0 1 2 2 3 5 5 5 6 4 4 2 1 0 -1 -1 0 1 2 3 4 3 2 -1 -5 -6 -8 -7 -6 -4 -2 0 -1 -2 -5 -7 -9 -8 -6 -3 1 4 6 5 4 1 -2 -4 -2 2 6 12 17 19 18 13 5 -3 -11 -16 -16 -14 -9 -3 1 2 -1 -7 -14 -18 -18 -13 -3 9 20 25 20 5 -20 -52 0 0 0 0 0 0
1 1 0 0 0 0 0 -2 -1 -1 -1 -1 0 1 0 1 1 2 2 2 1 2 1 1 0 0 0 0 -1 -1 -2 -2 -3 -4 -4 -5 -6 -5 -4 -4 -2 0 2 2 3 5 5 5 5 4 4 2 2 1 0 1 0 0 0 0 0 -1 -1 -2 -1 -1 -1 -1 -1 -1 0 0 -1 0 -1 0 0 0 -1 0 0 0 1 1 1 1 1 1 0 -1 -2 -1 -2 -3 -4 -4 -3 -3 -2 -1 -1 -1 -1 -1 -1 -1 -1 -1 -1 0 0 1 0 0 0 -1 -2 -3 -4 -5 -7 -7 -7 -6 -6 -5 -4 -4 -2 -2 -1 -1 -1 -2 -2 -2 -2 -2 -1 -1 0 0 0 0 1 1 1 1 2 1 2 2 1 2 2 3 3 3 2 2 1 0 0 -1 -1 -1 -1 -1 0 0 0 0 0 0 0 0 -1 0 1 0 1 1 1 1 2 0 -1 -2 -4 -5 -4 -6 -5 -5 -4 -3 -2 -1 -1 -1 -2 -2 -2 -3 -3 -4 -4 -4 -5 -5 -5 -4 -3 -4 -4 -3 -4 -3 -3 -2 -2 -2 -1 0 1 2 2 3 4 3 3 3 2 2 3 3 4 6 8 11 14 18 19 19 18 14 8 0 -11 -22 0 0 0 0 0 0
0 0 0 0 0 0 0 0 1 1 1 2 2 2 2 2 1 2 1 2 2 2 2 2 2 2 1 2 2 1 1 0 0 0 -1 -1 -1 -1 -1 -1 -2 -1 -2 -2 -2 -2 -2 -2 -3 -3 -3 -3 -4 -3 -3 -3 -3 -3 -3 -3 -2 -3 -2 -2 -2 -2 -1 0 -1 0 0 0 -1 0 1 1 1 0 0 0 1 1 0 0 1 1 0 1 0 1 1 1 0 0 0 0 0 0 0 0 -1 -1 -1 -2 -1 -3 -3 -4 -3 -4 -4 -4 -4 -3 -4 -4 -3 -3 -3 -2 -2 -1 -1 1 1 1 2 2 3 3 3 4 4 3 4 4 3 3 4 3 3 3 2 2 3 2 1 2 1 1 0 0 0 0 0 0 0 -1 0 -1 -1 -1 -1 -1 -1 -1 -1 -1 -2 -2 -2 -2 -3 -3 -3 -4 -4 -4 -4 -3 -2 -2 -1 0 -1 0 1 2 1 2 2 3 1 2 1 0 0 0 -1 0 -1 -1 0 -1 0 0 0 0 1 0 1 0 1 1 1 1 1 2 1 0 1 1 2 2 2 2 2 3 4 3 3 3 2 0 0 0 0 0 0 2 2 3 2 1 0 1 -1 -2 -3 -5 0 0 0 0 0 0
2 0 1 1 1 1 3 2 3 1 0 -2 -3 -4 -4 -5 -3 -2 -1 0 1 0 1 -1 -1 -3 -3 -2 -1 0 1 1 2 3 2 1 1 0 -1 -1 0 1 2 2 2 2 2 0 1 -1 -2 -1 -2 -2 -1 -1 -1 -2 -3 -3 -5 -4 -4 -3 -1 -1 0 0 0 0 0 -2 -2 -2 -1 -1 1 1 2 1 0 -1 -2 -4 -4 -5 -4 -3 -2 -1 0 0 -1 -1 -1 -2 -3 -2 -1 0 1 2 2 2 1 0 0 -2 -1 -1 0 2 2 3 4 4 3 1 0 -1 -1 -2 -1 -1 1 1 0 0 -1 -3 -3 -4 -4 -3 -3 -1 1 2 2 3 2 1 -1 -2 -3 -2 -1 0 1 2 2 2 2 0 -1 -3 -3 -1 0 2 4 5 6 5 4 3 1 -1 -3 -3 -3 -2 0 1 3 3 2 0 -1 -3 -4 -5 -3 -1 1 4 6 7 7 5 2 -1 -4 -7 -7 -6 -3 0 3 4 5 3 -1 -5 -8 -11 -10 -8 -3 2 5 6 4 1 -6 -11 -16 -17 -16 -10 -3 4 9 11 9 4 -3 -10 -14 -14 -10 -3 7 15 20 20 15 7 -3 -11 -15 -13 -6 3 12 17 15 6 -12 -34 0 0 0 0 0 0
4 4 4 4 4 3 2 2 1 1 0 -1 -1 -3 -3 -2 -3 -2 -2 -1 0 0 0 0 -1 0 1 1 1 2 3 3 3 2 2 0 -1 -2 -2 -2 -2 -3 -2 -1 -2 -2 -3 -4 -5 -6 -6 -6 -5 -6 -4 -3 -3 -2 -2 -1 -3 -3 -3 -4 -5 -6 -4 -5 -4 -3 -2 -1 0 1 2 3 3 5 4 5 4 4 4 3 3 2 3 3 3 3 4 3 3 3 3 3 2 2 2 2 2 3 4 4 4 3 3 2 1 0 0 -1 0 -1 -1 -1 0 -1 0 -1 -2 -2 -2 -3 -2 -1 -1 0 0 0 0 0 -1 -2 -3 -3 -4 -4 -4 -4 -4 -4 -4 -5 -5 -5 -5 -5 -5 -5 -4 -4 -3 -4 -4 -4 -4 -5 -4 -3 -3 -1 1 2 3 4 5 4 4 3 3 1 1 0 -1 -2 -2 -2 -2 -2 -1 -1 -1 0 0 1 3 2 3 3 3 3 2 2 2 2 2 2 2 3 3 3 2 2 1 2 1 0 -1 -1 -1 -2 -1 -2 -2 -1 -2 -1 0 0 0 1 1 0 0 -1 -3 -2 -4 -3 -2 0 2 4 5 7 8 7 6 4 2 -1 -3 -5 -6 -6 -4 -1 3 7 0 0 0 0 0 0
-4 -3 -4 -4 -3 -2 -2 -2 -1 -1 0 0 0 1 2 2 3 3 3 4 4 5 4 4 4 3 2 2 2 1 1 0 -1 -2 -2 -3 -4 -4 -5 -5 -5 -6 -5 -5 -5 -4 -4 -3 -3 -2 -1 0 1 2 2 2 2 4 4 4 4 4 4 4 4 4 4 3 3 3 2 1 2 1 1 0 -1 -1 -1 -1 -2 -2 -2 -3 -2 -3 -2 -2 -2 -3 -2 -2 -2 -2 0 0 1 1 2 2 2 2 2 1 2 1 1 1 1 2 1 1 2 0 1 0 -1 -2 -2 -2 -2 -2 -1 0 0 0 0 0 0 1 0 0 0 0 0 0 -2 -2 -2 -3 -4 -4 -3 -4 -3 -2 -2 -1 -1 -1 -1 0 0 0 2 2 2 3 4 4 4 3 3 2 2 1 1 1 2 2 3 3 3 4 4 3 3 3 2 2 3 3 4 4 3 1 0 -2 -3 -4 -6 -7 -7 -8 -7 -6 -5 -5 -3 -4 -3 -3 -2 -3 -2 -1 1 2 4 5 5 5 5 4 2 0 0 -2 -1 -1 1 2 4 4 5 3 3 2 1 2 1 1 2 3 3 4 2 0 -3 -6 -9 -12 -14 -14 -13 -10 -5 3 13 23 0 0 0 0 0 0
0 1 0 0 0 -1 -2 -3 -2 -2 -1 0 0 1 2 2 1 0 0 0 0 0 1 2 3 3 3 3 2 2 2 0 1 0 1 2 1 1 1 -1 -1 -3 -3 -4 -4 -3 -1 0 0 0 0 0 -1 -2 -1 -2 -2 -1 0 2 1 2 0 0 -1 -2 -2 -2 -2 -1 1 1 2 2 1 0 -1 -3 -2 -3 -2 -1 0 1 1 2 0 -1 -1 -2 -1 -1 0 2 3 4 4 3 2 1 0 -2 -1 -1 -1 0 1 3 2 1 1 0 -2 -2 -2 -1 -1 1 2 2 2 0 -1 -3 -4 -5 -4 -2 -1 2 4 5 4 2 1 -2 -4 -4 -4 -3 -1 2 4 5 5 4 2 0 -3 -4 -5 -4 -3 -1 1 2 2 1 0 -3 -4 -6 -6 -4 -3 0 3 4 4 2 1 -2 -4 -6 -5 -3 -1 1 5 6 6 6 4 1 -1 -3 -3 -3 -1 1 4 5 5 4 2 -2 -5 -7 -7 -5 -3 -1 2 3 3 1 -1 -4 -7 -8 -8 -6 -1 2 6 8 9 7 2 -2 -7 -10 -10 -8 -5 -1 3 5 5 3 0 -4 -7 -8 -8 -5 0 4 8 8 6 2 -4 -9 -12 -9 -1 12 28 47 0 0 0 0 0 0
-2 -2 -1 -2 -2 -1 -2 -1 -2 -1 0 1 0 1 2 2 1 2 2 2 1 1 1 0 0 0 -1 0 0 -1 -1 -1 -2 -1 -1 -2 -2 -1 -1 -2 -2 -2 -1 -1 0 0 0 2 2 3 2 3 2 2 2 1 1 -1 -1 -1 -1 -1 -1 -2 -2 -2 -2 -3 -3 -4 -4 -3 -3 -3 -2 -2 -1 0 0 1 1 2 2 2 2 2 1 2 1 0 1 1 1 2 4 3 5 5 5 4 4 2 1 0 -1 -2 -4 -5 -6 -7 -6 -6 -6 -5 -4 -1 0 3 4 6 8 7 7 6 5 4 2 2 1 1 0 0 0 -1 -1 -2 -2 -2 -2 -2 -3 -4 -4 -4 -4 -5 -4 -4 -3 -2 0 1 4 6 6 7 6 6 4 2 0 -2 -3 -4 -4 -4 -2 -2 -1 0 2 2 3 3 3 3 3 2 1 0 -2 -2 -4 -5 -6 -6 -5 -2 -1 0 2 4 4 4 3 2 1 1 0 0 0 2 1 2 3 3 3 3 3 4 3 1 0 -2 -5 -6 -9 -12 -12 -12 -10 -8 -4 1 4 8 12 15 16 16 14 11 7 4 1 -2 -4 -5 -7 -8 -9 -10 -10 -10 -10 -9 -7 -1 6 16 0 0 0 0 0 0
-7 -7 -7 -7 -6 -5 -4 -3 -2 -1 -2 -2 -3 -3 -4 -4 -3 -4 -3 -2 -2 -2 -2 -3 -3 -3 -1 -1 1 3 6 7 8 8 9 8 7 6 5 5 4 5 6 6 7 6 5 4 2 3 2 2 2 3 4 4 4 2 1 -1 -2 -3 -4 -5 -4 -4 -3 -2 -1 -2 -2 -3 -3 -4 -4 -5 -4 -2 -2 -1 1 1 2 1 0 -2 -2 -3 -3 -3 -3 -2 -2 -2 -2 -3 -4 -3 -4 -3 -2 -1 -1 0 0 1 1 1 1 1 0 1 1 2 2 2 3 3 4 3 4 3 4 4 4 5 4 3 3 2 2 1 1 1 2 3 4 6 6 7 7 7 7 6 5 5 4 4 4 5 5 6 6 7 7 6 5 3 3 1 0 -1 -1 -2 -3 -2 -1 -2 0 0 -1 -2 -2 -2 -3 -2 -2 -2 -1 -2 -2 -3 -4 -6 -6 -8 -8 -8 -7 -6 -6 -4 -4 -4 -5 -6 -8 -8 -8 -9 -8 -8 -6 -6 -6 -5 -5 -5 -4 -4 -3 -2 -1 0 1 2 1 2 1 0 0 0 2 3 5 7 7 7 7 8 7 8 10 14 18 20 20 18 13 7 -1 -4 -5 -3 0 0 -5 -20 -41 -67 0 0 0 0 0 0
4 3 4 4 4 5 4 5 4 4 4 3 2 2 2 2 1 1 1 0 -1 0 0 0 -1 -1 -1 0 0 1 0 1 1 0 1 1 1 1 1 1 1 1 1 1 2 2 3 2 2 2 1 0 -1 -2 -2 -3 -4 -4 -4 -3 -2 -2 -1 0 1 2 2 3 4 4 4 3 4 4 4 4 5 4 5 5 4 4 4 3 3 3 3 3 2 2 2 2 2 2 3 3 3 4 3 4 3 4 3 2 2 1 0 -1 -1 -2 -3 -4 -4 -4 -5 -5 -6 -7 -8 -7 -6 -5 -4 -3 -1 0 1 0 1 0 0 -1 -2 -2 -2 -1 0 0 0 1 1 1 1 0 1 0 0 0 0 -2 -1 -2 -3 -4 -3 -4 -4 -3 -4 -3 -3 -3 -3 -3 -2 -3 -2 -2 -2 -1 0 0 0 0 1 1 1 0 1 0 0 -1 -2 -1 -1 -1 -3 -3 -3 -4 -4 -4 -4 -4 -4 -4 -3 -2 -1 -2 -1 -1 -1 -1 -3 -3 -2 -3 -2 -3 -2 -3 -3 -3 -4 -5 -5 -6 -6 -5 -5 -4 -4 -4 -3 -3 -2 -2 -2 -2 -3 -5 -7 -7 -8 -8 -7 -6 -4 -3 -2 -2 -2 -2 -4 -5 -8 -10 -10 -10 0 0 0 0 0 0
0 1 1 2 3 2 4 3 3 3 3 1 1 0 0 -1 -2 -2 -3 -2 -2 -2 -2 -1 0 1 2 2 3 3 4 5 5 3 3 2 2 1 0 -1 -2 -3 -4 -6 -6 -6 -6 -7 -7 -6 -6 -6 -4 -3 -3 -1 1 2 3 4 5 5 5 5 4 4 3 2 2 1 0 -1 -1 -1 -2 -2 -1 -1 -2 -1 -1 -1 0 1 0 0 1 1 0 0 0 -2 -3 -2 -3 -3 -4 -4 -4 -4 -5 -4 -3 -3 -2 -1 0 1 2 3 4 4 3 3 4 3 3 1 2 1 0 -1 -1 -1 -2 -1 -1 -1 -1 0 0 0 0 1 1 1 1 0 0 0 -1 -2 -2 -2 -2 -3 -2 -3 -3 -3 -1 -1 -1 -1 0 1 1 1 2 2 3 3 3 4 3 3 2 1 2 1 1 1 0 -1 -1 -1 -1 -1 -1 -1 -1 -1 -1 -1 0 0 1 1 2 2 3 3 2 2 2 0 0 -1 -1 -2 -2 -3 -3 -3 -2 -1 -1 0 1 2 2 3 3 3 3 2 1 1 0 0 0 0 -1 0 1 1 1 1 1 1 1 1 0 0 0 0 0 -1 0 0 1 0 0 -1 -2 -3 -4 -4 -6 -8 0 0 0 0 0 0
2 1 1 0 0 -1 -1 -1 -2 -2 -2 -1 0 -1 0 1 0 0 1 0 1 1 2 2 3 4 4 5 6 4 3 2 2 0 0 -2 -3 -3 -2 -1 -1 -1 0 0 -1 -1 -1 -2 -2 -3 -3 -3 -3 -3 -2 -1 -1 -1 1 0 1 0 0 -1 -2 -2 -2 -2 -2 -1 -1 -2 -2 -3 -2 -3 -2 -1 -1 1 2 3 3 4 3 2 0 -1 -3 -4 -5 -5 -5 -5 -4 -3 -2 1 2 2 3 3 3 2 3 2 2 2 2 3 3 3 3 4 4 4 3 2 2 2 2 2 2 2 2 3 3 3 3 2 1 1 0 0 -1 -2 -2 -3 -2 -1 -1 -1 -1 -1 -2 -3 -4 -4 -3 -4 -4 -4 -3 -3 -3 -3 -3 -4 -3 -3 -3 -3 -2 -1 0 1 2 2 1 2 0 -1 -3 -4 -6 -7 -6 -6 -6 -6 -5 -4 -4 -4 -4 -4 -5 -6 -6 -7 -7 -6 -5 -4 -2 -1 1 3 5 6 6 6 7 7 6 7 6 5 5 4 3 3 1 0 -1 -2 -2 -2 -2 -1 -1 -1 1 1 1 0 0 0 -1 -3 -4 -5 -6 -6 -4 -2 -1 2 3 6 6 7 6 5 5 4 4 4 3 3 0 0 0 0 0 0
0 0 0 -1 -1 -1 -2 -3 -3 -3 -3 -4 -2 -2 -2 -2 -1 -2 -1 -1 -1 -1 0 -1 0 -1 -1 -1 -1 -1 -1 0 -1 0 1 1 1 2 2 3 3 3 3 3 3 3 2 2 1 2 2 1 0 0 -1 -2 -2 -3 -4 -5 -6 -6 -6 -6 -6 -6 -5 -4 -4 -3 -3 -2 -1 0 0 1 2 2 3 3 3 4 3 4 4 4 4 4 4 4 4 4 3 2 1 1 0 0 -1 -2 -2 -3 -3 -3 -2 -3 -2 -2 -1 0 0 0 2 2 1 1 1 2 1 1 2 1 1 1 1 0 -1 -1 -1 -1 -1 -2 -2 -1 -2 -1 0 0 0 1 1 2 2 2 2 3 2 2 3 3 2 2 1 1 -1 -2 -2 -4 -4 -5 -6 -6 -5 -5 -4 -4 -3 -2 -1 0 2 2 4 5 4 5 5 6 6 5 5 5 4 3 3 1 1 1 0 0 0 0 0 0 1 1 1 1 1 1 1 0 0 -1 -1 -1 -1 -2 0 0 -1 0 1 2 2 3 2 3 2 2 1 1 0 0 0 0 0 0 1 2 2 4 4 5 5 4 4 3 1 0 -1 -3 -5 -7 -7 -9 -9 -8 -6 -5 0 0 0 0 0 0
3 3 3 2 2 1 1 0 0 -1 -1 -1 -2 -2 -2 -2 -2 -2 -1 -2 -2 -1 -1 -1 -1 -1 -1 0 -1 -1 -1 -1 -2 -1 -1 -2 -2 -2 -2 -2 -2 -2 -2 0 0 0 1 1 1 2 2 2 2 1 2 2 1 2 2 2 3 4 3 5 5 5 5 5 5 4 3 2 2 2 1 1 0 0 0 0 0 -1 -1 0 -1 -1 -1 -2 -3 -2 -3 -4 -3 -5 -4 -4 -4 -4 -3 -2 -1 0 0 1 1 1 2 2 2 2 3 2 2 1 2 2 2 4 5 5 6 7 7 7 7 7 5 5 4 3 1 1 0 -1 -2 -2 -3 -4 -4 -4 -4 -5 -4 -4 -4 -4 -3 -2 -2 -1 -1 -1 -1 -1 0 0 1 0 1 -1 -1 -2 -3 -4 -4 -5 -5 -4 -5 -4 -3 -2 -1 -1 1 1 3 3 4 4 4 4 4 3 3 2 2 2 1 0 0 0 -1 0 0 0 -1 -1 -1 -1 -2 -2 -1 -1 -1 0 1 1 1 1 1 0 0 0 -1 -1 -1 0 0 1 1 1 1 1 0 0 -1 -3 -4 -4 -3 -4 -3 -1 1 3 5 5 5 4 2 0 -3 -6 -9 -10 -10 -7 -2 3 0 0 0 0 0 0
-3 -3 -3 -2 -2 -1 -1 -2 -2 -3 -4 -4 -5 -4 -5 -4 -3 -3 -4 -3 -3 -4 -3 -3 -3 -3 -2 -1 0 1 1 2 2 2 2 2 2 1 1 2 2 3 3 3 3 2 1 1 0 -2 -2 -2 -3 -2 -1 -1 -1 -1 0 -1 -1 -2 -2 -3 -3 -3 -2 -1 -1 -2 -1 0 -1 0 -1 -1 -1 -1 0 -1 -1 -1 -2 -2 -2 -2 -3 -4 -4 -3 -3 -3 -4 -4 -4 -4 -3 -3 -2 -1 0 0 2 3 3 3 3 3 3 3 3 4 5 6 7 7 5 6 5 4 3 3 3 2 2 2 1 1 1 -1 -2 -2 -3 -3 -3 -2 -3 -2 -2 -2 -2 -3 -3 -3 -3 -3 -3 -2 -1 -1 -1 0 -1 -2 -1 -1 -2 -1 -1 -1 -1 -1 -1 -2 -2 -1 -1 0 0 1 2 2 1 2 1 1 1 1 0 1 2 2 4 4 5 5 4 4 3 2 1 -2 -2 -3 -3 -2 0 1 3 4 3 1 -2 -5 -7 -8 -7 -4 0 4 7 8 6 1 -4 -10 -14 -15 -12 -7 0 7 11 13 11 4 -3 -10 -15 -15 -10 -2 8 15 19 17 10 -1 -14 -24 -28 -24 -14 3 21 34 37 29 10 -15 0 0 0 0 0 0
-2 -1 -1 -1 -1 -2 -2 -3 -3 -4 -4 -4 -4 -4 -3 -3 -4 -4 -3 -2 -2 0 1 2 2 3 3 4 4 5 5 5 5 5 4 4 4 2 3 2 1 1 2 2 2 1 2 2 2 2 2 1 0 0 0 -1 -1 -2 -3 -3 -3 -3 -3 -3 -2 -2 -2 -2 -1 -1 0 0 1 1 0 1 1 0 0 0 -1 -1 -2 -2 -3 -3 -2 -3 -3 -4 -4 -4 -4 -4 -4 -3 -3 -3 -2 -1 0 1 1 2 2 2 3 3 3 3 3 3 4 4 4 4 3 3 2 2 3 2 2 2 2 2 2 1 1 0 1 1 0 0 -1 -2 -2 -3 -3 -4 -4 -4 -4 -5 -4 -4 -4 -3 -3 -3 -1 0 0 2 2 2 3 3 4 4 4 3 4 3 2 2 2 2 1 1 1 1 1 1 2 2 2 2 2 3 2 3 3 3 3 1 1 0 -1 -2 -3 -4 -4 -5 -6 -7 -8 -8 -8 -7 -7 -7 -6 -4 -3 -1 0 2 2 4 4 5 5 5 5 5 4 3 4 3 3 3 2 2 1 1 1 0 1 -1 -1 -1 -1 -1 -2 -2 -1 -1 -1 1 1 1 3 3 2 1 -1 -4 -6 -9 0 0 0 0 0 0
4 3 3 2 2 2 1 0 1 1 1 1 0 0 0 -1 0 0 0 0 0 1 0 -1 -1 -1 -2 -3 -3 -4 -4 -4 -4 -4 -4 -4 -3 -4 -3 -3 -2 -1 0 1 2 3 3 4 5 4 4 3 3 2 2 0 0 -1 -1 -1 -1 -1 -1 -1 -1 0 0 0 1 0 1 0 -1 0 -1 -2 -3 -3 -4 -4 -4 -4 -3 -4 -3 -2 0 -1 0 0 -1 -1 -1 -1 -2 -1 -1 -2 -1 -1 -1 0 -1 -1 0 -1 0 0 1 1 2 2 3 3 2 2 2 2 1 2 2 2 2 1 1 0 0 -1 -1 -2 -2 -2 -1 -1 0 0 0 0 -1 -1 0 -2 -2 -1 -2 -2 -2 -2 -2 -3 -3 -2 -3 -2 -3 -2 -2 0 0 0 0 0 0 -1 -1 -2 -2 -1 -2 -2 -2 -1 -1 -1 0 0 0 1 0 0 0 0 0 -1 0 0 0 -1 -1 -1 -2 -3 -4 -5 -5 -5 -4 -4 -2 -1 0 1 1 1 1 1 1 1 2 1 2 1 1 0 -3 -3 -4 -6 -7 -8 -7 -7 -6 -5 -3 -1 -1 0 0 1 0 1 1 2 2 2 5 5 7 8 10 11 13 14 14 12 11 9 6 2 0 0 0 0 0 0
-1 -1 -1 -1 -1 -2 -2 -2 -3 -2 -4 -4 -4 -3 -3 -3 -3 -3 -3 -3 -2 -2 -2 -2 -2 -1 -2 -2 -2 -2 -2 -2 -2 -2 -2 -1 -2 -1 -1 -1 0 0 0 0 1 1 1 0 0 0 0 0 0 0 0 0 -1 -1 -1 0 0 0 0 -1 0 1 0 0 1 2 2 1 1 1 0 0 0 0 0 -1 0 -1 -1 0 -1 -1 -2 -1 -1 0 -1 0 0 1 0 0 1 0 0 0 0 -1 -1 -2 -1 0 -1 0 1 0 1 0 1 0 1 0 -1 -1 0 -1 -2 -3 -3 -3 -3 -3 -2 -3 -2 -2 -1 -2 -1 -1 -1 -1 -1 0 0 0 -1 0 -1 -2 -2 -3 -3 -3 -4 -3 -3 -2 -2 -1 -1 0 -1 -1 -1 -1 -1 -1 0 0 0 1 0 1 0 -1 0 0 0 0 1 1 1 2 2 2 2 2 1 1 1 1 1 1 0 1 1 2 3 4 4 5 5 6 5 5 4 3 2 1 0 0 0 0 0 0 2 1 3 3 3 3 2 1 1 -1 -2 -4 -4 -4 -4 -4 -3 -2 -2 0 0 2 2 2 3 3 2 1 -1 -1 -2 -4 -5 -5 -4 0 5 13 22 33 0 0 0 0 0 0
-4 -4 -3 -4 -4 -4 -4 -3 -4 -2 -2 -3 -1 -1 -1 -1 -1 0 0 -1 0 0 0 0 1 0 0 1 1 1 2 2 3 1 1 0 1 0 0 -1 -1 0 0 1 1 1 1 2 2 2 3 2 2 2 1 0 1 0 0 -1 -1 -1 0 0 -1 0 1 1 1 2 2 2 2 1 2 1 0 0 0 -1 -1 -1 -2 -2 -2 -2 -2 -3 -3 -3 -2 -2 -2 -1 -1 0 0 1 1 2 3 3 3 2 3 4 3 3 3 4 3 3 3 2 1 0 -1 -1 -1 -2 -2 -3 -3 -3 -2 -2 -2 -1 -1 0 1 0 0 0 -1 -1 -1 -2 -3 -2 -2 -1 1 3 4 5 5 5 6 5 4 4 2 1 1 1 1 1 1 1 2 2 2 1 1 0 -2 -3 -3 -3 -2 -2 0 1 2 3 4 3 3 2 0 -1 -3 -4 -5 -5 -4 -4 -3 -1 0 0 1 0 0 -2 -3 -4 -4 -4 -4 -3 -2 0 2 3 5 5 5 3 1 0 -2 -3 -4 -5 -4 -2 0 1 3 4 4 3 2 1 0 -2 -2 -3 -2 -2 -1 2 4 6 6 5 4 2 0 -3 -5 -7 -9 -9 -8 -6 -2 5 0 0 0 0 0 0
-3 -3 -4 -4 -4 -4 -6 -6 -6 -6 -6 -5 -5 -4 -3 -2 -1 0 1 2 3 4 5 6 6 7 6 6 6 4 4 3 1 0 0 0 1 0 1 1 0 1 0 0 -1 -1 -2 -1 -2 -2 -1 -2 -1 0 0 1 1 2 2 2 2 3 3 2 3 2 2 2 1 0 0 -1 -1 -2 -2 -2 -3 -3 -4 -4 -3 -3 -2 -1 -1 0 0 1 1 1 1 1 0 1 0 -1 -1 -2 -3 -3 -3 -4 -4 -4 -3 -3 -3 -2 -2 -2 -2 -2 -1 -1 -1 -1 -1 0 0 1 1 2 1 2 3 3 3 3 3 5 4 5 5 4 5 5 5 4 4 3 3 2 1 1 0 -1 0 -1 -1 0 -1 0 0 2 2 1 1 0 0 -1 -1 -1 -1 -1 -1 -1 -1 -1 -1 -1 -2 -2 -2 -2 -2 -1 0 2 3 5 6 6 7 6 6 5 4 4 3 1 0 1 0 1 2 1 2 1 1 1 1 0 -1 -2 -3 -4 -4 -5 -5 -5 -4 -4 -3 -3 -2 -2 -1 -2 -1 0 1 2 3 5 6 7 6 5 3 1 0 -2 -3 -3 -1 0 1 1 0 -2 -7 -10 -15 -19 -22 -20 -15 -6 9 27 0 0 0 0 0 0
3 1 0 0 -1 1 1 2 2 1 0 -1 -3 -5 -5 -4 -3 -2 0 1 1 1 0 -1 -2 -3 -3 -2 -2 1 3 4 4 4 3 1 0 -1 -1 -2 0 1 2 2 2 1 0 -1 -2 -3 -2 -1 1 2 3 3 3 2 0 -2 -3 -3 -2 -1 1 2 4 4 3 1 0 -1 -3 -3 -2 -1 0 1 2 1 1 -1 -3 -4 -5 -4 -3 0 1 3 3 3 2 1 -1 -2 -3 -2 0 2 4 4 5 3 1 -2 -4 -5 -5 -3 -1 1 3 5 5 4 2 1 -1 -2 -3 -2 1 3 5 6 5 4 1 -2 -5 -7 -7 -7 -4 -1 2 5 5 5 2 0 -2 -4 -4 -2 1 4 7 7 8 6 3 0 -4 -5 -5 -3 1 4 7 7 6 4 0 -5 -8 -10 -10 -7 -2 2 7 9 8 5 1 -5 -8 -9 -7 -4 1 6 10 9 8 2 -4 -9 -12 -13 -9 -4 3 9 12 12 8 2 -5 -11 -14 -14 -9 -3 5 11 13 13 9 2 -5 -11 -14 -14 -11 -5 2 6 8 8 4 -2 -8 -12 -12 -11 -7 -2 3 7 8 6 2 -3 -8 -11 -12 -10 -7 -2 2 5 8 8 9 9 8 8 0 0 0 0 0 0
-1 -1 -1 -1 0 0 0 0 1 2 1 0 0 0 -1 -1 -1 -1 -2 -2 -2 -2 -2 -1 -1 0 -1 -1 0 0 0 1 0 0 0 0 -1 0 0 -1 -1 0 -1 0 0 0 0 1 1 1 0 0 1 0 0 0 0 -1 -1 -1 0 0 0 0 1 1 2 3 4 3 4 4 4 3 2 2 1 0 -1 -2 -2 -3 -4 -5 -4 -5 -4 -3 -2 -1 -1 0 -1 -1 -1 0 1 0 0 0 0 0 0 0 0 0 0 0 1 1 0 1 1 2 2 2 2 1 0 1 0 -1 -1 0 0 0 0 0 0 0 0 0 1 1 1 1 0 1 1 0 1 1 1 2 2 2 2 2 2 2 2 2 1 0 0 0 0 0 1 0 0 0 0 0 -1 -1 -2 -2 -4 -5 -5 -6 -6 -6 -5 -5 -5 -4 -3 -2 -1 0 0 1 1 1 2 3 3 4 5 6 8 8 9 10 10 9 8 8 6 5 4 3 4 3 3 3 3 4 3 3 3 1 0 -1 -3 -3 -5 -5 -5 -5 -5 -5 -4 -4 -3 -4 -3 -3 -3 -4 -4 -5 -6 -6 -6 -5 -4 -2 0 2 2 3 3 0 -2 -7 -13 -19 0 0 0 0 0 0
5 5 5 5 3 3 2 3 1 0 -1 -1 -2 -3 -3 -4 -4 -4 -4 -4 -5 -4 -4 -4 -3 -3 -3 -3 -2 -2 -2 0 -1 0 0 0 1 1 2 3 3 5 6 7 6 7 7 7 7 7 6 6 5 4 4 4 4 4 4 4 4 3 4 4 3 3 3 3 3 3 2 2 2 2 2 1 0 -2 -2 -3 -4 -4 -5 -5 -5 -5 -3 -3 -3 -3 -3 -3 -3 -3 -3 -3 -4 -5 -6 -6 -7 -6 -7 -7 -8 -8 -8 -7 -6 -5 -3 -2 0 1 2 3 4 5 6 6 7 7 7 6 7 7 6 6 6 6 6 5 4 3 3 1 0 -1 -2 -2 -3 -3 -3 -3 -4 -3 -4 -4 -4 -4 -4 -4 -4 -5 -6 -6 -6 -7 -8 -8 -8 -8 -7 -7 -6 -5 -4 -2 -2 -2 -1 0 0 0 2 2 3 3 4 4 4 4 5 4 5 4 5 5 4 4 4 3 4 3 3 4 4 4 5 6 6 7 7 8 7 7 7 6 6 6 6 6 6 7 6 6 6 6 6 5 5 5 6 6 6 6 6 7 6 4 3 0 -2 -4 -5 -6 -5 -5 -7 -12 -20 -27 -31 -32 -31 -27 -28 -33 -43 -56 0 0 0 0 0 0
-1 0 0 0 -1 0 0 0 1 1 2 1 1 0 1 0 0 0 1 0 1 1 1 1 1 1 1 0 1 1 1 1 1 2 2 2 2 3 2 2 2 2 1 0 1 0 1 1 0 1 2 2 2 2 3 3 3 3 2 2 2 1 1 0 1 1 1 1 1 0 1 0 0 -1 0 0 0 1 1 1 1 0 1 0 0 -1 -1 -1 -1 -1 0 -1 -1 -1 0 0 0 0 0 1 1 1 2 1 1 1 0 0 0 -1 0 -1 0 -1 -2 -2 -3 -3 -4 -3 -3 -2 -2 -1 1 1 1 0 1 0 0 -1 -1 -1 -1 -1 -2 -1 -1 -1 -1 -2 -1 -2 -3 -3 -2 -2 -2 -1 0 1 0 1 1 1 1 -1 -1 -1 -2 -2 -3 -3 -4 -4 -5 -6 -6 -7 -7 -6 -5 -5 -5 -4 -4 -4 -3 -4 -2 -2 -1 -1 0 -1 -2 -3 -4 -5 -7 -8 -8 -8 -7 -5 -4 -3 -3 -2 -2 -2 -2 -3 -3 -2 -2 -2 0 0 -1 -1 -3 -4 -5 -6 -6 -7 -6 -6 -7 -6 -7 -8 -8 -8 -8 -5 -1 2 5 6 6 3 -3 -8 -15 -20 -21 -20 -14 -5 6 15 24 27 24 14 -2 -24 0 0 0 0 0 0
-1 -1 -1 -2 -2 -2 -2 -2 -2 -2 -2 -1 -1 -2 -2 -3 -3 -2 -2 -2 -1 -1 0 1 2 2 3 4 3 2 3 2 1 0 0 -1 -2 -3 -3 -3 -3 -2 -2 0 1 2 2 3 4 3 3 3 2 1 1 1 0 0 0 0 -1 0 0 0 0 -1 0 -1 0 -1 0 0 -1 -1 -1 -1 -2 -2 -2 -2 -2 -2 -2 -2 -3 -4 -4 -5 -5 -6 -6 -7 -6 -6 -6 -6 -5 -4 -3 -3 -1 0 1 1 2 3 3 3 3 3 3 2 2 2 2 1 1 1 1 0 1 1 0 0 0 1 1 2 3 3 5 5 6 6 7 6 6 5 4 3 2 0 -1 -4 -5 -6 -7 -7 -7 -7 -6 -5 -4 -4 -3 -2 -3 -2 -2 -1 -2 -3 -2 -3 -3 -3 -3 -2 -2 0 0 1 3 4 5 6 7 7 7 7 7 6 5 4 3 3 2 1 1 0 0 0 0 0 0 0 0 -1 -2 -3 -4 -4 -6 -5 -5 -4 -2 -1 0 1 1 1 1 -1 -1 -4 -5 -7 -8 -8 -8 -6 -4 -2 0 2 4 5 5 5 6 4 3 1 1 0 1 2 3 5 6 6 7 8 8 7 5 3 -1 -4 0 0 0 0 0 0
1 1 1 1 2 3 3 2 2 1 0 1 -1 0 -1 -1 0 1 1 0 0 0 1 0 -1 -1 0 -1 0 0 0 -1 -1 -2 -2 -2 -3 -3 -3 -2 -1 -1 -1 1 1 1 1 0 0 -1 0 -1 0 0 0 -2 -1 -2 -2 -3 -3 -4 -3 -3 -3 -1 -1 -1 -1 -1 -2 -2 -2 -1 -1 -1 -1 -1 -2 -2 -2 -2 -2 -2 -2 -2 -2 -1 -1 -1 -1 -1 -1 -2 -2 -2 -1 -1 1 1 2 4 3 2 2 2 0 0 0 -1 -1 0 -1 1 0 0 0 -1 0 -2 -1 -2 -2 -3 -4 -3 -4 -3 -3 -3 -4 -3 -3 -3 -2 -2 -1 -1 0 1 0 0 1 1 1 2 2 2 4 3 3 3 3 2 1 -1 -2 -1 -2 -2 -1 0 0 1 1 1 0 1 0 0 0 0 1 1 1 2 1 1 1 1 0 0 0 0 1 1 3 4 4 5 6 5 5 5 4 5 4 4 3 3 3 3 1 1 0 -1 -1 -3 -5 -5 -7 -8 -9 -10 -10 -11 -11 -11 -9 -8 -6 -5 -4 -3 -2 -2 -1 -1 0 0 0 1 0 1 2 2 4 3 3 0 -2 -5 -8 -11 -12 -14 -12 -10 -3 5 0 0 0 0 0 0
-3 -3 -4 -4 -4 -5 -4 -4 -4 -5 -4 -3 -3 -4 -4 -4 -5 -5 -5 -4 -3 -2 -1 0 0 -1 -1 -1 -2 -2 -3 -3 -3 -2 -2 -1 0 1 0 0 -1 -2 -4 -4 -5 -5 -5 -3 -2 -1 0 0 0 0 0 -1 -2 -2 -2 -1 -2 -1 -1 -1 -1 -1 -2 -3 -3 -3 -2 -2 -1 -1 0 1 1 2 1 2 1 2 2 2 4 4 3 3 4 4 2 2 2 2 1 2 1 1 1 0 -1 -2 -2 -2 -3 -3 -3 -2 -1 -2 -1 -2 -2 -3 -3 -4 -5 -4 -5 -5 -4 -3 -2 -1 -1 -1 -1 0 0 0 0 1 1 1 1 1 0 -1 -1 -2 -3 -2 -3 -3 -3 -3 -3 -3 -4 -3 -3 -3 -2 -2 -1 0 1 1 2 2 2 2 3 3 3 4 5 6 6 5 4 3 2 1 2 2 3 4 4 5 5 3 2 0 -2 -5 -5 -4 -3 -2 -1 0 -1 -1 -1 -3 -4 -4 -3 -1 1 3 5 4 4 1 -1 -4 -6 -7 -7 -6 -4 -3 -1 0 0 0 -2 -2 -3 -3 -2 -1 0 -1 -2 -3 -5 -7 -9 -9 -9 -6 -5 -2 -1 1 1 0 -1 -1 -2 -2 0 4 10 15 20 23 0 0 0 0 0 0
16 15 14 12 11 10 9 8 7 6 5 4 2 1 0 -1 -3 -4 -4 -5 -6 -6 -5 -5 -6 -5 -4 -3 -2 -2 -1 -1 -1 0 1 3 3 4 4 5 4 4 3 3 3 3 2 2 2 2 3 3 3 2 1 1 -1 -1 -2 -2 -2 -1 -2 -1 -2 -3 -3 -5 -6 -6 -6 -5 -5 -4 -4 -3 -3 -4 -4 -5 -4 -4 -5 -4 -4 -2 -1 0 1 2 2 2 1 2 1 1 1 1 2 2 1 2 2 2 2 2 1 1 1 1 1 1 1 1 0 -1 -2 -3 -4 -4 -4 -5 -4 -3 -3 -3 -3 -2 -2 -2 -2 -1 -1 -1 -1 0 -1 -1 -2 -1 -1 -1 0 1 2 3 4 5 4 3 3 2 1 0 0 0 0 2 2 1 1 0 -1 -3 -5 -6 -6 -7 -7 -6 -6 -6 -6 -6 -6 -5 -5 -3 -2 1 2 4 5 6 5 6 4 3 3 3 2 2 3 2 0 0 -2 -2 -3 -1 0 0 1 2 2 1 0 -1 -2 -3 -4 -3 -3 -3 -4 -4 -7 -8 -9 -9 -8 -6 -5 -2 0 1 2 3 3 4 4 5 4 3 4 6 8 11 15 17 15 9 -3 -19 -33 -39 -33 -7 37 90 0 0 0 0 0 0
2 3 2 1 1 1 1 1 2 1 1 0 -1 -2 -2 -4 -3 -5 -4 -4 -4 -3 -2 -1 -1 0 0 0 0 0 0 0 0 0 0 2 1 2 2 2 1 2 1 1 2 2 2 1 1 1 2 2 3 3 4 3 3 3 3 3 3 2 2 1 1 0 0 0 -1 -1 -1 -3 -3 -3 -3 -3 -3 -3 -2 -2 -1 0 -1 0 0 0 0 0 0 0 0 0 1 2 2 2 2 2 0 0 -1 -2 -2 -2 -2 -2 -2 -2 -1 -1 -1 0 0 0 -2 -1 -2 -2 -2 -3 -3 -4 -3 -3 -3 -2 -1 -1 -1 0 0 1 2 2 3 3 3 3 2 2 1 0 0 -1 -2 -1 -1 -1 -1 -1 0 0 0 1 2 1 1 2 3 2 3 3 4 3 3 2 1 -1 -2 -3 -4 -5 -5 -4 -3 -3 -1 0 1 1 2 1 0 0 0 -1 -1 0 0 1 2 2 2 2 1 0 0 -2 -1 -2 -2 -1 0 1 2 3 4 4 3 2 0 -1 -4 -4 -6 -6 -4 -3 -2 0 1 2 2 1 -2 -3 -6 -7 -7 -7 -6 -4 0 4 7 9 9 8 6 3 -2 -6 -8 -10 -10 -8 -3 4 15 25 0 0 0 0 0 0
2 2 3 3 2 2 2 1 -1 -1 -2 -2 -2 -2 -1 0 0 -1 -1 -1 -2 -2 -2 -2 -2 -1 -1 0 1 1 2 2 2 1 1 0 1 0 1 1 1 0 0 -1 -1 -2 -1 -1 0 -1 0 0 -1 -1 -1 -2 -1 -1 0 1 1 3 2 3 2 1 1 -1 -1 -2 -1 0 1 2 2 3 2 0 -1 -2 -3 -4 -3 -2 -1 0 2 2 2 2 2 0 -1 -2 -2 -2 -2 -1 1 1 1 1 1 0 0 0 0 1 2 4 4 4 5 4 3 2 1 -1 -1 -2 -2 0 -1 0 0 2 1 2 1 0 0 0 -1 0 -1 -2 -3 -5 -5 -5 -5 -3 -2 -1 1 3 2 2 2 1 -1 -2 -2 -2 -1 1 2 3 3 3 1 0 -1 -3 -3 -3 -2 0 1 2 4 3 2 1 -1 -2 -2 -2 -1 0 1 3 5 6 6 5 3 2 1 0 -1 0 1 2 3 3 5 5 5 4 3 2 1 0 0 0 -1 -1 1 1 3 3 5 5 5 4 3 1 1 -1 -3 -4 -5 -5 -5 -4 -2 1 2 5 6 7 6 1 -4 -10 -16 -21 -22 -20 -14 -6 2 9 14 12 4 -11 -34 -61 0 0 0 0 0 0
-2 -2 -2 -2 -2 -2 -2 -3 -2 -3 -2 -3 -2 -2 -2 -2 -1 -1 0 0 0 0 1 1 2 1 1 1 0 0 0 -1 -1 -2 -2 -3 -3 -3 -4 -4 -4 -2 -3 -2 -1 -1 0 0 1 1 1 2 2 1 1 2 1 1 1 1 2 2 2 3 3 3 3 3 3 4 3 3 4 3 3 4 3 3 2 2 1 0 0 0 0 -1 -1 -1 -1 -1 -1 -1 -1 -1 0 -1 0 0 0 0 0 -1 -1 -1 -1 -2 -2 -2 -2 -3 -3 -3 -3 -3 -2 -3 -2 -2 -2 -2 0 -1 0 0 1 1 1 1 0 1 0 0 0 -1 -2 -2 -3 -4 -3 -4 -4 -4 -3 -2 -2 -1 -1 0 0 1 2 2 3 2 3 3 2 2 2 1 1 1 1 1 2 1 1 2 3 3 2 2 2 2 2 2 2 1 2 2 2 2 2 2 2 2 1 1 1 0 -1 -1 -1 -2 -2 -2 -2 -2 -2 -3 -2 -2 -2 -3 -3 -2 -3 -3 -3 -2 -3 -2 -2 -1 0 0 2 2 4 4 5 5 6 6 6 6 5 5 4 2 0 0 -3 -3 -5 -6 -6 -5 -5 -4 -3 -1 1 1 3 3 3 2 0 -1 0 0 0 0 0 0
-4 -3 -4 -3 -2 -1 -1 -1 -1 0 0 0 0 0 1 1 1 2 2 2 2 2 1 0 0 -1 -1 0 -1 0 1 1 1 1 1 1 0 1 0 1 2 2 1 2 2 2 2 2 1 1 0 0 0 0 0 0 0 0 0 1 0 1 1 1 0 0 -1 -2 -2 -2 -2 -2 -2 -1 -1 0 1 2 1 2 2 1 0 0 0 0 1 0 2 3 3 4 3 4 4 4 3 2 2 1 0 -1 -1 -1 -2 -2 -3 -3 -3 -4 -3 -4 -3 -3 -3 -3 -2 -1 -2 -2 -2 -3 -2 -2 -2 -1 -1 1 1 2 1 2 1 2 1 1 0 -1 -1 -1 -1 -3 -3 -3 -4 -4 -3 -3 -2 -2 -2 -1 0 0 1 1 2 1 1 1 1 0 1 1 2 2 2 2 2 2 2 2 2 2 1 2 1 2 1 1 1 1 1 1 0 0 0 -1 0 -1 -1 0 1 0 1 1 0 -1 -1 0 0 0 2 1 1 0 -1 -1 -2 -2 -3 -3 -3 -2 -1 -1 -1 -2 -3 -4 -5 -6 -5 -3 -1 0 2 3 3 3 1 -2 -3 -3 -2 2 5 8 10 8 4 -3 -11 -19 -22 -23 -17 -2 20 49 0 0 0 0 0 0
0 0 0 0 1 1 0 1 1 0 1 1 0 0 0 0 0 0 0 0 0 0 0 1 1 1 2 2 2 2 3 3 4 4 3 3 3 3 3 3 3 3 3 3 3 2 3 2 2 2 1 0 0 -1 -1 -1 -2 -3 -2 -3 -4 -3 -3 -3 -4 -3 -4 -4 -3 -3 -3 -2 -2 -2 -2 -3 -2 -2 -2 -1 -1 -2 -2 -2 -2 -1 -1 0 0 1 1 1 2 1 3 2 3 3 3 3 3 4 3 3 3 3 2 1 1 0 0 0 0 0 -1 0 0 0 -1 0 0 -1 0 0 1 0 0 0 0 -1 0 -1 0 0 0 0 0 0 -1 -3 -4 -4 -5 -6 -7 -6 -6 -5 -5 -4 -3 -2 -2 -3 -3 -3 -3 -2 -2 -1 -1 -1 0 1 1 2 3 3 3 3 3 2 2 1 0 0 -1 -1 -1 0 0 0 0 1 1 1 0 0 -1 -3 -4 -5 -6 -6 -6 -5 -4 -2 -1 0 0 1 0 0 0 -2 -2 -3 -3 -2 -2 -1 -1 0 -1 0 0 0 0 1 2 2 2 2 1 2 1 0 -1 -1 -1 0 0 1 2 3 4 4 4 3 3 1 1 1 0 0 0 2 4 7 0 0 0 0 0 0
-4 -3 -3 -3 -3 -3 -3 -3 -2 -2 -2 -1 -2 -2 -2 -1 -1 -2 -1 -1 -1 -2 -2 -1 -1 -1 -1 0 -1 -1 -1 -1 -1 -2 -3 -4 -5 -6 -5 -5 -6 -5 -5 -5 -4 -3 -2 -3 -3 -4 -4 -5 -5 -5 -4 -4 -5 -3 -3 -3 -2 -1 -2 -2 -1 -1 -2 -2 -1 -2 -1 -2 -1 -1 -2 -1 -1 -2 -2 -3 -3 -3 -3 -2 -3 -3 -2 -1 -1 -1 -1 -1 -2 -1 -2 -3 -3 -3 -3 -4 -3 -3 -4 -4 -4 -5 -6 -6 -6 -6 -5 -5 -5 -4 -2 -2 -1 -1 -1 0 -1 0 -1 -1 -1 -1 -1 -1 0 0 0 0 1 0 0 1 0 1 1 1 1 1 1 2 2 3 3 2 1 2 0 -1 -1 -2 -2 -2 -2 -2 -2 -2 -4 -4 -4 -4 -4 -3 -2 -3 -3 -2 -1 -1 -1 0 -1 0 1 1 2 2 2 1 2 1 1 1 2 3 4 4 5 4 3 2 0 0 -2 -2 -1 0 1 1 0 0 -2 -2 -2 -2 -1 1 3 4 5 5 3 2 0 -2 -1 -1 1 2 4 6 6 7 6 4 2 2 2 1 1 1 -2 -5 -9 -11 -13 -12 -7 -2 6 13 18 18 11 -2 -22 -46 0 0 0 0 0 0
-4 -5 -5 -5 -5 -6 -6 -5 -4 -4 -3 -2 -2 -1 -1 0 0 0 0 0 1 1 0 0 -1 -1 -1 -2 -2 -1 -1 -2 -1 -1 -1 -1 -2 -2 -1 -2 -1 -1 -1 0 0 1 1 2 2 2 3 3 2 3 4 4 3 3 2 3 2 1 1 0 0 -1 0 -1 -1 -1 -1 -2 -2 -3 -3 -3 -3 -4 -3 -4 -4 -5 -5 -6 -6 -6 -6 -6 -6 -6 -5 -4 -3 -2 -2 -2 0 0 1 1 1 1 0 0 -1 -1 -1 -2 -1 -1 0 0 1 1 1 2 3 4 4 5 4 5 6 6 6 6 6 5 3 3 2 0 -1 0 1 0 2 2 3 3 3 2 2 1 1 0 1 -1 -1 -1 -1 -1 -1 -1 -3 -3 -4 -4 -5 -5 -5 -5 -4 -5 -4 -4 -3 -3 -3 -3 -2 -1 -1 0 0 0 0 0 0 0 -1 0 0 1 1 1 1 0 0 0 -1 -2 -2 -1 0 0 1 1 0 -1 -3 -3 -4 -5 -5 -4 -5 -4 -3 -2 -2 -1 -2 -4 -4 -5 -6 -7 -6 -6 -6 -5 -4 -4 -4 -3 -3 -2 -1 1 3 6 8 10 12 14 14 15 15 15 15 15 14 12 9 4 -1 -7 -15 -23 0 0 0 0 0 0
-2 -2 -2 -2 -1 -2 -3 -4 -4 -6 -6 -5 -5 -5 -4 -2 -1 0 1 1 2 2 2 3 2 2 3 2 2 1 1 0 0 0 -2 -2 -2 -2 -2 -2 -2 -1 -1 -1 -1 0 0 0 2 1 2 1 2 1 1 0 -1 -2 -2 -3 -3 -2 -2 -3 -2 -2 -1 -1 -1 1 1 1 2 2 2 1 1 2 1 1 1 0 0 0 0 0 0 1 1 1 0 0 -1 0 -2 -1 -1 0 1 1 1 2 2 2 2 2 1 1 1 1 0 0 -1 -1 -1 -1 -1 0 0 0 0 1 2 3 3 3 2 2 2 1 0 0 -1 -2 -2 -3 -2 -2 -2 -1 0 -1 0 0 1 0 0 1 1 2 2 2 3 3 3 4 3 3 2 2 3 2 1 0 0 -1 -1 -1 -2 -2 -2 -2 -2 -2 -1 -1 -1 -1 0 -1 -1 -2 -4 -5 -6 -7 -7 -7 -7 -5 -5 -4 -2 0 2 4 5 7 9 10 10 10 10 9 8 7 6 4 3 2 0 0 0 0 0 0 0 0 0 0 0 0 0 0 1 2 2 3 4 4 5 4 4 3 1 1 0 -3 -4 -6 -7 -8 -10 -10 -11 -10 -8 -3 1 7 0 0 0 0 0 0
-5 -3 -2 -1 -1 0 1 0 0 0 1 2 3 4 4 5 6 6 5 6 5 5 3 3 4 4 5 4 4 3 4 2 2 0 0 -1 -1 0 0 1 1 1 0 -1 -2 -2 -3 -3 -2 -3 -1 -1 -1 1 0 0 0 1 0 0 0 0 1 1 0 0 0 -1 0 0 -1 -1 -2 -2 -3 -3 -3 -2 -2 -1 0 1 1 2 3 4 4 4 5 5 5 6 7 7 7 7 7 7 7 5 4 3 0 -1 -2 -4 -5 -5 -5 -6 -6 -6 -7 -7 -7 -6 -6 -5 -3 -2 -2 0 1 2 3 3 4 4 4 4 4 3 3 3 2 2 1 1 1 1 1 0 0 0 0 -1 -1 -2 -2 -2 -2 -2 0 1 1 1 2 3 3 3 3 4 5 6 7 8 9 9 9 9 7 5 3 2 1 0 -1 -1 -1 -3 -4 -7 -8 -11 -14 -15 -16 -16 -15 -14 -13 -13 -12 -13 -14 -15 -15 -14 -12 -10 -6 -4 -2 -2 -2 -4 -6 -5 -5 -3 0 2 5 6 6 5 0 -3 -6 -8 -8 -8 -5 -4 -3 -4 -5 -8 -10 -13 -13 -12 -9 -4 -1 2 2 1 -2 -5 -5 -3 2 10 18 22 19 8 -10 -32 0 0 0 0 0 0
