5 1 -1 7 2 -7 5 6 -3 -4 5 2 1 2 8 -6 -2 4 2 -2 -5 -1 1 1 -1 2 -11 8 1 3 -3 2 -2 -3 -1 -2 -1 -7 4 1 0 -1 -1 1 1 1 -1 4 5 -6 1 0 0 0 -1 -3 -5 -3 2 1 3 -7 -2 1 5 0 1 0 7 -1 1 1 3 5 1 0 3 3 -5 -2 2 2 0 0 2 2 3 -4 0 -3 -2 3 0 0 -1 1 0 -14 -4 -2 8 -3 6 0 0 -3 -3 -6 3 -5 -9 0 -2 -49 0 6 2 1 -1 -1 1 1 0 2 4 -4 0 -2 -7 4 0 2 0 3 -3 -2 4 -1 -4 -3 3 -1 5 -1 -1 1 -3 16 2 2 -2 -4 0 -4 -4 -2 -5 0 -3 0 4 -3 -1 -3 -1 2 -1 -4 -3 -1 1 2 3 -2 4 -4 -10 -2 -2 0 0 -3 -1 -2 -3 4 -3 -2 0 1 -2 -8 -1 0 2 3 4 0 4 3 -5 -6 -3 -3 0 -2 9 3 -1 -4 -3 -6 -2 4 -4 0 1 2 -1 1 -5 -1 -4 -2 0 -1 1 -6 0 -2 -6 1 -1 -4 1 2 1 0 -2 -4 -2 0 -4 1 -1 6 -2 1 -2 -4 1 3 2 -4 2 -1
4 2 -2 7 2 -8 4 5 -2 -3 4 2 1 1 8 -6 -1 4 3 -3 -5 -1 1 0 -1 2 -11 8 1 4 -2 2 -3 -2 -1 -1 -1 -7 4 1 -1 -2 -1 1 1 1 -1 5 4 -6 1 0 0 -1 -1 -3 -5 -4 1 0 3 -8 1 2 4 1 1 -1 7 0 1 1 3 5 0 0 2 2 -6 -2 1 1 1 -1 2 2 2 -4 0 -3 -2 2 0 0 -2 0 1 -9 -4 -2 7 -2 5 0 0 -2 -3 -7 2 -5 -8 1 -2 -43 -1 6 1 1 0 -1 0 1 0 0 4 -3 1 -2 -7 3 1 1 0 3 -3 -1 3 -1 -4 -3 1 -1 5 0 -1 1 -3 15 3 2 -2 -3 0 -3 -5 -2 -3 -1 -3 -1 4 -3 -1 -3 -2 1 0 -3 -3 0 1 3 4 -1 4 -3 -11 -1 -2 0 -1 -2 0 -1 -3 4 -2 -2 -1 -1 -2 -8 -2 -1 2 4 3 0 4 2 -4 -5 -2 -3 1 -2 8 3 -1 -3 -3 -5 -2 4 -4 0 1 3 -2 1 -6 -1 -4 -1 -1 -1 2 -5 0 -2 -5 1 -1 -2 2 2 1 0 -1 -3 -1 0 -3 1 -1 5 -1 0 -2 -5 1 3 2 -5 2 0
3 1 -2 6 2 -7 3 4 -2 -2 3 2 1 1 7 -5 -3 4 4 -2 -4 0 0 0 0 2 -11 8 0 4 -2 1 -3 -1 -1 -2 -2 -7 3 1 -1 -1 0 1 0 2 -1 5 4 -7 1 0 0 -1 0 -2 -5 -4 1 0 3 -8 2 1 3 1 2 -1 7 1 0 1 2 5 0 -1 2 2 -6 -2 1 -1 0 -1 2 3 2 -4 0 -3 -1 2 1 0 -1 0 1 -7 -4 -1 7 -2 5 -1 0 -2 -3 -7 1 -4 -7 1 -2 -39 -1 6 0 0 0 -1 1 0 0 1 4 -4 0 -1 -7 4 1 1 0 3 -3 -1 3 -1 -3 -4 0 -1 5 0 -1 1 -4 14 2 3 -2 -4 0 -3 -5 -2 -2 -1 -2 0 3 -3 0 -2 -2 0 0 -3 -2 0 3 3 3 -2 4 -3 -12 -1 -3 0 -1 -2 0 -1 -3 3 -1 0 -1 -2 -2 -8 -2 -1 1 2 2 0 4 2 -4 -5 -2 -3 1 -1 8 3 0 -3 -4 -6 -1 3 -3 0 2 3 -3 1 -6 -2 -4 -1 -1 -1 2 -5 0 -2 -5 1 -1 -2 3 3 1 1 -1 -4 -1 -1 -2 2 -1 4 -1 1 -2 -4 1 3 2 -4 1 0
1 2 -2 6 2 -7 2 4 -2 -3 2 2 0 1 7 -5 -2 3 4 -3 -3 -1 1 -1 0 1 -11 7 -1 4 -2 1 -4 -1 -2 -2 -1 -7 3 1 0 0 0 1 -1 3 -2 4 3 -6 1 0 1 -2 0 -2 -5 -5 0 0 2 -8 3 1 3 1 1 -1 6 1 1 1 2 4 0 -1 1 2 -6 -2 -1 -2 1 -1 1 3 2 -4 0 -2 0 1 1 0 -2 0 1 -5 -3 -1 7 -1 6 -1 -1 -2 -2 -7 0 -5 -6 1 -1 -34 -1 5 0 0 1 1 0 0 0 1 4 -4 0 -2 -7 4 2 0 -1 2 -2 -1 2 -1 -4 -4 0 -1 5 0 -2 1 -4 12 1 3 -2 -3 0 -3 -5 -2 -1 -1 -2 -1 3 -2 0 -3 -2 0 0 -4 -2 1 3 2 3 -2 4 -3 -12 0 -4 -1 -2 -2 0 -1 -4 2 -2 0 0 -3 -2 -7 -2 -1 2 2 2 0 4 2 -2 -5 -2 -3 1 -1 8 3 -1 -3 -4 -6 -1 3 -4 0 2 2 -3 2 -5 -1 -3 -1 -1 -1 2 -4 -1 -3 -5 0 -2 -2 4 3 1 0 -2 -3 1 -1 -1 2 -2 3 -1 1 -2 -4 1 4 1 -4 0 0
1 2 -2 5 2 -7 1 4 -2 -3 2 2 1 1 7 -6 -2 4 4 -3 -3 0 1 0 0 1 -11 8 -3 4 -1 0 -5 -1 -3 -2 -2 -6 3 -1 -1 -1 -1 0 -1 2 -2 4 2 -6 1 -1 1 -2 0 -2 -6 -5 0 -1 2 -8 3 1 3 0 2 0 6 1 0 1 2 4 0 -1 1 1 -6 -3 -1 -3 0 -3 2 2 0 -4 -1 -1 0 1 1 1 -1 0 1 -4 -4 -1 7 0 5 0 -1 -2 -1 -7 0 -4 -6 1 -1 -31 -1 5 -1 -1 0 1 0 0 0 1 4 -3 0 -2 -6 4 3 0 -1 2 -2 -1 2 -1 -4 -4 -1 0 3 -1 -2 2 -4 11 1 2 -2 -2 1 -3 -5 -1 -1 0 -2 -1 2 -4 0 -2 -2 0 1 -4 -2 1 3 1 2 -2 3 -3 -12 0 -4 -1 -2 -1 1 -1 -4 1 -2 1 0 -4 -2 -7 -3 -2 1 2 1 -1 3 2 -2 -5 -2 -3 1 -1 8 3 0 -2 -4 -5 0 2 -4 0 3 3 -3 2 -4 -1 -2 -1 -2 -2 2 -3 -1 -3 -4 0 -2 -1 4 3 1 0 -2 -4 0 0 0 2 -2 3 -2 1 -2 -3 1 4 2 -4 1 0
0 2 -2 4 2 -6 1 4 -2 -3 2 1 0 2 6 -5 -2 3 4 -3 -3 0 1 -1 1 1 -11 8 -3 3 -2 0 -5 0 -4 -3 -2 -6 3 0 -1 1 -1 1 -1 2 -2 3 1 -6 1 0 1 -3 1 -2 -6 -4 -1 -1 1 -7 3 1 3 -1 2 -1 5 1 0 1 3 2 0 0 -1 1 -5 -3 -2 -3 0 -4 1 2 0 -4 -2 -1 1 1 1 1 -1 -1 1 -3 -4 0 6 -1 5 -1 -2 -1 1 -7 0 -4 -5 1 -1 -27 0 4 -2 -1 0 2 0 0 0 1 3 -2 -1 -1 -5 5 2 -1 -1 1 -1 -2 2 -2 -4 -4 1 0 3 0 -2 3 -5 10 1 2 -2 -1 1 -3 -6 -2 0 0 -1 -2 1 -3 -1 -2 -1 0 0 -4 -2 2 2 -1 0 -2 3 -2 -12 -1 -5 -1 -1 -2 0 -1 -4 2 -2 2 -1 -5 -2 -7 -3 -2 1 1 0 -1 3 2 -1 -4 -3 -2 2 -2 7 3 0 -2 -4 -5 -1 2 -4 1 2 3 -3 2 -4 0 -2 -1 -1 -1 2 -3 -2 -4 -3 0 -1 0 5 3 1 1 -3 -4 1 -1 -1 1 -1 2 -1 0 -2 -2 0 5 1 -3 0 1
0 3 -2 3 3 -6 0 3 -1 -3 1 1 -1 3 6 -6 -2 3 4 -2 -2 0 2 0 0 1 -10 6 -4 3 -1 -2 -5 0 -3 -3 -2 -5 2 -1 0 1 -1 0 -2 1 -3 4 1 -6 1 -1 2 -2 1 -1 -5 -2 -1 0 0 -6 2 2 2 -1 2 -1 5 1 0 1 3 1 0 0 0 0 -6 -4 -3 -3 1 -5 2 3 0 -3 -3 -1 3 0 1 1 -1 -1 2 -1 -4 0 6 0 5 0 -1 -1 2 -6 -1 -4 -4 0 0 -24 0 4 -2 -1 0 1 0 0 0 3 2 -2 -2 -2 -4 4 4 -1 -2 1 -1 -2 1 -2 -4 -6 1 0 2 0 -2 3 -4 9 1 2 -2 -1 0 -3 -6 -3 1 1 0 -1 1 -3 -1 -1 0 -1 0 -4 -3 2 2 -2 0 -2 3 -2 -12 0 -5 -2 -2 -1 1 0 -4 0 -2 1 0 -5 -1 -6 -2 -2 2 0 0 -1 3 2 0 -4 -2 -3 2 -1 7 3 0 -1 -4 -5 0 2 -4 0 2 3 -3 1 -4 0 -1 -2 -1 -1 2 -2 -2 -3 -3 0 -2 1 5 4 0 2 -2 -5 0 -1 0 0 -2 2 -1 0 -2 -1 1 4 1 -3 0 0
1 2 -2 3 3 -5 0 2 -1 -4 1 1 0 4 4 -6 -1 1 4 -3 -2 1 3 0 1 2 -11 6 -3 3 -1 -2 -4 0 -3 -4 -1 -5 2 -1 -1 2 0 0 -3 1 -2 3 0 -5 0 0 2 -2 0 0 -5 -3 0 -1 0 -5 3 2 2 -1 2 -1 5 2 1 1 3 0 -1 1 -1 1 -6 -4 -3 -2 1 -4 2 3 -1 -3 -3 0 4 0 1 1 0 -2 2 -1 -4 0 6 1 6 -1 -1 -2 2 -6 -1 -3 -4 0 0 -20 1 4 -2 0 0 3 0 -2 0 2 2 -2 -3 -1 -3 5 3 -1 -3 0 -2 -3 0 -2 -3 -6 2 0 3 0 -2 2 -4 8 1 1 -3 -1 1 -3 -5 -4 0 1 -1 -1 1 -3 -1 1 1 -1 1 -3 -2 2 2 -4 -1 -1 2 -1 -12 0 -6 -1 -2 -1 1 0 -4 1 -2 1 -1 -6 -2 -4 -2 -2 1 0 1 0 2 2 1 -3 -2 -3 2 -1 6 2 -1 0 -4 -4 0 1 -4 0 3 2 -3 1 -4 0 1 -1 0 -2 1 -2 -2 -2 -3 -1 -1 1 4 3 1 2 -2 -4 1 -1 0 0 -2 4 -1 0 -2 -1 1 3 -1 -2 1 1
2 2 -1 2 3 -5 -1 3 0 -4 2 1 -1 4 4 -6 -1 2 4 -1 -1 0 3 1 1 1 -10 5 -4 2 -2 -3 -3 0 -2 -3 -1 -5 1 -2 0 2 0 0 -2 1 -3 2 0 -5 -1 -1 2 -1 0 0 -5 -2 -1 -1 0 -4 2 1 2 -2 2 -2 4 1 1 0 4 0 -2 1 0 1 -6 -4 -3 -1 0 -4 2 2 -1 -3 -3 0 5 0 2 1 0 -1 2 -1 -3 0 5 1 6 0 -1 -2 3 -5 0 -2 -4 0 1 -17 2 2 -1 1 0 3 0 -1 1 3 1 -1 -2 -2 -2 4 3 -2 -3 0 -2 -3 1 -3 -4 -6 2 1 1 1 -2 2 -4 7 2 -1 -2 -1 1 -2 -4 -4 0 2 0 -2 1 -2 -2 1 0 -1 2 -3 -2 2 2 -4 -1 0 3 -1 -11 0 -5 -1 -2 -1 1 0 -4 0 -2 -1 -1 -5 -2 -3 -2 -2 1 0 0 -1 2 2 2 -3 -2 -2 2 -1 5 2 -2 0 -3 -4 1 1 -4 -1 2 2 -3 1 -3 1 2 -1 0 -2 2 -1 -1 -1 -1 0 -1 1 3 3 0 3 -2 -3 0 -1 1 0 -1 4 -2 -1 -2 0 2 3 -1 -2 1 0
3 2 -2 2 4 -4 0 2 0 -4 1 1 -1 4 2 -5 -1 1 3 -1 -2 0 3 1 1 1 -9 4 -4 2 -2 -4 -3 0 -3 -4 0 -4 1 -2 -1 2 2 0 -2 0 -3 1 0 -4 -1 0 2 -1 -2 0 -5 -3 -1 0 0 -4 2 1 2 -3 2 -1 3 0 1 0 3 0 -2 1 -1 1 -7 -4 -3 0 1 -3 2 1 -2 -3 -4 1 5 0 2 1 0 -2 1 -1 -4 0 5 2 6 1 -1 -2 3 -5 -1 -2 -4 0 1 -13 2 3 -2 2 0 4 0 -1 1 1 1 -1 -2 -1 -1 4 3 -2 -3 -1 -3 -4 1 -2 -2 -6 1 2 0 1 -2 1 -5 6 1 -1 -3 0 0 -2 -4 -6 0 1 1 -1 0 -2 -2 2 0 -1 2 -3 -1 2 2 -5 0 0 2 0 -12 1 -6 -1 -3 -2 0 0 -4 -1 -1 -1 -1 -5 -3 -3 -2 0 1 1 1 -1 1 2 3 -2 -2 -2 1 -1 4 2 -2 1 -3 -3 1 0 -3 -1 2 3 -2 1 -2 1 3 -1 1 -3 1 -1 -1 0 -1 0 -1 2 2 2 -1 2 -1 -3 0 0 1 -2 -1 4 -1 -1 -2 -1 2 2 -1 -1 1 0
2 2 -1 1 3 -4 0 2 1 -4 2 1 0 5 2 -6 -1 0 2 -1 -2 0 2 0 0 0 -8 3 -4 1 -2 -4 -2 1 -2 -4 1 -4 0 -2 0 2 2 0 -2 0 -2 1 1 -5 -1 0 3 -1 -2 0 -4 -3 -2 0 -1 -4 3 1 2 -3 2 -2 3 0 2 0 2 -1 -3 1 -1 1 -7 -4 -2 1 1 -3 3 1 -2 -2 -4 0 6 1 2 1 0 -1 1 0 -4 0 5 2 6 0 0 -2 2 -4 -1 -2 -4 0 1 -11 2 2 -1 2 0 3 0 -1 1 0 0 0 -1 0 -2 4 3 -2 -3 -1 -4 -4 1 -4 -2 -6 0 1 -1 2 -2 0 -4 5 1 -2 -2 0 1 -2 -3 -6 1 0 0 -1 1 -1 -3 2 0 -2 3 -3 0 2 3 -4 -1 1 2 -1 -10 1 -5 -1 -2 -2 1 1 -3 0 -1 -2 -1 -4 -2 -3 -2 0 1 1 1 0 0 2 4 -2 -1 -3 2 -1 4 2 -3 1 -3 -3 1 0 -2 -2 2 2 -1 2 -1 0 3 -2 2 -2 1 -1 0 1 0 0 -1 2 0 1 -1 2 -1 -2 0 1 2 -3 -1 5 -1 -2 -2 -1 2 1 -2 -1 1 0
3 2 -1 1 2 -3 -1 1 1 -4 3 1 -1 5 0 -5 -1 -1 1 0 -2 1 2 0 0 0 -7 2 -4 1 -3 -4 -2 0 -2 -4 1 -4 -1 -1 0 1 4 0 -2 -1 -2 0 0 -5 -2 -1 2 -1 -4 0 -3 -3 -2 1 -1 -4 4 2 2 -4 1 -2 2 0 2 -1 2 0 -3 1 -2 2 -6 -4 -1 2 0 -2 3 1 -3 -1 -4 1 6 0 1 1 1 -1 1 0 -4 1 5 3 5 0 -1 -1 1 -4 -2 -1 -3 -1 1 -9 1 1 -2 2 0 3 1 -1 2 -2 -1 0 0 1 -2 3 1 -1 -4 -1 -4 -4 1 -4 -3 -5 -1 0 -1 1 -1 1 -3 4 0 -2 -3 0 1 -1 -2 -5 2 0 0 0 2 -1 -3 3 -1 -2 4 -2 0 1 2 -4 1 2 3 0 -10 1 -4 -1 -3 -2 -1 1 -2 -1 0 -3 -1 -4 -2 -2 -1 1 2 0 0 0 1 2 3 -1 -1 -3 2 -1 2 2 -3 1 -3 -3 2 -1 -1 -2 2 2 -1 1 -1 1 3 -1 1 -3 2 -1 2 2 1 1 -2 2 0 1 -1 2 0 -1 1 1 2 -4 -1 5 0 -3 -2 -1 2 0 -2 0 1 0
3 2 -2 1 2 -4 -1 1 0 -4 2 0 -1 5 -1 -4 -1 -1 0 0 -1 1 2 0 0 0 -6 0 -5 1 -3 -5 -2 0 -2 -4 1 -2 -2 -2 1 1 5 0 -2 0 -2 -1 0 -4 -3 -1 2 -1 -4 1 -3 -3 -2 1 0 -3 5 2 2 -3 1 -2 2 0 1 -1 2 -1 -3 0 -1 3 -6 -3 -1 2 0 -1 4 1 -2 0 -4 1 6 1 1 1 1 -2 2 0 -4 1 4 3 5 1 -1 -1 2 -4 -2 -1 -3 -1 1 -8 0 0 -2 2 0 3 0 0 2 -3 -1 0 0 0 -3 2 1 0 -2 -2 -5 -4 0 -4 -1 -5 -3 0 -2 1 -1 -1 -3 2 -1 -2 -2 0 0 -2 -2 -5 3 -1 0 0 3 0 -4 2 -2 -2 4 -2 1 0 3 -4 2 1 2 0 -9 2 -4 -2 -3 -3 -1 1 -1 -2 1 -2 -1 -2 -2 -1 -1 2 2 0 0 1 0 1 3 -1 -1 -3 3 -1 2 2 -2 2 -3 -2 2 0 -2 -2 2 3 -2 1 -1 1 2 -2 2 -2 2 -1 3 2 2 1 -1 2 -1 -1 0 3 1 -2 1 1 2 -4 0 4 -1 -3 -2 -1 2 0 -1 1 0 -1
3 1 -3 0 1 -4 -1 1 0 -3 2 0 -1 5 -2 -3 -1 -2 1 1 -1 1 1 -1 0 0 -5 -1 -6 1 -2 -5 -2 0 -2 -4 2 -3 -1 -2 1 1 4 1 -1 0 -2 0 0 -4 -3 -1 2 -2 -3 1 -3 -1 -2 0 0 -2 6 2 2 -2 1 -2 2 0 2 -2 2 0 -3 1 -1 2 -6 -3 0 1 1 -1 3 0 -2 1 -4 1 5 0 1 1 1 -2 2 1 -4 1 4 3 4 1 0 -1 0 -4 -2 0 -1 0 1 -8 -1 1 -2 3 0 3 0 1 2 -4 -3 1 1 1 -3 2 0 -1 -2 -2 -4 -4 0 -3 -1 -4 -5 0 -3 0 -2 0 -4 1 -2 -2 -2 0 0 -2 -1 -5 4 -2 0 0 4 -1 -4 3 -2 -2 4 -2 0 1 2 -3 2 1 1 0 -9 3 -4 -2 -2 -2 -1 1 0 -1 1 -2 0 -1 -2 -1 -1 2 3 0 0 1 1 1 4 0 0 -4 2 -1 1 1 -2 2 -3 -2 1 -1 -2 -3 2 3 -2 2 -1 1 2 -1 2 -3 3 -1 4 2 2 1 -1 3 -1 -1 0 2 1 -1 1 0 1 -5 -1 3 0 -3 -2 -2 2 0 -1 1 0 -1
2 1 -3 1 0 -5 -1 1 1 -2 3 0 0 4 -4 -1 -1 -1 0 1 -1 0 1 -1 -1 -1 -5 -2 -6 1 -2 -5 -2 0 -2 -3 2 -2 -3 -1 1 2 5 1 -2 0 -1 -2 0 -4 -4 -2 2 -1 -4 1 -2 -1 -2 0 0 -2 6 1 2 -2 1 -3 1 0 1 -3 1 0 -3 0 -1 2 -5 -3 1 0 1 -1 3 0 -2 2 -3 1 5 1 1 1 1 -1 1 1 -4 0 3 4 4 1 -1 0 1 -3 -2 0 -1 0 2 -7 -2 0 -2 3 1 3 0 0 2 -4 -3 2 2 2 -4 2 0 0 -2 -2 -5 -3 0 -3 -1 -3 -5 -1 -3 1 -2 -1 -4 0 -2 -1 -2 1 0 -2 -1 -4 4 -2 0 0 3 0 -4 3 -2 -2 5 -3 1 0 2 -4 3 2 1 1 -8 3 -3 -2 -3 -3 -1 1 1 -2 2 -2 0 0 -2 0 0 3 2 -1 1 1 1 1 4 1 -1 -4 2 -1 0 1 -1 1 -4 -3 1 -1 -2 -3 1 3 -2 1 -1 1 2 -2 2 -3 2 0 4 1 3 1 -1 3 -2 -2 0 2 2 -1 1 1 1 -5 0 2 -1 -3 -2 -2 3 0 0 2 0 -1
1 1 -4 0 0 -5 -2 0 1 -2 2 -1 -1 3 -5 0 0 -1 1 2 -1 0 1 -1 0 -2 -3 -3 -6 0 -1 -4 -1 0 -1 -2 3 -2 -3 -2 1 1 3 2 -1 0 -1 -2 -1 -4 -4 -2 1 -1 -3 1 -1 0 -1 0 0 -1 6 1 3 -1 1 -3 0 0 1 -3 1 1 -4 -1 -1 2 -5 -3 1 -2 0 -1 2 -1 -3 2 -3 1 4 1 0 2 1 -1 2 0 -4 0 4 4 3 2 -1 0 1 -3 -2 0 0 0 1 -6 -3 -1 -2 3 0 2 0 1 2 -5 -2 2 2 2 -4 2 -1 1 -2 -2 -4 -3 -1 -3 -1 -2 -4 -1 -4 0 -3 -1 -4 -1 -4 0 -2 1 0 -1 0 -2 5 -4 -1 1 4 -1 -3 3 -1 -3 4 -2 -1 1 2 -4 2 1 0 2 -8 3 -3 -2 -2 -3 -1 1 1 -1 3 -1 0 2 -2 -1 0 3 3 -1 1 0 1 0 3 0 -1 -4 2 0 -1 1 -1 1 -3 -2 1 -1 -2 -4 1 3 -2 1 -1 1 1 0 2 -2 2 -1 4 -1 3 2 -1 3 -3 -1 1 2 2 -1 1 1 2 -4 1 1 -1 -3 -3 -2 3 0 -1 2 0 -1
1 1 -4 0 -1 -5 -2 -1 0 -1 2 -1 0 2 -7 0 0 -1 1 1 1 0 1 -2 1 -1 -3 -4 -7 0 -2 -5 -3 0 -1 -1 2 -1 -4 -2 2 2 3 3 0 0 -1 -3 -2 -3 -4 -2 2 0 -2 2 -1 1 -1 0 0 -1 6 2 2 -2 1 -4 0 0 2 -3 0 1 -3 -1 0 1 -4 -2 1 -3 1 -1 2 -1 -3 4 -3 2 3 2 0 2 2 -1 1 0 -5 0 3 4 2 2 -1 1 1 -1 -2 1 0 0 1 -7 -2 0 -2 3 0 2 -1 1 1 -3 -3 3 1 1 -3 1 -2 0 -1 -2 -3 -4 0 -3 -1 -1 -3 -1 -4 0 -3 0 -5 -3 -3 0 -1 1 0 -1 0 -1 6 -3 0 1 3 0 -3 3 0 -2 5 -1 -1 1 2 -5 2 1 0 1 -7 3 -2 -2 -1 -3 -1 -1 2 -1 3 0 0 4 -1 0 0 2 3 0 0 1 1 -1 3 0 0 -4 1 -1 -1 -1 -1 2 -3 -3 0 -1 -2 -4 1 2 -1 1 0 1 0 0 2 -2 2 -1 4 -1 4 1 0 3 -4 -2 2 1 2 -3 0 1 0 -4 1 0 -1 -3 -2 -2 3 0 -1 2 1 -1
-1 0 -3 0 -2 -6 -2 0 0 -1 1 -1 -1 2 -8 1 0 0 1 2 0 -1 2 -3 1 -2 -2 -5 -5 -1 -1 -5 -2 0 -1 -1 2 -1 -4 -2 1 2 2 2 -1 0 0 -3 -3 -2 -4 -2 2 1 0 1 -1 1 -1 -1 0 0 4 1 2 0 1 -5 0 0 2 -3 0 2 -4 -1 -1 1 -3 -2 0 -4 0 -2 2 -2 -2 4 -2 1 2 1 0 2 3 0 1 0 -5 0 3 3 1 2 -1 1 2 -1 -2 1 2 0 1 -6 -2 0 -2 2 0 2 0 2 2 -2 -2 3 0 2 -4 1 -2 0 -2 -2 -3 -4 0 -3 0 0 -2 -1 -4 0 -2 1 -5 -4 -5 -1 -1 2 0 -2 0 0 6 -4 -1 1 3 0 -2 3 1 -3 4 0 -2 1 1 -7 1 2 -1 2 -7 3 -2 -3 0 -4 -1 -1 4 -1 3 1 0 5 -2 0 1 3 3 -1 1 1 2 -1 4 -1 -1 -4 0 -1 -3 -1 0 2 -3 -2 -1 -1 -2 -6 2 2 -2 0 -1 1 0 1 2 -2 0 -1 3 -2 4 2 0 2 -4 -1 2 0 3 -2 0 1 1 -4 0 0 0 -2 -1 -1 3 1 0 3 1 -2
-2 0 -3 -1 -1 -6 -2 -1 -1 0 0 -1 -1 2 -8 1 1 0 1 3 2 -1 2 -2 1 -2 -2 -5 -6 0 -1 -5 -3 1 -1 1 2 -1 -4 -1 1 3 1 2 0 -1 0 -3 -4 -2 -3 -2 2 2 0 2 0 2 -1 -1 2 1 3 1 2 0 0 -5 0 0 3 -3 -2 1 -3 -1 1 1 -3 -2 0 -3 1 -2 0 -2 -3 4 -2 2 2 2 0 1 2 0 1 0 -5 0 4 3 0 2 -2 1 1 -1 -1 1 2 2 1 -7 -1 -1 -1 2 0 2 1 2 1 -1 -2 3 0 2 -3 1 -3 1 -1 -1 -4 -3 0 -3 0 1 0 -2 -4 1 -2 1 -5 -4 -4 -1 0 2 0 -1 0 1 5 -4 -1 1 3 0 -1 2 1 -4 4 1 -1 1 1 -8 -1 2 -2 2 -6 3 -2 -2 1 -4 -1 -1 4 -1 2 2 0 6 -2 0 1 3 3 -1 0 1 2 -2 5 -1 -1 -4 -1 0 -4 -1 0 2 -3 -2 -2 -1 -3 -6 2 2 -2 0 -1 0 -1 1 2 -3 0 0 2 -4 4 2 0 2 -4 -1 3 1 2 -3 0 1 1 -3 1 -1 0 -2 -2 0 2 2 1 4 0 -2
-2 -1 -2 -1 -2 -5 -2 -2 0 1 1 -2 -1 1 -8 2 1 0 0 2 2 -2 2 -3 0 -1 -1 -6 -5 0 0 -4 -3 1 -1 2 2 0 -4 -1 1 2 1 3 1 -1 1 -4 -4 -2 -2 -2 2 2 1 1 1 1 -2 -2 2 0 3 0 1 2 -1 -6 -1 0 4 -3 -1 1 -5 -1 0 0 -3 -2 -2 -2 1 -2 1 -2 -3 4 0 1 1 2 -1 2 3 0 2 0 -6 1 3 3 -1 2 -3 1 3 0 -1 0 3 2 1 -6 0 -1 -1 2 -1 1 1 2 2 0 -1 4 0 2 -2 0 -2 0 -1 -2 -3 -2 0 -3 -1 2 1 -2 -4 0 -2 0 -4 -5 -4 -1 0 2 0 -1 0 1 6 -3 -2 2 2 0 0 3 2 -4 4 2 -2 2 0 -9 -2 3 -2 2 -6 3 -2 -2 2 -3 -1 -2 4 0 2 2 0 6 -2 0 0 2 2 0 1 1 3 -1 4 -2 1 -3 0 -1 -6 -2 0 2 -3 -3 -2 0 -2 -6 2 2 0 -1 0 0 -2 1 2 -2 -1 -1 3 -3 4 2 0 3 -5 -1 3 0 2 -3 -1 1 1 -2 1 -1 1 -1 -1 0 2 3 1 3 0 -2
-2 -1 -1 0 -2 -5 -3 -1 -1 3 1 -3 -1 0 -10 2 1 0 -1 3 4 -2 1 -3 0 0 -2 -6 -4 -1 0 -5 -3 2 -1 3 2 0 -4 -1 1 2 1 3 0 -1 0 -3 -3 -1 -1 -1 2 3 1 2 1 0 -2 -2 2 0 2 0 2 2 -1 -6 -1 0 4 -3 -3 1 -5 -1 1 0 -2 -2 -2 -1 1 -2 0 -2 -2 5 0 1 0 1 -1 2 3 1 1 0 -4 1 3 2 -2 2 -3 1 2 0 -2 0 2 2 1 -5 0 -2 -2 2 -1 1 2 1 2 1 0 4 0 1 -2 -1 -2 1 -1 -2 -3 -2 0 -2 0 3 1 -2 -5 1 -1 0 -3 -6 -4 -2 0 2 0 -1 1 2 5 -3 -1 1 2 -1 -1 3 2 -4 4 2 -1 2 0 -9 -2 3 -3 3 -7 3 -2 -1 2 -2 -1 -2 3 0 2 3 0 7 -2 0 1 2 2 1 1 0 3 -1 4 -2 1 -3 0 -1 -7 -2 1 2 -3 -2 -2 1 -2 -6 3 1 0 -2 0 0 -3 1 2 -2 -1 -2 2 -3 3 2 1 2 -5 0 3 0 2 -3 -1 1 0 -1 1 -2 0 -1 -1 1 2 3 0 3 0 -2
-2 -1 0 0 -2 -4 -2 -2 0 4 1 -3 -1 0 -9 2 2 0 -1 2 4 -2 2 -3 0 1 -1 -6 -3 -2 -1 -3 -4 1 -2 3 1 0 -3 -2 1 0 0 3 1 -1 1 -4 -3 0 -1 -1 3 4 2 2 1 -1 -1 -1 3 -1 2 0 1 3 -1 -5 -1 0 4 -2 -3 1 -5 -1 0 2 -1 -1 -3 0 2 -1 -2 -3 -1 4 1 1 -1 2 -1 1 2 1 1 0 -4 0 3 0 -2 2 -3 0 2 0 -1 0 3 2 2 -4 0 -2 -2 2 -1 0 2 2 2 0 0 5 0 1 -2 0 -2 1 -1 -1 -4 0 1 -2 0 4 1 -2 -4 1 -1 0 -2 -6 -3 -2 0 2 0 -2 1 2 5 -3 -1 1 1 0 0 2 2 -3 4 3 -1 2 -1 -8 -3 3 -4 3 -6 2 -2 0 2 -3 -1 -3 4 1 1 3 1 7 -2 0 0 2 2 0 1 1 2 -2 4 -2 1 -2 -1 0 -7 -3 0 2 -2 -2 -1 0 -3 -6 3 0 0 -2 0 -1 -3 2 2 -2 -1 -2 1 -4 4 3 1 1 -5 0 3 -1 2 -2 -1 2 1 0 1 -1 2 1 0 1 1 3 0 3 0 -2
-2 -2 1 1 -2 -4 -2 -2 0 5 0 -3 -1 0 -9 2 2 0 -2 2 5 -2 1 -3 0 0 -1 -6 -2 -3 0 -3 -4 2 -2 4 1 1 -3 -1 1 0 0 3 1 -1 0 -4 -3 1 0 -1 2 4 0 1 2 -2 -2 -1 3 -1 1 -1 1 2 -2 -6 -1 0 5 -3 -3 0 -5 -1 0 1 -1 0 -3 2 1 -1 -2 -3 -1 5 1 1 -1 1 -1 1 3 1 0 0 -3 0 2 1 -3 2 -3 1 2 0 -1 -1 3 2 1 -4 -1 -3 -1 1 -2 1 2 1 2 1 0 4 1 1 -2 0 -2 2 0 -1 -3 1 0 -2 0 5 0 -2 -4 1 0 1 -1 -5 -2 -2 1 1 0 -2 0 2 3 -3 -1 1 2 -1 1 3 2 -4 4 4 0 1 -1 -7 -3 3 -4 3 -6 2 -2 -1 2 -2 0 -2 4 1 1 2 0 7 -2 0 0 2 1 1 1 0 2 -2 4 -2 1 -2 0 0 -9 -3 0 1 -2 -1 -2 1 -3 -6 3 0 0 -2 1 0 -3 2 2 -1 -1 -2 1 -3 3 3 1 0 -5 1 2 -1 2 -1 -1 2 0 1 1 -1 2 2 0 1 1 3 0 3 -1 -2
-2 -2 1 1 -2 -3 -1 -2 0 6 0 -3 0 -1 -8 3 1 0 -3 3 5 -2 0 -2 0 0 -1 -6 0 -2 0 -2 -4 2 -2 3 1 1 -3 -1 1 -1 0 2 1 -1 1 -3 -2 0 1 -1 2 4 -1 1 1 -3 -2 -1 3 0 1 -1 0 2 -2 -5 0 0 5 -2 -4 -1 -6 -2 0 2 0 1 -3 2 2 0 -2 -3 0 4 1 1 -1 1 -2 1 3 2 0 0 -3 0 3 0 -3 2 -3 1 2 0 -1 -2 2 1 1 -3 -1 -3 -2 1 -2 0 2 1 2 -1 0 4 2 0 -3 0 -1 2 -1 -1 -3 2 -1 -2 0 6 -1 -1 -4 1 1 0 0 -5 -1 -2 1 0 1 -1 0 3 3 -3 -1 2 2 0 0 3 1 -4 4 5 1 0 -1 -4 -2 4 -5 2 -4 2 -1 0 3 -2 0 -2 3 1 0 2 -1 6 -1 -1 0 2 0 0 2 0 2 0 4 -1 3 -1 1 0 -9 -3 -1 2 -1 -1 -2 2 -3 -6 3 -1 1 -3 0 0 -3 2 1 -1 -1 -2 1 -3 4 3 1 0 -4 2 1 -1 2 -1 -1 1 0 2 0 0 1 3 1 1 1 2 0 3 -1 -1
-2 -2 0 0 -3 -3 -1 -2 1 7 0 -3 0 -1 -6 3 2 -1 -3 2 6 -2 -1 -1 0 0 -1 -5 0 -4 0 -2 -5 1 -2 4 1 1 -3 -1 1 -1 0 2 1 -1 1 -3 -3 1 1 -1 2 3 -2 1 0 -5 -1 -1 2 0 2 -1 -1 3 -2 -4 -1 -1 5 -2 -4 -1 -6 -2 0 2 -1 1 -4 1 2 -1 -3 -3 1 4 1 0 -2 1 -1 2 3 2 -1 0 -2 1 2 0 -5 1 -3 1 1 0 -1 -2 3 1 2 -4 -2 -3 -2 1 -2 0 1 0 2 -1 -1 4 3 0 -3 -1 0 3 0 -1 -3 2 -1 -2 1 6 -2 -1 -3 1 2 -1 0 -6 -1 -2 2 0 1 -1 -1 2 4 -2 -1 1 2 0 1 3 0 -4 4 6 1 0 -1 -3 -2 3 -5 2 -4 1 0 0 3 -2 0 -1 2 1 2 2 -1 6 -1 -1 -1 1 0 0 2 0 1 -1 2 -2 2 -1 1 1 -9 -3 -1 1 -1 -1 -2 2 -4 -7 3 0 1 -3 0 0 -3 1 2 -1 0 -2 0 -2 3 3 1 -1 -4 1 0 -1 1 -2 -1 1 -1 1 0 1 2 3 2 0 0 1 -1 2 -1 -1
-2 -2 0 2 -3 -2 0 -2 1 8 -1 -2 1 -1 -5 3 2 0 -4 2 6 -2 -2 0 0 -1 0 -5 0 -4 -1 0 -5 2 -2 4 0 1 -3 0 1 -1 0 2 2 -1 2 -3 -3 1 2 -1 1 4 -3 1 1 -4 0 -1 1 0 2 -2 -1 2 -1 -4 -1 -1 4 -2 -4 -2 -5 -2 0 2 0 1 -3 1 2 -1 -3 -3 1 3 1 0 -2 1 -1 2 3 2 -2 0 -2 0 2 -1 -5 1 -3 1 1 1 -1 -3 1 1 1 -4 -2 -4 -2 1 -2 0 0 0 2 -3 0 3 3 0 -3 -1 1 4 -1 -1 -3 3 -1 -1 0 7 -3 0 -3 1 2 -1 -1 -5 0 -1 1 -1 1 -1 -1 2 4 -1 -1 1 2 -1 0 3 0 -4 4 6 1 -1 -3 0 -1 3 -5 1 -4 0 0 1 2 -2 -1 -1 3 2 2 2 -2 4 -1 -2 -1 2 0 -1 1 0 1 -1 1 -1 1 0 1 0 -9 -3 -2 1 -1 -2 -1 1 -4 -6 3 -1 0 -2 1 0 -2 0 1 -1 0 -2 0 -2 2 3 1 -1 -2 1 -1 -1 1 -2 0 0 0 1 0 1 1 4 3 0 0 1 -1 2 0 -1
-3 -2 1 1 -2 -3 0 -3 1 7 0 -2 1 -1 -3 4 1 -1 -4 1 7 -1 -2 0 0 -3 -1 -4 1 -4 0 -1 -6 1 -2 4 -1 1 -2 1 1 0 0 1 2 -2 2 -3 -3 1 2 -1 0 3 -2 1 1 -4 0 -1 0 0 2 -2 -1 2 -1 -4 -2 0 4 -2 -4 -3 -6 -2 0 2 0 2 -3 -1 3 -1 -3 -3 1 3 2 0 -3 0 -1 2 3 2 -2 1 -2 0 1 -2 -5 1 -1 1 0 1 0 -3 1 0 1 -4 -3 -3 -3 1 0 0 -1 0 1 -3 1 2 3 -1 -1 -1 2 4 -1 -1 -2 3 -2 -2 0 6 -3 -1 -3 1 3 0 -1 -4 0 -1 1 -1 2 -1 -1 3 5 0 -1 1 2 0 0 2 0 -3 5 6 2 -1 -3 0 -1 2 -5 2 -2 -1 0 1 3 -1 -1 0 1 1 2 2 -2 3 -1 -2 -2 2 -1 -1 1 0 0 -1 0 -1 0 1 1 1 -8 -3 -2 1 1 -2 -2 1 -4 -6 3 -1 0 -3 0 0 -1 0 1 -1 1 -1 0 -2 2 3 1 -2 -3 2 -1 -1 1 -1 -1 -1 -1 1 -1 2 0 5 3 0 -1 0 -1 2 -1 0
-3 -3 0 1 -1 -3 1 -1 2 7 -1 -2 1 -2 -1 4 2 0 -4 2 7 -1 -2 1 0 -3 0 -4 1 -5 0 0 -6 1 -1 4 -1 1 -2 1 1 0 -1 1 2 -2 2 -2 -4 1 2 -1 -1 3 -2 1 -1 -6 1 0 -1 -1 1 -2 -2 1 0 -4 -2 -1 4 -1 -4 -4 -5 -3 -1 3 1 2 -2 -3 3 -1 -4 -2 3 2 2 0 -3 0 -1 2 2 3 -3 1 -2 0 1 -1 -5 0 0 1 2 2 0 -2 1 -1 1 -4 -3 -4 -4 1 1 0 -1 0 2 -2 1 2 3 0 -1 0 2 5 -1 0 -1 4 -3 -2 1 6 -2 -1 -3 0 4 -1 -1 -3 0 0 1 0 2 0 -2 2 4 1 -2 2 2 -1 0 2 1 -3 4 6 1 -2 -4 1 -1 1 -6 2 -2 -1 0 0 2 -1 -2 2 0 2 3 1 -3 3 -1 -2 -2 2 -1 -1 1 0 0 -1 -1 -1 -1 1 2 2 -7 -2 -3 2 1 -3 -1 0 -4 -4 2 -1 0 -3 2 1 0 -1 1 -1 1 -1 -1 -3 1 2 0 -2 -2 1 -1 -2 0 -1 -1 -1 -2 0 -1 3 -2 5 4 0 -1 0 0 1 0 1
-3 -2 0 0 0 -3 1 -2 2 7 -1 -2 2 -2 0 3 1 0 -3 2 7 0 -1 2 0 -4 1 -4 0 -4 0 1 -5 1 -1 5 -1 1 -2 2 1 2 -1 0 3 -2 2 -2 -4 2 2 -1 -1 3 -2 2 0 -6 2 0 -1 0 -1 -3 -2 0 1 -4 -4 0 3 0 -3 -4 -5 -3 0 3 1 2 -3 -4 3 -3 -3 -2 3 1 2 0 -3 -1 0 2 2 2 -2 1 -3 0 1 -1 -5 0 1 2 2 2 0 -2 1 -2 1 -4 -2 -3 -3 0 2 -1 -1 -1 2 -1 1 2 2 0 1 0 3 6 -1 -1 0 4 -3 -2 1 6 -2 0 -2 1 3 0 -2 -2 0 1 0 -1 2 -1 -2 2 4 0 -2 2 2 0 -1 2 1 -3 5 6 0 -1 -5 1 -2 1 -5 1 -2 -2 1 0 3 0 -2 2 0 2 2 2 -2 1 -1 -2 -2 3 0 -2 1 1 0 -2 -2 -1 -2 0 1 1 -7 -2 -2 1 0 -3 -1 0 -4 -4 2 0 0 -3 1 1 1 0 0 0 2 -1 -2 -4 0 2 1 -3 -2 1 0 -2 -1 -1 0 -2 -1 0 0 4 -2 4 5 0 -1 0 -1 1 0 2
-4 -2 0 1 0 -3 1 -2 1 6 -1 -2 2 -3 2 4 1 0 -3 1 7 1 -1 2 0 -4 0 -3 0 -5 0 0 -4 0 -1 5 -2 1 -1 2 1 3 -1 -1 3 -3 2 -2 -5 1 2 0 -2 2 -1 2 -1 -7 2 0 -1 0 -2 -2 -3 -1 2 -4 -4 0 3 0 -3 -3 -5 -2 0 3 1 2 -2 -6 4 -3 -3 -2 3 0 2 0 -3 -1 0 2 2 2 -2 1 -4 1 1 -1 -5 -1 2 2 2 2 1 -1 1 -2 2 -3 -2 -2 -4 -1 2 0 -1 -1 1 0 2 1 2 -1 3 1 3 4 -1 -1 1 5 -4 -2 1 4 1 0 -2 1 2 0 -2 -2 0 1 0 0 2 -1 -1 1 3 0 -2 3 1 0 -1 2 2 -3 4 5 0 -1 -5 1 -2 1 -5 1 -2 -3 1 -1 2 0 -3 2 -1 2 2 2 -2 0 0 -1 -2 2 0 -2 0 2 -1 -1 -2 -2 -2 0 0 1 -6 -2 -2 1 0 -3 -1 -1 -3 -3 1 0 -1 -2 2 1 2 0 0 0 1 -1 -2 -4 0 1 0 -3 -2 1 1 -2 -1 -1 -1 -2 -2 -1 -1 4 -3 4 5 0 -2 -1 0 1 -1 2
-4 -2 -1 1 -1 -5 1 -2 0 4 -3 -2 2 -3 5 3 1 0 -3 0 6 0 -2 3 0 -4 0 -3 -2 -4 1 1 -3 0 -2 4 -3 1 -1 3 2 3 0 -1 3 -3 1 -1 -5 1 2 0 -4 2 1 1 -1 -8 2 -1 -1 0 -4 -3 -3 -2 1 -4 -5 0 1 2 -3 -5 -5 -2 1 2 1 2 -2 -6 3 -3 -2 -2 4 0 2 0 -3 -2 0 2 1 2 -2 1 -4 1 1 -1 -4 -1 3 2 1 3 1 -1 2 -3 2 -3 -1 -3 -4 -1 3 0 0 -2 1 1 3 1 2 -1 6 0 4 3 -1 -1 1 5 -4 -2 2 4 3 0 -2 1 3 0 -3 -1 0 2 0 1 3 -1 -1 1 4 1 -3 3 0 -1 -1 1 2 -1 4 6 -1 0 -5 0 -3 1 -5 2 -1 -4 2 -1 2 0 -3 2 -2 2 3 1 -3 -2 0 -1 -2 2 -1 -2 1 2 0 -2 -2 -1 -3 0 0 1 -4 -1 -2 1 -1 -3 1 0 -3 -3 0 1 -1 -3 2 1 2 0 -1 0 0 -1 -2 -5 0 1 0 -3 -1 0 1 -1 -2 -1 -1 -1 -1 -1 -1 4 -2 3 6 0 -2 0 0 0 -1 3
-5 -3 -1 0 0 -5 1 -1 0 3 -3 -2 2 -3 6 3 1 0 -3 0 6 2 -2 4 -1 -5 0 -2 -1 -5 1 1 -2 0 -2 4 -2 1 -1 3 1 4 0 -2 4 -3 2 -1 -5 2 1 0 -3 2 0 1 -1 -9 2 -1 -2 0 -6 -3 -4 -3 1 -4 -4 0 1 2 -2 -5 -4 -2 0 2 1 2 0 -6 4 -3 -1 -2 4 0 2 0 -3 -1 0 1 1 2 -2 0 -4 1 0 -2 -3 -1 4 2 1 3 1 -1 2 -3 2 -3 1 -2 -5 -1 3 0 1 -2 0 1 3 0 0 -1 7 1 5 2 0 -1 2 5 -4 -2 2 3 4 1 0 1 2 -1 -3 -1 0 2 -1 1 3 -1 -2 0 2 1 -3 3 0 0 -1 1 2 -1 4 5 -1 1 -5 -1 -3 1 -6 2 -2 -4 3 -2 1 1 -3 3 -2 3 3 1 -3 -2 0 -1 -3 3 0 -2 1 2 0 -2 -2 -1 -3 -1 -1 2 -3 -1 -2 0 -2 -4 0 -1 -3 -1 0 2 -1 -2 3 1 3 1 -1 1 -2 -1 -2 -5 0 0 0 -4 -2 -1 3 -1 -2 -2 -1 -2 -1 -2 -1 5 -1 2 5 1 -3 0 0 1 -1 3
-5 -3 -1 0 1 -4 1 -1 -2 1 -4 -1 3 -3 8 2 1 0 -4 0 5 1 -1 4 -1 -4 1 -2 -1 -5 0 0 -2 1 -2 4 -3 1 -1 3 2 4 0 -2 3 -2 2 -1 -5 1 1 1 -5 1 2 0 -2 -10 2 -1 -3 -1 -6 -4 -4 -4 2 -4 -5 0 0 3 -1 -5 -4 -2 1 2 1 2 -1 -5 3 -3 0 -1 4 0 2 0 -3 -2 1 1 1 1 -2 0 -4 2 1 -2 -3 -1 5 3 1 3 2 0 1 -3 2 -1 3 -2 -6 -1 3 0 1 -3 0 2 3 -1 1 -2 8 1 5 2 -1 -2 2 5 -4 -2 3 1 4 0 -1 1 1 -1 -3 -1 0 2 -1 1 4 -1 -1 0 2 1 -3 4 0 0 -1 1 1 0 3 4 -2 0 -5 0 -3 2 -5 2 -2 -5 3 0 0 1 -3 2 -2 3 2 1 -2 -3 0 0 -3 2 -1 -2 0 2 1 -2 -3 -1 -4 -2 0 1 -3 0 -3 0 -2 -3 1 -1 -3 -1 0 1 -2 -3 3 1 4 1 -2 1 -3 -1 -1 -4 -1 -1 0 -4 -2 -2 3 0 -1 -1 -1 -2 -1 -3 0 5 -1 1 5 0 -3 1 -1 1 -1 4
-5 -3 -1 0 0 -4 0 -1 -2 1 -4 -1 2 -3 9 2 2 0 -3 0 5 1 -2 4 -1 -3 1 -2 -2 -5 1 1 -2 0 -2 4 -3 1 -2 3 1 5 1 -3 2 -2 2 -1 -5 0 1 0 -5 1 1 0 -2 -11 1 0 -3 -1 -7 -4 -3 -4 1 -4 -5 0 -1 4 -1 -6 -3 -2 0 3 1 4 1 -4 3 -2 0 -2 3 0 2 1 -4 -1 1 1 0 1 -2 0 -4 2 1 -2 -3 -1 5 3 1 3 1 0 2 -3 2 -1 3 -1 -5 -1 3 -1 1 -4 0 3 2 -2 0 -1 8 0 3 0 0 -1 2 5 -4 -2 1 0 4 0 0 2 0 -2 -2 0 0 1 -2 1 4 -2 -1 0 0 1 -3 4 -1 0 0 0 0 -1 3 4 -1 0 -4 0 -2 2 -4 2 -2 -5 2 0 0 1 -3 2 -2 4 2 0 -3 -4 0 1 -2 2 -1 -1 -1 3 0 -2 -3 -1 -3 -1 -1 1 -2 -1 -3 0 -1 -4 1 0 -1 -1 -1 1 -1 -2 3 1 3 1 -2 2 -4 -1 -1 -3 -1 -2 0 -4 -2 -2 4 -1 -1 0 -1 -1 -1 -3 1 3 -1 2 5 0 -3 1 -1 0 0 3
-4 -4 -1 0 0 -5 0 -1 -3 -1 -4 -1 2 -2 9 2 1 0 -4 -2 5 1 -2 4 -2 -2 1 -2 -2 -5 0 1 -1 1 -4 3 -3 2 -2 3 2 4 0 -3 1 -1 2 -1 -4 0 0 0 -5 0 1 -1 -3 -11 2 0 -4 -1 -6 -3 -3 -5 1 -4 -5 -2 -1 4 0 -6 -3 0 0 4 0 4 1 -3 4 -3 1 -1 3 1 2 0 -4 -2 1 1 -1 0 -2 0 -3 2 0 -3 -3 -2 6 3 0 3 1 0 2 -2 2 -1 3 -1 -5 0 2 -1 0 -4 -1 2 2 -2 1 -1 9 1 3 0 1 -1 2 4 -4 -2 1 0 3 0 0 2 0 -2 -2 1 0 1 -2 1 3 -3 -1 -2 0 2 -2 3 0 -1 -1 0 -1 0 3 3 -1 -1 -4 1 -1 2 -3 3 -2 -5 3 0 -1 0 -3 1 -1 4 2 -1 -3 -4 0 0 -2 3 -1 -1 0 2 1 -2 -3 -1 -3 -2 1 1 -1 0 -4 0 -2 -3 1 0 -1 0 -2 1 -1 -2 3 1 2 0 -2 3 -5 -2 0 0 0 -1 0 -6 -1 -2 4 -1 -1 -1 -1 -2 -1 -5 1 2 0 2 4 -1 -3 0 -1 0 -1 4
-4 -3 -1 0 0 -4 -1 1 -3 -2 -4 -1 1 -3 11 1 1 0 -3 -1 3 1 -2 4 -1 -2 2 -1 -1 -6 1 1 -1 1 -3 2 -4 1 -1 3 1 2 1 -3 -1 0 2 -2 -4 0 -1 0 -5 -1 1 -1 -3 -12 2 1 -4 -2 -6 -4 -3 -5 0 -4 -5 -2 -2 5 1 -7 -2 0 0 4 0 4 1 -2 4 -2 1 -1 3 1 2 1 -4 -2 0 1 -1 -1 -3 0 -3 3 -1 -2 -3 -2 6 3 -2 4 1 -1 3 -2 1 -1 4 -1 -5 -1 1 -1 0 -5 -1 1 0 -3 2 -2 8 1 2 -2 1 -2 2 4 -4 -1 0 0 1 0 0 2 -1 -2 -1 3 2 0 -3 1 3 -4 -1 -2 -1 2 -1 3 0 0 -1 -1 -2 0 2 2 0 -2 -4 2 0 2 -2 2 -2 -5 4 0 -1 1 -4 0 -1 4 2 -3 -3 -5 -1 1 -2 2 -1 -3 -1 1 1 -3 -3 -1 -2 -2 0 0 0 -1 -4 -1 -2 -3 1 1 -1 1 -2 -1 -1 -1 3 1 1 0 -2 3 -5 -1 2 1 -1 -2 0 -6 -2 -3 5 0 -1 -2 0 -1 -1 -5 1 2 0 1 2 -2 -3 1 -2 0 0 3
-4 -4 -1 0 0 -4 -1 1 -4 -3 -4 -1 1 -3 10 1 1 1 -3 -2 2 1 -2 4 -1 -1 2 -1 -1 -6 0 2 -1 1 -4 2 -4 1 -2 3 1 2 -1 -4 -3 1 2 -2 -2 0 -1 0 -5 -2 1 -2 -3 -13 2 0 -5 -2 -6 -4 -2 -4 -1 -4 -4 -2 -3 5 1 -6 -1 0 1 4 0 4 3 -2 4 -2 1 -2 3 1 3 0 -4 -1 0 0 -2 0 -2 0 -2 3 -2 -2 -3 -1 6 3 -3 3 2 -1 2 -1 2 0 4 0 -4 -1 1 -1 -2 -6 -1 1 -1 -4 1 -2 7 1 2 -3 1 -2 2 4 -3 -2 1 1 0 -1 1 2 -2 -3 0 3 1 1 -3 0 3 -5 -2 -2 -1 2 -1 2 -1 0 0 -2 -3 0 2 2 -1 -3 -3 3 1 2 -1 3 -1 -5 4 0 -1 0 -5 0 0 4 2 -3 -3 -4 0 1 -2 2 -1 -2 -2 -1 2 -3 -4 -1 -3 -2 1 0 1 -1 -3 -2 -1 -3 2 1 -2 1 -3 -1 -1 0 3 0 1 0 -2 4 -5 -1 2 4 -2 -2 1 -7 -2 -2 4 -1 0 -1 1 -2 -1 -5 2 1 1 0 2 -2 -3 0 -1 0 1 3
-3 -4 0 1 0 -4 -1 0 -4 -3 -3 -1 1 -4 10 1 1 1 -3 -3 2 1 -2 4 1 -1 3 -1 -1 -6 0 2 0 0 -3 0 -4 1 -1 3 1 1 -2 -4 -4 2 2 -2 -1 0 -1 0 -4 -3 0 -3 -3 -12 1 0 -4 -2 -5 -4 -1 -4 -1 -4 -3 -2 -3 6 1 -7 -1 1 0 4 0 4 2 -2 2 -2 2 -1 3 1 3 1 -4 -2 -2 -1 -2 0 -3 0 -2 3 -2 -3 -3 -1 5 3 -3 4 2 -1 2 0 1 -1 3 0 -4 -2 0 -1 -3 -5 -1 0 -2 -4 1 -1 6 1 1 -3 2 -2 1 2 -4 -1 0 0 -1 0 1 3 -3 -3 1 4 2 0 -3 1 3 -6 -2 -2 0 2 -1 1 -1 1 0 -3 -3 0 1 1 0 -3 -4 3 2 1 -1 3 -1 -6 4 0 -2 -1 -5 -1 1 4 1 -3 -3 -3 -1 1 -2 2 0 -3 -2 -2 2 -2 -4 -2 -2 -3 1 -1 2 -1 -4 -1 -1 -3 1 2 0 2 -2 -2 0 0 3 -1 0 -1 -2 5 -5 -1 3 4 -1 -3 0 -8 -2 -3 4 -1 -1 -1 1 -2 -1 -6 3 1 -1 0 1 -3 -2 1 -2 0 1 1
-4 -4 -1 0 -1 -3 -1 1 -3 -3 -3 -1 1 -4 9 1 1 2 -3 -2 1 0 -2 3 0 0 4 -1 -1 -6 1 2 -1 0 -3 0 -4 0 -2 2 1 1 -2 -5 -3 2 1 -1 -2 0 -1 1 -4 -3 0 -3 -3 -10 1 -1 -4 -3 -4 -4 -1 -5 -2 -4 -3 -2 -2 5 1 -7 -1 1 0 2 -1 4 2 -3 2 -2 2 -1 2 1 4 0 -4 -1 -1 -1 -3 0 -3 0 -2 3 -2 -3 -2 -1 6 3 -4 2 1 -1 1 0 1 -1 3 1 -4 -2 1 -1 -4 -4 -1 -1 -2 -5 1 -1 5 1 0 -2 2 -2 1 3 -3 -1 0 1 -1 0 2 2 -3 -3 0 4 2 1 -4 0 3 -5 -1 -2 0 3 0 1 -1 1 0 -3 -3 0 0 1 0 -3 -4 3 1 1 0 3 -1 -6 4 0 -1 0 -5 -2 2 4 1 -3 -3 -4 -1 0 0 2 -1 -3 -3 -3 2 -2 -4 -2 -2 -3 1 0 3 -1 -4 -2 0 -2 1 2 -1 3 -2 -3 1 1 3 -1 -1 0 -3 6 -4 -2 3 5 -3 -3 1 -9 -2 -3 3 0 0 -2 1 -2 -1 -6 3 0 -2 -1 0 -2 -2 1 -2 0 1 1
-3 -4 0 1 -1 -2 -2 0 -4 -4 -2 -3 1 -5 7 1 1 1 -3 -2 0 0 -2 2 2 -1 3 0 -1 -6 0 1 -1 0 -2 0 -3 0 -1 2 1 0 -2 -4 -4 1 2 -2 -3 0 -2 0 -4 -4 1 -3 -3 -9 1 -1 -4 -4 -5 -5 -1 -4 -3 -5 -1 -1 -3 5 1 -6 0 1 0 2 -1 4 2 -4 1 -2 2 -2 2 2 3 0 -4 -1 -3 -1 -3 -2 -4 0 -2 2 -3 -4 -2 0 5 2 -3 2 1 0 1 0 0 -1 2 1 -4 -3 0 0 -4 -4 -1 -1 -2 -5 -1 -2 5 1 -1 -1 3 -2 2 2 -3 -1 -1 1 -2 -1 3 2 -3 -2 0 5 2 1 -4 1 3 -5 -2 -2 1 3 0 1 -1 2 0 -5 -1 0 0 0 0 -3 -5 2 1 1 1 4 -2 -6 4 0 -1 0 -4 -2 1 4 0 -3 -4 -2 -2 -1 0 1 -1 -2 -4 -3 2 -2 -4 -1 -2 -3 0 -1 4 -1 -3 -3 0 -1 1 1 0 3 -1 -3 1 2 2 -1 -1 0 -4 6 -3 -2 3 5 -3 -3 0 -8 -2 -3 3 0 0 -3 2 -1 0 -6 4 0 -3 -1 -1 -2 -3 1 -2 -1 1 0
-3 -4 1 1 -1 -2 -2 0 -3 -3 -1 -3 0 -5 6 0 1 2 -3 -2 -1 0 -1 3 2 -1 3 0 -2 -4 0 1 0 1 -2 0 -3 0 -2 1 1 1 -3 -3 -5 0 1 -2 -3 1 -3 0 -4 -4 1 -5 -2 -7 1 -2 -5 -4 -5 -4 0 -4 -3 -5 0 0 -3 5 0 -6 -1 2 0 0 -1 3 1 -5 1 -2 2 -1 2 2 3 0 -3 -2 -3 -2 -4 -2 -4 0 -3 1 -3 -5 -3 0 5 3 -3 2 2 0 0 1 -1 -1 1 2 -4 -3 0 0 -4 -2 -2 0 -2 -5 -1 -2 4 1 -2 -1 3 -2 2 1 -2 0 -1 0 0 -1 3 2 -3 -1 -1 4 1 1 -4 2 3 -6 -1 -2 1 3 1 -1 -1 1 0 -5 0 1 -2 0 0 -2 -5 1 0 0 1 3 -1 -6 3 -1 -1 0 -5 -2 2 4 0 -2 -4 -1 -1 0 0 1 -1 -2 -5 -4 4 -1 -3 -1 -3 -3 -1 -1 4 -1 -4 -3 0 0 0 1 0 3 -1 -2 1 2 2 -2 -3 -1 -5 6 -2 -1 2 5 -3 -4 0 -8 -3 -3 3 0 1 -4 2 -2 0 -5 4 1 -3 -2 -1 -2 -3 1 -2 -1 0 -1
-4 -3 1 1 -1 -2 -2 -1 -3 -2 -1 -4 0 -5 5 1 0 2 -3 -1 -1 0 -1 1 1 0 3 0 -2 -5 0 2 -1 1 -1 1 -3 0 -2 0 1 0 -3 -4 -4 0 1 -2 -4 2 -2 0 -4 -4 0 -5 -2 -5 1 -3 -3 -4 -6 -4 0 -3 -3 -6 1 1 -3 5 1 -5 -1 2 -1 -1 -1 3 1 -6 -1 -2 3 -1 1 2 3 0 -2 -2 -3 -3 -4 -1 -4 1 -2 0 -3 -5 -2 0 4 2 -1 1 1 0 0 1 -1 -1 1 2 -4 -4 1 0 -3 0 -1 1 -3 -6 -3 -2 5 1 -3 -1 3 -2 3 1 -1 0 0 1 1 0 5 2 -2 -1 -2 4 2 0 -2 2 3 -5 -1 -1 1 4 0 -2 -1 1 0 -6 1 1 -2 0 0 0 -5 1 0 -1 3 3 -1 -6 1 -1 0 0 -4 -2 2 4 0 -2 -4 0 -1 -1 0 1 0 -1 -5 -4 3 -1 -3 -1 -3 -2 -1 -2 6 0 -4 -4 0 -1 1 1 0 3 0 -1 1 2 2 -1 -3 0 -5 6 -1 -2 1 4 -3 -4 0 -8 -2 -2 3 1 0 -5 2 -1 1 -4 5 1 -4 -2 -3 -1 -3 1 -3 -2 0 -2
-4 -4 0 2 -2 -2 -2 -1 -2 -2 -1 -4 1 -6 4 0 0 2 -2 -1 -2 -1 -1 0 1 0 4 -1 -3 -4 0 1 1 1 -1 1 -2 0 -3 0 1 0 -3 -3 -3 0 1 -2 -4 2 -2 0 -2 -3 0 -5 -2 -4 1 -4 -3 -5 -7 -4 0 -2 -3 -7 1 0 -2 4 1 -4 -2 3 0 -2 -1 3 1 -6 -1 -2 3 0 0 1 3 0 -2 -1 -3 -3 -5 -3 -5 1 -3 0 -2 -5 -2 0 3 2 -1 1 2 0 -1 1 -1 -1 0 3 -4 -5 0 -1 -2 2 -2 2 -2 -5 -3 -1 6 1 -4 0 3 -2 3 2 0 0 0 0 2 -1 6 1 -2 -1 -4 3 1 0 -3 1 3 -5 -1 -1 0 3 1 -3 -1 2 0 -6 0 0 -3 0 0 0 -5 0 -2 -1 3 2 -1 -6 1 -1 0 0 -3 -3 1 2 -1 -3 -3 2 -1 -1 1 1 0 0 -5 -4 3 0 -3 -1 -2 -2 -1 -1 5 -1 -4 -4 0 0 0 0 0 3 0 -1 2 3 2 -2 -3 0 -6 6 -1 -2 0 3 -2 -4 -1 -7 -2 -2 3 0 0 -5 2 -1 1 -3 5 2 -3 -2 -3 -1 -3 2 -3 -2 -1 -3
-4 -3 1 1 -1 -2 -1 -2 -2 -1 -2 -3 0 -5 3 -1 0 1 -3 -1 -2 -1 -2 -1 0 1 3 0 -3 -3 0 1 1 2 0 1 -2 1 -3 0 1 0 -3 -3 -3 0 0 -2 -4 4 -3 0 -2 -4 0 -6 -2 -4 1 -5 -3 -6 -8 -3 1 -1 -4 -7 1 0 -1 4 1 -4 -3 4 0 -3 -1 2 -1 -5 -2 -2 3 0 0 1 2 0 -2 -2 -3 -4 -4 -3 -4 1 -3 0 -3 -5 -2 1 2 0 -1 0 1 1 -2 1 -1 -2 1 3 -4 -4 0 0 -2 2 -2 2 -1 -5 -4 -1 6 1 -6 0 3 0 3 2 1 0 1 0 2 0 7 0 0 1 -4 3 1 -1 -2 2 3 -5 0 -1 -1 3 1 -5 -2 2 0 -6 1 0 -4 -2 -1 1 -5 -1 -2 -1 4 2 0 -6 1 -1 0 0 -3 -4 1 2 -2 -2 -4 2 -2 -1 2 2 0 1 -5 -4 3 0 -2 -1 -1 0 -2 -2 6 0 -3 -5 -2 1 0 0 0 3 0 1 2 4 1 -3 -3 1 -6 7 -1 -1 0 2 -2 -3 -1 -6 -2 -1 2 0 0 -4 1 0 1 -2 5 2 -4 -1 -4 -1 -3 1 -3 -2 -1 -3
-4 -3 1 1 -1 -3 -1 -3 -2 0 -2 -4 0 -6 2 -1 0 1 -3 0 -2 0 -3 -2 0 1 3 0 -4 -2 0 2 1 2 0 2 -1 1 -3 -1 0 -1 -2 -3 -2 1 1 -1 -5 3 -3 -1 -2 -4 0 -5 -1 -4 1 -6 -3 -6 -8 -3 0 0 -4 -8 1 0 -1 3 1 -3 -2 4 -1 -3 -1 1 -2 -4 -2 -2 2 1 -1 1 3 0 -1 -1 -2 -4 -4 -3 -4 1 -2 -2 -2 -5 -1 0 2 0 0 0 2 1 -1 1 -2 -2 1 2 -4 -4 0 -1 0 3 -2 2 -2 -5 -4 0 7 2 -6 -1 3 0 3 2 2 1 1 -1 2 0 6 1 1 1 -5 3 2 -1 -1 2 3 -4 0 -1 -2 3 1 -5 -2 2 0 -6 0 0 -4 -2 0 1 -3 -1 -1 1 5 2 0 -5 0 0 0 1 -2 -4 1 0 -2 -2 -4 3 -1 -1 2 2 0 2 -5 -3 2 2 -1 -1 0 -1 -1 -2 6 0 -3 -5 -2 2 0 0 0 3 1 2 2 4 1 -2 -3 1 -7 6 -1 -1 -2 0 -2 -3 -1 -5 0 0 2 0 0 -4 1 1 1 0 5 2 -4 -1 -3 -1 -3 2 -4 -2 -1 -2
-4 -3 2 1 0 -3 0 -4 -2 1 -3 -3 0 -6 2 -2 0 -1 -2 -1 -3 1 -4 -3 -1 1 3 0 -4 -1 0 1 0 2 0 1 -1 1 -3 -3 0 0 -2 -2 -2 0 0 -1 -4 4 -2 -1 -2 -3 -1 -5 -1 -5 1 -7 -3 -6 -7 -3 1 1 -4 -8 1 -1 -2 3 1 -2 -3 3 0 -4 -2 1 -2 -3 -3 -1 2 1 -2 1 2 1 -1 -2 -3 -4 -4 -4 -4 2 -2 -2 -3 -4 -1 1 1 1 1 0 1 0 -1 1 0 -2 1 3 -4 -3 -1 -1 1 5 -2 2 -2 -4 -3 0 6 2 -6 -1 3 0 2 1 3 1 1 -1 1 0 7 0 2 1 -5 3 2 -2 -1 2 2 -3 1 0 -2 3 0 -6 -2 1 1 -6 -1 0 -4 -3 1 2 -2 0 -1 0 4 2 1 -4 -1 1 1 1 -2 -4 -1 0 -2 -2 -4 4 -1 -1 2 1 1 2 -6 -2 2 2 -1 0 0 0 -1 -1 5 -1 -2 -5 -2 2 0 -2 0 3 0 3 1 4 1 -2 -3 1 -6 6 -2 -1 -2 0 -1 -4 -1 -3 1 0 2 0 -1 -4 0 0 0 2 5 2 -4 -1 -4 -2 -2 2 -3 -2 -1 -2
-4 -3 2 0 0 -3 -1 -4 -4 2 -4 -2 0 -6 1 -2 -1 -1 -1 0 -3 1 -4 -4 -3 2 2 1 -5 -1 0 2 1 2 -1 1 -1 1 -4 -3 1 0 -1 -1 -1 2 -1 -1 -4 3 -3 0 -1 -4 -1 -6 -1 -6 0 -8 -2 -6 -6 -2 0 1 -4 -7 0 -1 -1 3 0 -3 -3 3 0 -4 -2 0 -3 -2 -3 0 1 1 -2 0 2 1 0 -1 -2 -4 -3 -4 -4 2 -2 -2 -3 -4 -2 1 0 0 1 -1 2 0 -2 0 -1 -2 1 1 -3 -2 -2 -1 2 5 -2 2 -3 -4 -1 0 5 3 -6 -1 2 1 1 2 3 1 1 -2 0 0 7 1 2 1 -5 2 2 -1 0 2 3 -2 1 0 -3 3 0 -7 -2 1 2 -6 -1 0 -4 -3 0 1 -1 2 1 1 5 1 1 -4 -2 1 0 1 -2 -4 -1 0 -3 -3 -4 4 -1 -1 2 1 0 3 -5 -2 2 2 -1 1 0 1 0 0 6 0 -2 -5 -3 1 0 -2 0 2 0 2 2 4 1 -3 -2 0 -6 6 -3 -1 -2 0 0 -3 -1 -2 1 2 3 0 -1 -3 1 1 1 3 5 1 -3 -1 -4 -2 -1 1 -4 -2 -1 -2
-4 -3 2 2 0 -3 0 -5 -4 2 -5 -2 0 -5 0 -2 0 -1 -1 0 -3 1 -4 -5 -2 1 3 0 -5 -1 1 2 0 2 -1 0 0 0 -3 -4 1 0 -2 -1 -1 2 -1 -1 -4 4 -2 -1 0 -3 -1 -5 -1 -7 1 -8 -2 -5 -5 -2 1 2 -3 -7 0 -2 -1 1 1 -3 -2 2 1 -4 -3 0 -2 -1 -4 0 2 2 -2 0 1 1 0 -2 -1 -5 -3 -4 -3 2 -1 -2 -2 -2 -2 1 -1 -1 1 -1 1 0 -1 0 -2 -2 2 2 -3 -2 -2 -1 1 5 -2 0 -4 -3 0 2 4 2 -7 -2 2 1 1 2 4 0 2 -1 -1 1 7 1 3 0 -3 2 1 -1 0 2 2 -3 2 0 -3 2 0 -7 -2 1 2 -6 -2 0 -4 -4 1 -1 1 4 2 1 6 1 2 -3 -3 0 0 1 -1 -4 -1 -2 -2 -3 -4 5 0 -1 2 0 1 3 -5 -1 2 3 -1 1 1 1 1 0 4 0 -3 -5 -3 2 0 -2 0 2 0 3 2 4 1 -4 -1 0 -6 6 -3 -1 -3 0 0 -3 -1 -1 3 1 2 0 0 -3 1 1 1 4 4 1 -3 1 -4 -4 -2 1 -4 -3 0 -1
-4 -3 2 1 1 -2 1 -6 -4 2 -6 -1 -1 -4 1 -2 0 -2 0 -1 -3 2 -4 -6 -3 1 2 0 -4 0 1 1 0 1 -1 -1 0 1 -4 -4 1 0 -2 -1 -2 3 -1 -1 -3 3 -3 -1 0 -3 -1 -5 -1 -8 2 -7 -3 -6 -3 -1 0 3 -3 -5 -1 -2 -2 1 1 -3 -3 2 1 -3 -3 0 -2 -1 -4 2 1 1 -2 1 2 0 1 -1 -1 -6 -2 -5 -3 2 -1 -3 -3 -1 -2 1 -2 0 0 -1 2 -1 -1 1 -2 -2 1 2 -2 -1 -2 -1 0 5 -3 1 -5 -3 0 2 2 2 -7 -2 1 1 0 2 5 0 2 -2 -2 1 7 0 4 0 -2 2 1 0 1 1 2 -3 2 2 -2 1 0 -7 -1 1 1 -6 -3 -1 -5 -4 0 -3 1 5 3 1 5 1 3 -3 -3 0 0 1 -1 -3 -2 -2 -2 -2 -4 5 0 0 2 0 1 1 -4 -1 2 2 -1 1 0 2 2 -1 4 0 -3 -5 -3 0 0 -3 -1 2 -1 2 1 5 1 -3 -1 0 -6 6 -3 -1 -2 0 -1 -2 -1 0 2 2 1 1 0 -4 1 1 -1 6 4 -1 -3 1 -3 -5 -1 1 -5 -2 0 -1
-4 -4 3 1 2 -2 0 -6 -4 2 -6 0 -1 -4 1 -1 0 -1 0 -1 -4 2 -3 -7 -3 1 3 -1 -3 0 1 2 -1 2 0 -2 0 1 -3 -4 1 1 -2 0 -2 2 -1 -1 -3 3 -3 -1 1 -4 -1 -4 0 -8 2 -7 -3 -5 -1 -1 1 3 -3 -5 -1 -2 -2 1 1 -3 -2 2 0 -3 -3 1 -1 -1 -4 2 0 1 -3 0 2 0 1 -1 -1 -5 -2 -4 -3 2 0 -3 -2 0 -2 1 -1 -1 -1 -2 1 -1 -1 0 -1 -2 1 1 -2 0 -1 -1 -1 4 -3 -1 -6 -2 0 3 3 2 -6 -3 2 2 -2 2 4 0 2 -2 -3 1 7 1 3 -1 -1 2 1 -1 1 1 2 -4 2 1 -3 1 1 -7 0 1 1 -5 -2 -1 -6 -5 0 -4 1 6 4 1 6 0 3 -2 -3 0 -1 2 -1 -3 -1 -2 -1 -3 -4 5 0 -1 2 -1 0 0 -3 -1 2 3 -1 1 0 2 3 -1 4 0 -3 -5 -3 0 1 -2 -1 2 -2 0 1 4 2 -3 0 -1 -5 5 -3 -1 -3 1 -1 -2 -1 1 4 3 1 1 0 -4 1 1 -1 7 4 -1 -3 1 -4 -5 -1 -1 -4 -3 0 0
-4 -3 3 1 2 -2 1 -6 -4 1 -5 0 1 -4 0 0 1 -1 1 0 -4 2 -2 -6 -3 1 3 0 -2 0 2 2 -1 0 -1 -4 1 0 -2 -3 0 2 -3 0 -2 2 -1 0 -3 2 -2 0 1 -3 -1 -3 -1 -6 2 -6 -4 -5 0 0 1 3 -2 -3 -2 -2 -3 0 1 -4 -1 1 0 -2 -4 0 -1 -1 -4 2 0 2 -3 0 1 -1 2 0 0 -6 -2 -4 -1 2 0 -3 -3 0 -3 1 -1 -1 -1 -2 1 -1 -2 1 -2 -1 1 1 -1 0 -1 -1 -2 4 -3 -2 -6 -1 0 2 2 1 -6 -3 2 2 -2 2 4 0 3 -1 -2 0 6 2 3 0 0 3 2 0 1 0 1 -4 3 2 -1 2 0 -7 0 1 0 -5 -2 -1 -6 -6 0 -5 1 6 4 1 5 0 4 -2 -3 -2 -1 2 -2 -2 -1 -3 -1 -2 -4 4 0 0 2 -1 0 -2 -2 0 1 2 -1 1 -1 2 2 0 4 0 -3 -4 -3 0 1 -2 0 2 -2 -1 2 4 1 -3 2 -1 -4 4 -3 0 -4 1 -1 -2 0 1 4 2 -1 1 1 -4 1 1 -2 8 2 -1 -3 1 -3 -4 -1 -1 -4 -2 0 0
-3 -5 3 2 2 -2 -1 -6 -4 0 -5 1 1 -3 1 0 1 0 1 1 -4 2 -1 -7 -1 1 2 0 -2 1 2 1 -2 0 -1 -4 1 0 -3 -3 -1 3 -3 1 -1 2 -2 1 -1 1 -1 0 1 -3 -1 -3 1 -5 2 -5 -4 -5 0 1 2 2 -1 -1 -1 -1 -3 -1 1 -5 -1 1 1 -1 -3 0 0 -2 -4 1 -1 2 -3 -1 1 -1 1 -1 1 -6 -1 -4 -1 3 0 -3 -3 2 -2 1 -2 -1 -1 -3 1 -1 -3 1 -2 0 1 0 -1 -1 -1 -1 -3 2 -3 -1 -6 0 0 3 2 0 -6 -3 1 2 -2 1 3 0 2 -2 -1 0 6 2 3 -1 0 3 2 0 2 0 0 -5 3 1 -1 2 1 -7 -1 0 0 -4 -1 -1 -5 -6 0 -6 1 5 4 1 4 0 3 -1 -2 -2 -1 2 -1 -2 -1 -2 -1 -2 -5 3 -1 0 1 -1 0 -4 -2 0 1 2 -1 1 -2 2 1 0 4 0 -4 -3 -2 0 1 -3 -1 1 -3 -1 2 4 1 -3 3 -1 -3 5 -1 0 -4 2 -3 -2 0 2 4 2 -1 2 1 -4 1 -1 -1 8 1 -1 -3 1 -3 -4 0 -1 -5 -2 0 0
-2 -4 2 2 3 -1 0 -6 -3 -1 -5 2 0 -2 0 1 1 0 2 0 -4 2 -1 -6 -1 1 3 1 -1 0 2 2 -2 1 0 -5 0 1 -3 -4 -1 3 -3 1 -2 0 -3 0 -1 -1 -2 0 0 -3 0 -2 1 -4 3 -4 -4 -5 0 0 1 3 -1 -1 -2 -2 -3 -1 0 -4 -2 1 0 -1 -3 0 1 -3 -5 0 -2 1 -3 -2 2 0 2 -1 1 -6 -1 -5 0 3 -1 -2 -3 2 -2 1 -1 -2 -1 -3 2 -1 -4 2 -3 1 1 0 0 0 0 -2 -3 2 -4 -2 -5 1 -1 2 2 -1 -4 -3 0 2 -3 0 3 0 2 -1 1 1 5 2 2 0 0 3 3 -1 2 0 0 -5 2 2 -1 1 0 -7 0 1 -1 -3 0 -1 -6 -7 -1 -5 0 4 4 0 5 1 4 1 -2 -2 -2 2 -2 -1 -1 -2 0 -2 -5 3 0 0 2 -2 0 -4 0 -1 1 2 0 1 -2 1 1 -1 3 0 -4 -3 -1 -1 1 -3 0 1 -4 -2 2 4 1 -3 4 -1 -2 4 0 0 -4 2 -3 -3 0 3 4 2 -1 2 1 -5 0 -1 -2 9 1 -2 -4 1 -3 -4 0 -2 -5 -2 1 0
-2 -4 3 2 3 -2 -1 -5 -1 -2 -4 3 1 -3 -1 0 0 1 2 0 -4 3 1 -7 0 0 3 0 1 0 3 1 -1 1 1 -6 1 0 -2 -4 -1 4 -2 2 -1 0 -2 1 -1 -1 -1 1 0 -2 1 -1 0 -2 3 -4 -5 -5 1 1 2 2 1 0 -2 -1 -4 -1 0 -5 -1 0 1 -2 -3 1 1 -4 -4 -1 -3 1 -3 -1 1 0 2 -1 2 -5 0 -4 1 3 -1 -2 -4 1 -2 1 -1 -2 -1 -2 2 -1 -5 2 -3 1 0 -1 0 0 0 -1 -3 1 -3 -2 -6 2 -2 2 3 -2 -3 -3 0 1 -2 0 2 0 2 0 2 0 4 2 1 0 0 2 3 -1 1 0 -1 -5 3 1 1 0 0 -6 0 1 -2 -3 1 -2 -6 -7 -1 -5 0 3 2 0 4 0 3 2 -2 -2 -2 2 -3 -1 0 -2 -1 -1 -6 3 -1 0 1 -2 -1 -4 0 -1 1 2 0 0 -2 1 -1 -1 3 0 -4 -2 0 -2 2 -3 0 0 -5 -1 3 4 0 -3 5 0 -1 4 1 1 -5 2 -4 -3 0 4 4 0 -1 3 1 -4 0 -1 -2 9 0 -1 -3 0 -3 -3 0 -3 -5 -1 0 -1
-1 -5 2 2 3 -2 -1 -5 0 -3 -4 3 0 -1 -1 0 0 2 2 0 -5 3 0 -6 -1 1 2 2 1 1 3 0 -1 1 0 -7 0 0 -2 -4 -1 4 -2 1 0 0 -3 1 0 -2 0 1 -1 -1 1 0 0 -2 2 -2 -4 -5 -1 1 2 2 1 0 -2 0 -3 -1 -1 -4 0 1 2 -1 -3 1 3 -4 -4 -2 -3 1 -3 -3 1 0 1 -1 2 -5 0 -3 2 2 0 -3 -4 2 -2 1 0 -3 0 -3 1 0 -6 2 -3 2 1 -1 0 -1 1 -2 -4 0 -3 -1 -4 2 -1 2 4 -2 -3 -2 -1 2 -1 0 2 0 1 0 3 0 4 3 1 0 0 1 4 -1 1 0 -1 -4 4 1 0 1 -1 -5 0 0 -3 -2 1 -2 -6 -8 -2 -4 0 2 1 -1 3 0 3 3 -1 -1 -2 2 -3 0 0 -3 -1 -1 -6 2 0 1 1 -2 0 -4 1 0 1 1 0 0 -2 0 -1 -1 3 -1 -5 -1 -1 -2 1 -3 -1 1 -5 -1 3 3 0 -2 6 -1 1 2 2 0 -5 2 -4 -3 0 3 3 -1 -1 3 2 -4 0 -2 -3 9 0 0 -3 0 -3 -2 0 -3 -6 -1 1 -1
-1 -4 2 2 2 -1 -2 -4 1 -4 -3 4 0 -1 -1 0 0 2 2 1 -5 3 0 -5 0 1 2 2 1 1 2 0 -1 1 1 -6 0 0 -3 -3 -1 3 -2 2 0 -1 -3 2 -1 -3 1 0 -1 -1 0 0 1 -1 1 -1 -4 -4 0 2 2 1 1 1 -1 1 -3 -1 -3 -3 1 0 1 -2 -3 1 2 -5 -3 -2 -4 0 -3 -3 1 1 1 -1 4 -4 1 -2 3 3 -1 -2 -4 2 -2 0 0 -4 1 -3 2 0 -7 1 -3 2 0 -2 -2 -2 1 -2 -4 1 -3 -1 -3 2 -2 1 4 -3 -1 -1 -2 2 -1 -1 0 0 0 1 3 0 4 3 1 -2 -1 1 3 -2 2 0 -1 -4 4 0 0 0 -2 -4 0 1 -3 0 2 -1 -6 -6 -1 -3 1 1 1 0 3 0 3 4 -1 -1 -3 2 -3 0 0 -3 -1 -2 -5 1 0 1 1 -3 -1 -3 1 1 1 1 0 0 -2 -1 -3 -1 3 -1 -4 0 0 -3 2 -2 0 0 -6 1 3 3 0 -2 7 0 3 3 3 0 -5 1 -4 -3 0 4 4 -1 -1 3 1 -3 -1 -2 -3 9 -1 1 -1 -1 -2 -2 0 -2 -6 -1 0 -2
0 -4 2 2 2 -1 -2 -3 0 -5 -3 4 0 0 -3 -1 1 2 1 1 -5 3 0 -4 -1 2 2 2 1 1 2 0 0 1 0 -7 0 0 -3 -3 -1 4 -1 2 2 -2 -3 2 0 -4 1 2 -1 0 1 2 1 -1 0 -1 -3 -3 -1 2 2 0 2 1 -1 1 -4 -1 -3 -3 1 1 0 -3 -2 1 3 -5 -2 -1 -4 -1 -3 -4 0 0 0 0 3 -4 1 -2 3 2 -1 -2 -4 1 0 0 1 -5 0 -3 1 0 -6 2 -4 2 0 -1 -2 -2 1 -2 -2 0 -3 -1 -3 2 -2 1 4 -4 1 -1 -2 1 -1 -1 0 -1 1 1 3 0 4 3 0 -1 -2 -1 3 -1 1 0 -2 -5 3 -1 0 -1 -3 -4 -1 1 -3 1 2 -2 -6 -6 -2 -2 1 1 2 0 2 0 2 6 0 -1 -4 2 -3 0 1 -3 -1 -2 -6 0 0 0 1 -3 0 -1 0 1 1 0 1 0 -1 0 -3 -2 2 -1 -4 1 0 -4 1 -2 1 0 -7 2 3 2 1 -2 7 0 4 2 4 -1 -3 -1 -3 -3 0 4 3 -2 -1 2 2 -3 0 -2 -3 7 -1 3 0 -1 -2 -3 -1 -2 -7 -1 -1 -1
1 -3 0 1 1 -1 -2 -1 1 -5 -3 3 0 0 -3 -1 0 3 1 0 -5 3 0 -3 -3 2 2 3 1 1 1 -1 -1 1 -1 -7 0 1 -4 -2 -3 3 1 2 3 -1 -3 2 -1 -5 2 1 -1 0 2 2 0 -1 -1 0 -2 -3 0 2 2 0 2 2 0 1 -3 0 -4 -2 1 1 0 -3 -1 1 3 -5 -2 -1 -4 -2 -2 -4 1 2 0 -1 3 -3 1 -2 4 2 0 -2 -4 0 -1 1 1 -5 1 -3 0 1 -8 2 -3 1 0 -2 -3 -2 0 -2 -2 0 -3 -2 -2 4 -1 -1 2 -4 2 -1 -3 2 -1 -2 -1 -1 0 2 2 -1 4 3 0 -2 -2 -1 3 -1 1 0 -3 -3 3 -2 1 -1 -4 -3 -1 1 -3 1 1 -2 -5 -5 -2 -1 2 1 2 0 1 -1 3 7 0 0 -5 2 -3 -1 2 -4 -2 -2 -5 0 -1 -1 1 -4 -1 0 1 2 1 0 1 0 0 -1 -2 -2 1 -1 -5 1 -1 -3 2 -2 1 1 -7 3 3 1 1 -2 6 0 4 1 4 -1 -3 -2 -4 -3 0 4 4 -1 -1 1 2 -1 0 -1 -3 7 -1 4 1 -1 -1 -3 -1 -2 -7 -1 0 -2
0 -2 0 1 0 -2 -3 -1 -1 -6 -3 3 -1 0 -4 -1 0 2 1 0 -5 3 0 -2 -2 2 2 4 1 1 1 -1 0 0 -1 -6 0 0 -4 -2 -3 3 1 2 3 -1 -2 2 -1 -4 3 1 -1 0 1 3 1 -2 -1 1 -2 -3 1 3 1 -1 3 2 0 1 -2 -1 -5 -1 2 1 -1 -4 -1 2 2 -4 -2 0 -4 -2 -2 -4 0 1 -1 -2 3 -3 2 -2 4 2 0 -1 -4 0 -1 1 1 -4 1 -3 0 1 -8 2 -2 1 0 -1 -3 -2 1 -3 -2 0 -3 -3 -2 4 0 -1 1 -4 3 1 -4 2 0 -3 -1 -1 0 2 0 -1 4 2 0 -2 -2 -2 3 0 1 0 -2 -3 2 -2 0 -2 -5 -3 -1 2 -3 2 0 -1 -5 -4 0 0 2 3 3 0 0 -1 3 8 1 1 -6 2 -3 -1 1 -4 -2 -1 -4 -1 -1 -1 0 -4 0 0 0 3 1 0 1 1 1 -1 -1 -3 0 -1 -5 2 -2 -3 2 -1 2 1 -7 4 2 1 1 -2 5 0 6 0 3 -1 -1 -2 -4 -4 -1 5 3 -2 -2 1 2 -1 0 -1 -3 5 -2 5 1 -1 -2 -3 -1 -2 -6 -1 -1 -2
1 -2 0 0 0 -1 -3 1 -1 -6 -2 3 -2 1 -5 -2 -1 2 0 0 -5 3 0 -1 -3 1 2 3 1 1 0 -1 0 0 -1 -6 0 0 -5 -3 -3 2 2 2 3 0 -2 2 -1 -5 3 1 0 0 1 3 0 -3 -2 2 -1 -2 2 3 1 0 3 2 0 1 -3 0 -6 -1 3 1 0 -3 -1 2 1 -5 -2 0 -5 -3 -2 -4 1 1 -1 -2 3 -2 3 -1 4 2 1 0 -3 0 -1 1 1 -3 1 -2 0 0 -8 2 -2 1 -1 0 -3 -2 0 -3 -1 0 -3 -3 -1 4 2 -1 -1 -3 4 0 -5 2 -1 -3 -1 0 -1 2 -2 -1 4 2 0 -3 -1 -2 3 1 1 1 -3 -3 3 -3 0 -2 -5 -2 -2 2 -3 2 -1 -1 -5 -3 0 0 3 4 4 0 0 0 3 8 1 1 -6 1 -2 -1 2 -4 -2 -1 -4 -1 -1 -2 0 -5 -1 1 0 4 2 -1 1 0 1 -1 -1 -3 -1 -1 -5 3 -2 -3 1 -1 1 2 -6 4 2 0 1 -2 4 0 7 -1 2 -1 -1 -2 -4 -3 0 4 3 -2 -2 0 3 -1 0 -1 -2 4 -1 4 1 -1 -1 -4 -1 -2 -6 -2 -2 -2
0 -1 0 0 -2 -1 -2 1 -3 -6 -3 2 -2 0 -6 -2 0 2 1 0 -5 2 1 -1 -2 0 2 3 1 1 0 0 -1 0 -2 -5 0 0 -5 -3 -3 2 1 2 3 1 -2 3 -1 -5 4 2 1 0 2 3 1 -3 -3 2 -1 -3 3 3 1 0 2 2 1 1 -2 0 -7 0 3 1 0 -4 -1 2 1 -5 -1 2 -4 -3 -2 -4 1 2 -2 -2 2 -1 3 0 3 3 1 -1 -3 0 -1 0 1 -2 1 -2 -1 0 -7 2 -1 1 -1 -1 -3 -1 0 -3 -1 0 -2 -5 -3 4 1 -1 -2 -2 5 1 -6 3 -1 -3 -1 0 -1 2 -3 0 4 2 -1 -3 -2 -2 3 1 2 0 -4 -2 2 -3 0 -2 -6 -1 -1 1 -3 3 -2 0 -5 -1 0 0 2 4 5 1 0 -1 3 8 0 1 -5 1 0 -1 1 -5 -3 -1 -4 -2 -1 -2 -1 -5 -1 1 0 4 2 0 1 0 1 -1 1 -2 -1 -1 -6 4 -2 -3 2 0 2 3 -7 4 2 0 1 -1 2 -1 7 -2 1 -2 -2 -2 -5 -3 -2 4 2 -2 -2 -1 3 -2 1 0 -1 3 -1 4 0 -1 -2 -5 -1 -1 -6 -2 -1 -2
0 0 -1 -1 -2 0 -2 2 -4 -6 -3 2 -3 1 -7 -2 0 1 1 0 -5 3 1 0 -1 0 1 4 1 1 0 -1 -1 0 -3 -5 -1 1 -5 -2 -3 2 0 3 3 0 -1 3 -1 -4 3 2 2 1 2 3 0 -2 -3 1 0 -3 4 3 1 0 1 2 1 1 -2 0 -7 0 2 0 0 -5 -1 3 0 -5 -2 1 -4 -3 -2 -4 1 2 -2 -3 1 -1 4 1 2 3 2 0 -3 -1 -2 0 0 0 1 -2 -1 0 -7 1 -1 1 0 1 -2 -1 0 -3 -2 -1 -3 -4 -3 4 2 -1 -3 -2 5 0 -6 4 -2 -3 -1 0 -1 3 -3 0 3 1 0 -4 -1 -1 2 3 2 1 -3 -1 1 -2 0 -3 -6 -1 -1 2 -2 3 -2 0 -6 -1 0 -1 3 3 6 0 0 -1 2 8 0 1 -4 1 2 -1 2 -5 -3 0 -4 -3 0 -3 -1 -5 -1 1 0 4 3 -1 1 0 1 0 2 -2 -2 -1 -7 4 -2 -3 1 0 1 3 -6 2 2 0 0 -1 1 -1 7 -2 0 -2 -1 -3 -5 -4 -2 4 1 -1 -2 -1 2 -2 1 0 -1 2 -2 2 -1 -1 -2 -5 0 -1 -5 -2 0 -2
-1 2 -1 -2 -3 0 -1 3 -5 -5 -2 1 -3 2 -8 -1 -1 1 1 1 -5 2 2 0 -1 -1 1 4 1 1 1 -1 -1 -1 -2 -4 -1 1 -5 -2 -3 3 -1 4 3 0 -1 3 0 -3 3 2 3 1 2 3 0 -2 -4 2 0 -4 5 4 1 0 1 1 1 0 -1 1 -7 0 1 0 0 -4 -1 2 0 -5 -2 2 -4 -4 -1 -5 1 2 -2 -4 1 -1 3 1 3 3 2 0 -2 -1 -2 0 -1 1 1 -1 0 -1 -6 1 -1 2 0 1 -2 -1 0 -3 -1 -1 -2 -4 -3 4 0 -1 -4 -1 5 0 -6 3 -2 -3 -1 0 0 3 -2 0 4 1 0 -3 -1 -2 2 2 2 1 -3 -2 1 -2 1 -2 -5 0 0 2 -2 3 -2 0 -6 0 -1 -1 3 3 7 1 0 -2 2 7 0 0 -3 1 2 -1 2 -5 -4 1 -4 -3 -1 -3 -2 -6 -1 1 0 3 3 -1 2 0 -1 -1 2 -1 -2 -1 -7 4 -1 -3 0 0 1 4 -6 1 2 -1 0 -2 -1 0 6 -3 -2 -1 -2 -1 -6 -3 -3 3 1 -1 -4 -2 2 -2 0 1 -2 0 -2 2 -2 -1 -1 -5 0 -1 -4 -1 -1 -2
-1 2 -1 -3 -4 0 -1 3 -6 -5 -2 1 -4 2 -9 -2 0 0 0 1 -3 2 3 -1 0 0 1 4 2 1 1 -2 -1 0 -2 -3 0 0 -6 -2 -3 3 -1 3 2 0 0 3 -1 -3 3 3 5 0 2 3 0 0 -5 2 1 -4 4 3 0 0 -1 1 1 0 -1 0 -8 0 2 0 -1 -4 -1 1 -1 -5 -3 2 -3 -4 -1 -4 1 2 -1 -4 0 0 3 2 3 3 2 0 -3 -1 -2 0 -1 2 -1 0 0 -1 -6 1 0 4 -1 1 0 -1 0 -3 -1 -2 -2 -3 -4 4 0 -2 -5 0 5 -1 -6 5 -3 -3 -1 -1 0 2 -1 0 4 0 0 -3 -1 -1 1 3 3 1 -3 -2 0 -3 1 -3 -5 1 -1 3 -2 2 -1 1 -6 1 0 -1 2 1 7 0 0 -3 2 6 1 -1 -2 1 3 -2 1 -5 -5 2 -4 -2 0 -2 -2 -6 -2 1 0 3 3 -1 1 0 -2 0 2 -2 -3 -2 -8 4 -2 -2 0 0 1 5 -5 1 1 -1 -1 -2 -2 0 4 -4 -2 -1 -3 -1 -6 -3 -3 3 0 0 -3 -3 2 -3 0 2 -2 0 -2 1 -2 -2 -2 -3 0 0 -4 -2 0 -2
-2 3 -1 -3 -5 1 0 4 -6 -5 -2 1 -4 2 -9 -2 -1 0 0 1 -3 1 3 -1 1 -1 1 4 1 1 1 -2 -1 0 -1 -1 -1 1 -5 -2 -3 4 -2 3 1 0 0 2 -1 -3 2 3 5 1 1 3 1 1 -6 0 1 -4 4 4 0 1 -2 0 1 1 0 1 -8 1 0 -1 0 -4 0 1 -1 -6 -3 2 -3 -5 0 -4 1 1 -1 -4 -1 -1 4 3 1 3 2 1 -2 -1 -3 0 -2 4 -1 0 0 -2 -6 0 0 5 -1 2 1 0 -1 -2 0 -1 -2 -1 -5 4 -1 -2 -4 1 4 -2 -6 5 -3 -2 -1 0 -1 3 1 1 3 1 0 -3 -1 -2 1 2 3 0 -4 -1 0 -2 0 -2 -6 1 0 2 -2 2 -1 1 -6 2 -1 -1 2 -2 6 0 0 -3 1 4 0 -2 -2 0 4 -1 0 -6 -5 2 -4 -2 0 -2 -1 -6 -1 -1 0 3 4 0 2 0 -3 0 1 -1 -3 -2 -10 4 -1 -1 0 -1 1 4 -4 1 2 -1 -1 -1 -3 -1 3 -5 -3 0 -4 -1 -7 -2 -3 2 -1 1 -4 -4 3 -3 0 3 -2 -1 -1 0 -3 -2 -1 -2 0 1 -4 -1 0 -2
-2 3 0 -3 -5 1 0 4 -6 -3 -1 1 -4 1 -9 -3 -1 1 0 1 -3 2 5 -1 0 1 0 5 2 1 1 -2 -2 -1 0 1 -1 1 -5 -1 -3 4 -2 2 1 -1 1 3 0 -1 2 3 5 0 2 3 1 3 -5 0 1 -5 4 3 0 1 -2 -1 0 1 0 0 -7 3 0 0 0 -4 0 0 -2 -7 -4 2 -2 -5 0 -4 1 1 -1 -4 -2 0 4 3 1 3 1 1 -3 -1 -3 0 -3 5 -1 1 0 -3 -5 0 0 6 -1 2 0 -1 -1 -3 -1 -1 -2 -1 -6 4 -2 -2 -4 2 4 -2 -6 5 -3 -2 0 1 0 2 2 1 3 1 -1 -1 -1 -3 0 1 3 0 -3 -1 -1 -2 0 -3 -6 1 1 2 -1 2 -1 2 -6 2 -1 0 2 -5 7 0 0 -3 1 4 0 -2 0 1 4 -1 -1 -6 -6 2 -4 -3 0 -2 -2 -6 -1 -1 0 3 5 0 2 -1 -3 0 2 0 -4 -2 -10 4 0 -1 0 -2 0 5 -4 0 2 -2 -2 -2 -2 -1 2 -5 -3 0 -5 -1 -8 -2 -3 2 -1 2 -4 -3 2 -4 0 2 -2 -1 -1 -2 -2 -2 -1 -1 1 1 -4 -1 0 -2
-2 4 1 -4 -6 2 0 4 -7 -1 0 2 -3 2 -9 -3 -1 1 0 2 -3 2 5 -1 0 1 1 5 2 2 1 -2 -2 0 -1 2 0 0 -5 -1 -2 3 -3 2 1 -1 0 2 -1 0 1 3 6 0 1 3 1 3 -5 -1 1 -5 3 2 0 1 -4 -1 0 2 1 0 -7 3 -1 0 0 -3 0 0 -2 -7 -4 0 -1 -4 0 -2 1 0 -1 -5 -2 0 3 3 0 3 0 1 -3 0 -2 -1 -4 5 -2 1 0 -3 -5 -1 0 6 -1 2 2 0 -1 -3 1 -1 -1 0 -4 4 -2 -2 -3 2 3 -2 -5 5 -2 -2 0 0 1 2 4 2 3 1 0 -1 -2 -3 0 1 3 -1 -4 -2 0 -1 0 -2 -5 1 1 2 -2 1 0 2 -6 3 -1 1 1 -6 5 -1 0 -3 1 3 0 -1 1 1 5 -1 -2 -6 -6 2 -6 -3 0 -2 -1 -6 0 -1 0 3 4 0 2 0 -4 0 0 0 -3 -2 -12 4 0 0 -1 -3 0 6 -4 0 2 -2 -1 -3 -3 0 1 -6 -4 0 -6 -1 -8 -2 -4 0 0 3 -5 -3 2 -4 0 4 -1 -1 -1 -2 -2 -2 -1 0 1 2 -3 0 1 -1
-1 5 0 -3 -6 1 0 4 -7 -1 0 2 -2 0 -8 -4 -1 0 0 2 -2 1 4 -1 0 1 1 5 3 2 0 -2 -2 1 0 4 0 0 -4 -1 -2 3 -3 1 1 -2 1 2 0 -1 1 2 6 0 0 3 1 2 -5 -1 0 -4 3 2 0 2 -3 -2 -1 1 0 0 -6 3 -1 -1 -1 -4 0 -1 -2 -6 -5 0 -1 -4 0 -2 1 0 -1 -5 -2 0 2 3 1 3 0 2 -2 0 -2 -1 -5 4 -2 1 0 -3 -6 0 0 6 -1 2 2 0 -1 -2 0 -1 0 0 -5 3 -2 -3 -2 3 2 -2 -4 5 -1 -2 0 0 1 2 4 3 3 1 -1 -1 -3 -5 0 -1 3 -2 -4 -2 -1 -1 -1 -3 -6 3 1 1 -1 0 -1 2 -6 2 -1 2 1 -7 6 -1 0 -3 0 1 0 -1 1 1 6 -1 -1 -5 -6 1 -7 -4 0 -1 -2 -6 -1 -1 -1 2 4 1 2 0 -5 1 0 1 -3 -3 -13 3 0 1 -1 -4 0 6 -3 0 2 -2 -2 -3 -3 -1 0 -7 -3 0 -6 -1 -8 -3 -3 0 1 4 -4 -2 2 -4 0 3 -2 -1 -1 -2 -2 -2 -1 0 0 2 -4 1 0 -1
-1 4 1 -3 -6 1 1 4 -7 0 1 3 -2 1 -7 -4 -1 0 -1 2 -2 1 4 -2 -1 1 0 5 2 2 -1 -2 -2 0 1 3 -1 -1 -4 0 -3 0 -2 2 0 -1 1 2 0 -1 0 2 7 0 -1 3 1 1 -4 -2 0 -4 3 2 0 2 -3 -2 -1 2 1 -1 -5 4 -1 -1 0 -4 0 -2 -2 -6 -4 0 -1 -4 0 -1 1 0 0 -6 -3 0 2 3 1 2 -1 2 -3 0 -2 -1 -6 4 -1 2 -1 -2 -6 -2 -1 6 -2 2 2 1 -2 -2 0 -1 -1 0 -4 3 -2 -3 -1 4 2 -2 -4 5 -1 -1 1 1 1 1 3 4 3 1 0 -1 -3 -6 -1 -1 3 -2 -3 -1 -1 -1 0 -2 -6 2 2 2 -1 0 -1 3 -5 2 -1 3 1 -7 5 -1 1 -4 -1 1 0 0 1 0 6 -2 -2 -5 -5 0 -6 -3 -1 0 -1 -6 0 -1 0 2 4 1 2 0 -5 1 -1 2 -4 -3 -13 4 -1 1 0 -3 1 6 -3 0 1 -3 -1 -2 -4 0 -1 -7 -2 1 -7 -1 -7 -3 -3 -1 1 3 -5 -2 2 -3 0 4 -2 -2 -2 -3 -1 -1 -1 0 1 2 -3 1 0 0
0 4 1 -4 -7 0 1 5 -7 1 1 3 -1 1 -7 -4 -1 0 0 2 -1 1 3 -2 -2 1 0 5 3 3 -1 -2 -2 0 1 4 -1 -1 -4 0 -3 -1 -2 1 1 -2 1 1 0 0 0 2 6 0 -1 2 0 1 -4 -3 0 -4 3 0 0 3 -2 -2 -1 1 0 -1 -5 4 -2 -1 -1 -5 0 -3 -2 -6 -4 -1 0 -4 1 -1 1 0 -1 -6 -3 1 1 3 -1 2 -1 1 -2 1 -2 -1 -7 2 -2 2 -1 -2 -5 -2 -1 5 -1 1 2 1 -2 -1 0 -1 0 0 -3 3 -1 -4 -2 4 1 -1 -3 4 -2 -1 0 2 2 0 1 3 3 0 -1 -1 -3 -6 -1 -2 4 -2 -3 -2 -1 1 0 -3 -6 3 2 0 -1 0 -1 3 -5 2 0 2 1 -7 5 0 1 -3 -1 -1 0 0 0 1 5 -2 -2 -6 -6 1 -7 -3 0 0 -2 -5 0 -1 -1 1 4 2 2 0 -5 1 0 1 -4 -3 -14 3 -1 2 -1 -3 0 6 -2 0 1 -3 -2 -2 -4 0 -2 -7 -2 0 -5 -2 -8 -3 -2 -1 0 3 -4 -2 2 -2 1 4 -3 -1 -2 -1 -1 0 -1 0 2 2 -2 1 0 -1
-1 4 1 -4 -6 -1 1 5 -7 2 1 3 -1 1 -6 -3 -1 0 -1 1 -1 0 2 -1 -3 0 0 4 1 3 -2 -1 -2 0 0 4 -2 -2 -4 -1 -3 -2 0 1 1 -2 2 1 0 0 0 1 5 0 -2 2 0 0 -3 -2 -1 -4 4 0 0 3 -1 -2 -2 0 0 -1 -4 5 0 -1 -1 -5 0 -2 -2 -7 -3 -1 0 -5 1 0 1 -1 -1 -5 -3 1 1 4 -1 2 -1 2 -2 2 -1 -1 -7 1 -1 3 0 -1 -6 -2 -1 4 -2 0 2 1 -3 -1 0 0 0 0 -2 2 1 -4 -2 4 0 -1 -3 3 -1 0 1 2 2 0 0 4 2 1 0 -2 -2 -6 -1 -1 3 -2 -3 -1 -1 1 -1 -2 -7 3 2 -1 0 -1 -2 4 -4 1 0 2 1 -5 5 -1 1 -3 -2 -2 1 2 0 1 6 -3 -2 -5 -5 0 -7 -3 0 1 -2 -6 0 0 -1 1 4 2 1 0 -5 1 0 2 -4 -2 -15 2 0 1 0 -3 0 7 -1 0 0 -3 -1 -3 -3 -1 -3 -7 -1 0 -5 -2 -8 -3 -1 -2 1 4 -5 0 1 -3 0 4 -3 -1 -3 -1 -1 -1 0 -2 1 1 -2 3 0 0
0 4 1 -4 -7 -1 1 5 -8 2 0 4 1 1 -5 -4 -2 1 0 1 0 0 2 -2 -3 0 -1 4 2 3 -3 -1 -2 1 0 4 -2 -2 -4 1 -2 -4 0 1 1 -1 1 1 0 0 0 0 5 0 -3 2 -1 -1 -1 -3 -1 -4 6 -1 1 3 -1 -2 -3 0 -1 -1 -2 4 -1 -1 -1 -6 0 -2 -1 -7 -3 0 0 -4 1 1 1 -1 0 -4 -4 2 -1 3 0 2 -1 2 -1 2 -2 -1 -8 0 -2 3 0 0 -4 -2 -2 3 -2 0 2 2 -2 -1 0 0 0 -2 -1 1 1 -3 -3 3 -1 -2 -2 2 0 0 0 1 2 -1 -1 4 2 0 0 -2 -2 -5 -3 0 3 -2 -2 -2 -2 1 -1 -2 -7 3 2 -1 1 -2 -2 4 -3 0 0 0 1 -4 4 0 1 -3 -1 -2 1 1 -1 0 6 -2 -1 -5 -4 0 -7 -4 -1 1 -2 -5 1 -1 -1 0 3 3 0 0 -3 2 1 3 -4 -3 -15 2 -1 0 0 -2 0 7 0 1 0 -4 -1 -2 -2 0 -2 -6 0 -1 -4 -2 -8 -3 -2 -2 1 3 -4 1 1 -2 0 3 -3 -1 -3 1 -1 0 -2 -3 2 2 -2 3 0 0
0 4 0 -5 -7 -1 1 5 -7 2 -1 3 1 2 -5 -3 -1 1 0 1 1 0 3 -1 -4 -2 -1 3 1 3 -3 1 -3 0 -1 3 -3 -2 -3 1 -1 -3 0 0 2 -1 1 1 0 0 0 0 5 0 -2 1 -1 -1 0 -2 0 -3 6 -2 1 4 0 -1 -2 -1 -1 -2 -1 2 0 -1 -1 -5 1 -1 -2 -8 -3 0 0 -4 1 1 0 -1 0 -3 -5 3 -1 3 -1 2 -1 1 -1 2 -2 -2 -7 -1 -1 4 -1 0 -3 -2 -2 4 -2 0 2 3 -2 -1 -1 -1 -1 -2 0 2 2 -3 -3 4 -1 -2 -1 2 -1 1 -1 1 2 -1 -3 4 2 0 -1 -2 -1 -5 -3 1 4 -2 -2 -1 -2 2 -2 -2 -7 3 1 -3 1 -3 -1 4 -2 0 -1 0 1 -2 3 0 1 -2 -2 -3 1 2 -1 1 6 -2 -2 -4 -3 2 -6 -5 -1 2 -1 -5 1 0 0 0 3 2 0 0 -4 1 1 2 -4 -3 -16 3 -2 0 0 -1 0 7 1 0 -1 -4 -1 -2 -1 0 -3 -7 0 -1 -3 -2 -7 -3 -1 -4 0 2 -4 1 1 -3 0 3 -3 -1 -3 2 -1 0 -1 -3 2 3 -1 3 0 1
-1 3 1 -5 -6 -2 0 5 -8 1 -2 3 2 3 -4 -3 -2 1 -1 1 1 -1 3 -2 -3 -2 -1 4 1 3 -4 0 -2 0 -1 3 -4 -3 -3 1 -2 -3 -1 0 2 -1 1 0 0 0 -1 1 5 0 -1 1 -2 -2 2 -2 0 -3 7 -2 1 3 1 -2 -3 0 -1 0 1 2 0 -2 -1 -5 0 -1 -2 -10 -3 0 -1 -3 1 2 0 0 0 -4 -5 4 -2 3 0 1 -2 0 0 2 0 -2 -6 -2 -1 3 0 1 -3 -2 -2 3 -1 0 2 3 -2 0 -1 0 0 -2 1 1 2 -3 -4 4 -1 -3 0 2 0 1 0 1 1 -2 -3 3 2 -1 -1 -1 -1 -4 -3 2 3 -1 -2 -1 -3 2 -2 -1 -7 3 1 -4 1 -3 0 3 -2 0 -1 -1 1 -2 2 1 1 -1 -2 -3 2 2 0 1 4 -2 -1 -4 -2 2 -7 -5 -1 1 -1 -5 2 -1 -1 0 3 2 -1 1 -4 1 0 3 -4 -3 -16 2 -1 -1 1 -1 -1 7 1 0 -2 -4 -2 -2 1 0 -3 -6 0 0 -2 -2 -8 -3 -2 -4 -1 2 -3 3 0 -2 0 2 -3 0 -3 3 -2 -1 -1 -4 3 3 -1 3 1 1
-2 3 1 -5 -5 -2 1 5 -7 2 -4 3 2 4 -3 -2 -2 2 -1 1 2 -1 4 0 -3 -2 -2 4 1 3 -4 0 -3 0 -1 2 -4 -2 -3 0 -1 -3 -2 1 3 -2 0 1 0 -1 -1 0 4 0 0 1 -1 -2 2 -2 0 -2 8 -3 0 3 2 -1 -2 0 -2 -1 1 0 1 -2 -1 -5 1 -1 -1 -11 -3 1 0 -3 0 2 -1 0 1 -2 -5 5 -3 3 0 1 -2 0 0 3 0 -2 -6 -4 -1 4 -1 1 -2 -2 -2 4 -1 0 2 4 -2 1 -1 -1 1 -1 2 1 1 -2 -4 4 -2 -2 0 1 -1 0 -1 0 2 -2 -2 2 2 0 -1 -1 0 -4 -3 2 3 -1 -2 -2 -3 2 -3 -1 -6 3 1 -5 1 -3 1 4 -2 -1 -1 -1 2 -2 1 0 0 -1 -2 -3 2 0 0 0 4 -2 0 -4 -2 2 -8 -6 -1 1 0 -5 2 0 0 0 2 2 -1 0 -3 1 0 2 -3 -2 -15 1 0 -1 0 0 0 7 1 -1 -4 -4 -2 -2 1 0 -2 -5 0 -1 -2 -2 -8 -3 -2 -5 -1 1 -2 3 0 -3 -1 2 -3 -1 -3 4 -3 -1 -1 -4 3 2 -1 3 2 2
-2 2 0 -5 -5 -2 2 5 -6 1 -3 2 3 5 -3 -1 -2 2 0 1 2 -1 5 0 -3 -2 -1 3 0 4 -4 0 -3 0 -1 1 -4 -3 -2 2 -1 -1 -3 0 3 -2 1 1 1 0 -1 0 3 1 1 0 -3 -1 4 -1 1 -2 7 -3 0 3 1 -1 -2 0 -2 -1 3 -1 0 -2 -1 -5 0 0 -1 -11 -3 0 -1 -3 1 2 -1 1 0 -2 -5 5 -3 2 -1 1 -2 -1 1 3 1 -1 -5 -4 -2 3 -1 1 -1 -3 -3 5 -1 1 2 5 -1 1 -1 0 1 -1 3 0 0 -2 -5 4 -2 -3 1 1 -1 1 -2 0 1 -2 -1 2 1 0 -1 -1 1 -3 -3 3 4 0 -3 -1 -3 1 -3 0 -5 3 0 -6 1 -2 1 4 -1 -1 0 -2 1 -4 -1 0 -1 0 -2 -3 2 1 0 0 4 -1 0 -4 -2 2 -8 -6 0 1 -1 -5 3 -1 0 -1 1 2 -1 -1 -2 1 0 2 -3 -2 -16 1 0 -2 1 -1 0 6 3 -1 -5 -5 -1 -1 3 1 -2 -4 -1 -2 -1 -2 -7 -2 -2 -5 -2 0 -1 4 -1 -3 -1 1 -3 -1 -4 4 -3 0 -1 -2 2 2 0 3 1 2
-2 2 0 -6 -4 -1 1 5 -5 0 -3 3 2 5 -2 0 -2 1 -1 1 3 -1 5 0 -3 -1 -2 3 0 3 -4 0 -3 -1 0 1 -5 -2 -3 2 -1 0 -3 1 2 -3 0 1 2 -1 -1 0 4 1 1 -1 -3 0 5 0 2 -1 7 -4 -1 3 2 0 -1 0 -2 0 4 -2 0 -2 0 -4 -1 0 0 -11 -3 0 0 -1 1 2 -1 1 1 0 -6 5 -4 3 1 1 -1 -1 1 3 3 -2 -4 -4 -2 3 -2 1 0 -3 -3 6 0 0 2 4 -1 2 -1 0 1 1 3 -1 -1 -1 -4 5 -1 -2 2 0 -1 1 -3 0 0 -3 0 1 0 0 -2 -1 1 -3 -3 2 3 1 -2 -1 -3 1 -3 0 -4 2 0 -6 1 -1 1 4 -1 -2 -1 -1 2 -4 -3 0 -2 0 -2 -3 2 0 0 0 3 0 0 -3 -1 2 -8 -6 0 1 0 -4 3 -1 2 -1 0 2 -1 -1 -2 1 -1 2 -2 -2 -16 2 0 -1 1 -2 0 5 2 0 -5 -5 -1 -1 4 1 -1 -4 -1 -1 0 -2 -7 -2 -2 -5 -2 -1 0 4 -2 -3 -1 1 -3 0 -3 5 -3 -1 -1 -1 2 1 1 3 1 3
-1 1 2 -6 -4 -1 2 5 -4 -1 -3 2 2 6 -2 0 -1 1 0 0 3 -1 5 1 -2 -1 -2 2 1 3 -4 0 -2 -2 1 1 -4 -3 -3 2 -1 1 -4 1 1 -3 0 0 1 -1 -1 0 3 1 2 0 -2 1 5 1 1 -1 5 -3 -1 3 1 0 0 0 -3 0 4 -2 1 -3 -1 -3 0 0 -1 -12 -4 1 0 -1 1 3 -1 1 2 0 -6 5 -4 1 0 0 -1 -2 0 3 3 -1 -3 -4 -2 3 -1 1 0 -3 -4 7 0 1 2 4 0 3 -1 0 0 1 5 -1 -3 0 -2 4 -1 -1 2 0 -1 0 -3 0 0 -3 1 0 -2 1 -2 -1 2 -4 -3 0 3 2 -2 -2 -4 2 -2 1 -2 2 0 -7 1 -1 1 4 0 -1 0 -1 1 -5 -6 0 -3 1 -2 -2 3 -1 0 1 2 0 1 -3 -1 1 -7 -6 0 1 0 -4 3 -2 2 -1 -1 1 0 0 -3 0 -1 2 -2 -1 -16 1 1 -1 1 -3 0 5 2 -1 -6 -6 -1 0 4 1 -1 -4 -1 0 0 -2 -5 -1 -2 -5 -2 -2 0 4 -2 -2 -1 1 -2 -1 -3 5 -2 0 -1 -1 2 2 1 2 2 2
0 1 1 -6 -3 0 3 5 -3 -1 -1 1 2 7 -1 0 -1 0 -1 0 3 -1 5 1 -1 0 -2 1 1 4 -2 -1 -2 -2 2 1 -4 -2 -3 2 -2 1 -3 1 1 -4 0 0 1 -1 0 -1 2 1 3 -1 -2 1 6 2 1 -1 5 -4 -1 3 1 0 1 1 -2 0 4 -3 1 -3 -1 -3 -1 -2 0 -11 -4 0 0 0 0 2 -2 2 1 2 -5 5 -3 1 0 -1 -2 -3 0 3 5 -1 -3 -5 -3 3 -2 0 0 -3 -5 7 0 1 2 4 1 4 0 -1 0 2 4 -1 -2 0 -2 5 -2 -1 3 0 0 0 -4 0 0 -4 2 -1 -2 1 -2 -2 1 -4 -2 -1 2 1 -2 -2 -3 1 -2 1 -2 2 0 -8 2 0 2 4 0 -2 0 -1 1 -6 -7 0 -3 0 -1 -1 2 -1 0 0 1 1 1 -3 0 1 -7 -6 0 1 0 -4 2 -3 3 -1 -2 0 1 0 -2 0 -2 3 -1 -1 -16 1 1 -1 1 -5 -1 4 2 0 -5 -7 -1 0 5 1 -1 -2 0 0 2 -1 -5 -2 -2 -5 -3 -2 1 5 -2 -2 -1 0 -2 -2 -4 4 -2 -1 0 1 3 1 0 3 2 2
0 1 1 -6 -3 1 2 4 -2 -1 0 1 2 6 0 -1 -2 0 -1 -1 3 -1 4 1 -1 1 -2 0 0 3 -3 0 -2 -2 1 1 -3 -1 -3 1 -1 1 -2 1 1 -4 0 1 2 -1 -1 0 2 0 3 -1 -3 1 6 2 1 -1 3 -3 -2 3 0 0 1 2 -2 0 5 -4 1 -3 -2 -2 0 -2 1 -11 -4 0 0 -1 -1 3 -2 1 2 2 -5 4 -4 1 0 0 -1 -3 -1 2 5 -1 -3 -5 -3 3 -2 -1 -1 -3 -5 6 0 1 2 4 2 4 -1 0 0 1 5 -1 -3 1 -1 5 -1 1 3 0 -1 0 -4 -1 -1 -4 1 -2 -3 1 -2 -2 2 -5 -2 -2 2 2 -1 -3 -4 1 -1 1 0 2 0 -8 1 2 1 5 -1 -1 1 -1 1 -6 -8 0 -3 1 -2 -1 1 0 0 1 1 1 0 -3 0 0 -6 -6 0 0 -1 -3 2 -3 4 0 -4 0 1 -1 0 0 -1 3 0 -1 -15 0 2 0 0 -5 0 3 2 0 -5 -6 -1 0 3 0 0 -3 0 0 3 -1 -4 -2 -2 -4 -3 -3 2 5 -2 -1 -1 0 -2 -2 -4 4 -1 -1 -1 1 2 0 1 2 1 1
1 1 1 -6 -3 1 2 4 -1 -1 2 0 2 6 0 -1 -1 -1 -2 -2 3 0 3 2 -1 1 -3 0 1 2 -2 -1 -2 -4 1 1 -3 -1 -3 1 -2 1 -1 1 0 -3 -1 1 2 -1 -1 -1 0 -1 2 -2 -3 0 7 2 2 0 4 -4 -3 2 -1 0 2 1 -2 -1 5 -4 2 -3 -1 -2 -1 -2 1 -11 -4 1 0 0 -1 3 -2 2 1 3 -6 4 -4 0 0 -1 -1 -3 -1 2 6 -1 -1 -4 -2 2 -2 -1 -1 -3 -5 6 0 1 2 3 3 6 0 0 1 0 4 -2 -2 1 1 4 -1 2 3 0 -1 -1 -4 0 -1 -3 1 -2 -4 1 -2 -2 1 -4 -1 -3 1 2 -1 -3 -4 1 0 2 1 1 0 -7 1 2 0 3 -1 -1 1 0 1 -5 -8 1 -4 1 -2 0 1 1 -1 1 0 2 1 -2 0 0 -6 -6 0 0 0 -2 2 -2 3 -1 -4 0 1 0 0 -1 -1 3 0 0 -14 -1 1 0 -1 -6 1 3 1 0 -4 -6 0 1 2 0 0 -1 1 1 5 -1 -3 -2 -2 -3 -4 -4 2 5 -2 -1 0 0 -1 -2 -4 2 -1 -1 -1 0 2 -1 -1 1 2 2
1 1 1 -6 -3 0 2 3 0 -1 4 0 2 6 0 -2 -1 -1 -3 -2 2 -1 1 1 -1 0 -3 0 1 2 -1 -1 -3 -4 1 1 -2 -1 -3 2 -1 0 1 2 0 -3 -1 0 2 -2 1 1 -1 0 2 -2 -3 0 6 3 1 -1 3 -4 -3 2 -1 0 2 0 -2 -1 5 -4 2 -3 0 -2 -1 -2 1 -11 -4 0 0 0 -1 3 -3 2 0 4 -6 4 -4 0 0 -2 -1 -4 -2 1 5 -1 -2 -6 -2 2 -2 0 -1 -3 -4 6 0 1 1 5 3 6 -1 0 1 -1 4 -2 -1 2 1 4 -1 3 4 -1 -1 -1 -4 -1 -1 -3 -1 -3 -4 0 -2 -2 2 -4 0 -4 0 1 -2 -3 -5 0 1 2 0 1 0 -7 2 4 -1 4 -1 -1 1 -2 2 -3 -8 2 -4 2 -3 -1 1 2 -2 0 -1 3 0 -1 2 0 -5 -5 1 1 0 -1 1 -2 3 0 -6 -1 0 0 1 -2 0 2 -1 0 -13 -1 2 0 -2 -6 1 1 1 0 -3 -6 0 2 2 0 0 -1 2 1 5 0 -2 -1 -2 -3 -5 -4 2 4 -1 1 0 0 -1 -3 -4 2 0 -1 -1 0 2 -2 -1 1 2 1
2 1 1 -6 -3 0 2 3 0 -1 5 0 1 6 1 -2 -1 -2 -3 -2 1 -1 -1 1 -1 1 -3 -1 0 2 0 0 -3 -5 0 1 -3 -1 -4 1 -3 -1 2 1 -1 -3 -1 0 1 -3 0 0 -1 0 2 -2 -3 -1 5 3 1 0 4 -3 -4 1 -2 0 3 0 -1 -1 4 -4 3 -3 -1 -2 -1 -2 1 -11 -4 0 0 1 -2 2 -2 2 1 3 -5 3 -3 0 1 -2 -1 -3 -3 1 5 -1 -2 -6 -1 3 -1 1 -2 -1 -3 4 -2 1 1 5 4 7 -1 1 0 -2 4 -2 0 2 2 4 0 3 3 -1 -2 -2 -3 -1 -2 -2 -3 -4 -5 1 -2 -2 2 -5 -1 -3 0 0 -2 -3 -5 0 1 1 0 1 0 -7 1 4 -2 3 -1 -2 2 -2 1 -1 -8 2 -4 2 -3 0 0 2 -2 1 -1 3 0 -1 1 0 -4 -5 0 1 0 0 1 -3 5 0 -6 -2 -1 0 1 -3 1 2 0 1 -13 -1 1 -1 -2 -5 1 1 0 0 -2 -6 0 2 1 0 0 0 4 1 6 0 -3 -2 -2 -2 -4 -4 2 4 -2 1 0 0 1 -3 -4 2 0 -2 -1 -1 2 -3 -1 1 1 1
2 1 1 -6 -3 0 2 2 0 -1 7 -1 1 4 1 -2 -2 -2 -3 -2 1 -1 -2 1 -1 0 -3 -1 0 1 -1 -1 -2 -6 0 1 -1 0 -4 1 -2 -1 4 2 -1 -3 -1 1 1 -2 0 0 -2 -1 1 -2 -4 0 4 3 1 -1 5 -2 -5 1 -2 1 2 -1 -1 -2 4 -3 4 -4 0 -3 -2 -2 1 -10 -4 -1 0 2 -2 2 -2 2 0 4 -5 3 -4 -1 0 -1 0 -3 -3 0 5 -1 -1 -6 0 1 -2 2 -1 -1 -3 3 -2 2 0 5 4 7 -1 1 0 -4 3 -3 1 2 1 3 1 4 4 0 -2 -2 -4 0 -2 -1 -4 -5 -5 0 -2 -2 2 -4 0 -2 0 0 -2 -2 -6 0 2 2 1 1 0 -6 1 4 -3 3 -2 -1 2 -2 1 2 -7 2 -4 2 -2 -1 -1 1 -2 0 -2 4 1 -1 2 0 -4 -3 1 0 1 1 1 -1 4 0 -6 -2 -1 0 1 -3 2 3 0 1 -11 -2 2 -1 -2 -3 1 1 0 1 -1 -6 0 3 -1 0 0 0 5 2 6 1 -2 -2 -3 -1 -4 -4 2 4 -1 2 1 0 1 -3 -4 1 1 -3 0 -2 1 -3 -1 -1 2 0
1 1 0 -6 -2 0 1 1 0 -1 7 -1 0 4 2 -1 -2 -1 -3 -2 0 -1 -3 1 -1 0 -2 -2 0 0 0 0 -2 -7 -1 0 -1 0 -4 1 -2 -1 4 2 -1 -3 -2 0 0 -3 0 0 -3 0 1 -2 -4 0 2 2 1 0 5 -1 -5 1 -3 1 3 -1 0 -3 3 -3 4 -4 1 -2 -1 -1 2 -10 -3 -1 1 3 -2 2 -3 2 0 5 -4 3 -3 -1 0 -2 0 -3 -2 -1 4 -1 -1 -5 1 1 -1 2 -1 -1 -1 4 -2 2 0 6 5 7 -1 1 1 -4 3 -2 1 2 0 3 0 3 4 -1 -2 -3 -3 -1 -2 -1 -5 -4 -5 0 -3 -2 4 -4 0 -1 0 0 -2 -3 -6 0 3 2 0 0 1 -5 0 3 -3 3 -3 -3 1 -3 0 3 -7 4 -4 2 -2 -1 0 2 -2 0 -2 3 0 0 2 0 -3 -2 1 1 1 2 1 -2 4 0 -5 -2 -1 1 1 -3 3 3 -1 1 -11 -2 1 -1 -3 -2 1 0 0 -1 -1 -6 1 2 -1 -1 0 0 5 2 6 1 -2 -2 -2 0 -4 -4 2 2 -1 2 0 0 1 -4 -5 1 0 -2 0 -3 2 -4 -2 0 2 0
1 0 0 -6 -2 -1 2 2 0 1 6 -1 0 4 2 -1 -1 0 -2 -1 0 -2 -3 0 -1 -1 -3 -1 -1 1 1 1 -2 -7 -1 0 0 1 -3 0 -2 -2 4 1 -2 -3 -2 1 1 -3 1 0 -3 0 2 -3 -3 1 2 2 1 0 5 -2 -5 0 -3 0 2 -1 0 -4 2 -3 4 -5 1 -1 -1 -2 1 -10 -3 -1 0 3 -2 2 -3 2 0 5 -3 3 -3 0 1 -2 0 -2 -3 0 2 0 -1 -6 2 2 -2 3 -1 -1 0 4 -2 2 -1 6 4 6 0 1 1 -5 2 -3 2 2 -2 3 0 2 4 -1 -2 -3 -2 -1 -2 0 -4 -5 -5 -1 -4 -2 4 -2 0 0 -1 0 -1 -3 -6 0 4 2 0 0 0 -3 0 3 -3 3 -4 -2 1 -3 0 4 -7 3 -4 2 -3 -2 -1 1 -1 0 -2 4 1 -1 3 1 -2 -2 1 0 1 3 1 -1 4 0 -4 -3 0 1 1 -4 3 2 -1 1 -9 -1 2 -2 -3 -1 1 0 -1 0 0 -5 0 4 -2 -1 -1 1 5 1 6 2 -2 -2 -3 0 -4 -3 1 2 -1 1 0 -1 2 -3 -4 1 1 -3 -1 -3 1 -4 -3 0 1 0
0 0 1 -7 -2 -1 1 1 0 1 5 -2 -1 4 3 -1 -1 0 -2 0 0 -2 -3 -1 0 -1 -2 -2 -1 0 0 1 -2 -7 -1 0 0 2 -3 -1 -1 -2 3 1 -1 -3 -2 0 1 -4 0 0 -3 1 3 -2 -3 3 1 1 1 0 3 -2 -4 -1 -3 0 2 0 0 -5 2 -2 3 -5 0 -2 -1 -2 1 -9 -1 -2 0 4 -2 2 -3 2 -1 5 -2 2 -2 -1 1 -1 0 -2 -2 -2 2 1 -1 -5 3 1 -1 4 0 0 1 4 -2 2 0 6 4 6 -1 1 0 -4 3 -2 0 1 -2 3 1 0 4 -1 -3 -2 0 -2 -2 0 -3 -4 -3 -1 -4 -2 3 -1 0 2 -1 1 -1 -2 -6 0 4 2 0 0 -1 -1 0 3 -1 2 -5 -2 1 -3 0 4 -6 3 -3 1 -3 -3 -2 0 -1 1 -3 3 0 1 2 2 -2 -1 1 -1 0 2 1 -1 3 2 -3 -2 0 0 1 -4 2 2 -1 1 -8 -1 1 -2 -3 0 2 0 -1 0 1 -5 1 3 -2 0 0 0 5 1 6 2 -2 -2 -3 1 -3 -3 1 1 -1 1 0 0 2 -4 -4 1 0 -4 -1 -2 0 -3 -3 0 2 0
0 1 2 -7 -2 -1 2 1 0 3 3 -2 0 3 3 -1 -1 1 -1 -1 1 -2 -2 -1 -1 0 -2 -2 -2 0 1 0 0 -7 -1 0 1 2 -3 0 -1 -1 3 1 0 -4 -3 0 0 -3 -1 -1 -4 0 3 -2 -4 4 -2 0 1 1 2 -2 -4 0 -3 0 3 0 1 -4 2 -3 3 -6 0 -1 -2 -1 0 -9 -2 -2 1 4 -2 2 -3 2 -1 6 -2 3 -2 0 0 -2 0 0 -2 -1 0 1 -2 -5 3 1 -1 4 1 1 3 5 -1 1 1 6 3 6 -1 1 1 -3 3 -2 -1 2 -3 3 1 -1 4 -2 -4 -3 -1 -1 -3 1 0 -3 -3 -1 -5 -1 3 0 0 2 -1 0 0 -1 -6 1 4 2 1 -1 -2 0 0 2 -1 2 -5 -2 0 -2 0 4 -7 2 -2 1 -3 -3 -1 -2 0 1 -3 2 0 1 1 3 -2 0 1 0 0 2 1 -1 2 2 -2 -3 0 -1 0 -4 1 3 -1 1 -8 -1 1 -2 -4 2 2 0 -2 0 2 -4 0 2 -3 0 -1 1 3 1 5 2 -2 -2 -4 2 -2 -2 1 0 -1 0 0 0 2 -3 -4 1 0 -3 -1 0 -1 -2 -3 -1 1 -1
0 1 1 -7 -1 -1 1 0 0 3 2 -2 -1 2 4 0 -1 2 0 1 1 -2 -2 -1 0 0 -3 -1 -2 0 1 1 0 -7 -1 1 1 2 -3 -1 -1 0 3 0 0 -4 -3 1 1 -3 -1 -1 -5 1 3 -2 -4 4 -2 -1 2 1 -1 0 -4 0 -4 -1 2 1 2 -5 1 -3 2 -5 -1 -2 -2 -1 0 -7 -1 -2 1 4 -2 3 -4 1 -2 5 0 3 -1 -1 1 -1 0 0 -2 -2 0 1 -2 -4 2 1 -2 3 2 1 4 6 -1 2 1 5 3 5 0 0 0 -2 3 -2 -1 1 -3 2 0 -3 4 -3 -4 -3 0 -1 -3 1 1 -2 -3 -1 -5 -1 4 1 0 2 -1 2 0 -1 -6 1 5 2 1 0 -3 2 0 1 1 0 -6 -3 0 -1 1 3 -7 1 -2 1 -3 -4 -2 -2 0 1 -3 2 0 2 1 3 -2 2 1 -1 1 2 1 -1 2 2 -1 -3 1 0 0 -4 -1 3 0 1 -7 -1 1 -2 -3 2 0 0 -3 0 2 -4 1 3 -4 1 -1 0 2 0 4 1 -3 -2 -4 3 -1 -1 1 -1 0 0 0 1 2 -3 -3 0 1 -4 0 1 -1 -1 -2 -1 2 -1
0 1 2 -8 -1 -1 2 0 -1 4 0 -2 -1 2 5 0 -1 1 1 1 1 -3 -1 -1 -1 1 -3 -2 -2 0 2 1 1 -7 0 1 3 2 -2 -1 0 1 3 0 0 -4 -3 0 1 -2 -1 -1 -4 1 4 -1 -3 4 -3 -2 2 2 -3 0 -4 0 -4 0 2 1 3 -6 2 -3 2 -6 -1 -1 -2 -2 0 -6 0 -2 1 5 -3 3 -3 1 -3 5 0 2 0 0 1 -2 0 0 -2 -2 -1 3 -3 -4 1 -1 -1 2 3 1 4 7 -1 1 1 4 3 5 -1 -1 1 -1 3 -3 -2 0 -3 2 0 -4 4 -2 -3 -4 0 0 -3 1 3 -1 -3 -1 -6 -1 4 2 0 2 -1 3 1 -1 -6 1 5 2 1 -1 -3 4 0 1 2 0 -7 -3 -1 0 0 2 -7 1 -1 0 -2 -4 -2 -2 1 0 -3 1 0 2 1 3 -2 3 2 -1 1 2 1 -1 2 2 0 -3 1 0 0 -4 -2 2 0 2 -7 -1 1 -3 -3 2 1 0 -3 0 2 -2 0 2 -4 1 -2 0 1 0 4 1 -3 -1 -4 3 1 0 2 -2 0 0 -1 0 3 -3 -3 0 1 -4 0 1 -1 0 -3 -1 2 -2
-1 2 3 -8 0 0 2 -1 -1 6 0 -1 -1 2 6 0 1 2 1 1 2 -3 -2 -1 0 1 -3 -1 -2 -1 3 2 1 -7 -1 3 3 2 -2 -1 0 0 3 -1 1 -5 -3 1 1 -2 -2 -2 -5 1 3 -1 -3 3 -4 -3 3 2 -4 0 -4 0 -3 -1 1 2 4 -5 1 -4 1 -6 -1 -1 -2 -3 0 -5 0 -1 1 6 -2 3 -4 0 -2 6 1 1 0 -1 1 -1 0 2 -1 -2 -2 3 -3 -1 0 -1 -2 1 3 2 6 6 -2 0 1 3 3 4 0 -2 1 0 4 -2 -1 1 -3 2 0 -5 4 -3 -3 -4 -1 -1 -2 1 3 -1 -3 0 -6 -1 2 2 0 2 -1 3 1 -1 -5 0 5 2 2 -1 -3 4 -1 0 2 0 -8 -3 -1 0 2 2 -7 0 0 1 -2 -4 -2 -1 1 0 -3 0 1 2 1 2 -2 4 2 -1 1 1 1 -2 1 3 0 -2 2 0 0 -4 -2 2 1 1 -6 -1 2 -2 -3 1 0 0 -2 0 3 -2 0 2 -3 1 -2 0 -1 0 4 0 -3 -1 -4 3 2 1 2 -2 -1 -1 0 0 2 -3 -3 0 2 -4 -1 2 -1 0 -3 0 2 -2
0 1 4 -7 1 0 2 -1 0 7 -2 -1 0 1 6 1 0 2 3 1 2 -3 -2 -1 -1 2 -3 -2 -1 -1 3 2 2 -6 0 3 3 2 -1 -1 1 -1 3 -1 0 -4 -3 0 1 -2 -2 -2 -6 2 3 -1 -3 3 -4 -3 3 2 -6 0 -3 0 -4 0 1 2 5 -4 1 -4 2 -5 -2 -1 -3 -4 0 -3 0 -2 0 5 -1 4 -4 -1 -2 6 1 1 0 0 0 -2 0 2 -1 -2 -2 4 -3 1 -1 -1 -1 0 4 3 6 6 -2 0 1 2 2 4 0 -1 1 0 3 -2 -1 1 -2 2 -2 -5 4 -4 -3 -4 -1 0 -2 1 3 0 -3 -1 -7 -1 2 2 0 0 -1 4 1 -1 -4 0 6 2 1 -1 -4 6 -1 1 1 -1 -9 -3 0 1 2 2 -6 -1 1 -1 -2 -5 -2 0 1 0 -3 -1 1 2 2 2 -1 5 3 -1 1 1 0 -2 1 3 0 -2 1 0 0 -3 -2 2 1 2 -6 -1 1 -1 -2 2 0 0 -3 1 5 -1 -1 1 -2 0 -2 0 -1 0 5 0 -2 0 -3 3 2 1 1 -3 0 0 1 0 3 -2 -2 1 2 -3 -1 2 -1 1 -2 0 2 -3
1 1 4 -7 1 1 2 -1 0 7 -2 0 -1 0 7 2 0 1 3 1 2 -2 -3 -1 -1 2 -3 -2 -1 -1 2 3 3 -5 -1 2 3 2 0 -2 1 -1 3 -2 0 -2 -4 0 2 -2 -3 -2 -7 2 3 -1 -2 1 -4 -4 2 3 -5 0 -2 -1 -3 0 1 1 4 -5 2 -5 1 -5 -2 -1 -3 -4 0 -2 0 -1 1 5 -1 4 -4 -1 -2 6 2 2 1 1 -1 -1 1 3 -1 -1 -2 4 -5 2 -3 -1 -1 0 4 3 6 5 -2 -1 2 1 2 3 0 -2 0 -1 3 -2 0 1 -2 2 -3 -5 3 -3 -4 -4 -1 0 -2 0 2 -1 -3 -1 -6 -1 2 1 1 -1 -1 3 2 -2 -3 -1 7 1 1 -1 -4 6 -1 0 2 -1 -8 -3 1 2 2 2 -6 0 2 -1 -2 -5 -2 0 0 1 -4 -2 1 3 2 1 -1 6 3 -1 1 -1 1 -4 0 3 -1 -2 1 0 -1 -3 -1 2 1 1 -7 -1 2 -1 -1 1 -1 0 -2 0 5 0 -1 0 -2 1 -3 0 -2 -1 5 0 -3 0 -2 3 3 3 1 -2 0 0 1 1 2 -2 -3 0 2 -1 0 1 -2 0 -3 0 2 -4
1 1 5 -7 2 2 3 -2 1 6 -2 1 0 -1 6 2 1 -1 3 1 3 -3 -5 0 0 2 -3 -2 -1 -1 4 3 2 -4 0 2 3 1 1 -1 1 -2 4 -1 -1 -1 -3 0 2 -2 -3 -2 -7 1 1 -1 -2 0 -3 -3 2 3 -6 -1 -2 -1 -3 1 0 0 5 -5 2 -5 2 -5 -2 -2 -4 -5 2 -1 1 -1 0 5 -1 3 -4 -2 -1 6 2 1 1 0 0 -2 1 3 -1 -2 -2 5 -4 4 -3 -1 -1 -1 5 4 5 3 -3 -2 2 0 2 3 0 -3 0 -1 3 -2 2 2 -2 2 -2 -5 2 -5 -4 -4 -1 1 -1 1 1 -1 -3 -1 -6 -2 2 2 2 -2 -1 4 1 -1 -2 0 7 1 2 -1 -4 7 -1 1 1 -2 -9 -3 1 2 3 4 -4 0 2 -1 -2 -5 -1 2 0 0 -4 -2 2 2 2 0 -2 6 3 -1 1 -1 1 -6 0 3 -1 -2 1 0 0 -3 2 1 1 2 -7 -1 2 0 -1 1 0 -1 -3 0 4 1 -2 0 -1 -1 -3 -1 -3 0 6 -1 -2 1 -1 3 2 3 0 -2 0 1 1 1 2 -1 -2 0 2 -1 0 1 -2 0 -2 0 2 -4
1 2 4 -6 3 2 3 -2 2 6 -1 1 0 -1 6 2 1 -2 4 2 3 -2 -6 -1 0 1 -2 -3 0 -1 3 4 3 -3 -1 2 4 1 1 -1 1 -3 3 -2 -2 -1 -4 0 2 -2 -3 -2 -8 2 0 -1 -1 0 -2 -2 2 4 -5 0 -1 -2 -3 1 -1 0 5 -5 3 -5 3 -5 -2 -2 -4 -6 1 -1 1 -1 1 5 0 4 -3 -3 0 5 3 1 1 0 0 -1 1 4 -1 -1 -2 5 -5 6 -2 -2 -1 -1 4 4 4 2 -3 -2 2 0 0 2 1 -4 0 -1 3 0 3 4 -2 3 -3 -4 1 -4 -4 -4 -2 0 -1 0 -1 -1 -3 0 -6 -2 1 1 2 -2 0 4 3 -2 -2 -2 7 1 2 -2 -2 7 -2 1 0 -2 -8 -3 2 2 3 6 -3 1 3 -2 -2 -5 -1 3 -1 0 -3 -2 2 3 3 0 -1 6 4 -1 2 -1 1 -6 0 3 -2 -2 1 0 -1 -3 3 1 1 2 -7 0 2 1 -1 1 -1 -1 -3 -2 5 1 -2 0 0 -1 -2 -1 -3 0 7 -2 -1 2 -2 3 3 4 -1 -2 1 1 2 -1 2 -2 -4 0 1 -1 0 -1 -2 0 -3 2 1 -4
0 1 3 -6 4 3 3 -2 3 6 1 1 -1 -1 6 3 0 -2 3 1 2 -2 -6 0 -1 0 -2 -2 0 -2 3 4 3 -3 0 3 3 1 2 -1 1 -3 4 -3 -3 0 -4 -1 2 -2 -2 -1 -7 1 -1 -1 -1 -1 -1 -2 1 3 -4 0 -2 -2 -2 3 -1 0 4 -4 2 -4 3 -5 -1 -3 -4 -6 2 -1 1 -1 1 4 0 3 -3 -3 0 4 3 1 1 0 -1 -2 2 3 -1 0 -2 4 -5 7 -3 -2 -1 -2 4 3 4 0 -4 -3 2 0 1 1 1 -4 0 -2 3 0 4 3 -3 3 -3 -3 1 -4 -4 -3 -1 0 0 -1 -2 0 -3 0 -6 -2 2 1 2 -2 -1 4 2 -3 -2 -1 7 1 2 -2 -2 7 -2 1 0 -3 -8 -3 2 2 2 8 -2 1 3 -2 -3 -5 -1 2 -1 0 -4 -2 2 2 3 0 -1 6 3 1 1 -1 2 -7 0 3 -3 -2 0 0 0 -3 5 0 0 2 -7 -1 2 0 -1 1 -1 -2 -2 -2 4 3 -3 0 2 -2 -2 0 -2 1 7 -2 -1 2 -1 2 3 4 -1 -2 1 1 2 -1 1 -1 -4 -1 0 0 0 -3 -2 -2 -2 2 1 -3
0 1 2 -5 4 3 3 -2 4 4 1 1 0 -1 5 3 0 -3 3 1 3 -2 -6 -1 -1 0 -1 -2 0 -2 3 4 2 -2 -1 3 3 1 2 -1 1 -4 4 -2 -4 -1 -4 -1 2 -1 -2 -1 -8 2 -1 0 -1 -1 -1 0 1 3 -4 -1 -2 -2 -1 2 -1 -1 4 -4 2 -3 2 -5 -1 -3 -4 -7 2 -1 1 -1 0 4 0 2 -4 -3 1 4 3 0 3 0 -1 -2 1 3 -1 -1 -1 4 -4 8 -2 -2 -1 -1 3 3 3 -1 -4 -3 2 0 0 1 1 -3 0 -3 2 1 4 5 -4 3 -4 -2 0 -4 -3 -3 -1 1 0 -1 -3 1 -4 0 -5 -1 1 1 2 -2 0 3 3 -3 0 -1 7 1 2 -2 -1 7 -2 1 -1 -3 -9 -3 2 1 2 9 -1 2 3 -3 -2 -4 0 1 -1 -1 -3 -2 1 2 3 0 -1 6 4 0 2 -1 1 -8 -1 3 -3 -2 1 1 1 -2 6 0 1 3 -6 0 3 1 -1 2 -1 -3 -2 -2 4 3 -3 0 3 -2 -2 -1 0 1 7 -1 -1 3 -1 2 2 5 -2 -2 2 2 2 -1 0 -1 -4 0 -1 1 0 -4 -3 -1 -2 2 1 -3
-1 2 2 -4 6 3 2 -2 5 3 2 0 -1 0 5 3 0 -3 3 1 2 -2 -6 0 1 -1 -1 -1 1 -2 3 4 2 -1 -1 2 3 1 3 0 1 -3 4 -2 -3 -1 -5 -3 2 -1 -1 -1 -8 2 -1 0 0 -1 -1 0 1 4 -4 0 -2 -3 -1 2 -1 0 4 -3 2 -2 2 -3 -1 -3 -4 -7 2 -2 2 -1 0 4 0 2 -3 -3 2 3 3 0 3 1 -1 -2 1 3 -1 0 0 4 -4 8 -2 -2 -1 1 3 2 1 -1 -4 -3 2 -1 0 -1 1 -3 0 -2 2 1 3 5 -3 4 -4 1 0 -4 -3 -3 -2 0 1 -2 -2 0 -5 0 -4 -1 1 1 2 -1 0 2 3 -3 0 0 7 2 2 -2 -1 7 -2 2 -1 -4 -9 -3 2 1 2 10 -1 1 4 -4 -2 -3 -1 1 -1 -2 -2 -2 1 2 4 1 -1 5 4 2 3 0 1 -7 0 2 -3 -2 -1 1 0 -2 7 0 0 3 -7 0 3 1 -1 2 -1 -3 -2 -2 2 4 -3 0 5 -2 -1 0 1 1 7 -1 0 3 -1 1 1 4 -3 -2 2 1 3 -1 0 0 -4 -2 -1 1 -1 -5 -2 -1 -1 1 1 -2
-1 2 2 -4 5 3 2 -3 4 1 1 0 -1 1 4 4 0 -3 3 1 1 -2 -6 1 0 -2 -1 -1 1 -2 3 4 2 -1 -1 2 4 0 3 0 1 -2 2 -2 -4 -2 -5 -3 2 0 -1 -1 -8 3 -1 0 0 0 -1 1 1 4 -4 0 -3 -3 0 2 -1 0 2 -3 1 -2 1 -4 0 -4 -3 -5 3 -3 1 0 0 5 0 2 -3 -3 2 1 3 -1 3 0 -1 -1 1 3 0 0 1 3 -3 8 -1 -2 -1 0 3 1 0 0 -2 -3 2 -1 -1 -1 1 -2 0 -1 2 2 2 5 -4 3 -4 2 -1 -3 -2 -2 -1 0 1 -3 0 0 -6 0 -3 1 1 2 0 1 0 2 3 -3 1 1 7 1 2 -1 -1 6 -2 1 0 -4 -10 -3 1 0 1 9 0 1 4 -4 -1 -2 0 -1 -1 -2 -2 -1 0 1 3 2 -1 5 4 2 2 1 1 -7 -1 3 -2 -1 -1 0 1 -1 4 0 0 4 -6 0 2 0 -1 3 -1 -3 -2 -2 1 4 -3 0 6 -2 0 -1 2 0 8 -1 0 5 0 2 1 3 -3 -2 2 2 3 -2 0 -1 -4 -1 -3 1 0 -5 -2 -2 0 1 0 0
-1 1 0 -4 6 3 2 -3 5 0 2 -1 -1 1 3 4 0 -3 2 1 1 -2 -5 0 0 -2 -1 -1 0 -2 3 4 1 0 -1 2 3 0 3 1 0 0 1 -2 -2 -2 -5 -4 3 0 0 0 -8 3 -1 0 0 0 -2 3 0 3 -6 0 -3 -4 1 2 -1 1 2 -2 1 -1 0 -3 0 -4 -3 -3 2 -4 1 -1 0 5 0 2 -4 -3 2 0 3 -1 3 0 -1 -2 0 2 1 1 0 2 -2 6 -2 -3 -1 0 3 0 -1 0 -2 -3 3 -2 0 -2 0 -1 0 0 2 2 1 4 -3 4 -4 2 -2 -2 -1 -1 -1 0 2 -3 2 0 -6 1 -3 1 0 2 0 1 0 1 3 -4 1 1 5 2 1 -1 -1 5 -1 1 0 -5 -9 -4 0 1 1 8 -1 0 4 -5 -2 -1 -1 -1 -1 -2 -2 -1 -1 0 3 1 -1 4 4 3 2 3 1 -6 -1 3 -2 -1 0 -1 1 -2 3 -1 0 4 -5 0 3 0 -1 4 -1 -3 -1 -1 0 4 -3 0 6 -2 1 0 3 0 6 -2 1 4 0 2 1 4 -3 -1 1 1 2 -3 0 0 -5 -1 -3 2 0 -4 -1 -1 0 1 -1 1
-1 1 0 -3 5 2 2 -3 3 -1 1 -1 0 2 3 3 0 -4 1 0 0 -2 -3 1 1 -1 -1 -1 0 -2 2 2 2 0 -1 2 3 -1 3 1 1 1 1 -2 -1 -2 -5 -4 3 0 0 0 -7 2 1 1 0 0 -1 2 0 4 -7 0 -3 -3 1 1 0 1 1 -2 1 0 0 -2 0 -3 -3 -3 3 -4 1 -1 1 5 1 1 -4 -2 2 -1 3 -3 3 -1 -1 -2 0 1 2 0 1 2 0 5 -2 -3 -1 0 2 -1 -2 1 0 -4 3 -2 -1 -3 0 -1 -1 1 2 2 0 4 -2 3 -5 3 -2 -1 0 0 -1 0 3 -3 4 0 -7 1 -1 2 -1 1 -1 1 0 0 3 -3 1 1 4 1 2 -2 -1 5 -2 2 0 -5 -10 -3 0 1 0 7 -1 0 4 -4 -2 0 -2 -2 -1 -2 0 0 -1 1 2 2 -2 3 4 4 2 4 0 -5 0 3 -2 -1 0 -2 2 -1 0 -1 0 4 -6 1 3 -1 -1 5 0 -4 0 1 -1 4 -3 0 6 -1 1 -1 2 -1 6 -2 2 4 0 1 0 3 -1 -1 2 1 1 -2 -1 0 -4 -1 -2 1 -1 -3 -2 -1 0 1 -1 1
-1 1 -1 -4 5 2 1 -3 2 -3 0 -3 -1 1 3 3 -1 -3 1 1 0 -2 -3 1 1 0 0 -1 1 -2 2 2 1 0 -1 2 4 0 3 1 0 2 0 -2 0 -2 -4 -4 2 0 1 1 -7 1 1 0 0 0 -1 4 0 3 -9 0 -4 -4 2 1 0 1 -1 -1 0 0 0 -2 0 -4 -2 0 3 -4 1 0 0 5 1 1 -3 -2 3 -2 3 -3 4 -1 -2 -3 0 1 3 1 2 2 0 3 -2 -3 -1 0 2 -2 -2 1 2 -3 3 -2 -1 -2 0 -1 -1 2 3 2 -2 2 -1 4 -4 3 -3 0 0 1 0 -1 3 -4 4 0 -6 1 0 4 -2 2 -2 1 -1 -1 4 -3 1 2 3 1 2 -1 -3 4 -1 1 0 -5 -11 -4 0 1 1 5 0 -1 3 -4 -1 3 -2 -2 -1 -2 0 1 -1 -1 2 0 -3 2 3 4 2 5 0 -4 -1 3 -1 0 -1 -2 2 -1 -3 -1 1 4 -5 0 3 -1 -1 4 0 -4 0 1 -3 4 -1 -1 6 0 1 0 2 -1 5 -2 1 5 0 2 -1 3 0 -1 1 1 1 -3 0 0 -4 -1 -1 1 0 -1 -1 0 1 0 -1 2
-1 0 -2 -4 5 2 1 -4 1 -3 0 -4 -1 1 3 3 0 -3 0 0 0 -2 -2 2 0 0 0 -2 1 -2 2 2 2 1 0 2 3 0 2 1 0 2 0 -2 0 -2 -5 -4 3 0 2 1 -7 1 2 1 0 -1 -2 4 -1 2 -9 0 -5 -5 2 2 0 1 -1 -1 0 0 0 -2 1 -3 -1 1 2 -2 1 0 0 4 1 1 -3 -1 3 -3 1 -3 5 0 -1 -2 1 0 5 0 1 1 1 2 -3 -2 0 -1 2 -2 -1 1 3 -3 3 -2 -1 -4 0 -1 -1 2 4 2 -1 1 -1 3 -3 3 -3 0 2 1 -1 -1 3 -4 5 0 -7 2 1 3 -2 2 -2 1 -1 -1 3 -4 0 2 0 0 1 0 -3 4 -1 1 0 -5 -11 -4 1 1 0 3 0 -1 3 -5 -1 3 -2 -1 -1 -3 0 2 -2 0 0 0 -2 2 2 4 2 6 1 -5 -1 3 -1 0 -1 -1 2 -1 -4 0 2 4 -5 1 3 -1 -1 4 0 -4 0 2 -4 5 0 -1 4 0 2 0 1 -1 4 -3 2 5 1 2 -1 2 1 -1 1 1 1 -3 0 1 -4 1 1 1 0 -1 -1 0 1 1 -1 1
-1 0 -3 -4 4 1 1 -4 0 -3 0 -4 -1 0 3 1 -1 -2 0 -1 -2 -3 -1 2 0 0 1 -1 1 -3 1 1 3 2 0 1 3 -1 2 2 0 2 0 -1 1 -2 -4 -6 2 -1 4 0 -6 0 2 1 1 -2 -3 4 -1 2 -9 1 -4 -5 0 2 1 1 -2 0 -1 0 1 -1 1 -3 0 3 2 -2 2 1 0 5 2 0 -3 -1 3 -4 1 -3 4 -1 0 -3 1 0 6 1 2 0 2 0 -3 -3 0 -2 2 -2 -1 0 3 -4 3 -3 -2 -4 0 -1 -2 2 4 1 -1 0 0 2 -3 2 -3 1 3 2 -1 -2 2 -4 3 0 -7 1 1 2 -2 2 -2 0 -1 -1 3 -4 0 2 -1 0 3 1 -3 3 -1 2 0 -5 -12 -4 0 0 0 2 1 -2 3 -4 0 5 -3 -1 -3 -3 1 2 -2 0 0 -1 -3 1 2 4 2 7 -1 -4 0 2 -1 0 0 -1 2 -1 -4 0 2 4 -4 0 2 -2 -1 4 1 -4 0 2 -5 4 2 -1 3 0 1 0 -1 -2 3 -3 2 6 2 2 -2 1 1 -1 0 1 0 -3 0 1 -4 1 1 2 0 -1 -1 0 0 0 -1 1
0 -1 -4 -5 4 1 0 -4 -2 -4 1 -5 -1 -1 4 2 -1 -2 -1 -2 -1 -3 -2 2 1 0 1 -2 1 -2 1 1 2 1 -1 1 3 -1 2 2 1 0 -1 -1 1 -1 -4 -6 3 -1 5 1 -6 -2 2 1 1 -3 -2 5 -2 1 -8 1 -5 -4 0 2 1 0 -3 -1 -1 0 0 -1 0 -2 0 4 2 -1 2 0 0 4 1 0 -1 0 2 -5 1 -3 5 -2 0 -3 1 -1 6 0 1 0 2 0 -2 -3 1 -4 1 -3 0 0 3 -4 3 -3 -2 -5 0 -1 -1 1 4 2 -1 -1 0 2 -2 3 -2 1 3 2 0 -1 3 -3 1 0 -8 1 2 2 -3 2 -2 0 -1 -2 3 -4 -1 2 -2 0 4 2 -4 3 -1 2 0 -5 -12 -3 0 -1 0 2 2 -1 2 -3 -1 6 -3 0 -2 -3 1 2 -2 -1 0 -2 -3 1 2 4 2 7 -1 -5 0 2 -1 0 -1 -1 3 -1 -4 0 2 4 -5 0 2 -3 -1 4 2 -4 1 3 -6 4 2 -2 1 0 1 1 -2 -3 3 -3 2 5 2 1 -3 0 2 -1 0 1 -1 -2 -1 1 -3 1 1 3 1 0 0 0 1 -1 -1 1
-1 -1 -5 -4 3 1 -1 -4 -3 -4 1 -5 -1 -2 3 1 -1 -2 -1 -1 -2 -3 -2 2 1 1 3 -3 2 -2 1 0 3 2 -2 0 3 -1 2 2 0 0 -1 -1 2 0 -3 -6 1 -1 5 1 -5 -3 3 1 0 -4 -2 5 -1 0 -5 1 -4 -5 -1 2 1 0 -3 0 -1 0 1 0 1 -3 2 4 3 -1 2 1 0 3 1 -1 -1 1 2 -5 0 -3 5 -2 0 -2 2 -1 6 1 0 0 3 -2 -2 -2 1 -5 2 -4 1 -1 3 -5 4 -2 -1 -5 -1 -1 -3 0 3 1 0 -2 1 1 -1 2 -3 1 3 2 -1 0 4 -3 -2 0 -8 1 3 2 -3 2 -2 0 -2 -2 3 -5 -1 2 -4 -1 5 3 -4 2 0 2 -1 -5 -13 -2 1 0 0 3 4 -1 2 -2 -1 6 -3 0 -3 -3 2 2 -2 0 1 -2 -3 0 2 3 3 6 -2 -6 0 2 -1 1 -1 -2 3 -2 -2 0 2 4 -4 1 3 -1 -2 2 1 -4 1 2 -6 3 3 -2 1 -1 1 0 -3 -2 3 -3 3 5 2 1 -3 0 2 -1 1 1 -1 -2 0 1 -2 2 2 3 1 0 1 0 1 -1 0 -1
-1 -1 -5 -4 2 2 -1 -4 -4 -4 1 -5 -1 -3 3 1 0 -1 -2 -2 -2 -3 -2 2 1 0 3 -4 3 -3 0 0 3 2 -1 -1 2 -1 2 1 1 -1 -1 -2 1 1 -1 -6 1 -2 5 1 -5 -4 3 1 1 -5 -1 5 -2 -1 -3 1 -3 -5 -2 2 2 0 -3 -1 -1 0 3 0 1 -2 2 4 2 -1 2 1 0 3 1 -1 0 2 1 -6 -1 -3 5 -1 1 -3 2 -1 6 0 0 0 3 -2 -2 -1 2 -5 0 -3 3 -2 2 -4 3 -3 -2 -4 -2 -1 -3 0 3 1 1 -4 1 0 0 2 -2 2 3 3 0 -1 3 -3 -4 0 -8 0 3 0 -3 1 -2 0 -2 -3 2 -6 -1 1 -5 -2 5 3 -4 2 0 2 -2 -6 -13 -3 2 -1 -1 4 6 0 1 -1 -1 7 -2 1 -3 -2 3 1 -2 -1 1 -2 -3 0 1 3 3 5 -2 -6 0 2 -1 1 -3 -2 3 -2 -1 1 2 3 -5 0 4 -2 -2 2 1 -5 3 2 -6 3 3 -2 -1 -1 -1 1 -3 -2 1 -3 2 5 2 1 -4 -1 2 -1 0 1 -1 -2 0 1 -2 1 2 3 0 1 2 0 1 0 -1 -1
-2 -2 -7 -5 2 2 -1 -3 -4 -3 2 -5 -2 -3 3 1 0 0 -1 -2 -2 -3 -1 2 1 0 3 -5 3 -2 0 0 3 2 -2 -1 2 -2 2 1 2 -1 -2 -2 2 1 0 -5 0 -1 6 2 -4 -4 2 1 1 -4 -1 6 -2 -2 -1 1 -2 -6 -2 3 2 -2 -3 -1 -1 1 3 0 1 -2 2 4 1 -1 2 1 0 2 2 -1 1 4 0 -6 -1 -2 4 -1 0 -2 2 -2 5 -1 -1 -1 3 -1 0 -1 2 -5 0 -3 3 -4 2 -5 3 -3 -3 -4 -2 -1 -4 -2 2 1 3 -5 1 -1 1 2 -2 2 3 3 0 0 3 -2 -5 0 -7 0 3 0 -2 1 -2 1 -2 -3 1 -6 -2 1 -5 -2 5 4 -3 1 1 2 -2 -5 -15 -1 1 -2 -2 4 6 -1 1 0 0 7 -2 1 -3 -2 3 1 -2 0 0 -1 -2 0 0 1 3 5 -2 -7 0 2 -1 2 -3 -2 3 -1 0 1 1 3 -4 0 3 -1 -2 2 1 -4 2 2 -5 3 3 -2 -2 -2 -1 1 -4 -3 0 -2 3 6 2 1 -3 -1 1 0 -1 1 -2 -1 0 1 -2 2 0 4 1 1 2 0 0 -1 0 -1
-1 -2 -7 -5 1 3 -1 -3 -3 -3 3 -5 -2 -3 3 0 -1 1 -1 -2 -3 -3 -1 2 1 0 3 -4 3 -2 0 -2 3 2 -1 -1 2 -3 1 1 1 -2 -1 -3 1 1 0 -4 1 -2 6 1 -5 -4 2 1 1 -5 0 6 -1 -3 1 1 -1 -7 -3 3 2 -2 -2 -1 0 1 3 0 2 -3 3 3 2 -2 2 2 -1 2 2 -3 2 4 -1 -6 -1 -3 5 -1 1 -2 2 -2 5 0 -1 -1 2 -1 1 -1 2 -4 -1 -2 4 -4 2 -4 3 -2 -1 -4 -2 -1 -3 -1 1 1 2 -6 1 -1 2 2 -1 2 3 3 1 1 3 -2 -5 1 -6 0 3 0 -1 1 -1 2 -2 -3 1 -6 -1 1 -5 -2 5 3 -3 1 1 2 -3 -5 -16 0 2 -2 -3 5 7 0 1 0 1 7 -2 1 -2 -1 4 0 -1 0 1 -1 -2 0 1 0 2 3 -2 -8 0 1 0 2 -3 -1 3 -1 2 0 1 2 -4 0 4 -1 -3 1 2 -4 4 2 -5 3 3 -2 -3 -1 -2 2 -4 -3 -1 -2 2 5 2 1 -3 0 1 0 -1 1 -2 -1 1 2 -2 2 -1 5 2 0 2 0 1 -2 0 -1
-2 -2 -8 -5 1 3 -1 -3 -2 -2 3 -4 -1 -3 3 1 -1 2 0 -2 -3 -4 0 3 1 -1 4 -5 2 -2 0 -2 4 3 -1 0 2 -3 1 1 2 -1 -3 -3 1 0 1 -4 0 -1 6 2 -4 -5 2 1 2 -4 0 5 0 -3 2 1 1 -6 -5 3 2 -2 -2 -2 0 2 3 0 2 -3 3 1 2 -2 2 2 -1 1 2 -3 2 4 -2 -6 -1 -2 5 -1 1 -2 1 -1 4 -1 -2 -1 1 -1 2 -2 1 -3 -1 -2 5 -3 2 -4 3 -2 -1 -4 -2 0 -4 -1 0 2 1 -7 1 -2 3 3 0 2 3 3 1 0 4 -2 -3 1 -5 -1 3 -1 -2 1 -1 4 -3 -4 0 -6 -1 1 -6 -3 6 4 -2 0 1 1 -2 -5 -17 0 2 -2 -4 6 6 0 0 1 2 6 -2 0 -1 0 3 0 -1 -1 1 0 -1 0 0 -1 2 2 -3 -7 -1 1 0 2 -3 -1 3 -2 3 0 1 1 -3 0 4 0 -2 2 1 -5 4 1 -3 3 3 -3 -3 -2 -3 2 -3 -3 -3 -1 3 6 1 0 -3 0 0 0 -1 0 -2 0 1 2 -2 2 -2 5 2 0 2 -1 1 -1 -1 -1
-2 -3 -8 -4 0 2 -1 -3 -1 -2 4 -4 0 -2 1 1 -1 3 -1 -1 -3 -4 1 3 1 0 3 -3 2 -2 -1 -2 3 3 -1 0 1 -4 1 1 3 0 -3 -3 2 -1 2 -4 -1 0 6 1 -4 -3 2 1 3 -3 1 5 0 -4 2 0 1 -7 -5 2 2 -1 -1 -2 0 1 1 1 2 -2 4 1 2 -4 2 1 -1 0 2 -4 2 4 -2 -6 -1 -3 5 -1 0 -2 1 -1 4 -1 -2 -1 2 0 3 -1 1 -2 -1 0 4 -3 3 -4 3 -2 -1 -5 -3 0 -4 0 0 1 1 -6 0 -3 4 3 0 3 3 3 2 1 3 -2 -1 0 -3 0 3 -1 -1 1 -1 4 -3 -3 0 -5 0 0 -6 -2 4 4 -1 0 2 1 -2 -4 -17 1 2 -3 -5 5 5 0 0 2 4 5 -1 -1 0 -1 4 -1 -1 0 0 0 -1 0 0 -2 2 1 -3 -7 0 1 1 2 -3 -2 2 -1 2 1 0 0 -3 0 4 1 -3 3 2 -4 4 1 -2 2 2 -3 -4 -2 -3 2 -3 -3 -5 0 2 5 1 0 -3 -1 0 0 -2 -1 -2 0 1 2 -2 1 -3 5 2 0 1 0 0 -1 -1 -2
-2 -2 -8 -5 0 3 -1 -2 0 -2 3 -5 0 -3 1 1 -1 3 0 0 -4 -3 1 2 0 -1 3 -3 1 -2 -1 -3 3 3 -1 1 1 -4 0 0 2 1 -3 -5 1 -2 3 -3 0 0 5 1 -3 -4 2 0 4 -2 1 5 1 -4 1 1 3 -6 -5 2 2 0 -1 -1 0 1 0 1 2 -2 4 0 1 -4 2 1 -1 -1 2 -4 1 6 -1 -6 -1 -3 4 -1 0 -2 1 -1 3 -1 -3 0 0 0 3 -2 1 -2 -1 0 3 -2 4 -4 2 -3 -1 -4 -3 1 -4 2 -1 1 0 -6 1 -4 4 3 0 2 4 3 2 0 3 -2 1 1 -2 -1 2 0 -2 1 0 4 -3 -4 0 -5 0 0 -6 -3 4 4 -1 -1 2 0 -2 -4 -17 2 1 -2 -6 4 5 0 0 2 4 6 0 -2 1 0 4 0 -1 -1 1 0 -1 0 -1 -3 1 0 -3 -5 0 2 1 3 -2 -2 2 -1 0 0 0 0 -3 -1 3 1 -2 3 1 -4 4 2 -1 2 1 -4 -5 -1 -4 2 -2 -4 -6 0 2 5 1 0 -2 -1 -1 1 -1 0 -2 -1 1 2 -2 1 -3 5 3 1 1 0 1 -1 -1 -1
-3 -3 -8 -5 1 3 -1 -2 1 0 2 -4 0 -2 0 1 -2 4 0 0 -3 -4 1 3 0 -1 3 -2 1 -1 -1 -3 3 3 -1 1 0 -5 0 0 4 2 -4 -5 1 -2 4 -2 -1 0 4 1 -2 -3 0 0 4 -2 1 4 1 -5 0 1 3 -6 -5 2 2 0 0 -2 0 0 -2 1 1 -2 3 -1 1 -4 2 1 -2 -1 2 -4 1 5 -1 -6 -1 -2 4 -1 0 -1 -1 0 3 -1 -3 0 0 -1 2 -1 1 -1 -2 1 2 -1 4 -3 1 -3 0 -4 -2 0 -4 2 0 2 -2 -6 1 -4 3 3 2 2 5 4 3 1 3 -1 3 1 0 0 2 -1 -2 1 0 5 -3 -3 0 -5 1 -1 -7 -2 3 3 0 -1 2 -1 -1 -4 -17 3 1 -2 -7 2 3 -1 -1 3 5 5 -1 -1 1 0 3 -2 -1 0 1 1 -1 1 -1 -3 2 -1 -3 -3 0 2 1 3 -2 -3 2 -1 -2 0 -1 -1 -2 0 3 2 -2 4 1 -5 4 4 1 2 1 -4 -4 -1 -5 2 -3 -4 -7 0 2 5 1 0 0 -1 0 1 -1 -1 -2 -1 2 2 -1 1 -4 5 3 0 2 -1 1 -1 -1 -1
-2 -3 -8 -5 1 3 -2 -1 2 0 1 -3 -1 -3 -1 0 -2 4 -1 1 -2 -4 2 2 0 0 2 -1 0 -1 -1 -3 3 2 -1 2 0 -4 -1 -1 3 1 -3 -5 3 -3 4 -1 0 1 4 1 -2 -2 -1 -1 5 -3 1 3 1 -5 -1 1 4 -6 -3 2 2 1 1 -2 0 0 -4 1 1 -2 4 -1 1 -4 2 0 -1 -2 1 -4 0 5 -1 -4 -1 -3 3 -1 -1 -1 -1 0 2 -1 -3 0 0 -1 1 -1 1 0 -1 2 1 -1 5 -2 1 -3 -1 -3 -1 0 -3 3 -1 0 -2 -5 2 -4 3 4 2 1 6 4 3 0 2 -1 5 2 1 -1 2 1 -3 1 0 4 -3 -3 0 -4 1 -1 -7 -3 3 3 -1 -1 1 -3 -1 -4 -17 3 2 -1 -8 0 2 -2 0 4 5 5 1 0 1 1 3 -2 -2 0 0 1 -1 2 -2 -4 1 -1 -3 -2 0 2 1 3 -1 -3 2 -1 -3 0 -1 -1 -1 -1 3 2 -3 5 1 -4 4 5 2 3 0 -5 -4 -1 -4 1 -2 -5 -7 -1 2 4 1 0 1 -1 1 1 0 -2 -2 0 1 2 -2 1 -2 4 3 1 2 0 1 -2 -1 -1
-1 -2 -8 -5 2 2 -2 -1 2 0 0 -2 0 -2 -2 0 -1 4 -1 1 -2 -4 2 3 -1 0 1 -1 -1 -1 -2 -3 2 3 -1 2 0 -5 -1 -1 3 2 -3 -6 3 -2 4 0 -1 1 4 0 -1 -2 -2 -1 6 -3 2 2 3 -5 -3 1 4 -6 -3 1 2 0 0 -2 0 -1 -4 2 1 -1 4 -1 0 -2 2 1 -1 -3 2 -4 -1 4 -1 -4 0 -3 3 -1 -1 -1 -3 1 2 -1 -4 -1 -1 0 -1 -2 1 -2 0 3 1 -1 5 -2 0 -4 0 -4 -2 0 -4 4 -1 1 -2 -4 2 -5 4 4 1 2 7 4 2 1 1 -1 5 2 2 -2 2 0 -3 0 -2 3 -2 -3 -1 -2 1 -1 -7 -2 1 2 -1 -2 1 -3 -1 -5 -17 3 2 -1 -7 -1 3 -2 -1 3 4 4 1 0 1 1 3 -2 -3 0 0 0 -1 1 -3 -4 0 -3 -2 -1 0 2 1 3 -1 -4 2 -1 -4 0 -1 -2 0 -1 3 2 -3 5 1 -2 3 6 4 2 -1 -6 -4 0 -4 2 -3 -5 -7 -2 2 4 1 0 2 0 0 1 0 -2 -1 0 1 2 -1 1 -2 3 3 1 2 0 1 -1 -2 -1
-1 -2 -7 -5 2 2 -1 -1 1 0 -2 -1 -1 -4 -3 0 -1 3 -1 2 -1 -3 1 2 -2 1 1 -1 -2 0 -3 -4 3 3 -1 3 -1 -5 -1 -1 4 1 -2 -5 2 -2 3 1 -1 2 4 0 -1 -4 -3 -1 6 -6 1 2 3 -5 -2 1 3 -6 -3 1 1 1 0 -2 1 -1 -5 2 1 -1 3 -1 -1 -1 3 0 0 -4 1 -3 -1 4 0 -3 -1 -3 3 0 0 -2 -2 2 2 0 -4 -1 -1 -1 -1 -2 1 -2 0 3 -1 -1 6 -1 0 -3 0 -3 -1 -1 -4 4 -1 0 -1 -1 2 -5 3 4 1 2 7 4 2 0 0 -1 4 2 3 -2 1 0 -4 -1 -1 2 -3 -3 0 -2 2 -1 -6 -1 0 1 -3 -2 1 -4 0 -4 -16 3 3 -1 -7 -1 3 -1 -1 3 4 4 1 2 1 1 2 -2 -2 -1 1 -2 -2 1 -3 -3 0 -3 -1 0 0 2 0 3 -1 -4 3 -1 -4 0 -1 -1 1 -1 2 1 -3 5 1 -1 2 6 4 2 -1 -5 -3 0 -4 1 -4 -5 -7 -2 1 3 1 0 3 0 1 2 1 -2 -1 0 0 2 0 0 -1 2 3 1 2 0 0 -1 -2 -2
-1 -2 -7 -6 2 1 -2 -1 1 1 -3 0 -1 -5 -3 -1 -2 2 -1 2 0 -3 0 2 -2 1 1 -1 -2 1 -3 -5 3 2 0 3 -1 -4 -1 -1 3 0 -1 -5 2 -1 4 2 0 2 4 0 0 -4 -5 -1 6 -7 1 0 3 -6 -2 2 3 -5 -2 0 2 0 1 -2 1 -3 -5 2 0 -2 4 0 -1 1 3 -1 0 -5 1 -3 -2 5 0 -3 0 -3 3 0 -1 -1 -3 2 1 0 -3 -2 0 -1 -3 -2 1 -2 0 3 -2 -1 5 1 -1 -4 0 -3 -1 -2 -3 3 0 -1 -1 0 3 -6 3 3 1 2 5 3 2 -1 -1 -1 2 2 4 -3 1 0 -5 -2 -2 1 -2 -2 0 -1 3 -1 -6 -1 0 1 -2 -3 1 -5 -1 -4 -15 3 3 -1 -6 0 4 0 -1 3 4 3 1 3 0 1 2 -2 -2 -1 1 -2 -2 1 -4 -3 -1 -3 -2 1 0 2 -1 2 0 -4 3 0 -4 0 -2 -1 1 0 3 1 -3 3 0 0 2 5 5 2 -1 -6 -2 -1 -4 1 -4 -4 -7 -2 1 3 1 0 2 2 1 2 1 -1 0 2 0 2 0 0 1 2 3 1 2 -1 0 -1 -1 -2
-1 -1 -6 -7 2 1 -2 0 0 1 -4 2 -1 -5 -2 0 -1 2 0 2 0 -2 0 2 -2 1 0 -2 -2 1 -3 -4 2 3 0 2 -1 -4 -1 -1 3 -1 -1 -5 1 1 3 2 0 2 3 -1 1 -4 -5 -1 6 -8 1 -1 2 -5 -1 1 3 -4 -3 0 1 0 1 -2 1 -4 -4 2 0 -1 4 0 -2 2 3 -1 0 -5 0 -3 -2 4 0 -2 0 -2 2 1 -1 -1 -3 3 0 1 -3 -3 0 1 -3 -2 0 -2 1 3 -3 -2 5 2 -1 -3 1 -2 -1 -3 -3 1 -1 -2 1 3 3 -7 1 2 2 4 6 3 2 -1 -1 0 1 1 5 -3 1 -1 -4 -3 -2 -1 -2 -1 0 -1 4 0 -5 0 0 1 -4 -3 2 -6 0 -3 -14 3 4 -1 -6 2 5 1 -2 2 4 2 1 4 0 1 1 -2 -2 -1 2 -2 -1 0 -4 -3 -1 -3 -1 1 1 2 -2 2 -1 -4 3 0 -3 0 -2 -1 2 0 2 1 -3 3 0 1 2 4 5 2 -1 -7 -1 0 -4 1 -5 -4 -6 -3 1 1 1 0 3 2 1 1 1 -1 0 2 -1 2 1 -1 1 1 3 -1 2 -1 0 -1 -1 -3
-1 -1 -6 -7 2 1 -2 -1 0 1 -4 3 -1 -7 -2 0 -2 1 0 1 1 -2 0 1 -2 1 0 -2 -1 2 -3 -5 2 2 -1 2 -1 -4 -2 0 3 -2 0 -5 0 1 3 3 0 2 3 0 3 -4 -6 -1 5 -9 1 -2 2 -5 0 2 2 -4 -2 -1 1 -1 0 -3 1 -3 -3 2 1 -1 3 1 -2 2 3 -1 1 -5 0 -3 -2 3 1 -1 0 -3 2 1 -1 -1 -2 3 -1 1 -2 -4 0 2 -2 -2 1 -2 2 4 -3 -3 4 2 -1 -2 1 -2 0 -4 -3 0 0 -2 2 4 4 -8 2 2 1 5 5 2 1 0 -1 0 -1 0 6 -4 1 0 -5 -4 -2 -1 -2 -2 -1 -1 4 0 -3 1 0 0 -3 -3 1 -7 0 -3 -14 2 4 -2 -5 3 6 1 -2 2 5 2 1 3 -1 1 1 -1 -2 -1 2 -3 0 0 -5 -3 -2 -3 0 0 1 2 -2 1 0 -5 3 0 -1 2 -2 -1 1 -1 1 1 -3 1 -1 2 2 3 4 2 0 -7 0 -1 -4 1 -6 -3 -5 -3 1 0 0 -1 3 2 1 1 2 -1 0 2 -2 3 1 -2 1 0 3 -1 1 -1 -1 0 -1 -3
-1 -1 -5 -8 1 1 -2 0 0 0 -4 4 -1 -6 -2 1 -2 0 1 1 0 -1 -1 1 0 1 0 -2 -2 2 -4 -5 2 2 0 2 -2 -4 -1 0 3 -3 1 -4 -1 1 3 3 -1 2 3 -1 4 -5 -6 0 5 -9 0 -2 2 -5 1 2 2 -3 -3 -1 0 -1 1 -3 0 -3 -3 2 1 0 2 2 -2 2 4 -2 1 -5 -1 -3 -1 2 1 0 0 -3 2 0 -2 -1 -3 4 -2 1 -2 -5 2 3 -2 -1 0 -1 2 4 -3 -3 3 3 -1 -2 2 -2 -1 -5 -2 -1 -1 -2 2 6 3 -7 1 2 1 5 4 2 2 -1 -2 1 -2 1 6 -3 0 -2 -5 -4 -3 -2 -2 -2 0 0 5 0 -2 1 0 0 -4 -4 1 -7 -1 -2 -14 2 4 -3 -4 5 6 2 -2 1 4 1 1 3 -1 1 0 -2 -2 -1 2 -2 0 -1 -4 -1 -1 -3 0 -2 1 2 -2 1 -1 -4 4 1 0 2 -2 -1 2 0 1 0 -3 1 0 3 1 2 4 2 0 -7 2 -1 -3 1 -6 -1 -5 -4 1 0 0 -1 2 2 0 1 1 -1 0 2 -2 3 2 -4 -1 0 3 0 2 -2 -1 0 -1 -2
-1 -1 -4 -9 0 0 -2 0 0 -1 -4 4 -1 -6 -2 1 -1 0 1 1 1 -1 1 1 0 2 0 -2 -1 2 -3 -7 2 2 0 1 -2 -4 -1 1 3 -3 1 -3 -2 1 3 4 0 2 3 -1 5 -5 -6 -1 5 -9 0 -2 2 -4 2 2 2 -1 -4 -1 0 -2 0 -4 1 -3 -3 2 0 2 2 3 -3 1 3 -2 0 -4 -1 -3 -2 2 2 0 1 -3 1 1 -2 0 -3 4 -4 2 0 -5 2 5 -2 -2 0 0 2 4 -3 -3 3 3 -1 -1 2 -2 -2 -7 -2 -1 -2 -2 2 8 4 -6 0 2 2 6 3 3 2 -2 -2 1 -3 0 7 -3 1 -1 -4 -4 -3 -2 0 -2 0 -1 4 0 -2 1 0 -1 -4 -3 1 -7 -1 -2 -13 2 3 -4 -3 5 7 3 -3 0 4 0 1 1 0 0 0 -1 -2 -1 2 -2 1 0 -5 -2 -2 -2 1 -3 2 2 -2 0 0 -5 3 1 2 2 -3 -1 2 -1 1 0 -2 -1 0 4 1 0 3 2 1 -6 4 -1 -2 1 -6 -1 -5 -2 1 0 0 -1 2 3 -1 1 1 0 1 3 -4 2 2 -4 -2 0 3 1 2 -1 -1 0 -1 -3
-2 0 -3 -9 0 1 -2 0 1 -1 -3 3 -1 -6 -2 1 -2 1 1 1 2 -1 1 -1 0 2 -1 -3 -1 3 -2 -6 2 1 0 1 -2 -2 -1 1 3 -2 0 -2 -3 0 2 3 -1 2 3 -1 5 -5 -6 -1 4 -8 0 -2 2 -4 2 2 2 0 -5 -1 1 -2 1 -5 0 -3 -3 2 1 2 2 3 -4 0 4 -2 0 -4 -1 -4 -1 1 2 1 2 -2 1 1 -2 -1 -1 3 -5 1 1 -6 3 5 0 -1 0 0 2 5 -3 -1 3 4 -1 0 2 -2 -2 -7 -1 -2 -2 -2 0 7 3 -5 -1 2 1 7 3 2 2 -3 -3 2 -2 -1 7 -2 1 -2 -3 -5 -4 0 -1 -3 -1 0 5 1 0 1 1 0 -3 -3 2 -8 -2 -1 -13 2 1 -3 -4 5 6 2 -3 0 5 -1 1 1 1 1 0 -2 -3 0 2 -3 2 0 -5 -2 -2 -1 1 -5 2 3 -2 1 0 -3 2 1 2 3 -3 -1 2 -1 0 0 -1 -1 0 4 2 0 2 1 0 -6 4 -1 -3 1 -6 0 -5 -2 0 0 0 -1 2 2 0 0 1 0 2 2 -4 2 2 -5 -3 0 3 1 1 -1 -1 0 0 -2
-1 0 -2 -10 -1 2 -2 0 1 -1 -3 3 -1 -5 -1 0 -2 1 0 1 2 -1 2 -1 -1 2 -1 -3 -1 3 -1 -8 2 1 0 2 -2 -2 -2 2 3 -1 0 -1 -3 -1 2 4 -1 2 3 -1 6 -4 -4 0 3 -6 0 -2 2 -4 2 2 2 1 -5 -3 0 -1 0 -5 1 -4 -3 2 1 3 1 3 -3 -1 3 -2 0 -4 -2 -4 -1 -1 2 1 1 -3 0 2 -2 -1 -2 3 -6 1 2 -7 4 7 1 -2 0 1 2 4 -3 0 2 5 -1 0 1 -1 -2 -7 -1 -1 -2 -1 -1 7 4 -4 -1 2 1 7 3 2 2 -3 -3 1 1 -1 7 -2 0 -2 -2 -4 -3 -1 0 -2 0 -1 6 2 1 1 0 -1 -2 -3 2 -8 -2 -1 -12 2 0 -4 -3 5 6 1 -4 -1 4 -1 1 -1 1 0 -1 -2 -3 0 2 -1 2 -1 -3 -2 -1 -1 1 -6 2 2 -1 -1 1 -3 2 1 2 2 -3 0 1 0 -1 0 0 -2 -1 3 2 0 1 2 1 -5 5 -1 -1 1 -5 0 -4 -1 1 -1 0 -2 2 2 -1 -1 1 0 1 2 -4 2 2 -4 -3 -1 3 1 2 0 -2 0 -2 -2
-2 1 -2 -11 -3 2 -3 0 1 -2 -1 3 0 -5 -1 0 -3 1 0 1 2 0 2 -2 -1 2 -1 -3 -2 3 -1 -8 1 2 0 2 -2 -2 -2 1 3 0 0 1 -3 -3 3 4 -1 2 4 0 7 -2 -4 1 2 -5 -1 -2 2 -4 1 3 2 2 -5 -3 1 -1 1 -5 0 -3 -3 3 1 3 1 2 -2 -2 3 -2 0 -3 -1 -4 0 -1 2 2 2 -2 0 2 -2 0 -2 2 -7 1 3 -7 3 6 0 -1 0 2 2 4 -2 1 3 5 1 0 1 -1 -3 -6 1 -1 -3 0 -3 6 4 -3 -1 2 1 7 2 2 1 -3 -3 2 3 0 6 -1 0 -3 -1 -3 -3 0 0 -2 0 -1 6 3 2 0 -1 -1 -2 -2 1 -7 -1 1 -11 2 0 -2 -3 2 4 0 -4 -1 6 -1 0 -2 2 0 -1 -1 -2 -1 2 -1 3 -2 -3 -3 -1 -1 1 -6 2 2 0 -1 1 -3 2 1 0 2 -3 1 2 -1 -2 1 1 -3 0 3 2 -1 -1 1 0 -5 4 -1 -1 2 -4 -1 -5 -1 1 -1 -1 -2 2 1 -2 -1 1 -1 1 2 -4 2 2 -5 -3 -1 3 1 2 1 -2 0 -1 -2
-2 1 -1 -11 -3 3 -3 -1 2 -2 -1 4 0 -5 -1 0 -2 3 -2 1 2 0 3 -3 0 3 -1 -3 -2 2 0 -8 1 1 1 1 -2 -1 -1 1 3 2 0 1 -1 -3 3 4 -1 2 4 0 8 -1 -2 1 2 -4 -1 -3 2 -4 -1 2 2 2 -5 -3 1 0 1 -6 0 -2 -3 2 0 3 1 2 -3 -3 2 -1 1 -2 -1 -3 2 -1 1 3 3 -2 -1 2 -2 0 -1 1 -7 1 4 -6 4 5 0 -2 -1 1 2 4 -1 1 2 5 0 0 0 -1 -2 -6 1 1 -2 0 -4 5 4 -1 -2 2 1 7 2 2 1 -3 -2 3 5 0 7 1 0 -4 -1 -3 -3 0 1 -2 1 -1 6 3 3 0 0 -1 -1 -2 1 -7 -1 1 -9 2 -2 -1 -2 0 3 0 -4 0 5 -2 0 -2 2 0 -1 -1 -2 -1 0 -1 2 -1 -4 -3 0 -1 0 -5 1 2 0 -1 1 -3 0 1 -2 1 -2 1 2 -1 -2 0 1 -3 0 3 2 0 -1 0 0 -3 4 -1 0 2 -4 -1 -5 0 -1 -1 -1 -2 2 1 -2 -2 0 0 0 1 -5 2 2 -4 -3 -1 2 0 1 0 -3 0 -2 -2
-1 1 -1 -11 -4 3 -3 -1 2 -2 -1 2 1 -5 0 -1 -2 4 -2 -1 2 1 2 -3 -1 2 -1 -4 -3 2 1 -7 0 1 1 1 -2 0 0 1 3 3 1 3 -1 -3 3 4 0 1 4 0 7 -1 -2 0 0 -2 -2 -3 2 -4 -2 3 3 4 -5 -5 1 1 2 -7 0 -2 -3 2 0 2 2 1 -2 -2 2 -1 1 -2 -1 -3 3 -2 0 3 4 -1 -1 3 -3 0 0 1 -8 2 5 -6 4 6 -1 -1 -1 1 2 3 0 1 3 5 0 -1 0 0 -2 -5 1 1 -1 0 -5 4 5 0 -1 3 0 7 2 2 0 -3 -2 3 6 0 7 1 1 -3 -1 -3 -2 2 1 -1 0 -1 6 3 3 -1 -1 -1 0 -1 0 -6 0 2 -9 2 -2 -1 -1 -3 3 -2 -5 0 5 -3 0 -2 2 0 -2 -1 -1 0 0 -1 1 -2 -4 -4 0 -1 1 -5 1 2 -1 -1 2 -2 1 1 -3 1 -1 0 2 0 -2 0 2 -3 0 2 3 1 -3 0 1 -3 3 -1 1 2 -3 -1 -4 -1 0 -1 -1 -3 2 0 -2 -3 1 -1 0 0 -4 1 3 -3 -1 -1 1 0 1 1 -2 0 -2 -2
-1 0 0 -11 -4 3 -4 0 1 -2 0 2 1 -5 0 -2 -2 4 -2 -1 2 1 1 -4 -1 1 -1 -5 -2 1 1 -7 -1 1 1 1 -2 0 0 1 3 3 1 5 0 -4 3 5 0 2 4 -1 8 1 0 2 0 -3 -2 -1 3 -3 -4 3 3 4 -4 -4 0 0 2 -7 -1 -2 -2 2 0 2 2 1 -2 -1 2 0 1 -2 -1 -3 3 -2 0 4 5 -1 -2 2 -2 0 0 0 -8 1 6 -5 5 5 -2 -1 0 1 2 3 1 1 2 5 -1 -2 0 0 -3 -4 2 0 -1 0 -4 2 4 1 -1 3 -1 5 1 2 0 -2 -2 3 5 0 6 1 1 -4 -1 -3 -1 1 1 -1 0 -1 6 2 4 0 -1 -2 0 0 0 -4 1 2 -8 2 -2 0 -1 -5 2 -2 -5 0 4 -2 0 -2 2 1 -1 -1 -1 -1 0 -2 1 -1 -4 -4 1 -1 1 -4 1 2 -1 -2 2 -2 -1 0 -4 0 0 0 1 0 -2 1 2 -4 -1 2 3 2 -4 -1 0 -3 2 0 2 1 -3 -2 -4 0 -2 0 -2 -3 1 -1 -1 -3 0 -1 0 0 -4 1 2 -3 1 0 2 -1 2 2 -3 0 -1 -3
0 1 0 -12 -5 4 -3 0 1 -2 -1 1 2 -6 0 -3 -2 4 -2 -2 2 0 0 -5 -2 1 0 -5 -3 1 1 -5 -1 2 1 1 -2 1 0 1 2 3 2 5 0 -3 3 4 0 1 4 -1 7 1 0 1 -2 -3 -3 -1 2 -3 -3 3 3 5 -3 -5 1 1 2 -6 -1 -2 -1 1 0 0 3 1 -2 0 2 1 0 -2 0 -2 4 -3 -1 4 5 -1 -2 3 -2 -1 1 0 -7 1 5 -5 4 3 -2 0 -1 0 2 2 3 0 3 6 -1 -2 -1 1 -2 -4 2 0 0 0 -2 2 3 0 -1 3 -1 5 1 1 -1 -3 -1 3 4 0 6 0 2 -3 0 -2 -1 2 1 1 0 -1 5 2 4 -1 -1 -1 -1 1 -1 -4 2 3 -6 2 -2 0 0 -5 2 -1 -5 0 3 -3 0 0 1 0 -1 0 0 -1 -1 -2 1 -1 -5 -5 1 -2 1 -2 0 3 -2 -3 1 -3 -2 1 -4 -1 0 0 1 0 -2 -1 2 -4 -1 2 3 2 -5 -1 0 -2 1 1 3 1 -3 -2 -4 -1 -2 -1 -1 -3 0 -2 -1 -4 1 -1 -1 -1 -4 2 2 -2 3 0 1 -2 2 2 -3 0 -2 -3
-1 1 -1 -13 -5 3 -3 0 0 -2 -2 1 2 -7 1 -2 -1 4 -2 -2 2 1 -2 -5 -2 0 -1 -5 -3 1 1 -5 -1 1 0 1 -2 1 0 0 2 3 2 6 1 -2 3 4 1 1 3 -2 7 1 1 1 -3 -2 -3 -1 3 -2 -2 3 3 6 -2 -6 1 -1 2 -5 -3 -2 0 1 -1 0 2 1 -2 1 2 1 1 -2 0 0 5 -3 -1 5 5 1 -2 2 -2 -1 3 -2 -7 1 3 -5 5 3 -2 0 0 -2 2 1 4 -1 3 6 -2 -2 -1 1 -2 -2 3 -1 0 0 -1 1 3 1 -1 3 -1 4 1 1 -1 -2 -1 3 1 0 6 1 3 -3 0 -2 -1 1 0 1 0 0 3 2 4 -1 -2 -2 -1 0 0 -2 1 3 -5 3 -2 1 1 -6 3 -2 -5 1 2 -3 -1 1 1 1 -1 0 1 -1 -2 -3 1 -1 -6 -5 1 -2 0 -1 1 3 -2 -3 1 -3 -2 1 -4 -1 2 0 1 -1 -3 -1 2 -6 0 2 3 2 -5 -1 1 -2 0 0 3 1 -2 -3 -3 0 -3 0 -1 -3 1 -2 0 -4 1 -2 -1 0 -4 1 3 0 4 1 1 -4 2 3 -4 0 -1 -3
-1 1 -1 -13 -6 3 -4 0 -1 -2 -3 -1 2 -7 1 -3 0 4 0 -2 2 1 -2 -6 -2 0 0 -5 -3 1 2 -4 -3 1 0 0 -1 3 1 0 2 2 2 6 1 -1 3 4 1 0 3 -2 6 2 1 2 -3 -2 -3 0 4 -2 -1 3 3 6 -2 -6 1 -1 3 -4 -3 -2 0 1 0 -1 2 1 -1 2 2 1 1 -2 0 0 6 -2 -2 5 4 1 -3 2 -1 0 3 -2 -6 0 4 -5 5 2 -2 0 0 -2 3 0 4 -2 2 6 -4 -2 0 1 -1 -2 3 -3 0 1 2 1 2 0 0 2 -1 3 -1 0 -2 -2 0 5 -2 0 6 0 3 -3 0 -2 0 0 1 2 -1 0 3 1 4 0 -1 -1 -1 0 0 0 2 3 -5 3 -1 1 2 -5 3 -1 -5 2 2 -5 -1 1 0 0 0 0 2 0 -3 -3 0 0 -5 -5 1 -2 1 0 0 2 -2 -5 1 -3 -2 0 -2 -2 2 -1 1 -1 -3 -1 2 -6 0 3 2 3 -6 -1 1 0 -1 0 3 2 -2 -2 -3 -1 -3 0 -3 -3 0 -2 -1 -3 0 -2 -1 -2 -2 1 2 0 5 2 1 -4 2 3 -3 0 -1 -4
-1 0 -1 -13 -5 2 -3 0 -2 -2 -3 -1 2 -8 2 -3 0 4 0 -4 2 2 -2 -6 -2 -1 1 -5 -3 1 2 -4 -3 0 0 0 -1 3 1 -1 2 1 2 6 1 0 2 3 0 0 2 -3 5 2 0 3 -5 -1 -2 -1 4 -1 1 3 3 6 -1 -5 1 -1 2 -3 -5 -1 1 1 -1 -2 2 2 -1 3 1 2 1 -2 0 1 6 -2 -2 5 4 1 -3 2 -1 -1 4 -2 -5 0 2 -4 4 2 0 1 0 -3 3 -1 5 -3 1 6 -4 -2 -1 1 0 -1 3 -3 0 0 4 0 2 0 0 1 -1 1 -2 1 -2 -1 1 4 -5 0 6 0 5 -4 0 -2 0 0 0 1 0 0 2 0 4 1 -2 -1 -1 1 0 0 2 3 -4 3 -1 2 2 -4 5 0 -4 2 1 -5 -1 1 0 1 -1 1 3 -1 -3 -2 1 0 -5 -5 2 -3 1 0 0 2 -1 -5 0 -4 -2 0 -2 -2 2 -1 1 -1 -3 -2 2 -5 0 2 2 3 -6 -2 1 -1 -2 1 4 1 -2 -2 -2 0 -2 -1 -3 -3 0 -3 0 -4 -1 -3 -2 -2 -2 1 2 1 7 2 0 -5 2 2 -3 -1 -1 -5
-1 0 -1 -14 -5 2 -3 1 -2 -2 -4 -2 2 -8 2 -2 1 3 1 -4 2 2 -2 -6 -3 -1 2 -5 -1 0 2 -3 -3 0 -1 0 -1 2 1 -1 2 1 2 6 2 0 2 3 0 -1 0 -3 4 2 0 3 -5 -1 -3 0 5 -1 3 3 2 6 0 -5 1 -1 2 -1 -5 -1 1 0 -2 -3 3 1 -2 3 0 2 1 -3 1 1 5 -3 -2 4 4 1 -4 1 -1 -1 4 -2 -4 1 1 -3 4 1 0 0 0 -4 3 -1 5 -4 1 5 -5 -2 -1 1 0 -1 4 -4 0 0 5 0 1 -1 0 1 -2 1 -2 1 -2 -2 0 5 -7 0 5 -1 5 -3 1 -1 1 0 0 2 -1 0 0 0 3 1 -2 -1 0 1 1 2 2 3 -4 3 0 1 4 -2 5 1 -5 2 1 -6 -1 -1 0 1 -1 2 4 0 -4 -2 3 1 -5 -5 2 -3 0 1 0 3 -1 -5 0 -3 0 2 0 -3 2 -2 0 -1 -4 -2 3 -5 0 2 1 3 -6 -2 2 0 -2 0 4 1 -3 -3 -3 -1 -2 0 -2 -2 1 -3 -2 -4 -1 -3 -1 -1 -1 1 2 0 6 3 0 -5 2 2 -3 -1 -1 -4
-1 -1 -1 -16 -6 1 -3 0 -2 -1 -4 -2 2 -7 1 -2 1 3 2 -3 2 3 -1 -6 -3 -1 2 -5 -1 1 2 -3 -3 -1 -1 -1 0 3 2 -2 1 2 0 5 2 -1 3 2 -1 0 -1 -4 4 3 -1 2 -5 0 -3 0 4 0 4 3 1 6 0 -5 0 -1 2 0 -5 -1 1 0 -1 -2 2 2 -3 2 0 2 1 -3 1 1 5 -3 -2 5 3 1 -5 1 -1 -1 4 -2 -4 0 0 -3 3 1 2 1 -1 -3 4 -1 4 -3 1 4 -5 -1 0 1 0 -1 4 -4 -1 0 4 0 1 -2 0 0 -2 0 -3 0 -1 -1 0 5 -7 1 4 -1 6 -3 1 -1 2 -1 0 1 0 1 -1 -1 3 2 -1 -1 -1 1 1 3 1 2 -2 4 0 1 4 -2 5 0 -4 1 2 -6 0 -1 0 1 0 3 4 -1 -5 0 4 0 -5 -4 3 -4 0 1 0 3 1 -6 0 -3 1 2 0 -2 1 -2 0 0 -4 -1 4 -4 0 2 1 2 -6 -3 2 -1 -3 1 3 1 -3 -2 -3 -1 -2 -1 -3 -1 1 -2 -2 -3 -1 -4 -1 -2 1 1 2 0 5 4 1 -3 1 1 -3 -1 -1 -4
-2 -1 -1 -16 -6 0 -3 0 -3 -1 -4 -3 2 -6 1 -2 1 2 1 -3 2 2 -1 -5 -2 0 2 -3 -1 1 2 -3 -4 -1 -1 -1 0 3 2 -2 1 1 0 6 2 0 2 2 -2 -1 -2 -4 4 3 -1 3 -5 2 -2 -1 4 0 4 4 0 6 0 -5 0 0 2 2 -5 -1 0 1 -1 -2 2 2 -2 2 -1 2 0 -3 1 2 5 -4 -2 5 2 1 -3 2 0 -1 4 -2 -3 0 -1 -2 2 1 3 1 0 -3 4 -2 4 -3 1 3 -5 -1 0 0 1 -2 3 -3 -2 0 2 -1 1 -2 1 0 -1 -1 -3 0 -1 -1 0 4 -7 1 3 -1 6 -3 1 -1 2 0 -1 2 0 0 0 -2 3 2 -2 -1 -1 0 1 3 1 2 -3 3 -1 0 4 -2 4 -1 -4 2 3 -6 0 -2 0 1 -1 3 4 -1 -5 1 4 1 -4 -3 2 -3 0 2 0 3 2 -5 2 -2 1 2 0 -2 1 -2 0 -1 -4 -1 4 -3 0 1 1 2 -5 -2 3 -2 -3 0 3 0 -4 -2 -3 0 -1 -1 -4 -1 1 -3 -2 -3 -2 -4 -1 -1 1 1 1 -1 4 3 1 -3 0 1 -3 -1 0 -4
-3 -1 -1 -16 -5 0 -3 0 -2 -2 -3 -3 2 -5 1 -1 2 1 2 -3 2 3 0 -4 -2 0 2 -2 -1 1 2 -3 -4 -1 -2 -1 2 3 2 -2 1 2 -1 5 2 -1 2 2 -3 0 -2 -5 4 4 -1 2 -5 4 -2 -1 3 0 4 4 0 6 -1 -4 0 0 1 2 -6 -1 -2 1 -2 -1 1 1 -3 2 -2 1 0 -4 1 3 4 -5 -2 4 2 0 -4 2 0 -2 3 -3 -2 0 -2 -2 2 1 5 1 -1 -2 3 -1 3 -3 1 2 -5 0 1 1 1 -2 4 -3 -3 0 1 -1 2 -2 1 -1 -2 -2 -3 -1 0 -1 -1 5 -4 1 3 -1 7 -2 1 -1 3 -1 -2 1 0 0 1 -2 2 2 -2 0 0 1 1 4 1 3 -3 3 -1 0 4 -3 2 -1 -4 1 3 -6 -1 -4 0 1 -1 3 5 -1 -5 1 5 1 -4 -3 2 -2 1 1 0 3 1 -5 2 -2 2 3 -1 -1 1 -3 -1 0 -4 -1 4 -3 -1 1 0 1 -4 -2 3 -1 -3 0 2 0 -3 0 -3 0 0 -2 -4 -1 2 -2 -2 -3 -2 -5 0 -1 2 1 0 -2 3 4 1 -1 0 0 -3 -1 1 -3
-3 -1 -1 -17 -5 0 -3 0 -1 -1 -3 -2 2 -4 0 -1 1 0 2 -2 2 3 0 -3 -1 1 1 -1 1 1 3 -2 -3 -2 -1 -1 2 4 1 -2 1 3 -2 4 1 -2 1 1 -3 0 -3 -4 3 4 -2 3 -5 5 -2 0 4 0 3 3 -1 5 -1 -4 0 0 1 4 -5 -1 -3 2 -1 -1 1 1 -4 3 -2 1 1 -4 1 2 3 -5 -2 3 1 0 -4 1 0 -2 2 -3 -2 0 -3 -1 1 3 5 1 -1 -2 3 -1 2 -1 1 2 -5 0 1 0 1 -2 4 -1 -3 0 -2 -2 3 -1 1 -2 -1 -2 -2 -2 0 -1 -1 5 -1 1 1 -1 6 -2 1 0 3 -2 -2 1 0 1 0 -3 2 3 -2 0 1 0 1 5 1 3 -3 3 -2 -1 3 -4 0 -2 -3 0 4 -7 0 -5 0 0 -1 3 4 0 -4 2 5 2 -3 -2 2 -1 0 1 -1 3 2 -4 2 -1 3 4 -1 -1 1 -3 -1 0 -4 0 5 -1 -1 0 -1 1 -2 -3 3 -2 -3 -1 2 -1 -3 0 -4 0 0 -2 -4 0 2 -2 -3 -3 -3 -4 0 -1 3 1 0 -3 1 4 1 -1 0 0 -2 -1 1 -3
-2 0 0 -17 -4 -1 -2 0 -1 -1 -2 -3 2 -4 0 -2 1 -1 1 -1 2 3 0 -2 1 0 2 -1 0 2 2 -2 -4 -2 -1 -1 3 3 2 -2 1 2 -2 2 1 -3 1 0 -3 0 -3 -4 2 4 -2 2 -4 6 -1 -1 3 0 1 3 -1 6 0 -3 -1 0 1 5 -6 -1 -4 1 -1 0 2 0 -5 3 -3 0 0 -4 1 3 3 -6 -1 3 0 -1 -3 1 1 -3 1 -2 -2 1 -4 0 0 3 4 1 -1 -1 3 -1 0 -1 1 1 -5 2 2 -1 0 -2 3 1 -4 -2 -4 -2 4 0 1 -2 0 -3 -3 -2 0 -1 -1 5 2 0 0 -2 6 -1 0 -1 3 -3 -3 0 0 0 2 -2 1 3 -4 0 1 1 2 6 1 3 -3 2 -1 -2 3 -6 -1 -1 -3 0 4 -7 0 -5 0 1 -1 2 4 0 -3 3 5 3 -2 0 2 0 0 1 -1 3 1 -4 2 0 3 5 -3 -2 1 -3 -1 0 -4 1 6 -2 0 0 -1 1 -1 -3 3 -2 -3 -2 2 -1 -3 1 -4 0 1 -2 -3 1 2 -2 -3 -3 -4 -4 1 0 4 1 0 -3 1 3 0 -1 1 0 -2 -1 2 -2
-2 0 0 -17 -3 -1 -1 -1 0 -2 -1 -2 2 -3 -1 -1 1 -1 1 0 2 3 0 -1 0 1 1 1 1 2 3 -1 -4 -3 0 -2 3 4 1 -2 1 2 -2 2 1 -3 0 1 -3 1 -3 -4 3 3 -3 2 -3 7 -2 -1 3 -1 0 3 -2 6 -1 -2 -2 0 0 5 -4 -2 -5 2 -1 1 2 0 -5 5 -3 0 1 -4 1 4 2 -6 0 1 -1 -1 -3 2 1 -3 1 -2 -2 0 -4 0 -2 2 3 2 0 -1 2 0 -1 -1 1 0 -4 2 2 -1 -1 -2 3 2 -4 -2 -4 -2 6 0 0 -3 0 -4 -2 -3 0 0 -2 4 5 1 -1 -1 5 -1 -1 -1 3 -5 -4 -1 0 1 2 -2 1 3 -5 0 1 1 1 6 1 3 -2 3 -1 -1 4 -8 -3 -1 -3 -1 4 -6 -1 -4 -1 0 -1 3 3 0 -2 2 4 3 -1 0 1 1 -1 1 -1 4 -1 -5 2 1 2 4 -4 -1 2 -3 0 1 -4 2 6 0 0 0 -3 1 2 -3 2 -1 -3 -2 2 -1 -2 1 -3 0 1 -3 -3 1 2 -2 -3 -2 -4 -4 0 0 4 1 -1 -2 1 3 1 0 2 -1 -2 0 2 -1
-1 -1 1 -17 -2 0 -1 0 1 -1 0 -1 2 -3 -1 -1 0 -2 1 1 2 4 -2 0 0 1 2 1 1 2 3 1 -4 -2 0 -2 3 4 1 -1 1 2 -1 0 1 -3 0 0 -2 1 -5 -3 2 3 -4 2 -3 6 -1 -2 1 -1 -1 3 -2 5 -1 -2 -3 -1 0 7 -4 -2 -4 2 0 1 2 -1 -5 6 -2 0 0 -4 1 3 2 -6 1 1 -1 0 -2 1 1 -4 0 -2 -3 0 -4 0 -3 2 1 2 0 -1 1 2 -2 -1 2 -1 -5 2 2 -1 -1 -1 4 2 -4 -2 -4 -2 6 0 0 -2 0 -4 -2 -3 -1 0 -3 4 5 1 -2 -1 4 0 -1 -2 2 -5 -3 -1 -1 1 3 -2 1 2 -6 1 2 1 1 6 1 2 -2 2 -1 -1 4 -9 -5 -1 -1 -1 4 -5 0 -4 -1 0 0 3 2 0 -2 2 4 3 0 2 2 1 0 1 -2 3 -3 -4 2 1 1 4 -4 -1 2 -3 -1 1 -4 3 7 0 -1 1 -3 1 3 -4 2 -1 -2 -2 1 -2 -2 2 -3 -1 1 -2 -3 1 2 -2 -3 -2 -4 -3 0 1 5 0 -1 -2 1 2 1 -1 1 -1 -1 0 2 -1
0 -1 1 -17 -1 0 -1 -1 1 -1 0 0 1 -3 -1 -1 0 -2 1 1 2 3 -3 2 0 0 1 1 1 2 2 1 -3 -2 0 -2 2 4 1 0 1 1 -1 0 0 -3 -1 0 -2 1 -4 -3 2 2 -5 1 -3 6 0 -1 1 0 -1 3 -3 5 -1 -1 -4 -1 0 7 -2 -2 -5 3 0 1 2 0 -5 7 -2 0 0 -4 1 3 1 -7 2 0 -2 -1 -2 1 1 -5 0 -2 -3 0 -5 0 -4 2 0 2 0 0 1 2 -2 -1 1 -3 -5 2 2 -1 -1 -1 3 3 -4 -3 -3 -2 7 1 0 -1 1 -4 -2 -4 -1 0 -2 3 5 0 -2 -1 3 1 -2 -1 2 -5 -4 -1 -3 1 3 -1 1 3 -6 0 1 1 1 5 2 3 -1 2 -1 -2 5 -9 -4 0 -1 -1 3 -4 -1 -3 0 1 -1 3 1 0 0 1 3 3 0 2 1 1 -1 1 -2 3 -5 -3 2 3 1 4 -4 0 3 -3 0 2 -5 3 8 0 0 2 -3 1 5 -4 0 -2 -1 -3 1 -2 -2 2 -2 0 1 -3 -3 1 1 -2 -4 -2 -4 -3 0 1 5 0 -1 -1 3 2 2 -2 1 -1 -2 0 2 0
1 0 2 -16 0 0 0 -1 1 -1 -1 -1 1 -3 -1 0 -1 -3 2 2 1 3 -4 2 -1 0 2 1 1 2 2 2 -4 -2 0 -3 2 4 1 -1 1 -1 1 -2 0 -1 -2 0 -2 2 -5 -2 1 2 -5 1 -3 5 1 -1 -1 1 0 3 -3 4 -1 -2 -5 -1 0 7 -2 -3 -4 2 0 0 3 0 -5 8 -2 -1 1 -4 1 4 1 -7 3 -1 -2 0 -2 0 1 -6 0 -1 -3 0 -5 0 -5 1 0 3 -1 -2 0 3 -3 -2 1 -3 -6 1 2 -1 -1 0 3 2 -4 -4 -1 -3 7 1 -1 -1 1 -4 -2 -4 0 -1 -2 3 2 1 -3 -1 2 0 -3 -1 1 -5 -4 -1 -4 1 3 0 1 2 -6 1 1 1 1 6 2 3 -1 0 -1 -1 5 -9 -4 1 0 -1 3 -4 0 -1 -1 1 -1 3 0 0 1 -1 2 2 0 4 1 1 -1 0 -3 2 -7 -3 2 3 0 4 -2 -1 4 -2 0 1 -6 3 8 -1 0 3 -4 2 6 -3 1 -1 0 -2 1 -1 -1 1 -1 -1 1 -3 -3 0 0 -2 -5 -1 -4 -4 0 1 4 1 -1 -1 3 1 2 -3 1 -1 -1 0 1 -1
1 -1 1 -15 1 0 0 -1 0 -1 -1 0 1 -3 -1 1 0 -3 3 3 2 3 -7 4 -2 -2 3 2 2 1 2 4 -3 -1 0 -3 1 4 2 0 1 -2 0 -3 1 0 -2 0 -1 1 -6 -1 0 0 -6 1 -3 4 1 -1 -1 2 1 3 -3 5 0 -2 -6 -2 -1 6 0 -2 -3 2 1 -1 3 0 -6 7 -1 -1 0 -3 2 3 0 -7 4 -1 -2 0 -1 0 1 -7 0 -1 -4 0 -5 -2 -6 1 0 3 0 -1 0 3 -3 -3 -1 -4 -6 1 2 -1 -1 0 3 1 -4 -4 2 -4 7 1 -2 -1 2 -5 -3 -4 -2 0 -1 2 0 1 -3 -2 0 0 -2 -1 0 -3 -4 -3 -4 1 2 -1 0 2 -7 1 0 1 1 5 1 2 0 0 -1 -1 5 -8 -4 1 1 -2 2 -3 0 0 -1 1 -2 2 1 0 2 -2 2 2 1 5 1 2 -2 -1 -3 1 -8 -2 1 2 0 3 -1 0 3 -1 1 3 -7 2 8 -1 -1 3 -4 1 6 -3 0 -1 2 -2 1 -1 0 1 0 -2 1 -4 -3 1 0 -2 -4 -1 -4 -3 1 2 4 1 0 -2 5 1 2 -4 1 -1 -1 1 1 -1
1 -1 2 -15 2 -1 1 -1 0 -1 -2 0 1 -3 0 1 0 -3 3 3 2 3 -7 5 -3 -1 3 2 2 1 1 5 -3 -1 -1 -3 1 3 2 1 1 -2 1 -4 1 1 -1 0 -1 1 -6 0 0 -1 -6 1 -3 4 2 -1 -1 3 3 4 -2 5 0 -3 -8 -2 -1 6 1 -2 -3 2 1 -2 3 0 -5 7 -1 -1 0 -3 1 3 0 -6 4 -2 -3 0 0 -1 2 -8 0 0 -4 -1 -5 -1 -7 0 0 2 -1 -2 0 4 -4 -5 -1 -5 -6 1 1 -1 -1 0 2 -1 -4 -3 4 -4 7 1 -2 -1 2 -4 -3 -4 -2 -1 1 1 -2 1 -3 -1 -1 1 -3 0 0 -2 -3 -3 -5 1 2 0 0 2 -8 2 -1 0 0 4 1 1 0 0 0 1 4 -7 -3 1 1 -2 2 -2 0 1 -1 1 -2 2 -1 0 3 -3 3 2 1 6 0 0 -2 -1 -3 1 -9 -2 2 2 -1 3 1 -1 3 -2 1 3 -8 2 7 -1 -1 4 -5 1 7 -3 -1 0 3 -2 1 0 1 -1 2 -1 1 -3 -3 0 -1 -1 -5 -1 -3 -4 1 2 3 1 0 -1 5 1 3 -3 1 0 -1 1 1 -1
1 -1 2 -15 2 -1 0 -1 -1 -1 -3 1 0 -3 0 2 0 -3 3 3 0 2 -6 6 -3 -2 3 2 3 -1 1 6 -3 0 -1 -3 0 4 1 0 0 -4 2 -5 1 2 -2 -1 -2 1 -6 1 0 -2 -6 1 -4 3 2 0 -3 2 5 3 -1 5 0 -2 -9 -2 -1 6 2 -3 -2 1 1 -2 3 1 -6 6 0 -1 0 -3 3 3 -1 -7 4 -2 -3 1 0 -1 2 -9 -1 0 -4 -1 -4 -1 -8 0 1 3 -1 -1 0 5 -4 -6 -1 -6 -6 1 2 0 0 0 2 -2 -5 -4 5 -4 6 0 -2 -1 2 -4 -3 -5 -1 -2 3 1 -4 2 -3 -2 -4 1 -3 1 -1 -1 -2 -3 -6 2 1 0 0 2 -8 2 -2 0 1 3 0 2 2 -1 1 1 5 -5 -3 0 3 -2 1 -3 0 1 0 2 -2 3 -2 1 2 -3 3 1 2 6 1 0 -2 -1 -3 1 -8 -1 1 2 -1 3 3 -1 2 0 1 3 -9 1 8 -1 -2 3 -5 1 6 -3 -1 0 3 -1 0 1 0 -1 3 -2 1 -3 -3 1 -2 -1 -5 -1 -2 -5 1 3 2 1 0 -2 4 0 3 -3 1 0 -1 1 0 -2
0 -1 3 -14 3 -2 1 0 -1 -2 -4 1 0 -1 0 2 0 -1 4 2 0 2 -5 6 -3 -2 3 2 2 -1 1 5 -2 1 -1 -4 0 4 2 1 -1 -3 2 -6 1 1 -2 0 -4 1 -6 2 -1 -2 -5 0 -4 3 3 0 -3 3 7 3 -1 5 -1 -2 -9 -1 -1 6 4 -3 -2 1 0 -2 3 0 -5 3 -1 -1 0 -2 2 3 -3 -5 5 -3 -3 1 1 -1 2 -9 -1 1 -3 -1 -4 -2 -8 0 2 3 0 0 0 5 -4 -6 -1 -6 -5 1 1 -1 -1 1 3 -3 -5 -3 5 -4 5 1 -2 -2 2 -4 -3 -4 -2 -2 4 0 -4 2 -4 -3 -5 1 -3 2 -2 1 -2 -4 -7 2 1 1 0 3 -7 1 -3 1 0 2 0 1 1 -2 0 2 4 -4 -4 0 3 -3 2 -2 0 1 0 1 -2 3 -3 1 2 -3 2 -1 2 7 0 -2 -2 -1 -4 -1 -6 -1 1 1 -1 3 2 -1 0 -1 1 3 -9 1 7 -1 -2 3 -5 1 6 -3 0 0 4 1 0 1 0 -2 3 -3 1 -4 -3 0 -2 0 -5 -1 -2 -5 1 3 2 0 1 -2 3 0 3 -3 1 1 0 1 1 -2
0 -1 2 -13 3 -3 1 0 -3 -1 -4 1 1 0 0 2 0 -1 4 3 0 2 -4 7 -2 -2 3 3 3 -3 1 6 -2 1 -1 -4 0 3 1 1 -1 -3 0 -6 1 0 -3 0 -3 2 -6 3 -2 -2 -5 0 -4 2 3 0 -3 4 7 3 0 4 -1 -2 -9 0 -1 6 4 -3 -2 1 1 -2 2 0 -5 3 0 -1 0 -1 3 4 -4 -5 5 -3 -4 1 1 -2 1 -10 -2 1 -3 -2 -4 -1 -9 -1 3 3 0 1 0 5 -4 -7 -1 -6 -4 1 1 0 0 1 2 -2 -5 -2 4 -5 5 0 -3 -3 3 -4 -3 -4 -2 -3 5 -1 -2 2 -3 -3 -6 2 -3 3 -1 3 -1 -4 -6 3 0 0 -1 3 -7 2 -4 0 -1 1 1 0 1 -3 1 2 4 -4 -6 -2 4 -2 2 -1 0 0 0 1 -2 3 -3 2 2 -3 3 -1 2 9 -1 -2 -2 -2 -3 -2 -6 -1 1 1 -1 3 3 -2 0 0 2 3 -9 0 6 0 -3 2 -5 1 6 -1 -1 1 3 1 0 2 0 -1 4 -2 0 -5 -4 1 -4 1 -5 -1 -3 -5 0 3 2 1 1 -3 1 1 2 -2 0 2 1 1 0 -3
0 0 3 -12 3 -3 1 0 -3 -2 -5 2 1 1 -1 2 0 0 3 2 -1 2 -3 7 -1 -1 3 2 3 -3 1 5 -2 2 -1 -4 0 3 1 2 -1 -2 0 -7 0 0 -3 -1 -3 1 -5 3 -1 -2 -4 0 -5 3 2 0 -3 3 7 2 1 4 -3 -1 -9 0 -1 6 5 -2 -1 0 0 -2 3 0 -4 2 -2 -1 0 0 2 3 -5 -4 4 -3 -4 1 1 -2 0 -12 -1 2 -1 -1 -3 -1 -9 -1 4 3 0 2 0 5 -4 -6 -1 -6 -2 1 1 0 0 1 1 -1 -5 -2 2 -4 4 0 -2 -4 2 -3 -3 -4 -2 -3 5 0 1 2 -4 -2 -7 2 -3 4 -1 2 -1 -3 -6 3 1 0 -1 2 -5 1 -4 0 -1 0 0 0 1 -2 0 2 3 -4 -7 -3 4 -2 3 -1 0 -2 2 1 -3 3 -3 3 1 -2 4 -2 1 9 -1 -3 -2 -1 -3 -2 -5 0 1 1 0 2 1 -1 -3 0 1 3 -9 1 5 0 -3 1 -4 0 4 -1 0 0 4 2 1 2 -2 -1 3 -3 1 -4 -2 0 -3 2 -3 -1 -3 -5 0 3 1 1 0 -4 0 1 3 0 0 3 0 0 0 -2
0 -1 4 -12 2 -3 0 0 -3 -3 -4 2 1 1 -1 2 0 0 2 3 -1 1 -1 6 0 0 4 2 3 -4 0 5 -2 2 -2 -3 -1 3 2 2 -2 0 -1 -7 0 -2 -3 -1 -3 2 -6 3 -1 -1 -2 0 -4 3 1 0 -3 2 5 2 1 4 -3 -2 -9 1 -2 4 5 -1 -1 1 0 -1 2 -1 -4 2 -2 0 0 1 3 3 -4 -3 3 -3 -3 2 2 -3 0 -13 -2 2 -1 -1 -2 -1 -8 -1 4 4 0 2 0 4 -3 -6 -2 -7 -1 1 0 -1 0 1 2 0 -5 -1 0 -4 4 0 -3 -4 2 -2 -2 -3 -2 -3 5 -1 4 2 -4 -2 -7 2 -3 5 -1 2 0 -3 -5 2 -1 1 -2 2 -6 1 -4 1 -1 0 1 -1 1 -3 0 1 3 -5 -9 -3 6 -2 3 0 -1 -2 2 1 -3 4 -3 3 0 -1 4 -2 2 8 -1 -2 -2 0 -3 -3 -4 0 2 1 0 2 0 -3 -3 1 1 3 -7 0 3 0 -2 0 -4 0 4 -1 1 0 3 2 1 2 -1 -1 2 -3 1 -4 -3 0 -4 3 -3 -1 -2 -5 0 2 0 0 1 -4 -2 2 2 0 0 4 1 0 1 -3
0 -1 4 -11 3 -3 1 1 -3 -3 -2 1 2 3 -1 1 0 0 0 2 -2 2 1 5 0 1 4 2 3 -6 1 5 -1 2 -1 -4 0 3 1 3 -2 0 -2 -7 0 -2 -3 -1 -2 2 -6 4 -2 -1 -1 -1 -4 3 1 0 -3 2 3 2 1 2 -4 0 -10 1 -1 3 6 -1 -2 1 1 0 3 -1 -3 2 -2 1 0 1 1 3 -4 -1 2 -4 -3 1 1 -2 0 -14 -1 2 -1 -2 -2 0 -9 -1 3 3 0 3 0 4 -1 -6 -1 -7 -1 1 0 -1 1 2 1 1 -5 -1 -3 -3 4 0 -3 -3 3 -2 -1 -3 -2 -4 6 -1 7 2 -4 -2 -7 4 -4 4 -1 2 0 -2 -5 1 -1 1 -2 2 -4 0 -3 1 -1 -1 1 -1 1 -2 -1 1 4 -6 -10 -2 6 -2 3 1 -1 -3 2 0 -3 4 -2 4 0 0 3 -4 2 8 -2 -3 -2 0 -3 -3 -5 1 2 0 1 2 -2 -3 -4 1 2 2 -7 1 2 1 -2 -1 -3 0 2 0 1 1 1 2 2 3 -2 -1 1 -3 1 -4 -2 -1 -4 3 -3 0 -2 -4 -1 2 -1 0 1 -5 -2 1 2 1 0 4 1 0 1 -3
1 0 4 -10 2 -3 1 0 -3 -2 -1 1 2 3 -1 0 0 0 -2 2 -2 1 1 4 1 2 5 3 3 -6 0 5 -1 2 -1 -3 0 4 2 2 -3 1 -1 -7 -1 -3 -3 -1 -1 2 -5 4 -2 -1 0 -1 -3 2 2 -1 -2 0 2 1 0 1 -4 0 -8 0 -2 3 5 1 -1 2 0 1 3 -1 -2 4 -3 0 -1 2 1 2 -3 0 1 -4 -3 2 2 -3 0 -15 -2 2 0 -1 -1 0 -8 0 1 4 -1 1 -1 4 1 -6 -3 -7 -1 1 0 0 2 1 1 2 -5 -1 -4 -2 5 -2 -3 -4 3 -1 -1 -3 -3 -3 5 0 7 2 -4 -1 -7 3 -3 3 -1 1 1 -2 -4 2 -1 2 -2 2 -3 0 -2 2 -1 0 0 0 1 -3 -1 1 4 -7 -10 -2 7 -1 2 1 0 -2 2 1 -3 4 0 4 0 -1 3 -4 1 7 -2 -2 -1 1 -2 -3 -6 2 2 1 0 1 -4 -3 -4 1 1 3 -6 0 1 1 -2 -3 -3 0 2 0 1 1 0 2 2 3 -2 0 2 -3 1 -4 -2 -1 -4 3 -3 -1 -2 -4 -1 2 -1 0 1 -4 -2 2 2 0 0 3 2 -1 0 -2
2 0 4 -9 1 -2 0 0 -3 -2 0 1 3 2 -2 -1 0 -1 -3 1 -3 0 1 4 2 2 5 2 3 -6 0 5 -2 1 0 -3 -1 3 1 3 -3 1 -1 -7 -1 -4 -4 -2 -1 2 -6 4 -2 -1 1 0 -3 1 1 -1 -3 0 1 0 0 0 -5 1 -8 0 -2 2 4 1 0 2 0 1 2 -2 -2 4 -3 1 0 3 1 1 -3 1 1 -4 -2 3 3 -3 1 -17 -2 2 -1 -1 0 0 -8 0 0 4 -1 1 -2 3 3 -7 -4 -7 -1 2 -1 0 3 2 0 2 -4 -1 -5 0 5 -1 -1 -4 2 -1 -1 -1 -3 -3 4 -1 8 2 -4 0 -6 3 -3 3 0 -1 2 -2 -3 0 -1 2 -2 1 -2 0 -2 2 -1 0 0 0 0 -2 -1 0 3 -6 -11 -1 6 -2 2 2 0 -2 1 1 -3 4 0 5 0 -1 2 -4 0 6 -3 -1 0 2 -2 -4 -7 2 3 1 0 0 -5 -3 -4 0 1 2 -6 0 -1 1 -2 -3 -3 -1 1 0 2 1 -1 1 1 2 -2 1 2 -4 0 -3 -1 -1 -4 4 -2 -1 -1 -3 -1 2 -1 -1 1 -4 -1 1 2 -1 0 3 1 -1 1 -2
2 -1 4 -7 1 -3 -1 0 -3 -2 1 1 4 1 -2 -1 0 -1 -4 1 -3 0 0 2 2 2 7 1 2 -6 -1 6 -3 2 0 -2 0 4 1 2 -3 0 -1 -6 -2 -3 -3 -2 0 1 -7 4 -2 -2 2 0 -2 0 1 -2 -3 -1 1 0 1 0 -5 2 -8 0 -3 1 3 2 1 1 0 1 2 -1 0 6 -3 0 0 3 0 1 -1 0 0 -4 -3 2 3 -3 1 -18 -1 2 -2 0 0 0 -8 0 -3 4 0 0 -3 3 4 -7 -5 -7 -1 2 0 1 2 2 0 2 -4 0 -4 1 6 -2 -1 -4 2 -1 0 0 -2 -2 4 0 6 2 -4 1 -5 3 -3 2 0 -2 2 -1 -2 -1 -1 2 -2 1 -2 0 0 3 -1 1 0 0 1 -2 0 1 2 -5 -10 1 6 0 1 3 1 0 1 0 -3 4 1 5 0 -2 2 -4 0 5 -3 -1 0 1 -1 -4 -9 2 3 1 0 -1 -4 -3 -3 1 0 2 -5 1 -2 0 -1 -4 -2 -1 2 1 2 1 -3 1 1 3 0 2 1 -2 0 -3 -2 -1 -3 4 -3 0 -1 -2 0 1 -2 -2 0 -3 1 1 2 -2 0 2 0 -1 1 -2
2 -1 2 -7 0 -2 -1 1 -2 -1 2 1 4 1 -2 -2 -1 -2 -5 0 -4 0 -2 1 3 0 7 1 3 -7 -1 6 -4 1 1 -1 0 4 0 1 -4 0 0 -6 -2 -2 -3 -2 0 1 -6 4 -3 -2 2 0 -1 -1 1 -3 -4 -1 1 -1 0 -2 -4 4 -6 -2 -3 0 2 2 1 1 0 0 3 -1 1 6 -3 0 0 2 -1 1 -2 1 0 -4 -2 4 3 -3 1 -19 -1 1 -2 0 0 0 -7 0 -4 4 -1 0 -4 3 6 -8 -6 -6 -1 2 -1 0 3 1 0 2 -3 0 -3 4 6 -3 -1 -3 1 -1 -1 0 -3 -2 2 0 3 1 -4 0 -4 3 -2 1 0 -2 3 0 -2 -1 -1 3 0 1 0 0 1 4 -1 2 -2 1 0 -2 0 0 2 -4 -8 2 6 1 1 3 2 2 -1 0 -2 3 2 6 1 -3 1 -4 0 5 -3 -1 1 2 -2 -5 -9 2 3 1 0 -1 -4 -3 -3 0 -1 2 -5 1 -4 0 -2 -4 -2 -2 1 1 1 2 -4 0 0 2 0 1 1 -3 -1 -4 -1 -1 -2 3 -3 0 -1 -2 0 1 -2 -1 0 -2 2 1 2 -3 0 1 0 0 1 -2
1 -2 2 -6 0 -3 -1 1 -1 0 3 1 4 0 -2 -2 -1 -2 -5 -1 -4 -1 -4 0 2 0 7 0 3 -6 -2 5 -6 1 1 -1 -1 4 0 0 -4 -2 1 -5 -2 -1 -3 -2 -1 1 -6 4 -4 -2 2 0 0 -2 2 -2 -4 0 3 -3 0 -2 -4 5 -5 -1 -2 -1 1 2 2 1 0 -1 3 -1 1 6 -4 0 0 3 -1 0 -1 2 -1 -4 -2 3 4 -3 1 -20 -2 1 -3 -1 -1 0 -7 1 -4 4 -2 0 -5 3 6 -9 -8 -6 -1 3 0 1 4 2 0 0 -4 0 -1 6 7 -4 -1 -3 1 -1 -2 2 -2 -1 1 2 0 0 -5 1 -4 2 -2 0 1 -2 2 0 -3 -2 -1 3 1 0 0 -1 1 5 -2 1 -2 1 1 -2 1 0 2 -1 -6 2 6 1 1 2 3 3 -1 0 -2 3 4 5 1 -3 1 -4 -2 3 -3 1 1 2 -1 -4 -10 1 3 1 -1 -3 -3 -2 -3 0 -1 1 -4 1 -5 -1 -1 -4 -2 -2 0 2 1 2 -4 -2 -1 2 1 2 2 -2 -2 -3 0 -1 -1 3 -5 0 0 -2 0 1 -1 -1 1 -3 2 1 1 -4 0 -1 0 -1 1 -3
1 -2 1 -5 0 -4 -2 1 0 1 2 1 3 0 -2 -2 -2 -2 -5 -1 -5 -1 -5 -1 0 -1 7 0 3 -6 -1 5 -5 0 1 -1 -2 3 -1 -1 -4 -2 2 -4 -2 -1 -2 -3 -2 0 -7 4 -4 -2 2 0 0 -2 2 -3 -4 0 4 -3 -1 -2 -2 5 -4 -2 -2 -2 0 2 3 1 1 -1 1 0 2 5 -3 1 0 2 -1 -1 -1 2 -2 -3 -3 4 4 -3 1 -20 -1 1 -5 0 -1 0 -6 3 -4 4 -2 0 -5 3 5 -10 -9 -5 -1 3 0 1 4 2 0 -1 -4 2 1 6 7 -3 0 -3 -1 0 -1 2 -3 -1 1 2 -4 0 -6 1 -3 1 -1 0 2 -1 3 1 -3 -2 -3 3 1 0 1 -1 1 5 -1 1 -4 1 0 -2 -1 1 0 2 -4 2 5 2 0 3 4 4 0 0 -1 3 4 5 1 -3 1 -4 -3 2 -3 2 1 2 -2 -3 -10 2 3 -1 -1 -4 -1 -2 -3 0 0 1 -3 1 -6 -1 -1 -3 -2 -1 1 1 0 2 -5 -3 -2 2 2 2 2 0 -2 -3 0 -2 -1 2 -5 1 1 -1 1 0 0 -1 1 -3 2 1 1 -4 1 -2 0 -2 0 -2
0 -2 1 -5 0 -3 -2 1 0 2 2 0 3 -1 -3 -2 -2 -1 -5 -2 -5 -1 -6 -1 0 -3 7 1 3 -4 -2 5 -5 0 0 0 -2 4 -1 -2 -4 -2 3 -3 -2 0 -3 -4 -2 0 -7 4 -5 -2 1 0 1 -2 2 -4 -5 0 5 -4 -2 -3 -1 5 -2 -2 -2 -2 -1 3 4 1 2 -3 0 0 1 4 -4 1 0 1 -1 -1 -1 1 -2 -4 -4 4 4 -4 2 -20 -2 1 -6 0 -1 0 -6 3 -3 4 -2 1 -5 3 4 -10 -10 -6 -2 3 0 0 4 3 0 -3 -4 2 2 7 6 -4 1 -3 -2 0 -1 2 -2 0 1 1 -5 0 -6 1 -2 -1 0 0 1 1 3 1 -3 -2 -3 4 1 -1 2 -1 0 5 -1 0 -4 1 0 -2 0 1 0 5 -3 2 5 3 0 3 5 4 0 0 -1 3 5 5 1 -3 1 -4 -2 1 -3 3 1 2 -2 -2 -8 1 3 0 -3 -4 0 -3 -4 -1 1 -1 -3 2 -6 -1 -1 -3 -2 -1 0 2 0 1 -7 -2 -3 2 3 2 2 1 -2 -3 0 -2 1 2 -4 1 0 -1 1 0 -1 0 0 -4 1 0 0 -3 1 -2 0 -1 1 -2
-1 -3 1 -4 -1 -4 -2 1 1 2 0 0 2 1 -2 -2 -2 -1 -5 -2 -5 -2 -7 -2 -1 -3 7 0 2 -3 -2 5 -4 0 1 1 -2 3 -2 -3 -4 -4 3 -2 -1 -1 -2 -3 -3 -1 -7 4 -5 -1 2 0 2 -2 2 -4 -4 0 6 -5 -3 -4 0 6 -1 -2 -2 -2 -3 2 4 1 2 -4 0 2 1 2 -3 1 -1 1 -2 -2 -2 0 -2 -4 -4 5 4 -4 2 -18 -2 0 -6 1 -1 0 -5 3 -1 5 -2 2 -4 3 2 -9 -9 -4 -1 3 -1 0 5 3 0 -3 -4 2 2 6 5 -4 1 -3 -2 1 -2 3 -2 -1 1 1 -5 0 -6 1 -3 -2 1 0 1 2 2 2 -3 -2 -4 3 2 -1 2 0 1 4 -1 -1 -4 1 0 -3 -1 2 -1 6 -3 2 5 4 -1 3 4 4 0 0 0 3 5 4 1 -1 3 -4 -3 2 -3 4 2 2 -2 -2 -5 1 4 0 -4 -5 1 -2 -5 -1 0 -1 -3 2 -7 -1 -1 -3 -2 -1 -1 2 -1 2 -6 -2 -3 2 4 1 2 1 -2 -3 0 -1 1 1 -3 1 0 -2 1 0 -1 1 1 -5 0 0 0 -2 1 -2 1 -1 0 -3
0 -3 1 -3 0 -4 -3 1 1 3 -1 -2 2 1 -2 -1 -2 0 -6 -2 -4 -2 -6 -3 -1 -3 6 1 2 -2 -2 4 -3 0 0 0 -3 3 -2 -4 -4 -3 4 -1 0 -1 -1 -3 -2 -1 -6 4 -6 -1 2 1 3 0 2 -3 -4 1 6 -6 -3 -4 1 5 1 -1 0 -2 -3 2 3 1 2 -5 -2 2 0 0 -3 1 -1 1 -2 -3 -3 0 -2 -3 -4 4 3 -4 3 -18 -2 1 -6 1 -1 1 -4 2 -1 4 -2 3 -4 3 -1 -9 -7 -3 -1 3 -2 0 5 3 -1 -1 -5 3 1 6 3 -3 1 -4 -4 0 -1 3 0 -1 1 0 -3 0 -7 -1 -2 -1 1 2 2 3 2 1 -2 -2 -4 3 3 -1 3 -1 0 3 1 -1 -3 1 0 -2 -2 3 -2 6 -2 0 5 4 -2 3 4 3 1 0 0 2 5 4 1 -1 4 -4 -3 2 -3 5 2 2 -2 -2 -3 2 3 -1 -4 -4 1 -2 -6 -1 2 -2 -3 2 -7 -1 -1 -3 -2 0 -1 2 -2 1 -7 0 -3 1 4 2 1 2 -2 -2 0 -1 1 0 -2 2 0 -2 0 1 0 0 1 -5 -2 -1 0 0 0 -1 1 -1 0 -2
