-17 -1 -22 0 -2 -8 2 -3 -4 0 -13 -3 -9 -1 -4 1 -2 1 -6 -1 0 -2 2 -2 -17 -14 -7 -4 1 1 -7 2 -1 -3 -1 -1 4 -1 -4 -5 0 -16 -4 -8 -12 3 -2 3 -7 10 -1 -16 -9 1 -4 -2 0 -6 -12 -9 -7 -6 -5 6 -5 -3 2 2 4 -3 -5 6 -2 -4 1 -11 0 -4 -2 -2 -1 0 -1 -9 -7 -2 -1 -2 5 4 -18 -6 -6 -7 -8 -2 -5 -2 -1 -2 0 -16 2 8 -3 -10 -22 -2 -25 -10 2 -13 -12 -2 7 0 -2 -6 1 -4 -1 1 -4 7 -3 -16 2 -1 -4 -4 -3 -10 0 4 -4 7 -7 0 -12 1 -2 -7 -8 -12 -1 -4 0 -7 -2 1 3 -1 1 -4 -2 -6 -10 -13 1 -12 3 0 -22 -14 -3 -5 -3 5 -7 -20 -6 5 -9 -5 -10 -4 0 -9 -8 -6 -7 -6 0 -2 -3 -5 0 0 -3 -3 2 0 -2 -6 -4 -7 6 -3 -5 -9 -14 4 -7 -4 -1 5 -11 -7 4 -6 -1 -10 -9 -5 3 -3 -5 -2 -9 2 -5 0 6 -1 -3 2 -1 -4 -14 -10 -5 -9 -7 -4 -7 -16 2 -3 -2 2 -6 -6 -4 -1 2 2 -9 2 -2 0 -10 -11 -11 -8 0 -4
-1 24 -25 -6 -12 -40 2 52 -3 -9 0 -17 27 14 -24 6 -19 27 7 0 -18 -11 8 -8 -27 1 2 4 -6 -34 -19 -3 -16 -29 15 0 8 -12 7 12 27 -31 -14 -3 10 -9 -10 -23 2 -7 -31 -4 -12 9 -8 -12 3 -10 8 -17 15 9 -6 -23 -13 -7 3 -6 -14 -19 15 -5 17 -7 -16 -6 -14 1 12 17 -3 -14 8 0 34 -8 -26 2 3 -33 -29 -23 21 -1 9 -10 28 28 -12 10 -23 -10 -14 -17 -18 -19 -10 10 -3 14 -17 -40 -15 -9 2 -20 18 -25 -19 0 -42 5 -14 -12 -1 -29 -5 -9 -15 -4 14 20 8 -17 -7 -33 20 -9 12 0 -11 -25 5 -13 1 -13 3 -21 -7 30 -19 -17 -27 1 -1 36 -13 -33 -21 24 5 6 10 10 -7 0 15 -14 -18 -38 19 -12 -14 -17 5 -2 -18 -8 11 0 0 0 -2 17 -20 12 21 -3 -1 16 -22 -2 -23 -1 5 -11 -36 26 -13 17 -66 -12 24 12 -32 9 -21 -2 -30 16 -8 -2 6 -1 -2 -2 2 9 11 10 -19 14 -10 8 12 27 7 -33 -5 21 -3 15 3 16 -7 22 -30 -3 -10 5 -14 11 9 -11 -1 2 12 2 33 12 -54 -13 16 0 19 21
-14 -19 -21 15 -13 -4 -1 22 -13 -20 -12 6 0 -48 6 9 46 26 -7 0 23 -24 12 1 -24 -7 8 3 -5 13 3 18 -1 -17 13 -13 1 -4 19 -32 -20 -22 -18 20 -8 -2 15 -25 26 -3 -12 -5 10 10 -11 12 -10 -12 9 -34 -2 -3 1 -9 -2 -64 -54 23 -11 -5 -14 4 -4 -15 11 -15 -21 4 -74 -9 2 -49 -15 -12 40 7 -3 -31 15 -13 16 -3 9 0 3 26 17 -19 -1 18 8 23 -27 4 -10 -9 11 -8 -7 2 15 1 -17 10 -2 27 -12 -7 1 17 1 -43 -21 -1 5 10 -3 -26 -2 -1 29 10 5 -5 -5 -12 3 -26 -12 -9 -6 -2 4 11 -11 0 5 3 -2 -9 5 5 -7 16 -6 -5 3 -5 7 10 -15 13 -1 5 2 4 -21 4 -13 -28 -9 13 8 -7 11 1 9 -14 6 -6 7 -19 -25 3 9 22 -8 -14 -32 -5 -17 -10 -3 -20 0 -8 -28 -5 -5 -37 -12 -2 7 -24 17 4 -6 -22 -7 -23 16 -4 -21 -25 14 -11 15 16 -32 -9 -12 -12 -12 -29 -9 20 -3 1 11 12 -40 14 0 -13 -9 9 -28 -46 13 -37 -42 -11 -6 -8 8 6 6 15 30 -22 12 3 1 -14 -1 -9
-1 8 0 -3 -2 -2 3 5 -1 1 -5 4 -7 -1 2 1 4 -1 3 -1 1 -6 -2 -7 -3 3 -4 -3 -1 0 1 3 4 -1 -1 -2 9 1 -3 -1 -3 0 -1 4 1 10 -5 -3 -4 -3 2 -16 -1 -3 -1 1 -5 -2 -1 -2 -3 -1 1 0 1 1 -3 -2 -1 8 1 0 0 2 0 0 -8 2 3 0 -1 0 2 0 7 1 -3 4 0 5 -2 -2 -3 3 8 -6 -6 7 -2 4 2 2 1 2 -7 2 1 -5 -19 0 -6 0 -3 -13 1 -1 -2 -6 -3 3 0 1 -6 0 1 0 0 1 1 -6 2 2 -8 4 0 -6 3 2 10 0 -1 -2 5 2 3 -3 -4 -1 1 1 -2 0 2 3 -4 0 2 4 -1 3 0 1 -4 -3 -1 -1 1 0 0 3 0 -2 0 -2 -3 1 1 -2 0 3 -1 -2 -8 -1 2 -1 0 -1 3 2 -1 -1 -8 0 -9 1 5 2 -5 -2 5 1 -2 -11 -1 0 0 4 -2 1 -2 -4 -1 0 -1 1 0 2 -1 -1 0 0 -2 3 2 4 -1 -1 -1 0 -4 1 2 -10 -1 -4 -7 4 2 3 36 2 0 -3 2 2 -1 3 5 0 -4 -1 -5 -1 -12 -3
17 0 -23 0 -30 -15 10 -10 -10 -16 -23 7 -10 6 11 22 21 49 4 -3 -9 -13 -4 8 -4 -1 20 -12 -16 0 28 -11 -13 -11 -48 -27 10 -31 15 18 -14 -55 -5 -11 8 -16 1 3 10 0 -2 -7 -20 -2 5 21 16 15 13 23 7 12 4 -2 9 2 -8 19 -6 -8 -22 25 -14 18 7 11 -6 12 8 -8 -18 2 7 -2 16 -1 -7 -10 -25 14 -32 20 -10 0 12 0 -22 3 -6 12 0 -12 12 3 7 5 0 -9 -25 -3 -8 -25 -17 14 9 3 -6 4 2 13 -2 -28 1 -13 -4 -3 -6 7 16 7 16 -7 6 -4 -7 11 -1 -3 20 8 19 -10 9 3 -4 -16 4 13 -22 1 -15 -1 0 11 -1 -12 2 4 14 -7 -24 -16 7 -9 36 23 1 7 -7 -8 -22 15 -4 12 -19 -21 17 9 -24 -34 3 -15 11 8 -38 -15 -7 2 10 -1 12 -15 0 -16 -17 -25 5 28 5 14 -8 20 -8 -18 -7 -22 4 6 8 -17 5 10 -3 -5 -31 9 -24 4 -4 14 -10 -4 1 -6 -11 2 6 -30 -5 -8 16 19 -1 15 -10 -9 9 -4 4 -3 -31 -18 -5 -11 -17 -46 -52 0 -12 -4 -72 -8 16 -6 -5 -16
-7 -15 -2 -5 -7 -2 -22 -13 -8 -17 4 -4 -10 -12 -7 2 0 -10 -17 6 4 -3 -1 -9 -9 -1 -2 -13 -12 -11 -15 2 -18 -2 1 -8 0 0 -5 -8 -6 -6 3 0 2 -21 -2 -6 -13 -9 -6 3 -4 5 4 -4 8 -4 -5 5 -2 -6 -2 -6 -4 -4 -16 1 1 1 -6 -10 -16 1 -1 -6 -13 -8 -8 1 -7 -18 2 -17 -1 -8 -1 -14 4 9 4 -8 0 6 -5 2 -9 -2 -3 -9 -5 -8 -10 -19 -2 -8 -5 -6 -18 -15 -3 -10 -4 1 0 1 -6 -1 -8 2 -13 2 -11 4 -3 1 -4 3 -3 -18 -9 0 -6 -2 -14 -4 -2 -5 -5 -3 -9 -9 3 -16 6 8 -20 0 -8 -9 -8 -5 -5 2 -1 -4 -3 -7 -22 -1 4 -5 -7 -18 -1 1 -7 3 -5 3 2 -17 2 -9 -6 7 -1 5 0 3 -9 -8 7 -3 6 -2 -15 -3 -5 2 3 -5 -1 -10 -16 -17 0 3 -6 -3 -11 -12 0 0 -4 -1 -19 -9 -3 0 -4 -1 -13 -2 -1 5 -8 -12 -9 0 -5 -8 2 1 -8 -5 2 -17 -7 1 2 -13 -6 0 0 -2 -8 -5 9 -1 -1 -9 -10 0 -9 -3 -2 -7 -3 4 -7 -9 -11 2 -9 10
-1 15 -18 -23 -1 6 -34 -14 0 2 0 8 -21 -20 -5 -49 -5 -1 0 -2 3 1 -10 -4 5 -52 -5 5 -15 -1 9 -23 -10 -3 -4 -26 -7 -26 -6 -8 11 -15 -14 -12 -17 -14 10 5 3 3 -3 -15 -9 0 -28 -13 13 13 -14 -16 4 13 -2 -9 -8 -13 -6 -15 9 -34 -5 -1 7 -4 -9 5 -7 0 -1 -28 26 -9 -12 9 -2 -14 -4 6 -3 -11 3 -9 6 -7 -25 12 -6 -7 10 3 -5 1 -3 -30 -5 -12 -11 -13 2 0 -2 -2 -9 -15 6 -9 4 -3 6 6 -27 -34 -4 -31 -15 7 -45 6 1 -11 -16 26 4 -5 -27 5 -7 -4 -9 -1 12 -15 6 -8 -1 -7 -6 -39 11 -5 -21 2 8 -14 -30 -2 -1 -9 -3 -8 -11 -2 13 13 1 -4 0 -20 8 -25 9 0 -8 -9 7 10 -9 -1 -10 -45 -22 -12 1 -11 -9 -8 -29 6 7 -3 6 -2 4 -14 -7 -18 -1 -3 -17 0 -17 -8 -13 6 1 -2 2 -8 -10 -12 -13 -16 -5 17 2 -22 11 7 2 -2 -3 -14 6 4 -8 -7 25 -12 -14 -16 18 4 -39 2 -4 -13 -29 -3 5 -39 -21 -5 1 -14 0 -3 -19 -7 11 30 -28 2 12 -19 13 -11
5 5 -11 -18 -5 -15 -4 -47 -2 3 1 3 -15 -10 8 -19 -14 3 2 -9 -14 -41 1 4 -21 -14 -30 -38 -20 10 8 -5 19 14 -10 -12 -9 9 -3 -22 -5 16 4 -1 -40 -16 -12 -8 5 -39 16 -52 9 -14 -19 -11 18 -24 -11 -3 14 -4 -19 18 -20 -1 18 5 -1 -12 10 -27 16 14 -60 -4 -12 4 -3 -6 5 6 3 -1 19 -4 -3 9 -5 -2 -4 -9 -1 8 2 -21 -2 -10 2 10 -1 -12 -2 -6 17 21 1 5 -10 -9 7 -17 0 5 -13 -28 0 -11 10 2 2 -5 6 -5 -11 -38 -5 11 4 14 -15 -9 17 -3 -18 -27 20 -10 8 11 -33 -2 1 -2 1 2 -3 -2 -36 4 -35 30 -3 -14 2 0 -4 -14 7 -2 -5 1 13 -20 -15 20 4 -7 2 -4 9 -3 9 -15 8 7 3 -3 -36 -3 8 -10 13 -5 10 18 4 2 7 14 29 -6 -6 -7 -15 -5 -7 11 -15 3 -23 12 -1 -10 4 -5 -2 -7 4 9 -8 -1 -32 -25 5 15 3 8 11 12 0 -14 -28 9 -32 2 15 -23 -7 4 24 3 7 -4 -38 19 -8 -18 -19 1 -30 22 -10 34 12 -66 -27 3 -3 1 -25 -6 1 -7 -8 -4
7 8 2 -6 -6 -1 2 -4 7 -7 1 5 -1 20 -6 -1 -8 1 2 -9 -8 -7 -6 -6 0 -22 33 4 -1 -5 1 1 -2 -5 59 -7 29 7 2 7 2 -8 17 -6 0 -5 -1 -8 0 16 32 -5 -1 5 -6 -8 -2 0 2 16 9 -3 -36 3 6 -20 8 -9 -10 -37 4 -1 -5 -1 1 -2 13 4 -1 -2 -4 8 -4 4 -3 0 -11 8 6 1 2 10 -5 3 8 -5 0 -8 -8 -12 -4 -2 1 19 9 2 5 -1 8 0 2 -5 1 6 -1 -3 -2 -6 19 1 -1 2 -15 5 -10 -1 -15 0 2 -4 1 5 3 -6 -39 1 20 -6 6 -2 14 -3 3 -1 -5 -3 -3 -7 0 18 -4 14 2 -8 -2 -39 0 5 4 -17 6 22 -3 -5 -52 9 4 -3 -11 2 -1 11 0 22 -14 -7 15 -4 2 -7 11 0 4 9 1 8 1 -2 7 -13 11 -1 -22 3 0 -1 2 -9 -11 6 -72 5 8 -8 5 21 -15 -17 5 -1 -3 -3 -1 -4 -3 -18 -3 1 -8 6 -5 11 6 4 -13 4 2 -4 -3 3 -3 -1 6 15 -16 -6 -13 -17 9 -44 -45 6 11 -3 2 -9 -12 9 2 -5 -24 0 22 6 -2 -8
-3 0 -1 1 -2 -1 -1 0 1 1 -2 0 -1 -1 0 0 -1 -2 -2 -2 -2 -2 0 -2 0 -3 0 0 0 -1 -1 -1 0 1 -3 -2 1 0 0 -2 1 1 0 1 0 0 0 0 -1 0 -1 -1 -2 -1 0 -2 -1 0 -1 -2 -2 -3 0 0 0 1 0 1 1 -3 1 1 -1 -1 -2 -2 0 -2 -1 0 -1 0 1 1 -1 0 0 -2 1 -2 0 0 -2 1 -2 1 -1 0 0 -2 1 1 1 1 0 -1 -2 0 -2 -2 -1 1 -1 -1 -1 -2 -1 -1 -2 -2 0 -2 -2 -2 -1 -2 0 -3 -2 0 -2 -1 0 -1 0 -1 1 -1 -2 -2 -3 0 1 -2 0 1 0 -2 0 -3 0 -2 0 -1 -1 -1 0 0 0 -1 -1 0 -2 -2 -3 -2 0 0 -1 -3 -1 0 -1 -2 -2 0 0 -2 -1 -2 1 -1 1 -1 0 -2 -1 -2 1 -1 -1 -2 1 0 0 -2 0 1 0 1 -1 0 -1 1 0 -1 0 1 -2 -1 1 -2 0 0 -1 -2 1 -1 -2 0 -1 1 1 -2 -1 -1 -2 0 -2 -1 -1 -1 -2 -1 0 0 1 1 0 0 0 -2 1 -2 0 1 -1 0 1 0 -3 -2 1 0 1 1
-2 -1 -1 1 1 -1 -1 2 1 -1 0 1 -2 1 1 -1 0 2 0 1 -2 -1 -1 -2 -2 -1 -1 2 0 2 0 0 1 2 -1 0 0 0 1 2 1 -1 1 -1 -1 0 -1 0 -1 -2 1 1 0 0 0 1 1 -1 -2 -1 0 -2 0 -1 -2 0 0 -1 -2 -2 1 -1 -2 0 0 -1 0 -2 -2 -2 -1 0 -2 -1 1 0 -2 0 -2 -1 -1 0 0 -1 1 -2 2 0 0 -1 1 -1 1 2 1 0 1 -2 -2 0 1 -1 -1 0 -2 -1 -1 0 1 -1 -1 0 2 -1 -1 -1 0 0 -2 1 -2 0 -2 1 -1 -2 -1 0 -1 0 0 -1 0 0 1 -2 -3 -3 -2 -2 1 -1 -1 -2 -1 -2 -2 -1 0 -2 0 -1 -1 1 1 1 -1 1 0 0 -3 -1 -1 -3 -1 1 -2 0 -1 -3 2 0 1 0 -1 0 -2 -1 0 0 -2 1 0 0 -1 -1 0 -2 -2 0 0 -2 -2 -1 -1 -1 0 -1 1 -2 1 -2 -1 -1 0 2 0 0 1 0 1 1 2 -2 0 0 -2 -1 -1 -1 0 1 -1 -1 0 -1 -2 -1 1 -2 -3 0 1 -1 1 1 -1 -1 0 -2 -2 -1 -1 -1 0 1
-1 1 1 1 -2 1 -1 -1 0 1 -2 0 -2 -1 -1 -2 0 -1 -2 0 -1 2 1 1 -1 -2 0 0 -2 -1 -2 0 0 -2 0 -1 -1 -1 1 0 -1 -2 -1 1 0 -2 -1 -1 -2 1 -1 -1 -1 -2 -2 0 -1 -1 -1 0 0 0 -2 1 0 -2 1 -1 -2 -2 0 1 -1 0 0 -2 -2 -2 -3 1 1 -1 1 -1 0 2 1 1 0 -2 -1 0 0 -1 -1 0 -1 0 -1 1 0 1 0 -1 -1 0 2 -1 -3 -1 0 -2 -2 -2 -1 -2 -1 1 -2 1 -2 -1 0 -1 0 -2 -2 1 0 1 -2 1 -1 1 -2 -3 -1 0 1 0 1 -3 0 -1 -1 -2 0 -2 1 0 1 -1 -1 0 -1 1 0 -1 1 1 0 0 -1 0 -2 0 -1 1 1 0 -2 -1 -1 -1 1 -1 -1 1 0 0 -2 1 0 -2 1 -2 -2 0 -1 0 1 1 -2 1 0 1 0 0 0 1 0 -1 1 -1 -1 -1 1 0 1 -2 -1 0 1 0 -2 1 0 -2 1 -1 1 0 1 -2 -1 -2 -1 0 -2 -2 0 -1 1 -2 -1 1 2 0 -1 -2 -1 -2 -1 -2 1 -1 -2 1 -2 1 0 -2 -1 0 -1 -2
-14 -28 -4 -6 7 8 16 17 -43 -13 -2 2 -14 3 -28 12 -10 2 -15 0 5 -2 13 8 -10 -39 12 -20 10 -7 1 -15 -19 -18 -11 18 -2 -3 1 -19 -6 -6 -1 -5 15 -22 5 11 -1 16 -9 9 -16 -39 -3 6 14 -12 -14 -2 1 -1 -19 -17 -10 -6 -11 -4 -1 -8 -1 -35 3 -3 -18 -2 -11 -1 -7 -20 14 -9 -14 -1 -2 -7 -13 -10 1 -15 -25 -18 4 -8 -3 10 0 10 4 -13 -2 -25 17 -14 3 -10 -10 -5 -80 -9 8 -1 -12 -14 -15 23 0 -6 2 -7 -4 15 -9 3 -6 -1 -8 -10 0 3 -7 -17 8 -31 -7 21 9 0 16 -11 7 0 -7 -16 -2 17 -24 1 -1 -4 2 -8 -5 -27 -5 -12 5 8 -36 9 -14 -22 -3 -16 -16 11 -2 -5 14 -22 -17 -16 12 -19 -18 4 8 12 -2 8 -15 -36 -3 0 4 -57 -19 -6 -18 -6 -19 -6 -18 -25 13 -4 -18 9 -16 -17 -14 -16 5 -6 -10 15 8 -5 -16 15 -10 -16 -20 -16 -7 -2 -5 -6 1 9 -12 -5 -21 5 3 -7 -4 -19 -7 5 3 2 -30 12 9 -8 1 -2 -18 -9 -2 3 1 1 -13 -14 -8 -20 -16 -22 -36 -3 -1 10 6 -5
-1 1 -2 0 -1 1 0 0 1 -2 -1 1 0 0 1 -3 0 -1 0 0 -1 -2 -3 -2 -1 -2 -2 -1 -2 -1 -1 -3 0 0 0 -2 -1 -1 -2 1 -1 0 -2 -3 0 -2 -1 -1 0 0 1 0 1 -3 -2 1 1 -2 0 1 0 -1 -1 1 1 0 0 2 1 -1 -2 1 -1 0 1 0 -1 -3 -3 -1 -2 -1 -2 -4 -2 -2 -1 1 0 -1 0 -2 0 -1 0 0 0 0 1 0 0 2 -1 1 1 0 -2 -1 0 0 -1 -2 -1 -1 0 0 -3 -1 1 0 -4 -2 0 -2 -1 -2 -1 -2 -2 -1 -2 -2 -1 -3 -2 -2 -1 0 0 0 0 0 -2 0 0 1 -1 -1 -3 -3 -1 -4 -2 -2 -2 -1 -1 -2 1 -2 -1 0 -1 -2 -3 -1 0 -2 0 -3 -2 -1 0 -1 0 -1 -3 0 0 1 -1 0 2 -2 -2 -2 -3 -1 -3 -1 -2 0 1 -1 -1 -1 -2 -2 -1 -2 -1 1 0 1 0 0 -2 -2 -2 1 -1 -1 -1 -2 -2 1 -1 0 -2 0 0 0 0 0 -2 -2 1 -1 0 -1 -2 1 -2 -2 -1 0 0 -1 -2 -1 -1 -1 2 -1 -1 -2 -2 0 -2 -1 -2 1 -2 -1 0 -1
-42 -15 -27 -36 9 -17 11 -15 -10 6 -5 -18 -31 -8 -18 14 -50 25 -10 -10 -3 -7 -62 11 -7 4 -14 -27 -35 -3 6 -8 -9 2 -7 2 10 -23 10 -3 -47 -7 5 -26 6 -12 -2 -29 -41 -3 -43 -4 -23 -26 -13 3 -4 5 -15 -11 -55 -8 2 2 -12 -8 -29 -9 -1 10 -5 -14 2 -23 -13 -27 9 0 8 5 -23 -4 11 -14 -2 -4 -23 -12 -22 18 -3 -3 -7 -24 10 10 4 -10 11 -3 -12 -7 -5 -8 -4 -32 1 -38 -51 -2 10 -12 -12 -12 -8 -4 -4 -71 17 8 7 -41 -11 -7 15 6 1 -26 -14 -2 11 -5 1 -28 2 -4 2 -60 1 11 -17 12 3 20 -16 1 -27 20 -8 10 -28 -1 -34 8 8 1 -21 -32 8 2 -23 -7 4 -6 -40 -32 -6 -17 27 -13 -5 -15 -6 3 -29 -14 -2 2 -32 -2 0 -13 2 3 -18 -4 -49 7 0 7 -11 -4 12 -6 -1 -13 -10 27 -95 2 -24 -4 7 -2 -20 -18 -4 -8 16 0 -5 7 -20 13 -10 -16 -27 -29 -29 -6 -16 6 -4 -22 6 -3 -2 -34 -3 -17 29 0 -17 9 -13 29 1 11 -1 1 -16 -13 8 -5 -5 14 -18 -21 -10 -8 -10 10 1 2 -21 5
-2 0 -1 -1 -2 -2 0 -1 -2 -1 -1 2 -2 0 0 -2 1 -2 -1 0 0 0 0 -2 0 -1 -3 1 -2 1 -2 -2 -1 1 1 -1 1 -2 -1 0 0 -1 0 0 0 1 -3 2 1 1 -2 -2 1 -3 0 0 0 -1 -1 -2 -2 -2 -2 -2 0 0 0 1 -2 -2 0 -2 1 1 -1 1 -3 -2 -3 -1 1 -2 -1 -2 -1 -2 -1 0 0 0 -1 0 1 -2 0 -2 1 0 2 -2 -2 0 1 0 -1 1 1 0 -2 1 -2 0 1 -2 1 -1 -2 -1 -2 1 -2 1 0 -1 1 -1 -2 -2 -2 2 -2 1 -1 -2 -1 -2 0 1 0 -2 0 1 -3 1 0 -2 0 -1 -1 -2 0 -2 -2 0 1 2 -2 -3 0 0 -2 -1 -1 -2 -2 -1 0 1 -2 0 1 -1 1 -1 0 -2 1 1 1 -1 1 0 -2 0 0 -1 -1 -1 -2 1 -1 0 -1 0 0 -1 -2 0 -1 0 -1 2 -1 1 -1 -1 -2 1 -2 0 0 0 0 -2 0 -1 0 0 2 1 1 1 1 -1 -1 -2 1 0 -2 -1 -1 1 -3 -2 -1 1 -2 -2 0 0 -1 2 1 -2 -2 -1 -2 0 1 -3 -5 -2 -1 2 -3 0
-3 -1 -1 -1 0 -2 -2 -2 -3 -3 1 0 -3 1 -2 -1 0 -1 -1 -1 -2 -2 1 -1 -1 -1 -2 -2 1 0 -2 0 -2 2 -2 -2 -2 -2 -1 1 -1 1 0 -1 -1 -2 0 -1 -1 -1 -1 0 1 -1 0 -2 -2 -3 -1 -2 -2 -2 -2 0 2 -2 -1 -1 -1 -1 -1 1 0 -3 -1 1 -3 -3 -2 -2 0 0 0 -2 -3 -1 -1 -1 -2 1 0 0 1 0 0 0 -3 0 -2 -2 0 0 1 1 -1 2 1 -1 -2 0 -1 -1 0 -2 -1 0 -2 -1 -1 0 0 -1 -1 -3 -1 -2 -1 0 -2 -2 -1 0 0 0 -2 -1 -2 0 0 0 -2 0 0 -2 0 -1 -1 -1 -3 -2 -3 -2 0 -2 -1 -1 -1 -2 -2 -2 0 -2 0 -1 -1 -2 -1 0 -1 -2 -4 -1 -3 -1 -1 -3 1 0 -1 0 1 1 -1 0 -2 0 -2 -2 -1 -1 -3 1 -1 -1 -1 0 1 0 0 -1 -1 -3 -2 -1 -1 -2 -1 -2 1 0 0 -2 1 -1 -3 0 -1 -1 -1 1 -1 1 0 0 0 0 1 0 -2 0 -2 -1 0 -1 -1 1 -1 0 -2 -1 1 -2 0 -2 -1 -2 -3 -1 1 0 -1 -3 0 1 -3 0
5 -17 -32 12 -6 -8 -6 -14 1 -13 7 2 -31 -39 1 -3 9 -5 -19 -6 -15 -19 0 12 -9 -16 26 -5 3 -19 -3 22 10 -4 41 -8 16 -2 2 0 7 -2 -7 13 -8 -9 -61 8 11 13 -25 30 -4 15 -12 -21 4 -3 -8 -11 -11 4 13 7 -1 -43 12 0 13 -27 -9 -14 16 4 11 -20 -52 9 -13 -7 4 0 9 -28 9 10 2 -11 -37 -12 9 -26 2 -18 -30 12 1 2 9 -12 -6 2 3 -20 -53 0 -29 0 -2 9 5 -4 9 -20 -17 11 -29 9 -5 -10 2 0 -21 -33 -5 15 -52 0 3 -23 1 -9 15 -11 2 -6 -23 -1 -22 -22 -38 -10 2 -1 -9 -27 -7 8 6 11 -3 -70 3 -10 -6 -10 -76 -1 -6 13 15 -3 -1 -23 -27 -13 0 -8 -26 39 -35 -32 -38 -5 -16 6 12 7 7 2 -11 9 -2 27 0 -17 -2 -9 -13 -17 0 2 -21 -11 -5 1 -6 -11 2 -48 -35 -18 -12 -12 -1 -39 -7 -9 8 -32 -13 -8 5 -6 -1 0 -4 -5 10 4 7 -39 3 -12 -17 -15 4 0 -2 -4 2 9 17 -59 -6 -2 0 2 -31 -18 -68 -29 -25 -4 -11 6 -5 -2 -15 2 24 -9 -25 -29 -1 -6
0 19 -12 -3 -5 -10 4 -2 -16 0 -8 5 -3 -7 4 -11 -12 -1 -8 0 -10 -8 -7 -11 5 0 -7 -15 -17 -7 0 -2 -11 -12 -11 0 5 -10 0 2 -12 -2 0 -11 -6 -12 -8 -13 11 -18 -13 -17 -5 6 -13 0 -12 -7 2 -16 -3 0 -10 0 -11 -1 2 2 1 -21 -20 0 -9 -4 6 -36 -10 -5 -5 2 -5 -3 5 -1 5 -6 -10 -4 -14 5 -6 -13 6 1 -3 -5 7 -18 -9 -9 -10 -6 5 -2 -15 -3 -12 3 1 -4 -7 -5 -9 -3 -18 9 -7 -4 -16 -5 -8 7 -2 -6 -7 -21 -7 -28 -6 -7 -6 -1 -15 3 0 -7 -5 3 2 -4 6 -1 -2 -18 -18 -14 -3 -14 -7 -7 -10 -13 -5 -7 -2 -8 -11 -2 -15 -8 3 4 -1 -5 -7 -2 -6 -19 3 0 -12 -3 1 -12 -20 -13 -4 8 -1 -8 -14 -9 1 -15 10 -4 0 -11 -10 -12 -1 -11 3 -6 -6 7 -2 2 -5 -15 -4 -12 0 3 6 -19 9 -10 -16 -24 -3 -9 -4 4 -17 -20 -13 -10 -7 -11 -4 3 0 0 0 -2 3 -6 -17 -5 -1 -5 -2 -12 -2 -2 -19 5 -22 -13 -15 -4 0 -4 -12 -3 -14 -4 1 6 4 -19 -17 3 -16 -17
-38 -2 -30 -23 -29 -6 3 -6 -5 -2 -20 -6 -9 1 6 5 -8 12 10 3 3 6 -11 -27 -7 1 2 -6 -9 2 -6 -13 -16 -20 -86 -6 -3 7 -9 -4 -2 -32 -6 1 0 -16 4 6 -11 -30 -37 5 -18 -4 -27 -2 7 10 0 -44 -20 -2 -33 -7 2 11 6 -3 1 17 -7 13 -10 4 -5 1 -57 9 -35 -3 -24 -8 2 -7 -3 -7 -4 -10 6 -13 -11 10 -11 -8 -15 -10 -1 -8 12 -19 -4 1 -4 -8 -5 -25 -2 3 -100 -2 -20 -24 -25 -31 5 10 -14 -18 -24 -2 1 -8 -4 -5 -3 2 -20 -20 1 -9 19 0 -7 1 -13 -2 -9 -11 4 -15 19 6 -57 -1 2 -35 0 -74 -5 0 1 -19 -3 6 -3 -4 -43 -13 6 -1 2 -9 0 6 34 -4 -43 -22 -22 6 4 -22 -25 2 2 9 -23 -5 -14 -25 -10 -6 4 -42 -1 -27 2 4 -28 4 -4 7 -15 6 -7 -14 -8 -17 0 5 12 12 -5 -8 0 7 -8 -2 -43 7 -20 5 -4 3 1 -5 -11 -7 2 2 16 -40 7 -11 10 3 6 -12 -10 1 3 -13 -2 11 -15 -14 -7 3 -6 -3 -1 9 12 1 8 -19 -12 -16 -8 4 -63 -22 -18 -14 -12 -14
-2 17 -1 -26 5 -5 2 -4 4 1 -2 0 -3 7 -2 -1 -3 -10 3 8 2 8 -1 -6 6 -16 -23 -2 -3 -1 -6 8 -3 -5 17 -4 -36 9 -15 1 -9 10 3 4 3 -20 0 -1 11 1 3 -6 -3 -2 1 3 -1 -6 0 2 5 -6 1 2 4 -3 7 -6 -4 8 -10 -2 -8 5 1 2 24 1 -6 -1 -1 2 0 -1 -36 4 -4 -7 -10 -8 -1 -4 2 -2 -2 -8 -6 7 -3 6 1 0 -2 1 -2 1 -2 -3 -16 -1 1 3 0 -1 -1 -5 -3 1 3 0 -35 -1 1 -13 0 2 -5 0 0 -5 5 3 -6 -7 -10 5 2 -4 1 3 -19 9 -25 -3 4 -4 -4 -4 -8 6 7 1 -2 -26 1 3 -2 0 0 -9 -5 -4 -3 -1 -2 7 -19 1 0 -14 -2 -15 -19 5 -15 1 3 6 3 -2 -1 -3 10 6 0 12 -1 4 -7 6 2 -4 6 7 -2 -7 4 5 -2 -3 -7 6 -1 4 -10 17 2 10 -5 1 -3 -1 1 -2 -1 -6 2 2 -3 -24 -23 -3 -20 9 4 -4 2 -1 -2 -1 -8 3 -31 -2 0 -2 -6 -30 1 -9 -12 -15 3 -1 0 1 -5 0 3 -1 -5 11 2 7 24 -3
-6 -23 -3 -30 13 2 21 -4 -2 42 -6 7 -16 -14 -2 17 -18 5 13 10 4 8 -6 -14 -1 24 -21 -2 4 16 -5 -8 -2 15 -26 -9 -2 -18 2 -4 -14 -13 -22 2 0 -28 -8 28 -35 3 3 4 22 -7 -10 -11 16 4 -23 5 2 14 -37 -28 0 -10 -4 -9 -11 -29 -19 36 -5 -5 -2 4 -4 -12 -3 21 2 11 -10 -6 -7 -30 17 -4 6 2 16 -4 -3 -6 -2 28 24 7 -1 -15 1 14 0 -7 4 -7 -6 -2 -12 13 11 -5 -15 4 -12 -6 1 -19 6 4 2 -8 -4 6 -12 -10 -80 -3 2 -2 -23 -4 -5 10 -12 17 34 -7 8 4 -28 7 -2 18 4 10 -17 -19 7 -11 -10 9 14 11 6 -22 -3 15 -8 24 7 -3 -2 11 0 21 16 11 -10 -5 9 -4 -17 -44 -4 8 -11 17 -4 -22 25 15 -34 -6 17 21 0 2 -18 5 3 3 15 3 1 -7 22 -6 -11 -29 -17 -2 -4 -29 -15 -1 15 22 6 -4 9 -1 -5 -9 -16 -13 -4 -12 -20 -1 -3 16 8 6 16 -5 8 -21 -6 -25 12 33 -1 -34 -63 4 -9 -17 -25 11 -31 9 2 -5 10 -12 -15 -1 -21 3 -21 2 -26 -23 7 1
3 -6 -13 -20 -6 12 9 -9 -2 -2 12 -8 -19 1 -15 14 14 -32 8 -53 -28 5 -18 -12 -33 20 -25 -18 -26 -5 -7 8 18 -3 -89 -5 -5 9 1 3 21 -51 6 2 -3 -4 2 -17 -3 17 17 -15 -1 -26 -2 13 -12 -14 1 37 5 -43 -7 -13 4 -7 -8 -3 -33 -22 -14 -16 6 -3 -15 19 -61 5 -5 5 6 -44 -10 17 12 19 -4 1 16 5 -13 -7 25 5 0 -8 4 -10 -10 -13 7 4 -20 -10 -16 -18 -27 -24 -21 -12 23 -18 -13 -13 2 9 1 -61 -7 -9 11 21 8 4 -16 3 -3 -13 3 -12 12 -3 -8 -8 -17 -11 -11 -19 -18 -19 -25 -22 -10 0 -1 4 11 -15 -33 1 -8 0 -11 20 -34 -11 -1 -11 7 -15 5 -3 0 -2 -6 -11 12 -46 -5 -11 1 -15 -16 -2 -35 13 2 15 -4 -34 -9 7 4 -6 21 10 -42 -11 -8 5 -1 -3 -1 18 -17 12 -10 3 9 0 3 -2 18 -8 -19 4 -6 11 20 -1 12 15 -37 10 -9 2 -6 4 -9 -3 -21 -9 5 -36 2 -39 -8 2 9 13 -37 1 19 18 -8 -18 -1 7 -16 -5 -1 -8 9 20 -19 -6 11 1 20 -4 -41 -4 21 15 -37 -5
7 6 -1 5 -20 -5 12 -18 -28 15 3 -11 6 23 8 -38 -15 -1 -26 -10 -14 0 5 -21 15 18 -36 -54 -19 -8 -14 -30 0 -32 -25 -7 -6 -22 -9 -13 -14 -5 -20 16 -27 -14 6 15 -17 -15 0 -31 18 -31 15 6 10 -20 -31 -40 -2 -14 -26 14 -4 2 -26 -29 2 -2 -5 -32 -15 7 -26 10 -29 19 -2 -66 -23 -8 -1 -14 8 -8 -5 4 -37 10 -23 -15 -4 -10 2 0 25 -4 5 -9 0 -2 -7 0 -7 -20 -7 -2 -7 -7 -30 9 -21 5 -31 -34 15 -8 -2 5 -29 1 -3 7 -8 8 -15 24 -41 6 -19 -19 -20 -6 -16 -20 -14 18 -2 -23 -16 -4 1 -7 -28 -2 -12 4 29 -5 -38 -3 9 -10 1 20 -11 6 14 -3 -12 -18 -22 -1 -4 30 -21 10 -5 -5 -1 -6 5 -34 -6 -7 -4 5 -1 14 -7 -10 24 -8 23 -10 7 0 12 40 1 -44 -1 -6 -1 -1 -15 15 10 -5 -5 -28 -22 -22 -8 -23 -14 5 -18 -4 -3 1 -4 -12 -37 -20 -9 17 1 -9 0 12 -6 -12 20 -22 -10 -6 -2 4 15 7 -12 6 -1 -25 29 12 -23 -14 -10 -22 12 -7 -19 -62 -46 -15 -15 -4 0 -7 -6 -15 -31 -57
9 3 1 4 3 2 -1 -1 5 2 -4 3 -3 -3 0 -1 4 -4 11 2 3 0 -2 1 -5 8 9 6 -2 5 3 -7 -3 3 -3 -1 -3 -2 6 2 6 2 3 0 -3 -6 0 0 0 -2 4 0 0 2 0 -3 -2 -5 -2 4 4 -6 0 6 -2 -1 -4 -1 3 -17 2 0 0 9 -4 -4 -1 -11 -9 -3 -2 -6 -1 7 7 4 1 1 4 3 4 2 -4 2 -6 0 1 -6 -4 0 3 3 4 1 0 0 -2 -3 19 -1 4 -2 -1 -42 3 2 0 7 4 3 -3 5 2 -7 1 -2 -1 2 -16 -4 -1 2 -5 6 -1 -3 -5 6 6 3 0 -6 -10 -7 5 -1 -1 -7 3 -12 0 6 -7 0 -1 1 -1 -4 -8 -3 -1 1 3 -2 5 -7 7 0 -1 -10 1 -3 -6 -3 6 -2 0 1 4 0 -4 0 -4 -3 -2 -2 1 -2 4 -1 -5 2 2 -1 -4 -1 0 -11 -16 -1 -1 -6 -5 4 -7 1 7 -6 1 0 -2 2 1 -1 0 5 3 -2 1 8 4 3 -4 -11 -2 0 5 2 2 2 2 1 7 2 1 0 0 -1 0 -2 -50 1 -1 -1 -1 -1 -1 2 3 0 5 -3 -10 6 16 -6
-8 13 -16 3 10 16 -10 2 -6 -16 -4 3 -4 -1 2 -14 6 -6 -11 -12 -22 15 3 9 -1 -2 -16 8 -9 -4 -10 -11 -3 3 -1 -21 -3 -6 -6 9 -9 -13 -8 -14 -13 1 2 23 -3 -8 11 -2 7 -53 -20 49 -8 7 4 -21 2 -20 -7 29 11 -18 -2 0 -5 -1 -10 -2 -1 -1 -13 -16 -15 -7 -22 -16 1 -2 -8 2 -14 0 -1 -3 4 0 29 -8 3 5 -36 12 21 7 -21 -10 -6 -7 6 -3 -4 -16 -7 -8 -23 -45 6 -1 0 -25 7 14 0 -7 -24 0 0 -6 4 -10 0 6 -3 -21 10 2 26 -11 15 4 0 -25 -1 4 -30 -9 -8 -7 3 3 13 7 -11 -26 -1 -1 2 4 8 5 -10 -17 -13 -14 -6 -7 -5 4 -7 -8 11 0 3 -3 3 6 -16 5 -17 -13 -4 9 -2 2 9 -2 -3 -17 3 -26 -11 -1 5 -19 -10 3 -6 -18 -14 0 0 -12 3 -7 -5 2 -6 -3 4 0 1 -4 -7 0 -19 8 -5 -12 -13 -20 -4 -2 -15 11 4 17 -8 0 2 5 -7 -1 -16 -14 -6 4 -1 -5 -6 10 7 10 -16 15 -12 3 -17 14 -2 -11 -4 -5 -13 9 -6 4 -14 -6 -10 0 -37 -7
8 -24 -5 21 -5 14 -16 9 -7 3 2 3 4 18 12 6 1 15 -26 14 9 -1 -12 20 -56 7 9 -9 -36 -28 -14 -28 21 -34 -24 9 4 -31 -15 3 -12 -30 0 9 2 16 1 7 8 -1 -24 5 -9 -5 -18 2 1 -5 0 -21 6 7 -23 -1 32 8 3 11 21 -26 -64 5 -7 -9 4 4 -16 -10 6 9 -5 -2 -5 -20 -2 -17 -34 -4 2 6 -2 6 -22 9 40 -17 -8 0 -5 14 -10 20 -1 7 2 -30 -17 6 -41 1 6 3 -7 0 17 1 -7 22 17 14 -5 -60 -18 -7 -10 -13 -5 24 -7 -36 -10 15 5 -57 -18 2 0 -7 3 -13 10 -44 0 -1 -30 -26 2 -44 -11 13 12 -52 8 9 11 10 -7 -26 4 27 -17 -14 21 12 -4 9 -10 -7 14 -1 -15 -2 -3 -10 5 2 -17 5 -1 12 7 -25 -37 16 -23 16 31 -3 2 -26 7 17 -29 -1 -5 3 0 3 -32 5 10 -13 -3 7 11 -23 -33 -17 5 -14 1 -22 -47 2 -31 -51 -2 33 14 -9 -27 -5 -14 -45 -9 6 6 -26 -3 6 -21 3 11 -44 -8 -16 11 -2 22 15 -13 26 -19 -14 2 -71 -3 -12 4 -3 -62 -22 -2 -28 -49 -33
-17 -7 3 -1 -20 18 -11 14 -26 -8 8 -21 -19 -40 5 10 -57 0 -18 28 -7 9 -24 13 -46 -20 2 3 12 -19 5 3 39 -23 1 4 -1 2 -69 -4 -15 0 -18 0 11 10 -8 -41 -13 16 -21 -1 -6 25 -13 -11 -3 -2 -22 19 -18 -1 7 13 -14 19 -7 -16 6 -13 -2 -4 15 -22 -5 -1 -7 -16 2 -4 -41 8 -3 26 10 18 -37 2 -12 3 -23 -6 -9 9 14 -10 3 6 -20 7 -24 4 9 -9 -68 7 -31 11 -9 25 9 -4 17 11 -4 -1 -19 8 -2 -20 26 12 -18 -13 2 -11 -21 15 12 -20 1 12 -14 -18 -24 4 28 -21 7 -8 -13 -16 8 8 -37 12 -3 -36 6 0 9 -4 14 -16 -12 4 -19 -3 13 29 -7 -12 -30 -13 -17 2 0 -29 -48 -28 -34 6 -7 -20 9 -6 12 -29 -15 -7 14 6 -19 34 -19 15 -4 -15 -5 -4 8 11 -13 6 -15 -3 -19 17 3 7 -24 -1 13 -25 17 -4 2 18 2 -4 1 18 -16 9 -8 1 -18 -24 14 9 -25 -5 -4 -11 11 15 20 -12 -17 17 -21 -1 -6 -6 -13 -1 -26 5 -12 -11 -38 7 9 -15 -46 -4 -30 -34 -17 -33 -18 -9 22 6 -3 -24
1 -15 1 -17 -7 -18 19 -27 4 -9 -10 -24 -38 -22 -7 -3 -18 -12 -34 12 16 -44 -5 -38 -5 9 -10 -9 21 0 -3 12 22 -10 6 5 -43 -20 20 -16 6 -12 -41 8 7 13 -17 9 -32 -23 5 -10 -20 7 -11 2 -22 -5 24 -2 -3 12 -4 -3 -39 -7 -11 -19 -27 11 -25 -15 24 -12 6 -14 -32 -9 4 -13 -47 4 -2 29 -10 5 1 -5 -25 5 23 18 -6 -9 -19 15 -13 -6 5 3 -5 15 -16 -11 -21 0 -5 23 -32 -15 0 -1 2 -2 -5 -7 -8 -12 -15 9 19 23 2 6 16 8 -33 -24 8 -25 -35 -27 1 -2 16 2 -14 -16 -24 -16 3 -22 -12 -1 -4 -16 -17 6 -28 -8 -13 -13 -19 12 -19 16 -6 -49 9 8 -8 -40 1 7 -11 5 13 -8 -3 -3 -16 8 -2 -42 -30 -19 3 12 -8 28 3 -13 -11 7 2 -7 -21 -20 -7 3 21 -39 -3 2 -7 -28 -16 10 -11 -4 11 -7 12 -25 -9 1 -15 16 -30 -6 8 8 -30 16 -10 9 15 0 -30 -6 16 -3 -11 5 13 -2 -30 -47 1 -35 -41 -13 -27 5 -27 -24 3 -39 -27 16 -46 9 -16 32 0 -14 5 5 -8 -22 -14 -3 -3 7 9 -15
10 1 -4 6 1 -1 -1 -2 2 1 -1 -7 -1 0 1 -1 -3 -1 -3 0 -7 0 -8 3 -1 -5 -3 -4 -6 -2 -4 -1 -3 2 -7 1 -3 3 -1 2 -3 -3 -5 0 1 7 -2 -4 -1 0 2 2 -5 2 -3 -6 -3 -2 -5 4 -1 -3 6 -4 1 1 -4 0 -5 31 -3 -3 -1 -2 0 -3 -20 -1 -1 -4 -1 4 -2 -3 2 -1 -7 3 -3 -7 2 1 1 -1 -2 -3 2 -3 -3 1 1 1 -2 -1 0 -4 -6 0 -40 1 0 2 -2 -10 2 1 -2 5 -1 -1 -1 -3 -2 0 1 0 -1 -9 20 0 0 -2 0 -5 -17 -3 2 3 -3 0 -3 2 2 1 1 1 -3 14 1 -1 0 1 3 -1 -4 -1 -8 -3 -3 -2 -1 -3 -1 1 -11 -2 -9 0 -4 6 -2 2 -3 -6 -1 1 -4 0 -2 -6 -3 2 -1 -1 -10 -1 3 -2 1 0 0 -5 1 3 2 -3 0 2 -3 1 -23 -8 -9 -2 -6 -3 -4 -1 5 -2 -1 -2 0 0 -2 -5 -3 -4 -1 -7 3 -1 -3 -4 -3 -3 -1 -2 3 -3 -1 -1 -10 1 -5 -4 -4 3 -10 1 -9 0 -3 -6 -4 -3 1 -2 0 0 -7 -7 1 1 -6 3
7 -6 13 -12 14 -6 -38 -34 -23 -8 -13 -18 -11 12 -15 -14 -7 -11 -34 10 -36 -9 -10 -16 -8 -18 18 -18 -11 -12 -42 -3 3 -8 -10 -32 -15 -12 -25 -26 -10 -26 -1 8 -8 -19 -7 9 17 -46 -10 -50 18 3 -20 5 -4 -1 -27 17 6 -4 11 0 11 -30 15 -60 3 -13 3 -9 9 -21 3 -2 -37 -4 -39 -18 3 -2 -2 -42 -24 -20 -12 -35 1 -1 -16 -10 17 -35 -23 -9 13 -34 -34 -14 -18 -11 5 -4 13 5 -6 -5 -12 -11 -9 5 -13 25 -2 -1 -19 19 -25 -5 -87 -18 -17 19 -12 0 -22 20 -7 -17 3 -5 -17 -7 4 -1 -1 -31 1 -11 -3 11 12 4 0 -20 7 3 9 -13 -11 29 -18 -26 -8 3 7 1 10 -55 8 1 -73 27 -22 -17 1 0 14 12 -13 5 9 -20 -38 -6 -51 -11 -38 1 -18 -11 -7 -16 -18 0 -6 -11 -20 -36 4 -15 -37 3 -20 5 13 13 -21 -32 -54 11 -9 -54 -12 3 -13 -10 -52 -17 27 -23 -18 -21 -18 3 7 -2 30 -12 2 -8 23 -24 7 4 24 -15 -5 12 -33 -10 0 -24 -7 -9 1 -24 -5 4 -43 1 -10 -12 -17 2 -2 0 -43 -14 5 -17 -21 -18 -1 -5
-3 -3 -2 -26 -23 -13 -36 -6 -1 1 12 -7 -12 -28 -2 7 -48 3 -17 -24 -10 -17 -16 3 -2 -23 -4 4 -24 -16 -9 7 -33 -16 -29 -2 5 2 -24 10 -4 -6 -29 0 11 -16 16 -20 -5 -8 9 -13 6 -4 -19 5 -8 -32 20 11 -7 -8 -25 17 3 -2 -35 14 -27 -18 -23 -1 -24 -6 -8 -12 -31 -8 2 27 18 -9 -14 -10 -5 -5 -7 -8 -37 -22 17 -7 -6 -17 -12 -8 16 -4 -27 4 2 1 3 11 -26 -9 9 -31 -25 2 -12 4 -4 -6 1 12 -4 -4 2 -4 12 -15 -13 -24 -21 3 0 -14 7 -6 -8 -14 0 -17 -12 2 -31 -26 9 -7 -5 -35 -12 0 2 -37 1 -24 2 3 -4 -21 -36 33 -27 -9 -5 -12 11 -4 -14 2 18 -1 2 -10 -40 1 -3 -1 7 -3 3 -25 0 -18 -6 18 10 -3 -43 5 -7 -36 -26 -19 -8 6 -9 -45 -18 1 -16 6 -12 0 -15 -13 -22 14 3 -12 -41 1 -21 -16 13 9 -15 -14 -9 -8 12 -5 -17 -22 -36 8 -20 -17 -25 4 -10 -1 -3 -13 7 12 -6 -8 -13 -8 1 -15 -3 -33 -3 -4 1 -38 -18 -1 8 40 -20 -25 3 -7 -30 -9 -8 -5 -10 -17 -24 -9
-7 13 12 14 1 -6 0 3 -13 4 -24 -1 -18 -11 -37 -14 -11 -14 -17 28 -12 20 -12 -18 -11 -9 -7 6 2 15 1 -23 4 17 -12 -3 -14 -7 -35 12 -34 3 -32 -6 5 10 -7 -13 9 -11 15 -7 -17 2 2 -17 -27 -25 10 -13 -22 -7 -2 -5 -39 10 15 11 -19 -42 -17 27 -47 -21 -2 4 -8 21 -9 13 -2 -39 -8 16 -24 -36 -9 13 20 -14 -18 28 -18 -7 -21 3 1 -22 10 -8 -17 -24 -17 -23 -35 -27 2 -14 -30 -6 -6 8 4 -5 -19 -21 10 -5 21 11 -10 0 -10 -5 20 -19 3 -4 5 -12 -8 -16 2 7 0 -13 -7 20 3 10 -5 -16 -19 -26 8 16 -1 -16 -10 -11 -9 -19 8 -26 -6 -12 -13 -17 -39 14 -10 -2 -50 -3 -1 -7 -1 0 -1 -17 -1 -16 10 15 9 -3 7 11 -14 -13 14 6 24 10 16 -37 -45 -19 4 -3 -20 1 2 -61 -20 -1 20 -5 3 -11 6 -12 -40 -13 10 25 -10 -2 -1 -3 -10 5 -1 -32 -4 -6 -36 -33 -6 3 -13 19 -1 -31 -40 -6 -17 0 -4 -12 -22 29 -9 -1 6 9 -14 7 -8 -24 -3 1 -16 16 -4 4 17 -16 -31 -25 4 -5 -27 3 -10 5
4 -7 -4 -6 -5 0 4 -1 14 -7 -15 7 38 -3 -1 0 -27 -22 3 -1 -1 -5 -39 2 8 -12 -2 -9 -8 6 18 12 0 14 -2 -4 -34 18 -2 -3 -1 -23 5 -3 1 11 -6 9 17 -10 -34 -6 -3 9 -15 -27 6 -25 20 28 30 13 -10 -11 28 0 6 12 -18 -28 -7 19 -20 -28 16 3 -16 -6 -46 -2 -15 -31 16 7 36 -9 -4 0 17 -1 -3 13 14 11 -4 29 6 -10 22 8 25 -3 11 -3 -26 2 12 6 -10 2 10 -15 14 -16 1 2 -3 13 7 21 2 1 0 2 -10 7 11 -20 12 -8 -5 -29 18 13 8 0 14 -26 -3 2 -6 -19 18 20 -1 -11 13 -3 4 -2 -8 7 20 5 12 -6 -1 12 4 -7 42 13 -18 -27 -5 -4 -7 -7 12 1 2 -27 -3 -26 -17 0 4 -24 -27 -15 22 -3 15 3 -11 25 16 3 -14 4 -6 15 20 19 -6 14 -9 4 7 -4 -36 -5 2 -32 -7 4 28 -1 -7 -3 15 -20 13 15 -3 -11 -4 7 2 17 11 13 -34 -51 -5 -15 8 -8 -2 21 -2 0 15 -19 -5 5 0 -9 5 1 -37 3 2 12 -1 -34 -12 26 -27 -21 -6 -9 -17 -26 0 16
-13 -30 22 -8 -1 0 -5 -19 -7 -12 9 3 5 -5 -16 1 10 -23 -28 -10 -13 -54 -27 8 -5 7 7 1 2 1 0 14 4 -17 11 -1 4 -39 10 1 3 -15 -15 16 -23 14 -8 -24 13 -30 1 -17 0 -1 -36 -13 -13 -10 -3 -13 -33 -6 -13 -38 -28 -16 2 10 -11 -27 -25 12 -12 -47 1 -45 -8 1 -33 6 0 -15 -12 -11 -26 -45 -14 -39 -4 4 -60 4 -24 -17 11 -1 -42 0 25 -35 10 -6 0 24 10 11 16 -27 -11 -4 -14 0 -15 -3 -9 -11 -2 26 -21 -9 0 -53 -21 -5 -2 6 -1 -21 0 -22 -13 10 -3 -13 4 2 7 4 1 -6 -23 1 4 -7 -20 -33 13 15 -32 -4 -8 7 -23 -14 -32 -1 -48 -1 7 20 -37 -39 -10 -7 -33 -8 13 -11 27 -17 10 -3 -50 -9 -18 -16 18 -10 25 2 1 -13 -17 -36 -23 -33 14 -26 -10 -7 7 -42 13 -32 -31 -6 -19 6 -42 -20 -84 1 -11 -37 -39 1 -17 -9 -7 -11 12 -5 -14 2 -1 -12 -4 12 31 -18 -28 9 -56 -1 11 -7 -18 -5 0 4 14 7 -12 -12 -29 4 -9 -33 -31 -10 -45 -1 -29 0 -25 -3 -33 24 8 -2 -10 -22 16 -25 -10 -6
-7 21 0 -31 -5 -2 -5 5 -1 -9 -20 -7 -19 -5 -15 -6 12 -16 -35 19 -4 12 1 -2 -20 -18 -17 -3 -1 -13 -1 -7 0 -5 -29 -6 21 5 8 5 -8 -8 -11 -21 -5 -41 26 -2 -6 5 6 20 1 -16 0 21 -6 4 -4 -8 -6 -2 8 -3 -17 -5 -2 -14 -3 26 -10 -7 -20 -12 -5 -3 -4 0 9 -21 11 -27 2 13 2 18 -5 0 3 -6 -2 -18 10 -6 -11 7 -6 -14 -22 7 -8 5 -5 7 -10 10 -3 -7 -28 -20 0 -13 -9 3 15 -4 -8 -11 -4 4 -12 7 -11 8 -1 -16 3 -13 -1 -10 -9 -1 26 -7 -26 -24 -6 -3 1 -17 -37 -11 -17 6 3 -14 -2 -32 -12 1 28 9 -1 -5 0 -7 10 -8 -7 -3 9 4 6 -11 -22 6 -18 -1 -5 3 3 -5 1 -8 6 -12 2 5 -8 -2 16 3 -7 -2 -18 11 -3 -4 -17 5 -3 -11 3 -11 5 2 -20 -2 2 13 -26 -10 4 7 7 0 11 9 -1 18 -14 -4 2 -3 12 -7 -4 -1 0 15 2 19 -12 7 -3 -5 0 -16 -4 -3 -6 8 6 -13 -9 -7 -7 3 -1 1 -9 19 15 -16 8 6 11 -17 10 -3 -76 -9 21 10 -13 -10
12 34 -33 -16 6 -7 -26 0 -48 1 -12 35 2 -2 -23 -26 -3 7 3 -24 -1 -23 7 1 6 -15 -19 -9 -35 9 -28 -13 -20 -2 -4 10 30 -24 -37 -17 -13 -2 -10 6 -9 1 -28 -10 -52 10 7 15 27 -3 6 -16 -14 8 -61 7 0 0 -11 -7 24 15 -6 23 -25 -74 -9 -21 4 11 -17 -18 -38 22 -8 -4 -17 -5 6 0 8 -20 11 4 2 20 -11 1 17 0 -17 -8 -40 -9 11 -7 -6 21 12 1 -27 -5 7 -17 -4 8 10 -9 1 7 7 23 24 -4 21 5 -12 -31 11 -80 6 -13 -15 19 -4 -10 -10 -22 -12 -6 -3 -10 -11 11 -16 17 16 -36 -14 -8 -18 -34 -35 -45 18 0 -19 20 -27 26 -14 6 5 -14 -5 -3 16 16 -13 -15 -20 -18 10 8 21 12 6 1 5 -10 9 -28 -10 -15 -25 -31 -20 -16 11 6 -35 -2 -10 0 3 -53 8 14 -12 -47 11 -19 5 8 -24 -2 -6 -22 -29 -16 -14 -4 -9 4 -4 -9 -21 -9 6 5 12 -14 -19 -52 -19 -5 -19 -6 -14 -2 19 -1 0 -7 -10 -7 -10 -6 -12 13 22 -31 -31 -6 -29 -26 -31 -8 2 18 -5 -1 0 24 -12 -22 -6 17 1 -16 19 0
1 1 -1 1 0 0 -1 -1 0 -1 0 1 -2 -1 -1 0 0 -2 0 2 -1 0 0 0 -1 -3 -1 -1 -2 0 -1 0 -1 -2 -1 0 0 -1 -1 2 -1 -3 -2 1 0 -1 -1 0 1 -2 0 1 1 0 -1 -1 0 -1 1 -2 1 -2 -1 0 -1 2 -1 -1 0 0 0 -2 -2 -1 -2 -2 0 -2 -1 -1 0 0 1 -1 -1 -1 -1 -1 -1 -1 -1 2 -1 0 -1 -2 -1 0 -1 0 -1 -2 -1 0 1 1 1 1 -3 0 0 0 1 -2 -1 0 -2 0 0 -1 -1 -1 1 -2 -1 -1 0 1 0 0 -1 1 1 0 0 -1 1 0 -2 1 -1 1 -1 1 0 -1 -1 -3 -2 -2 2 -1 0 0 -3 -2 0 0 -1 -2 2 -1 -2 1 0 0 1 1 1 -2 -2 1 -2 0 1 1 -1 0 1 -1 1 -1 1 1 0 0 0 -2 0 0 -2 -1 0 1 0 -1 1 -1 -2 -1 -1 -2 0 -1 1 1 -1 0 1 -2 1 -2 -1 0 -1 0 0 -1 1 0 0 -2 -1 -1 2 -1 -1 1 -2 0 1 -1 0 -2 1 1 1 -1 -1 -2 -3 -1 -2 2 -1 -1 -2 -1 1 -2 -1 -1 0 1 -3 0
-37 -12 -23 14 0 -27 -2 4 -3 -16 13 -14 -15 -2 -19 -11 7 14 -23 1 -28 -13 -17 11 -13 -7 -73 6 1 -3 -4 -24 -38 7 -2 24 5 -18 -28 -41 15 18 2 -4 10 1 0 14 5 9 31 29 3 7 -14 -15 0 -18 -4 -5 7 9 6 28 -13 -8 2 2 1 10 46 -8 -1 9 -17 -8 -1 -11 -3 1 9 -3 -12 -10 0 14 -1 28 -10 -4 15 2 4 -10 25 23 11 8 -16 12 -30 1 11 -1 -38 13 -1 -56 -16 12 -10 2 5 -20 9 14 -8 28 19 18 -15 -22 -27 2 -5 -16 7 14 -11 -1 41 -4 -3 0 1 14 -24 7 10 5 6 17 1 -5 13 -6 -9 1 -7 -4 19 4 -8 -19 -19 -1 24 -26 7 6 -39 1 -32 -6 -10 -24 -4 10 0 3 2 -25 15 3 20 9 -44 -15 2 -10 6 -20 -9 32 -9 -11 10 -4 -15 22 -18 -11 15 -3 0 -1 5 -33 -28 10 -61 -52 -7 1 14 13 -10 -7 -21 -11 5 -17 -28 -16 22 8 -10 5 19 -20 -20 11 12 -41 4 -33 -17 -20 11 -7 -52 12 18 18 -9 4 13 20 11 7 -55 19 -5 27 11 -5 -10 1 -18 14 6 -29 15 2 0 -20
-8 -9 -17 2 -2 -12 4 25 4 -27 -2 34 -3 7 10 18 1 3 -3 28 -12 14 -18 11 12 -7 6 2 22 14 18 19 -16 -2 -34 6 -1 9 13 9 -2 -69 -5 5 -2 -13 1 21 -2 13 0 -1 3 -2 -23 11 7 1 6 11 8 -13 -2 12 10 13 5 25 -2 -2 10 -8 20 17 -5 -6 16 -19 -24 -2 -1 2 27 -42 -2 -13 23 -18 6 -5 -18 -4 2 11 9 7 32 -53 12 2 2 -4 -8 15 12 -7 10 -28 6 -6 -3 6 8 6 8 1 -34 -30 -21 -11 -8 13 8 -6 -1 -12 -4 -17 2 1 23 23 21 -25 -40 15 9 0 -11 -2 -5 23 4 4 -15 29 8 2 9 -11 13 -1 3 -8 -17 21 -1 13 -26 27 4 6 -21 14 -8 10 3 7 6 3 16 -15 0 -35 -20 0 -1 -4 37 -17 8 33 7 -1 10 4 12 -18 -29 27 -15 -14 13 2 8 -3 1 -4 -7 16 -7 -20 0 -3 11 14 -21 21 2 29 -12 -23 4 -14 0 14 1 -39 -9 7 -8 -18 16 30 25 22 -29 9 -3 2 6 16 4 8 16 17 -3 -8 15 -19 -9 3 2 28 1 -1 -3 7 14 -30 7 -26 6 8 -3 8
25 -2 1 -6 12 4 1 15 15 -10 4 4 9 1 5 6 -5 12 3 12 1 -7 -4 -9 -7 -24 3 0 9 -6 -1 -14 -10 4 -22 -7 -9 2 2 -6 7 -24 0 3 10 -15 12 -4 5 0 8 -7 5 1 -10 3 -2 7 3 10 1 14 3 -11 -25 -11 1 6 -4 -33 -33 15 7 -12 -7 1 -8 -9 14 5 -5 5 3 2 4 -1 7 -10 5 -7 0 3 1 0 -6 -8 2 13 5 -21 8 4 5 8 -9 -7 -8 7 -11 5 -11 -4 11 -5 1 -2 -6 -30 4 -7 6 -22 -7 -28 -19 -7 -8 -14 4 -9 -8 -8 4 5 -12 -6 -9 -1 -10 -16 -7 -22 -5 -23 -5 10 -14 -24 -5 -29 8 -13 -14 7 -12 -7 -9 8 9 -1 1 5 8 3 32 2 6 -7 1 -12 3 -3 -3 20 -9 0 9 6 12 -38 -12 9 -3 15 -3 11 -2 4 13 7 10 14 -11 -19 1 22 1 -14 -24 1 -20 -11 -5 4 -27 5 1 0 -1 -11 3 -9 4 5 2 1 -4 -4 9 5 -5 9 -6 -17 16 -5 9 31 -3 10 0 -5 -30 6 -12 -12 -3 -24 1 -29 -28 18 0 1 -9 -31 -78 -1 -2 -9 -40 24 -3 -3 -11 -20
-17 21 8 4 15 -1 10 9 -2 -2 5 -23 -1 -25 -4 -4 0 -6 1 -1 1 -27 -5 -8 -24 -10 -4 -11 -2 -11 18 -30 3 -33 -36 -41 14 -16 -12 -16 2 -20 -33 -8 -18 -26 -2 -4 13 -40 -19 -15 11 5 -44 8 6 -15 15 -17 -46 9 -46 41 3 -2 -11 -7 -16 -1 -31 10 -31 -15 7 -27 -55 -33 12 14 -7 -22 1 12 11 13 -18 -28 13 5 9 1 -10 1 -9 16 -13 14 -2 -3 -26 7 -26 -2 -29 -15 -26 30 -29 -25 3 -27 -29 -2 2 -12 -3 -22 -20 -15 16 -31 12 14 -2 5 0 19 8 7 -7 -5 -1 -12 -17 24 -25 -12 14 -5 11 -11 -14 -7 11 -15 16 -25 -5 -18 -3 -7 1 21 -5 -3 -9 -4 12 -6 6 -14 -9 -6 -24 8 19 3 -3 7 -5 8 -23 -4 -19 -12 -8 -19 -11 20 3 14 0 -2 -20 -1 -7 3 -10 -33 -13 -12 -6 7 6 1 -5 -18 -42 -18 13 -18 -10 -18 -18 1 0 16 -18 9 8 -14 -23 9 -4 -10 20 6 21 -31 6 -4 5 -24 -2 -19 -16 7 -33 -1 -32 -12 10 4 -23 -3 -9 -36 -34 -47 -26 18 2 2 -10 -12 -12 -30 -19 11 -65 -24 -27 -7 -22 19
-70 -6 10 1 9 6 0 -6 -14 1 -23 10 -9 -20 -18 -21 4 -47 20 -12 -5 14 7 -18 -2 -10 12 5 -1 5 5 -11 29 -8 -27 -22 23 18 4 1 -7 -26 -13 0 -5 -16 -8 -11 -2 0 -19 -1 -22 4 -2 2 7 -37 -11 -19 3 -43 7 1 24 2 -10 -46 13 -4 -4 -7 -7 -2 -28 4 -41 -4 8 -1 -26 -13 7 22 13 -26 -8 -22 9 -19 13 -7 -3 -20 -4 3 13 19 13 -13 -11 -7 -11 -17 -3 -32 19 -18 -28 -12 -5 -22 -25 -4 -16 -21 6 -29 -15 -6 15 2 6 -62 6 -5 -19 7 -4 1 -19 -6 10 -9 2 -17 10 -7 -10 -26 7 1 -11 2 -2 -45 13 0 -11 -12 23 -12 0 -15 18 -10 -11 8 -49 -30 2 9 -20 -24 -10 11 8 -14 -3 3 19 -14 6 0 -31 5 -17 -8 -15 19 -9 -6 -8 -19 -2 -11 -12 13 0 -18 4 -3 12 -8 0 -23 -36 -10 -13 -25 -7 8 1 -7 8 6 2 -15 5 -9 -7 20 -13 8 -18 -30 -5 -40 -7 -7 -8 -11 1 -31 12 3 -9 -42 -8 -4 -14 -7 -25 -3 2 -1 5 0 -1 11 -13 6 -16 -8 -7 -51 -31 28 -3 20 -11 10 -3 3 -3 17
-6 -5 -8 6 -15 -36 11 -4 -13 13 5 -10 -13 -8 1 -10 8 -8 -7 1 2 5 -11 -14 0 0 -9 -23 -17 -11 -17 -13 -1 -11 0 -12 -11 6 1 -10 -7 -18 -26 3 -22 -21 5 -20 -13 9 -15 -3 -8 -11 -12 0 -31 -3 2 -19 -11 -5 2 -11 -14 -21 -9 -16 -3 -3 2 -8 -6 -4 -24 -3 -11 5 3 0 -16 -12 -3 -9 12 -14 -5 -1 -3 -20 -4 -9 -13 -16 -5 -25 -7 -16 -2 -4 -6 -3 -16 13 -12 -12 5 -7 -15 -9 13 -5 -16 -6 -11 -18 -18 -31 1 5 -3 3 -2 0 -6 0 0 10 4 -1 -1 -3 9 -1 -2 0 -21 5 -12 -2 -6 -3 -12 0 -4 -15 3 -7 -3 5 -16 8 -3 -7 -8 -12 5 -18 -1 -11 -23 2 0 0 -14 -18 -4 -22 -10 -4 -19 -10 2 -13 -16 -17 -14 -34 0 2 -14 -6 -9 -5 7 -10 -16 -4 -6 13 0 -5 0 14 -10 0 -11 -8 16 0 -6 9 -5 -12 -8 -10 -3 0 2 -6 -3 7 -5 -20 -11 10 -5 -6 -2 5 -9 -16 -8 -1 -21 12 -14 -26 18 -1 0 -12 -7 -2 -2 -7 7 0 -12 -7 -19 13 -20 -5 -5 -1 -7 5 -9 -4 -15 -13 -45 -17 -18 -18
6 11 1 4 -16 5 -28 -11 7 -20 -18 16 16 5 5 1 -37 10 1 -1 -11 -9 -4 12 -18 -14 -14 8 -4 21 2 -4 -2 -1 -2 16 -17 -4 5 5 18 -2 0 -10 -8 -8 -18 -7 -8 -30 5 -44 0 2 -54 8 20 14 4 17 1 5 18 -9 -15 7 -4 -17 -24 -36 4 7 12 -4 12 -35 -6 16 -29 7 -7 -9 7 -12 9 -12 8 -21 18 5 0 10 -11 -1 12 22 -30 -1 17 -10 1 14 6 -18 -3 -1 6 -34 -8 -13 -9 8 3 -20 -8 -8 -24 7 12 5 -38 -14 19 -9 0 8 -28 2 -4 3 0 14 -7 7 -3 -14 -24 -3 -6 11 -21 18 21 5 19 -23 1 2 16 3 -19 -23 4 -11 7 -5 -8 -10 -13 29 -1 -4 -1 27 9 7 5 6 -7 6 -17 24 -9 -24 -3 7 12 -17 -36 -11 21 -8 -10 9 -14 -10 5 -9 -19 -6 -12 -30 -10 4 -3 2 5 18 3 -2 -26 -27 -6 -15 7 6 9 -24 -11 28 16 -27 4 0 1 13 7 5 -17 -10 -29 -26 -15 -19 -8 0 -19 24 5 -12 12 -9 2 -7 -3 17 -20 -28 -34 -24 -42 -13 -26 14 -10 9 -9 14 16 -5 -5 -17 11 -4 0 -6
-40 -8 -15 6 -8 -24 2 -9 -32 -10 -10 10 -23 -19 -4 -3 -21 6 2 10 22 -21 5 9 -1 -2 3 -14 4 3 12 -13 18 -32 -23 -19 -23 -9 -14 18 -19 -25 -9 3 18 8 -10 -18 11 -10 -24 -25 10 -5 -2 -28 19 -29 2 6 -25 0 5 25 -21 34 -22 -1 3 -3 -26 14 -17 1 -5 19 -16 -13 -5 -20 18 -3 20 2 -29 -22 14 -40 21 18 6 3 21 -12 -32 13 9 4 11 -5 15 6 -34 -2 -5 5 7 -14 -23 14 -41 -4 1 0 -17 4 -7 -12 -11 -28 4 23 -10 4 -8 13 2 3 -6 1 -6 -18 8 -21 -1 -41 -9 -49 12 8 6 -2 -19 5 26 5 -7 1 -7 4 8 -12 -13 -11 -24 -3 -7 -24 -4 9 9 3 -6 2 -19 -13 12 14 -12 30 -6 -12 -6 -2 -9 -21 6 2 -33 21 13 -3 4 -20 -29 -16 -20 -7 5 -20 8 3 0 5 -7 -42 11 4 -38 -35 -10 8 10 -21 0 -14 -2 1 -20 -11 -18 -17 9 8 22 -22 -4 3 -6 -8 7 -11 -1 2 -40 -20 16 -17 -10 -21 -10 -21 -6 -32 12 14 12 3 -31 9 -55 -5 -6 -12 -5 -5 2 -6 -10 -12 -11 -1 -20 -37 -10 -8
5 -12 -29 -9 -1 19 -4 -16 1 10 -8 7 -18 -8 -24 2 -26 33 5 35 11 -4 20 3 -12 1 -7 7 20 7 18 16 -10 -8 5 -14 36 0 9 -1 -26 -49 2 21 16 -6 14 8 -11 -28 3 -19 -4 7 14 -15 27 22 -19 7 4 11 12 3 -8 -1 0 -15 -17 4 -21 -28 11 -3 -2 -9 -3 -16 -28 13 -11 -9 18 -5 2 15 -23 18 -31 20 11 18 3 2 5 15 17 -15 7 11 10 13 -9 -12 -9 -10 2 9 -1 3 -23 13 9 5 3 6 6 -1 3 11 -2 5 -11 4 7 5 -20 12 1 4 -7 -3 13 -51 -9 13 -10 -7 14 25 -25 -43 5 -9 -7 -6 -1 -8 11 -7 -19 -20 -18 -1 -8 0 8 3 19 21 23 10 -3 22 -15 -30 1 -3 12 24 4 -16 7 -1 33 -13 7 1 15 -24 -30 -12 -11 -11 -14 7 3 -6 -24 -6 0 16 14 3 10 5 5 9 -14 5 -38 8 23 -13 -43 -20 14 -7 16 -12 7 7 -7 2 12 -14 -11 -29 -4 -1 15 -3 -10 -15 8 5 0 6 18 13 18 -19 7 12 -17 13 -3 17 16 -23 -42 -3 5 -10 9 19 5 -4 -10 -22 5 -7 17 10 14 -4
-36 -26 -2 -38 -16 -18 -8 1 -19 -5 -6 -21 16 -24 3 -62 -41 -18 -29 -27 1 -37 -8 8 -1 -24 -19 -4 -36 4 -17 23 -26 0 -7 -23 5 -21 -51 11 -8 -11 -11 0 -10 -16 0 -9 7 0 -24 1 -25 -11 5 -22 6 -22 -5 -3 -26 -16 -2 -12 -31 -45 -31 -16 4 -7 -17 6 -2 -27 -14 -25 6 2 -9 -5 23 -2 -30 -3 6 -6 -7 -20 -38 8 -59 -1 -35 6 -3 1 -15 18 14 -8 -12 -5 5 -7 -8 -4 -23 9 -6 31 17 -4 31 -12 -21 -22 17 25 11 21 -8 -1 -1 -14 -10 -22 -62 19 13 7 -8 17 9 -33 0 -10 -11 -48 -5 -14 -32 -1 7 5 26 10 2 -10 0 -1 -19 -11 16 -15 -56 5 -6 1 10 -28 10 -18 8 -5 -19 6 1 31 -9 12 8 -3 -15 -14 5 7 11 -5 -27 -39 10 -22 -25 -3 6 -20 -22 -23 0 10 13 13 -21 -8 -6 9 -30 -5 -34 -57 -9 -3 2 -36 21 -5 -36 3 -4 -6 -14 5 -13 -2 3 -4 29 -9 -1 -25 8 -55 -34 4 -6 15 2 6 -12 2 -37 -20 3 9 -43 2 -42 4 -9 -11 -47 -13 8 -8 -15 -22 -7 -15 -12 -1 4 1 -33 -28 10 -6
8 -2 -14 -16 -3 1 -16 -28 3 -16 -14 -3 4 -1 7 15 -7 -11 17 6 -26 -7 -4 -8 -3 -1 -19 -14 -37 1 -24 20 -14 11 -44 4 -12 -8 -42 -26 -31 -17 -3 -20 4 -7 2 -25 -3 -29 -19 -15 30 0 5 -34 -54 7 3 45 -27 12 3 9 0 8 0 -12 -15 20 -47 -9 -27 -40 6 12 -128 -42 13 -20 3 0 -61 -4 -17 -21 -23 -7 1 -12 30 -11 -27 0 -13 -2 -4 -33 11 7 -11 6 2 -19 -16 -4 7 -23 -29 -1 -28 -10 -2 2 12 2 -6 9 -7 -15 -6 -15 -3 -4 -26 7 -10 10 2 -9 -19 -8 -20 4 14 -11 -31 0 -11 -7 5 6 1 4 -16 2 0 5 4 -19 -47 -26 -4 10 0 -10 7 -29 -2 27 24 -9 -28 -1 7 -30 -16 -18 8 -5 -11 7 -20 9 6 -16 4 -20 5 -25 -31 -4 -19 -6 -16 -5 -33 -11 -22 -36 2 -1 -19 18 0 4 6 10 -15 -2 11 18 -13 8 -7 -25 -12 -9 -15 -25 -12 15 10 5 -10 -1 -5 -9 -9 1 -14 -16 -4 -2 -23 20 -39 -22 -4 -30 -9 2 -15 -21 -26 16 -2 -11 -4 6 4 -11 -6 25 -16 6 6 -14 11 -1 -35 -11 5 -34 -25 -16
18 10 -2 -11 6 -32 17 -29 -11 39 -43 -10 2 -23 20 -22 -3 -6 -23 22 17 -9 9 -5 1 13 26 -1 -23 -10 -11 -28 1 12 -16 -29 -7 19 11 -4 27 10 -10 14 -5 5 1 1 13 -19 -12 9 16 -8 17 4 3 -9 -16 -8 -14 -18 -5 11 -16 18 -11 -22 14 17 11 4 12 -22 -47 -14 -86 -23 4 -24 17 -6 -14 -6 24 -23 8 -24 1 -1 -12 4 -30 6 -7 22 7 -18 -15 11 -4 -28 -23 14 -3 -16 -14 -6 -48 10 4 -19 8 -11 6 -19 -13 4 -41 15 -2 12 0 1 18 -12 -11 -11 2 15 -14 9 15 -11 -37 22 -5 -14 18 -21 -10 5 3 -23 -24 -19 -8 20 2 -1 -9 -16 7 12 -7 -19 -5 -1 -11 -3 -7 1 -14 -21 -15 -6 -1 -23 -5 18 32 -12 -12 -59 -4 10 7 10 -14 11 34 3 0 16 -18 -10 -29 -8 3 18 -2 14 -10 14 0 9 15 -27 -11 -5 -11 -3 5 -7 -10 22 -24 -4 12 -25 13 9 10 -8 -16 7 2 -16 10 4 19 -19 3 -6 -24 -33 -23 -8 24 -31 28 3 -9 5 -6 1 13 -20 -2 -16 -7 -17 -22 -32 4 -34 2 -4 -20 9 0 -15 8 4 -9 4
0 15 -43 -10 12 -32 -13 -1 1 4 13 9 7 1 -14 -13 19 4 -9 -10 -1 -2 1 -19 -16 -6 -16 24 -14 23 -31 -6 -16 -3 1 -19 14 -32 -3 -11 -19 7 -2 -10 2 -15 -4 0 -4 -54 4 6 8 9 0 0 -4 -7 2 36 -9 -10 -13 1 -14 -16 13 2 3 1 -1 12 -3 8 5 0 18 -21 -7 0 -11 -7 -7 29 11 -1 8 14 -18 6 8 -5 -31 -5 -44 -19 -4 7 0 -29 -6 1 2 -2 -8 -6 9 -27 -11 -2 14 6 -10 -11 3 8 -12 -7 -20 -6 -28 4 -1 -49 -9 -30 4 -20 -19 -22 -9 -10 -2 2 -12 -2 -24 2 -10 -10 -13 -32 -10 -16 -2 3 8 -29 5 -4 0 -49 -15 -13 -12 -16 -42 -29 3 14 2 -7 -6 3 -1 -6 6 6 -8 25 22 8 -2 -22 -19 7 -42 -15 4 0 -31 8 3 14 -5 -8 -9 -10 -4 -20 3 7 -18 -8 -1 13 -1 -1 7 -1 -3 -4 -24 -26 -4 -6 22 -6 -3 4 -10 -11 -15 -6 -74 -7 -8 -3 -6 -27 -27 1 7 -12 -7 -34 13 14 -2 -15 5 -5 17 -10 6 -9 -6 -3 -2 -2 20 -22 -39 13 17 3 -6 3 -15 -17 5 -17 -20 -15 -27 -8
6 -15 0 -24 -7 -51 -31 -9 -5 -17 -11 22 5 -3 3 -44 -16 9 -32 -15 0 -10 -3 -39 9 6 -9 6 -34 4 -17 3 -22 -9 5 -31 -2 -10 -4 -21 -37 -13 -54 -27 21 14 -3 -22 1 -3 -38 -4 -34 4 -23 0 -8 -16 11 -14 2 -25 -41 -12 -2 -25 -9 -7 1 -53 -11 -6 -17 -14 10 14 -10 -12 -21 -23 -11 -11 5 -6 -19 -4 -23 -4 -14 2 -24 -32 4 -8 -29 12 -4 -2 0 -40 2 -24 -20 -21 -14 12 20 -15 -9 -5 -57 17 12 -20 -25 5 -36 9 7 -22 -25 13 -6 -15 7 7 -45 -5 -31 6 -22 -31 -10 -31 -16 -9 -29 -7 -5 14 -8 -15 -21 -3 9 6 17 14 3 -7 -11 0 20 5 1 -1 -11 5 -18 -23 4 -30 -11 30 5 -4 -10 -12 6 -16 2 18 -34 -13 5 4 5 0 -25 -9 -3 10 -5 14 -32 -2 -15 15 -23 -55 14 13 -5 4 6 0 -46 -27 -23 -24 -46 -28 17 2 10 -3 9 -37 4 -17 -4 20 -3 -12 -6 -13 -32 -13 9 -5 8 -12 -9 15 -24 -7 12 29 -24 -14 -5 4 -42 1 -5 -9 -20 17 -47 -63 -30 7 -21 24 -27 16 11 -5 3 -1 -7 -2 -30 -28 -5 -9
-14 -14 15 -3 24 -45 -5 -8 19 5 13 -3 4 7 -28 -31 -5 17 -2 6 5 -17 -3 -24 25 12 17 -10 -19 -1 4 -6 -6 -11 -3 18 -33 5 1 0 -10 -31 -2 1 -25 6 -1 21 9 0 -17 -4 -12 9 -49 -4 9 14 -6 0 -27 -4 -8 -17 14 12 -10 -3 4 -13 12 -9 -6 -18 -8 -11 -23 20 -1 -6 3 1 11 15 -2 -23 -26 15 -1 9 -6 14 -9 14 0 3 6 -21 -12 1 -4 -1 0 21 8 6 5 8 -63 -1 12 -52 11 -7 -6 1 -14 -18 -22 15 20 -14 -26 -2 -17 -7 12 10 17 -11 -17 -5 -5 2 -11 2 -7 -14 1 7 9 20 -2 10 17 -16 10 -6 -6 -17 8 6 2 -18 2 -11 6 -13 -15 10 -1 10 -5 8 -11 8 -13 16 -16 -6 -2 3 5 1 -8 -28 3 6 -20 -33 3 -21 -7 2 -12 -13 25 -28 -1 15 31 12 6 17 3 6 10 -13 21 -12 -2 21 -2 -21 12 9 -13 4 -52 4 -6 14 4 11 17 18 18 17 1 -12 -2 -11 10 -45 -13 -38 12 -33 2 -9 15 -11 0 -14 -27 8 -2 -12 -11 -24 -7 -16 22 3 -11 -41 15 -15 -58 -7 -85 -51 -16 11 -39 -10
4 -9 -14 -9 0 -15 -16 1 -36 -2 -9 -30 -16 -12 5 -37 -9 -1 -44 -63 0 -10 -24 -1 12 -39 -7 -15 -26 -10 -9 -9 6 -26 -1 -75 -4 -1 2 4 -22 -11 13 -5 0 -4 -6 4 -36 2 -14 -7 2 -9 -35 2 -39 3 31 -26 -16 -18 -30 5 0 -26 5 -46 -47 -48 -11 -9 -15 -6 -22 -10 -43 -18 -9 -44 -7 -15 -26 -45 -5 -33 -13 -9 -58 -30 27 -26 -14 10 -27 -7 -2 11 -6 6 0 -3 -33 -17 -11 -10 23 -35 -7 7 -22 -2 -21 -2 -18 14 -10 -5 0 -12 -24 2 -3 -13 -25 -17 -27 23 -24 11 -6 -8 -8 5 -58 -24 -23 -12 -22 -17 -17 -24 9 4 -34 10 -25 8 -6 -52 -13 -21 -13 -43 -12 -20 -15 9 -14 -23 20 -5 -3 -20 -1 -26 -3 -6 -27 -29 7 -15 1 -22 -9 -7 -1 -9 6 6 -14 10 5 -18 -10 -4 -36 9 -14 -8 -30 -58 -22 -20 -22 -38 -12 -32 -9 -5 -22 4 -1 -3 22 -17 8 -12 9 4 -2 2 -4 -11 11 -16 -26 16 -5 8 -16 -11 -2 22 -25 8 -3 34 1 -19 -13 9 -26 -2 -4 -13 -45 -25 -26 -29 -9 -17 -16 -15 -9 -63 13 -32 -6 -7 -15 -8 -4 -8 1 -3
-18 -16 1 12 -11 -27 1 -7 -45 5 -43 -1 2 -6 5 18 22 6 12 2 1 13 -1 -24 2 -20 -8 -1 -7 -16 18 12 -12 -34 9 -23 -25 -9 -5 -2 9 -9 -11 -29 -15 0 -9 -6 21 18 -25 8 -13 1 18 9 10 -41 -2 -19 4 2 2 -39 -4 15 -66 -4 10 5 -32 -21 22 -10 9 16 0 -5 -3 9 -27 8 -3 -4 18 16 -4 -22 7 -5 -4 16 15 7 -6 -10 1 -29 3 4 22 -35 23 -11 5 -13 0 -14 -15 -18 -35 19 12 11 -7 13 5 26 12 7 -2 -32 -12 -9 0 -12 -14 17 9 12 22 -4 -12 13 -16 -37 11 7 -15 15 -29 15 12 9 -1 1 4 13 -21 11 -2 16 -8 -25 21 5 -12 -6 -2 18 31 -8 8 29 17 -14 -47 -13 18 -33 -16 17 15 -30 -17 -29 -1 -13 -20 3 13 0 4 14 18 -5 -25 8 -1 16 13 7 1 21 11 -5 6 -38 -4 -11 -25 9 2 5 14 -10 19 6 8 -28 4 1 -35 14 -4 -8 11 1 2 -18 -20 -7 -14 -14 6 -17 3 -16 18 7 -10 -18 27 12 -56 -39 -9 5 9 -13 -60 -14 -4 -21 -19 -40 0 -23 -9 1 3 -6 16 -23 5 -62
1 2 2 0 -1 -2 0 -2 0 2 -1 -2 -1 -1 -2 -2 0 1 0 1 -1 1 -1 -1 -2 0 2 0 0 -1 0 0 0 -1 0 0 2 -1 0 0 -3 0 -1 -1 0 1 1 0 0 0 -2 1 -2 -1 1 2 1 1 -1 -1 -3 -2 -1 2 0 0 2 -2 1 0 -1 -1 -2 -3 -3 0 -2 -1 -2 0 0 0 -1 -2 0 -2 1 1 -1 -2 0 -1 1 -1 -2 1 -1 -1 -1 1 -3 -1 -2 -1 -1 -3 -1 -1 -3 0 -1 -2 -1 -1 0 -2 0 -2 0 0 -3 0 -2 -3 1 -3 0 -1 -2 0 0 0 -1 0 0 0 -2 -3 -2 0 1 -1 -2 0 -2 -2 0 -3 -2 -1 2 -3 0 2 -3 1 -1 0 -1 0 -1 0 0 1 0 -2 -1 0 0 -1 -2 0 -1 -1 0 1 0 1 -1 -2 -1 0 0 -1 -3 -1 0 -1 -2 0 1 -1 1 -1 -1 0 1 0 -1 2 -2 0 0 0 -1 1 -2 -2 0 1 -1 -2 -2 1 0 -1 -2 -2 0 0 0 0 0 0 -2 1 1 -2 -2 0 0 -1 -2 2 1 -1 0 -1 0 0 -1 -1 2 -2 0 1 -2 1 -2 0 -2 -1 2 0 -3 1
8 3 -8 -26 -12 6 -14 6 1 13 10 -22 -7 13 5 -20 7 -21 -41 6 -4 -1 -6 -9 -13 -7 17 -6 14 -16 3 1 -10 -9 -33 -15 -26 18 7 0 -5 -31 -3 15 -26 -25 0 -1 -30 -7 -1 10 3 -14 -7 -3 -1 7 -16 -12 -6 -7 -1 -14 -21 -10 -20 -7 0 -6 -5 -39 -1 4 2 -18 -2 -22 -9 -13 -33 -19 8 -14 -2 14 -9 4 -10 0 4 -1 3 4 3 4 -7 -5 -16 17 2 -26 3 -27 -8 18 -6 5 -48 -20 7 -5 7 2 -10 8 -5 -11 -53 19 -18 -24 5 -20 -18 -2 9 -14 -13 -13 -12 4 18 -17 0 -16 -38 18 -32 -20 -2 7 -18 -8 -6 -5 -9 -6 7 0 26 -8 -5 -21 -4 -29 9 19 -8 -45 8 -31 -16 1 -35 3 6 -15 16 4 -18 -17 -7 11 10 -31 4 4 -30 -40 -4 6 9 -13 -9 17 6 -10 17 -1 -13 -10 4 10 8 -43 -13 -13 -9 -11 10 1 2 6 -10 -19 10 -10 -30 -13 -33 -8 -4 -23 13 -7 -32 16 -19 -8 -12 15 -5 14 3 5 1 -38 -8 7 33 4 -14 -16 5 9 -22 -2 6 -5 -3 -5 4 5 5 7 -35 -20 -7 -24 -85 -25 -37 7 15 0
-2 1 -2 -1 0 1 -2 -1 1 1 0 0 0 -1 0 -2 -1 0 -1 -1 -1 0 -2 0 -2 0 -1 -1 1 -1 -1 0 -1 -2 -2 0 1 1 1 -1 0 -3 -1 -1 -1 -1 0 2 1 0 -1 -1 -1 1 -1 -2 -1 0 -1 0 0 0 -2 1 1 -3 -1 -2 2 -3 0 0 -1 -1 0 -1 0 -1 -1 1 2 -2 0 -2 1 1 1 0 0 -1 -1 -1 -1 2 -1 -1 -1 0 0 0 1 -2 -1 0 -1 0 0 -2 0 -2 1 -1 -2 -2 -2 -2 -2 0 1 0 -2 0 1 -2 -2 0 0 -2 0 -2 1 0 -2 1 0 -2 -4 -1 0 -2 -1 -2 0 -1 -1 0 -3 -3 1 -3 0 -1 1 1 -1 1 -3 -2 0 0 1 1 0 -1 0 0 -1 0 1 -2 -1 2 -1 -1 -2 -2 -2 -3 0 -1 1 -1 0 -2 0 0 1 -2 -1 -2 -2 -2 1 -1 -1 -1 0 0 0 1 -1 1 0 -2 1 0 0 1 0 0 -1 -2 1 0 1 -3 0 1 1 0 -2 1 -2 -4 1 0 -2 -3 1 1 0 1 -1 -3 1 -2 0 -2 0 0 -4 2 0 -1 1 -2 -2 -2 2 -1 -4 0 -2 0 -1 1
1 -4 8 0 13 -41 -19 -6 -14 4 -19 -5 8 21 28 1 -20 13 13 9 22 15 -11 -31 7 -23 -17 1 2 -10 -29 3 12 8 10 0 -17 9 0 -1 -12 38 -5 33 -3 5 -12 6 14 1 31 -9 7 -11 0 5 14 -14 11 -17 -41 -11 -3 11 24 -4 0 -17 5 -8 5 -16 -37 -17 -7 -22 5 -18 -2 3 13 -7 -5 -4 -3 -1 -24 19 -12 0 20 2 4 4 20 5 11 -30 -7 0 15 7 -18 9 -7 -13 2 5 3 13 5 0 -3 0 -4 11 17 1 -7 -3 -25 1 19 -14 -9 1 -26 16 -1 15 -6 -20 -22 -1 -3 -6 -5 0 -1 5 -5 7 6 -9 -4 -17 -22 -12 9 3 6 5 2 11 -4 13 -16 9 -12 2 -1 -1 -5 15 -13 -3 29 4 14 0 -6 1 3 -10 -4 -4 -17 -14 1 -7 -19 14 -18 5 4 -8 0 32 16 14 -17 -10 2 -3 -6 -22 15 -4 10 12 -14 -11 10 9 25 4 2 -24 18 2 -29 -11 1 19 -5 -21 -14 -13 15 -5 0 15 40 -22 -2 3 2 -3 7 -13 -7 -3 0 -13 3 27 -8 16 -2 -4 2 -8 -3 12 14 -14 6 -26 -20 -27 13 -38 2 -6 -12 -20
-21 12 -13 6 -3 -11 11 9 14 8 -3 3 5 15 -8 15 -4 -11 5 10 -19 -13 3 -3 -13 12 -19 -9 -47 16 -16 -1 -14 -30 7 2 -29 -21 24 11 -1 19 -3 -9 4 -21 -6 8 8 -15 -13 17 30 -9 2 -18 -28 -5 18 4 -18 -7 -56 3 -13 7 14 16 5 7 -3 -17 -48 18 -22 -23 -21 -11 -7 -7 5 -17 -17 -17 -33 -3 -6 1 5 9 -30 18 -25 3 -9 24 -5 -6 13 19 12 13 -4 8 15 2 -21 2 -25 -3 6 -5 10 -1 15 -8 -4 -2 -8 -10 -26 -24 -3 -6 -23 7 -10 12 -3 -2 7 -11 -27 0 -34 8 4 4 -9 2 -29 7 -20 -13 -16 11 -4 -18 -12 9 -9 -18 -6 -2 -16 9 13 15 -15 -16 20 -2 25 -12 -9 -3 -1 14 -13 5 -47 -5 16 13 -1 -2 9 19 -10 -26 -5 -13 23 -28 -8 23 -2 -32 -8 35 -16 -19 30 -4 1 -14 6 -7 -20 16 -16 0 3 -21 -27 1 9 -6 -13 -2 -42 -9 -9 10 -14 -12 -3 -3 44 -20 20 4 22 3 18 -4 1 17 -4 9 -30 -9 13 20 -7 -2 -10 7 -1 16 -11 -6 -1 -3 1 1 -2 -26 25 -18 -78 3 -33 -25 -1 0
-15 -10 -10 -11 12 -10 9 3 -1 -2 -26 -17 13 5 -9 -5 -2 -22 -21 -16 -13 12 -45 -13 -4 -10 2 10 -18 2 -6 0 2 -22 30 -8 -46 -11 3 -3 8 -19 -3 -27 -13 11 -13 4 20 -31 -3 8 -43 -2 7 -2 -7 -2 11 -6 -22 -24 -25 -23 -28 -5 -2 -24 3 -31 -26 -8 1 -11 3 8 -39 -14 -32 -10 2 -29 2 -28 0 7 -10 -2 6 -26 -10 -29 -7 -22 -18 -35 13 -37 -38 -3 -31 -12 17 1 -19 -8 3 1 -18 -9 -8 17 -10 -1 -2 -7 -5 1 -20 0 14 -4 -2 7 20 -24 0 -31 7 14 -6 2 -29 -18 -3 7 -2 -14 8 12 -45 -10 -31 -30 2 -19 4 3 -3 -12 -24 -20 -6 1 -1 -17 13 -6 2 -3 -3 12 -2 12 -113 5 -14 14 -14 -15 -6 -6 -26 -12 11 17 6 -4 -12 7 -13 -11 -27 -15 -7 -2 -3 -24 10 -20 -4 -23 -15 -1 4 -9 0 -31 -29 7 -50 5 -1 4 15 1 8 4 2 -5 -17 14 -17 -14 -15 1 17 -2 9 6 -5 -22 8 -30 15 -15 -6 -4 -18 -6 -6 3 -13 -10 0 -17 -19 -8 10 -1 -2 10 -43 -23 8 9 15 11 3 -23 -2 -25 -4 1 -2 15
-7 -14 22 13 -19 -12 14 10 -11 -4 5 -29 -3 -27 5 -6 0 6 -18 29 -24 4 11 16 -4 8 2 -38 -10 -6 14 1 1 20 -8 -11 -31 27 2 -27 -2 3 13 -2 15 -48 -12 -44 -25 -9 27 -8 -7 -14 5 -30 -26 -1 21 -17 -16 -6 -28 16 -34 2 -5 -15 2 1 3 -1 2 21 12 2 -12 -2 11 -5 -23 -42 -29 -4 -17 -3 2 -4 -13 21 -8 -43 -14 4 -20 20 10 2 -17 28 -1 -3 -2 -2 -37 -13 -30 9 -72 -12 7 4 10 -11 14 -19 6 -12 3 -3 19 4 10 -8 0 4 -25 -3 2 -7 -1 -10 -10 -2 -5 1 -20 -10 -11 -21 -9 -2 -5 9 3 -10 8 -32 -24 -11 15 5 11 -5 7 -20 0 20 16 23 4 -1 -37 -6 -12 14 -23 -1 -2 -21 11 -11 18 -33 4 9 -1 2 -6 -22 3 -7 -27 6 5 -2 6 -3 -5 -18 -7 3 -39 12 -3 11 46 -13 -4 -17 3 5 -3 -27 -11 50 -21 -3 10 30 -4 -1 2 -2 -9 -18 -12 -18 -13 -10 -12 4 -2 1 -2 -2 -7 -4 13 -26 -16 -11 -27 -23 -16 -24 5 -9 19 4 -16 9 2 -16 1 -2 4 -11 -18 -5 -60 -1 3 29 -10 -18
5 4 1 5 3 9 2 -2 1 -6 5 10 -4 4 -18 -9 -23 -67 10 1 0 -12 -11 -11 -23 -23 -11 1 -9 -1 -6 4 -1 -2 -54 -49 -33 -16 11 0 -17 -29 3 -14 -19 -6 -2 5 -10 -4 -7 -17 1 -3 -74 3 6 -1 -7 0 6 -2 -3 -2 -3 -4 -21 0 5 -1 -19 5 -1 22 -7 5 36 -4 8 2 -5 0 4 -12 -4 7 -7 8 7 -15 -8 -11 -6 6 -7 5 -7 -2 -2 -4 -1 -6 5 -12 -25 -2 0 2 -17 -1 8 -6 12 7 6 5 4 -2 -7 5 4 -1 2 -12 -13 0 0 -35 -14 -5 -9 22 -20 -6 -28 -11 -2 39 -5 -9 -3 -43 -12 -18 1 -5 4 -18 0 -33 2 7 9 2 0 -4 -3 3 -8 -17 -23 4 1 8 17 5 -13 11 -29 1 2 -10 1 -1 -7 -10 -2 -1 -21 -26 3 12 6 -3 -16 -5 -1 1 1 -27 8 -6 -14 -7 -17 8 -7 -11 3 5 -17 16 -12 0 -11 -13 1 0 -22 5 -9 -7 2 -2 2 0 8 1 -1 -4 7 3 -8 -1 -22 -5 14 0 10 -3 3 -11 -27 -6 25 -13 3 -10 0 -11 -21 -7 4 -11 -1 -15 -52 -25 -2 -2 -63 -26 -2 0 -18 -2
-4 -1 -1 -4 6 -20 -4 1 -23 2 6 -5 14 2 4 4 -2 -2 -3 1 -1 -2 -33 9 16 3 -10 -20 -12 3 -10 -6 -2 12 -3 -1 8 -2 6 -2 -15 14 -2 -6 5 -9 8 11 0 -2 -4 -11 -10 3 -35 3 -3 -1 4 4 -9 -5 -2 -5 -12 -2 -10 -3 6 2 -28 0 9 -2 -4 -11 -20 0 -1 1 -2 -3 0 -36 3 -1 4 3 -3 -1 1 7 8 -25 -2 2 9 -13 -13 13 -5 -2 -6 3 12 -13 1 3 -28 -2 2 -4 5 1 4 6 -4 -9 7 -12 -23 -1 18 -7 -7 -1 -1 -9 -3 -15 22 4 6 -8 0 9 -2 -3 2 8 0 18 14 -27 -3 -9 -4 -3 2 -21 1 3 -4 4 1 5 2 -15 -1 -9 -11 -6 5 -8 2 0 -10 4 1 1 -1 1 -1 -4 -1 -23 3 5 3 3 1 6 12 -19 -1 2 9 4 -20 -6 -30 0 2 2 14 -28 1 0 -15 1 11 -2 -7 -5 -2 5 0 6 -35 -2 -13 11 -4 0 4 0 -16 -3 1 3 -7 -2 24 -21 4 -3 2 -9 5 -5 7 9 4 10 9 6 4 -4 2 -5 43 -3 1 0 0 -8 -4 2 8 -3 -4 26 -1 2 -15 -4
-2 0 -1 0 0 0 1 -1 -1 -1 0 1 -2 0 0 0 -1 0 0 1 0 -1 0 2 -1 0 -1 2 -1 0 -3 -1 -2 1 0 -2 -2 -1 1 0 -1 -1 0 0 2 -1 1 -2 1 1 1 1 0 -2 0 0 -2 -1 -1 -1 0 -3 -2 -1 -2 -1 -2 -1 1 -2 -1 1 -2 1 -1 0 -2 0 -1 0 0 -1 0 0 1 0 1 1 -2 0 -1 2 1 0 -1 1 -2 1 0 -2 0 1 -2 1 1 -2 0 1 -1 0 -1 -1 -1 -1 -2 1 -2 0 -1 1 -2 -2 -1 0 0 -2 -1 -1 -2 -1 0 -2 1 -2 -2 -2 1 1 -2 0 1 0 0 -2 -1 -1 -2 -1 -1 -2 -1 0 -1 0 -1 -1 1 2 -1 -1 0 0 0 -2 0 -2 -2 -2 -1 0 0 0 -2 -1 0 -2 1 -2 -2 0 1 1 1 -1 -1 0 0 0 -3 -2 0 0 2 -2 0 1 1 -2 -1 -2 -2 -2 -1 0 -2 -1 -1 -1 0 1 -2 1 2 -1 -2 0 0 0 1 -1 -1 -1 -1 0 -2 -1 -2 -1 0 -1 1 -1 -3 1 1 -1 -1 -2 -1 0 -1 -2 1 -1 -2 0 0 0 -2 -1 -2 0 1 1 -3 0
-16 17 -1 20 18 -7 -12 0 -13 25 -1 10 -10 -30 25 28 12 -5 16 -12 6 -16 5 -7 -50 18 13 10 -18 7 -4 15 2 19 -5 8 -22 24 2 6 8 -13 23 -6 -2 8 9 7 27 19 -18 -13 -17 4 17 12 6 2 21 11 -13 -15 -46 -13 5 -3 13 -18 13 -24 -6 -11 6 -9 11 -34 -63 -4 -10 11 13 1 -10 -12 -5 -26 18 -33 -20 4 7 -3 -13 -13 -24 22 1 -10 2 -13 4 -25 5 4 13 9 -2 15 -20 -3 5 1 -23 10 9 19 15 3 -32 12 0 -8 -16 5 11 3 -1 17 -4 -6 -4 8 -19 12 -2 14 -52 -11 21 -12 -18 -7 22 -2 -10 3 -14 -20 14 13 16 10 13 12 -39 7 -6 22 10 -9 -17 -29 0 3 -15 -19 24 15 20 13 -1 -16 -11 11 -23 -22 3 8 16 -6 8 -2 1 -8 2 22 -35 -8 6 8 12 11 -13 18 20 -7 17 -18 -21 -2 16 -2 -1 -4 -15 7 14 -6 4 -16 3 -31 -6 -5 -19 -13 13 1 -2 -2 -22 8 10 -2 13 17 4 -13 -10 1 -6 -2 -13 27 -9 24 -4 -8 6 -13 -34 -4 -18 20 5 19 17 -1 6 14 -4 -1 -16 13 -30 4
5 1 -2 -19 -15 -3 2 -16 -41 0 -5 -54 17 -9 -24 8 -3 -1 -44 -10 15 -29 -30 -31 -35 -31 -16 -50 4 9 -63 12 10 -29 19 7 7 9 -45 0 -28 -15 3 -12 1 -17 0 -45 9 5 1 -4 -49 11 2 -16 11 -9 -89 14 -28 7 -39 23 -13 -11 -26 2 -14 -50 -10 -15 -42 -11 -8 -35 1 6 -32 -33 -8 9 24 -13 -29 2 8 -25 -12 9 1 -1 -56 -20 9 -6 12 7 7 8 9 14 -23 -40 -13 -30 -8 -25 -9 -12 -15 -8 -38 20 8 -35 -7 -8 8 -8 1 5 -6 6 -27 -1 3 -21 -7 -47 -43 -27 -18 10 3 -20 2 -12 9 16 -16 4 -40 6 -3 -17 -13 6 25 -22 8 -19 -5 13 -11 0 -7 11 -2 -31 -40 -10 -7 17 -49 25 -23 -8 -11 -10 -23 -23 -38 -14 3 -38 -1 17 -40 -3 -20 5 -2 4 -18 -28 -23 -1 -41 8 -3 5 -15 -50 -25 -30 -25 6 -21 -7 -53 8 -5 15 -34 9 -39 2 -17 6 -3 -37 3 -10 -7 -26 -4 -41 -13 30 8 -40 -14 -8 10 -14 -52 -43 -22 -48 -7 -24 -1 -55 -24 10 2 -23 -2 -14 -49 21 -2 -8 -37 4 -10 22 -7 -3 4 -6 8 4 14 -7
11 -12 -3 -24 8 -9 -2 3 10 -1 9 -6 3 -30 2 -18 -4 -7 9 16 -24 -6 -22 -12 0 8 20 17 -2 8 -18 5 -5 -6 21 0 -7 -25 -14 9 -8 8 -22 4 -9 -1 -6 7 9 -6 -8 12 10 -10 -26 -7 -9 -3 7 -9 -10 4 -52 -15 -1 -25 -9 0 -1 -3 17 -3 5 -31 -11 -7 -30 -5 -22 11 -3 5 -2 -5 -25 -24 -19 -15 17 -6 0 -5 -23 10 1 -14 -7 -13 -4 6 1 -7 -13 -8 -7 -14 -14 -12 -8 1 -18 -12 0 -8 15 15 2 -13 -4 -1 17 2 -1 13 -7 5 -33 7 -5 -3 5 20 -15 6 -13 -7 13 -13 -2 8 -16 -3 10 -14 -21 25 3 -24 -3 12 5 -12 18 -16 3 -14 0 -5 -41 -11 -24 -3 -12 -1 -59 -2 -17 -5 19 5 -7 14 -28 -71 -13 -1 4 -16 1 15 4 7 -1 3 -10 -10 8 -14 -36 19 -4 6 -7 -14 -11 21 -1 3 0 9 1 2 5 -14 -20 1 28 -20 3 -9 -3 11 0 -5 -2 -13 -4 -2 5 -13 16 8 -18 -8 -3 -39 -24 10 -12 15 2 12 14 7 3 -13 -7 18 0 -7 -20 5 4 -20 -19 -13 10 0 -18 -18 -10 -20 -20 -16 -1 9
-5 4 3 3 -3 -3 4 0 -5 5 -8 -1 -5 -10 6 2 -3 -10 -6 -5 -5 -1 -11 5 -6 -7 -6 4 -11 -4 -5 -8 -3 -1 -7 -6 7 7 -4 -1 -9 -9 -3 -5 -8 -5 -8 4 4 -4 2 -7 -22 -1 -1 -9 0 2 -8 -3 -15 -1 -8 -6 -2 2 5 1 -6 -12 -8 2 3 -1 -1 -2 -1 -6 -15 -6 4 -12 -2 -7 -6 9 4 -2 -10 2 -7 5 -10 -4 -2 -20 -5 -4 -3 -5 -5 -6 -2 8 5 -14 -3 -2 -14 -7 -6 4 -2 -5 -4 -5 -2 -9 -4 0 -5 0 1 1 6 2 -3 3 -9 -5 -2 1 -1 -4 -5 -10 -5 -18 -3 0 -12 -14 1 -2 7 1 -2 -2 1 -1 -5 -4 1 6 7 -2 -9 11 -1 -5 5 0 -1 -5 -19 2 -6 -11 -4 -7 -1 -1 -10 -6 -9 -2 -7 0 0 -11 -2 -5 -6 -4 -9 2 -10 5 -5 -3 -7 -5 2 -2 -4 -9 10 -7 -10 -14 -3 -13 -6 0 -6 -9 5 -15 6 -3 -11 -2 -11 -17 0 1 -21 -15 -4 -4 -2 1 -8 -8 -5 2 1 -3 -8 5 0 -11 0 0 0 -15 -12 4 -10 -2 -5 -2 -8 7 2 0 -4 3 -13 -6 -8 -6 -2 -13 -3 -3
25 2 -7 -11 -7 -6 -30 12 -2 -10 -3 1 6 -3 -2 7 21 -4 2 10 0 2 -28 1 -11 -1 0 -6 -5 -2 10 -1 11 25 -9 18 -42 0 -4 -10 -5 6 -13 9 -35 -6 -5 -2 4 -12 -35 -3 -12 5 15 6 5 -5 1 -3 -1 15 -2 0 8 -10 4 12 -6 -104 -23 17 -1 6 7 -12 -17 -5 -28 8 -1 2 -6 -9 -17 -7 -2 3 -4 -20 4 -11 -8 8 -3 -19 -11 -36 -5 1 1 2 -10 7 -12 -3 -11 2 1 3 -9 -8 0 -23 -24 -11 -11 4 1 -6 -24 3 7 -28 10 -4 5 -3 -4 -18 -40 -8 -8 8 -7 6 -20 -14 -10 9 11 17 -36 2 -14 -11 1 -6 10 -10 -8 -4 -6 -13 -9 -4 0 -7 -1 5 29 -8 -6 -5 35 0 -31 -3 8 -37 4 -5 3 -18 -10 2 7 -3 0 -10 -3 -14 -30 -22 5 -15 -18 -5 -30 -12 -27 -4 2 1 13 -27 -4 -12 -13 -7 -5 -19 0 3 -15 -20 -5 -9 -59 -1 -2 1 2 12 -24 2 -7 8 12 -13 -15 -10 -8 -2 5 2 9 -17 10 -6 -8 -3 18 -7 -9 -1 -8 7 4 -1 -40 -7 -3 -12 -4 -25 8 1 6 -7 14 7 -6 0 15 -11
-27 -22 -44 -14 -22 -28 -11 -12 -55 -17 -9 -1 -14 -42 -15 -13 7 -27 2 9 -23 -8 6 -7 -41 13 -47 -45 -52 -9 20 -10 1 -26 -1 1 -20 -21 -8 -6 0 -15 -4 9 -13 27 -33 -6 -4 -11 15 -19 -17 13 23 -4 -42 -12 -44 36 -4 -24 -2 4 -14 -22 -26 -48 -4 5 -5 -15 -22 -17 -34 -11 18 -5 -10 -33 -25 -18 -26 -7 16 -28 10 1 -23 -21 -19 5 -12 -16 4 -14 -7 -11 9 -7 9 -38 -43 -5 -35 -7 -14 -48 -52 -1 36 -27 3 -25 16 0 -10 17 -22 -15 15 24 -12 18 -6 3 1 -27 20 -16 -5 2 -6 -9 5 -32 -20 7 -8 -8 10 -8 14 -22 -14 -24 -7 8 -33 16 -51 -10 -9 -24 -7 7 5 -27 -5 -12 -37 11 -13 4 -7 -10 -3 -44 -23 -13 -19 11 12 5 -17 -41 6 -4 -26 1 -1 -9 -16 -13 -15 5 6 3 -5 11 -11 1 -5 -3 -7 -52 -18 -51 -4 -30 -15 2 5 7 -7 -13 0 0 -31 4 -6 -3 -7 6 -20 -32 -42 -13 -7 4 1 -37 4 15 -33 -5 14 -24 -8 13 -19 7 -17 -20 -6 6 5 -12 2 -7 -6 1 9 2 -20 -14 7 5 -3 -11 -27 -27 -68 -26 -27 3
-1 7 4 -7 -19 -10 -13 9 3 -14 14 5 17 11 11 -12 -44 11 -14 16 -12 3 16 -7 -2 1 -24 -12 22 7 7 -6 -10 23 -6 8 -24 23 -10 -6 1 -13 -1 8 -4 -15 -3 12 -5 -36 1 -2 23 0 -16 -42 1 -7 17 -4 -55 2 -16 -7 -29 13 -4 8 -10 -48 13 -28 -2 -2 -4 0 -88 5 9 -8 -6 -18 -1 -10 -42 -28 -40 -43 -15 -8 -18 -9 -1 7 -25 -25 -40 -19 4 18 -1 17 -10 -33 -7 3 10 -21 2 0 -63 -37 23 -3 -3 11 -23 -6 -26 -15 -17 -33 4 -38 19 -22 -13 5 -10 -16 -10 18 12 -1 -17 -21 -11 -21 -25 -17 -10 -29 4 -6 9 -36 0 -10 -13 -1 26 -20 -14 -7 -9 4 -8 -2 -23 8 -11 4 -3 14 3 -5 14 -29 -7 -12 -45 -16 -37 -23 -14 26 1 -1 6 -1 -11 7 27 2 -10 1 -18 10 -3 -23 -5 -23 1 -14 15 -14 -15 -10 -15 -4 -16 -6 -21 -30 -7 -3 -8 -22 -7 -31 -18 -11 -5 -28 15 9 16 4 -21 5 -18 -1 5 -19 1 -3 7 -58 -50 -10 -32 -29 9 16 -6 24 -10 -18 6 -4 -25 -27 -8 -13 -14 -17 -25 -13 5 -21 0 7 10 11 -4 5
12 9 10 -11 0 2 13 -1 -14 4 -1 -4 -11 3 11 -4 -15 -1 -32 -1 -7 1 -9 8 -12 -20 5 -6 -11 -7 -1 -4 4 0 -34 -3 18 3 -2 11 2 -3 6 -1 -11 -14 -3 0 -16 -6 15 -1 0 4 12 1 -2 5 -8 4 7 -25 5 2 4 -2 -15 -3 6 -12 -16 3 -6 -8 -16 -8 -12 1 5 10 -13 7 1 4 4 -12 -3 13 -1 17 0 24 -1 -14 0 2 -3 4 -13 13 -3 3 -27 7 0 -6 -6 4 -43 -9 -10 -4 1 -2 24 -2 13 -8 -2 -5 6 -1 5 12 -9 6 -9 -32 -2 -13 9 4 16 7 -15 -5 -7 -7 -17 -14 -7 3 18 11 -1 -2 0 -32 -2 14 4 -7 0 0 4 -14 3 6 4 -1 3 6 -1 6 -11 7 -3 -9 -8 -7 -8 0 6 -2 5 -10 1 -3 -6 -21 -1 4 -2 -9 12 14 -14 1 0 -24 9 -18 0 -2 -18 5 -13 -5 8 -6 2 20 -7 -4 4 2 -27 -1 2 10 -11 13 9 4 6 1 2 8 10 7 11 2 12 11 10 1 -2 -20 9 -9 3 2 -8 -2 10 -3 -2 -2 -9 9 -7 -10 9 -9 -13 -13 -8 2 2 4 -27 1 10 2 -14 0
9 -11 -8 0 2 4 -9 -1 25 -13 20 5 -2 4 6 8 2 -8 5 -14 19 17 -11 -29 -21 0 -11 -13 -24 8 -14 -6 7 -17 -81 -9 -10 0 -27 5 -8 -17 -18 -9 -4 -1 -5 6 -20 -8 -2 10 0 -21 -20 21 -10 -9 -11 11 8 -27 -2 -8 -4 -20 18 9 4 -13 30 0 -4 -5 13 -2 -62 -24 -11 -24 -37 -43 3 17 11 -15 2 6 14 -1 -3 2 -5 -18 0 20 12 0 9 1 11 3 23 6 -18 -17 11 6 -25 -29 19 11 -20 -14 -1 8 -8 14 -4 15 19 2 -6 18 4 -28 -31 -8 15 -14 16 -8 10 -6 -17 1 -33 -9 -4 -21 -4 -18 2 11 13 11 -9 -27 -2 9 15 5 -3 5 -10 -15 11 -7 -21 -24 7 9 -18 -24 15 4 14 5 0 10 7 0 -12 -1 -7 -14 13 27 -3 -53 11 -19 7 3 -19 -5 -15 -41 -10 -19 -4 20 -23 5 -11 -10 21 11 10 -9 -6 -23 -20 -11 -7 13 -10 -16 10 5 -4 4 -30 -11 -38 -11 10 -18 -6 5 -3 -12 9 -4 6 16 8 1 -13 -44 -8 -2 -5 -30 -9 -19 -13 21 7 3 -3 -2 12 -12 -8 -15 12 -3 7 -4 -34 -8 -1 -11 -46 1
-22 -11 -15 0 0 -81 -4 -24 -35 -16 -1 10 2 2 11 -10 -32 32 4 -11 4 -7 3 -15 -41 -1 -4 5 -1 -12 11 0 -1 -31 -32 -13 -7 2 -2 20 21 -26 -6 7 -4 -8 -2 -21 -8 -14 -21 -6 -1 -11 -23 -17 -19 6 10 -8 -19 9 -17 -8 1 -23 -45 -20 34 -17 -6 2 17 -22 4 -25 -23 2 5 34 -2 5 -5 -7 -9 20 4 -3 18 12 5 16 -6 14 -26 19 -12 -33 0 17 9 -10 -19 14 -2 -4 -19 0 -19 -22 -1 -27 11 -18 -19 2 -1 -21 -3 -30 14 -51 -9 -12 -11 -19 -26 26 -12 -6 -1 -21 -6 -4 -14 -17 -8 21 14 -13 8 -17 -20 -11 -22 -9 8 -42 -10 -12 -2 -7 0 1 3 -1 1 -24 -33 15 -2 -13 9 -19 -1 -12 20 -2 12 -31 -6 -9 -24 -9 4 -2 -10 -13 15 -8 8 -17 -29 -6 11 -6 5 -15 -14 -31 16 -18 -8 25 6 24 -26 16 -8 -6 7 15 10 -1 -8 -11 4 -9 -14 -34 -25 -7 -8 -4 3 -13 -13 -23 6 -7 -13 -31 13 -30 10 -7 16 -16 11 4 -14 -28 10 -5 2 -6 -1 2 10 -37 -13 0 -3 14 -11 -72 3 -13 -23 5 -38 3 0 11 0 -31
-3 0 -2 -2 -1 0 0 -2 -2 0 1 0 -1 -1 -1 -2 1 0 0 -2 -1 -1 0 1 1 -3 -1 -2 0 0 0 -1 -2 -2 1 1 0 1 -2 -2 1 1 -1 0 -2 -1 -1 0 0 1 -3 -1 0 -2 -2 -1 1 -1 -1 -2 0 1 0 -2 1 1 0 0 0 -1 0 1 0 -1 0 0 0 -1 -2 0 1 -1 -2 0 -1 1 1 -1 -1 1 0 -2 -2 0 -2 1 1 -2 -2 -2 -2 -1 -2 -1 -2 1 -2 1 -4 -2 -1 -1 0 -1 0 -2 0 -1 1 -1 -1 0 -2 0 0 1 -2 -1 -1 0 0 0 1 1 0 1 -3 -3 -2 -1 0 -2 -2 -1 -1 -1 -1 -2 -1 -2 1 -3 -2 1 -3 -2 -1 -2 -2 0 0 0 -2 0 -2 -1 -1 0 -1 -2 -2 0 -1 1 -2 1 -1 0 -1 1 -1 -1 0 0 -2 -2 -1 -3 -1 -1 -1 0 -2 -1 -1 -1 1 1 -3 -2 0 -2 0 -2 -3 1 0 -1 1 0 0 -1 1 -1 -2 1 -2 -1 1 -1 0 0 1 -2 -1 -1 0 0 0 -2 1 -2 -1 0 1 -2 1 0 1 -2 -1 0 -1 -1 -2 -2 -1 -1 -1 -1 -2 0 -1 0 0 0
9 6 -32 -72 0 15 -26 -25 4 -7 -1 -31 -2 3 0 3 -21 11 -22 6 -24 -24 -7 -24 9 -39 -25 -19 27 -20 -18 -21 20 -43 5 -1 5 -9 -20 -20 -3 -42 2 6 2 7 -25 -20 6 -25 -3 -8 -13 -11 7 -42 -3 -28 2 15 -5 -21 -17 -25 17 -50 27 -14 -12 -3 -48 -15 9 -27 -3 6 -13 -2 -1 5 -88 -2 -22 11 -25 -12 23 -16 29 3 -23 39 8 3 -8 -1 -5 -37 -1 -12 -1 -18 -32 2 -2 1 -67 11 -14 7 17 12 -9 -8 -6 -20 0 13 -8 14 2 -21 -30 -34 14 -18 30 8 5 -11 -5 29 16 17 -46 7 35 -6 -5 -6 -12 20 18 -8 10 -16 -28 -7 -58 -14 -27 -12 1 -26 -12 -28 4 -28 -2 -26 26 21 -48 18 2 -1 -8 -22 0 -12 -15 -4 4 -17 12 13 5 -8 -40 6 26 -25 -21 7 -21 13 -10 3 15 7 20 16 12 0 -12 -48 7 -1 -4 33 3 12 17 -39 0 -2 16 20 -61 -15 -10 -11 2 -10 -13 -16 -6 -3 21 7 0 -1 -23 -1 -34 18 20 -14 19 2 -38 11 5 -28 -28 -22 9 -19 -3 3 -41 5 11 -13 15 -20 -12 22 -14 -22 -26 3 31 1 -4 -3
-3 0 -2 2 -2 1 -1 -1 -3 0 -1 -1 1 1 1 0 1 1 0 1 -2 0 -1 0 -1 -1 1 -1 -2 1 0 0 -1 1 0 -1 2 -1 0 1 0 1 0 -1 -1 -1 1 0 -1 -1 0 0 -1 0 0 1 -2 -1 -1 0 -2 -3 -2 -2 0 -2 2 0 1 -2 1 -2 1 -1 -1 -1 0 -1 -3 0 -1 -3 1 -2 -1 -3 -1 -2 1 0 0 -1 1 2 -1 -1 -2 -1 -1 -2 -1 -1 1 -1 -1 0 0 0 -3 -2 1 1 -2 2 0 -2 -2 -2 1 0 -1 -2 0 -2 0 -2 -2 1 -2 0 -2 -1 -2 2 -2 0 -1 1 -2 -1 -2 0 1 -3 1 0 -3 -1 -1 -3 -1 -2 2 -2 0 1 0 0 1 0 -1 -1 -2 -1 -2 -1 -3 -2 -1 1 -1 0 0 -2 -1 -1 0 1 -1 -2 0 -2 1 0 -1 1 -1 0 -3 2 1 -1 1 -2 1 -2 -1 0 -1 1 0 0 -2 0 -3 -1 -1 -2 1 1 -1 -1 1 -1 1 -1 -1 0 -1 1 -1 1 2 -1 1 -1 1 0 -1 -1 1 -1 -3 -2 1 0 0 0 0 -1 -2 0 2 1 -1 -1 -2 0 0 -1 -3 -1 0 0 -2 0
3 -6 -7 -7 3 -7 -25 -11 -74 1 -17 0 -17 -12 -4 -21 -2 -7 -19 8 -9 -7 -31 -17 2 -5 -13 10 -25 -2 0 13 4 -6 0 -38 1 -4 -5 -7 -10 -32 -37 -8 -19 -8 1 6 -11 -5 -11 14 4 -45 0 1 -5 3 -4 -2 -3 -35 5 5 10 1 0 -5 -4 -21 -11 2 -2 14 3 -2 -4 1 -36 0 -5 -20 -21 -43 8 -3 -2 1 -20 -8 7 4 -2 -21 -5 -8 4 -5 11 -14 -8 1 3 -5 1 -29 -26 -1 -16 10 2 -33 -13 0 -18 -13 20 -4 1 -14 -13 -17 -10 -18 9 -4 -22 4 10 -17 -1 -7 2 14 2 -19 -6 1 -22 -6 -8 -17 -4 -14 -13 3 -55 -20 -13 -24 -1 -44 -6 -14 -5 16 -22 -15 -17 -12 -16 -8 -10 -20 -40 4 2 -15 -19 -25 2 14 -4 -24 -3 -14 -13 6 -10 7 -1 14 -8 11 -16 -2 -6 -20 13 -8 -4 -8 -22 -22 -12 -39 -26 -27 13 -12 -3 -11 1 1 11 -23 -12 -16 -2 5 -20 -18 -31 -3 -4 -18 -12 -7 -13 -3 -8 -5 -1 -9 -6 -2 -1 12 -22 0 -2 2 -30 3 9 1 -6 15 9 -4 -14 2 -3 15 -8 -17 -10 -15 -5 -12 -10 -8 -3 -7 -19 -27
5 12 4 -7 -8 6 17 3 7 1 13 1 -13 15 23 -46 -16 10 -31 21 -5 -6 -19 -20 8 -7 -32 1 -1 -4 5 -7 3 -38 -21 -6 -11 2 -10 11 5 -6 1 23 6 -23 -1 -9 3 -8 9 5 17 12 3 22 -2 17 0 -48 -5 -14 12 -22 0 -16 -54 13 4 25 1 10 13 1 13 16 18 -42 11 -29 6 -7 -15 0 -11 -6 -16 2 -26 20 1 7 -42 -1 -20 2 5 -34 17 21 2 -23 -21 -16 -7 0 -7 13 -77 -4 -15 3 -11 -5 -1 4 10 24 5 -12 19 10 0 9 13 13 22 -16 27 0 4 -19 -10 -5 13 2 -35 5 -6 -6 -5 -12 -1 -8 -1 5 1 2 1 -3 -3 -5 0 14 -19 -13 -1 -18 7 -1 -10 -29 25 -28 -8 3 2 11 5 -2 -22 -10 21 22 4 0 0 4 -4 -6 24 5 4 3 2 -10 -17 -31 -1 -19 -14 5 9 -23 4 9 -4 3 -14 19 2 0 26 -5 -20 -4 -7 7 13 -5 -12 9 -2 -4 13 4 -17 -3 -15 -5 6 -22 -8 15 5 -36 -39 -17 -11 4 -12 -23 -49 0 -4 2 -35 17 12 4 -29 -7 19 9 -45 -10 -16 6 -11 17 -47 -5 -12 8 9 -13
-12 -6 -13 2 1 -7 -9 0 -4 -2 -3 -6 -2 1 -2 -4 -1 -2 -3 -3 -6 0 -5 0 -4 0 -3 3 -3 -4 3 3 -11 -4 1 -2 4 1 -12 -2 2 4 2 -2 -2 -4 -7 1 -4 -4 -9 -1 -1 -6 -2 -2 -1 -1 -3 -3 -2 -10 4 3 4 0 -1 -4 -1 -5 -2 -2 -3 2 -15 0 5 -11 -2 1 -1 -1 -8 0 -1 -1 3 0 -5 -5 1 -2 -7 -1 -4 -3 1 -6 -4 1 -7 -1 -1 -1 -3 1 -4 -2 -2 -8 0 -4 -4 -5 -7 -1 -7 -2 2 -4 0 -4 -2 -14 0 1 -3 -1 -3 -5 1 -6 -1 0 -6 -1 -3 2 3 1 -1 0 4 -3 -3 2 1 -2 0 0 3 -14 2 -4 -4 -1 -4 0 -11 -4 -9 0 -1 -9 -2 -1 -2 0 1 -8 -2 -3 -11 -3 4 3 3 0 0 2 -1 -3 -2 -10 -1 1 -1 -14 -3 -3 -4 -3 -1 -1 -3 1 -6 -5 -3 1 -1 -3 -4 0 2 -5 -4 -1 -3 -5 -6 -6 -2 -9 0 -6 -4 -3 -4 1 -19 3 -5 -7 1 -3 0 0 -4 -16 -8 2 -2 0 3 -3 -9 -4 -5 -10 -6 -3 -2 -7 -1 -1 -2 0 -3 -3 -9 3 1 -8 -1 4
-1 11 -11 10 -30 -29 0 6 -5 -28 -5 2 -2 6 25 10 11 -38 -18 14 -6 -6 -4 -50 -17 -7 -2 3 -2 1 0 -62 0 -4 -18 -10 -13 8 7 15 -21 -29 -1 -10 7 3 -18 -14 8 -14 -29 -18 -5 15 7 -22 13 -15 3 2 11 -1 -16 -15 -31 7 10 6 -20 -38 -1 1 -32 -9 8 -1 1 5 -21 -8 -6 -11 11 3 -16 -39 -13 -14 1 17 -65 11 8 12 -23 10 -17 -19 -7 21 -11 -41 4 -17 0 -43 -33 -9 -32 12 0 5 -2 12 -7 -10 3 2 -33 -33 -3 5 -4 6 -5 22 0 -18 -4 -14 -38 -12 -15 -13 2 8 -35 3 -27 21 -27 -33 -20 7 1 -13 9 10 4 -29 -5 -4 -16 10 5 15 -34 2 -10 -3 -6 -24 1 -19 -20 -26 0 13 -24 13 -14 -5 -35 8 -12 0 -5 15 5 1 -18 -19 -4 -19 14 10 -33 -19 2 21 9 -14 1 -5 1 5 -4 -7 2 -20 -39 -1 -9 -1 -7 -1 -18 -17 -4 -24 -3 -1 9 -9 -24 0 -19 -13 -9 -25 -22 -66 33 -7 -1 -3 -1 5 -29 18 -5 0 0 -17 11 2 1 1 -33 15 -33 -10 -11 -16 1 5 -7 4 5 -14 1 -49 -16 -34 20 -30
-2 12 -6 10 8 17 14 -8 -4 -10 12 8 -16 11 -16 -7 10 -24 33 2 -9 -42 -47 13 -5 -11 -17 1 -14 17 -13 -13 -53 7 -11 -12 -16 -16 9 4 1 15 -21 -43 -21 1 0 4 2 8 -25 -15 -28 3 -8 3 -10 -30 -14 -17 -2 5 -2 -32 -17 -22 23 7 -11 -17 -1 3 -9 -39 -12 1 -7 -22 -72 9 -4 -6 -4 -1 -4 -14 19 -28 -22 -23 17 -33 13 -5 -13 -1 -15 -7 9 -22 15 -3 -14 -26 8 6 -7 -25 -8 -4 5 13 -18 24 -5 -14 16 -6 -9 12 -21 -25 -7 -4 21 11 -9 15 9 -31 2 -44 -6 0 -2 15 1 -16 0 0 -6 -27 11 -14 -1 5 2 -19 8 -4 -4 14 8 -35 0 13 1 -9 11 -15 -35 5 1 12 -8 20 -28 -16 -27 -3 -23 5 -6 -13 -42 18 3 -4 -17 15 -19 6 7 3 -12 -14 7 -28 -29 -8 3 -10 2 -15 -14 -20 8 2 -51 3 -48 -3 -13 2 4 2 -24 -24 0 -25 9 20 -12 8 -22 0 16 -11 14 8 -31 -16 19 -1 4 8 -3 -5 6 2 5 -5 0 17 36 -15 -31 -21 11 0 -26 -17 -24 2 -1 8 -42 13 1 2 -3 -24 1 -16 8 -10
-4 2 -4 -12 20 -3 19 -5 8 39 30 21 4 -2 23 -1 -23 -6 -22 20 -15 -18 0 11 -5 7 -5 -50 -15 23 -16 11 14 0 19 -9 -6 -1 -9 2 -4 -51 11 6 32 -2 -1 -11 8 -3 -22 25 -18 -14 -20 -1 -8 12 -26 -2 -9 -14 -17 -17 1 18 -22 4 -4 -11 -13 -48 13 6 -33 10 1 3 9 -7 9 1 9 -4 8 7 -38 33 0 -34 -6 -8 -5 16 10 -37 -7 11 -20 -9 0 4 12 8 19 -7 7 -3 -37 -9 12 7 9 5 7 7 -1 12 -13 -16 1 -21 -9 -4 -15 -4 -2 -3 11 -27 -23 6 3 -18 -19 4 -23 10 -14 -8 9 -17 -9 -17 16 -20 -9 3 17 -4 -8 -38 -1 -12 7 -5 -1 10 14 -3 -8 11 -6 6 -14 26 -9 -13 -26 19 -5 3 -31 -1 8 -8 12 11 17 21 18 -2 5 -23 -26 2 -13 -5 -3 -5 6 -5 -13 1 -15 -30 -30 2 5 -27 -3 19 9 -23 11 3 12 -15 -6 -3 1 -31 -29 17 16 -8 -6 12 -4 14 -14 -15 9 15 6 -47 -25 4 -17 -3 1 -4 -16 -19 -22 -12 6 -44 3 -2 -15 -10 17 -24 10 -6 20 -54 -27 1 -20 -3 -8 -2 -24 -7
-2 -16 -4 4 11 5 -11 -1 -4 -44 14 -5 -23 27 24 -12 -30 2 0 1 -2 -3 -18 -14 -14 15 2 15 -18 17 -4 -1 19 0 -47 13 -8 -8 -10 -22 -4 0 -26 -17 -19 -8 26 -14 -3 22 -22 -7 8 11 9 -14 -4 27 -19 -56 -2 -56 -30 -24 15 7 -28 -1 -1 -41 -4 -27 -6 -7 13 -8 -31 -30 -23 -6 -25 -87 16 7 -3 -40 -37 -10 2 7 -9 -15 -20 -6 -14 -37 0 -26 -3 -12 16 13 -58 10 8 3 -13 -1 -24 9 5 -3 -6 -26 15 -6 -20 -43 9 -8 -13 -12 5 4 34 -43 -43 24 -1 7 -14 -13 -10 -4 -20 -8 -12 -36 -28 -12 -21 1 10 -12 6 -6 -7 -13 -21 -5 -5 3 5 16 -19 7 -12 -16 4 -18 8 -4 5 -19 0 7 -25 26 -1 -20 2 -21 6 -19 -4 4 2 -32 21 -47 -29 1 -36 -9 -11 0 2 1 -12 34 13 -21 -36 6 38 -1 10 -25 -8 5 5 -48 19 -6 -25 -36 -24 5 21 -40 -32 -12 -8 15 6 15 25 3 4 -1 -2 0 -25 -2 20 0 -28 3 3 10 5 -19 -36 3 27 15 12 6 -1 -2 11 -22 -18 -1 8 -7 17 -3 1 -47 -45 -11 -2 -5 -23 1
13 8 12 16 6 -4 1 17 4 3 -5 -2 -13 -6 13 -1 -5 4 3 16 -8 -23 -9 -4 -5 -15 -5 8 -2 -3 13 3 2 2 -10 1 -20 -18 -10 2 -7 6 6 4 -24 -11 -18 -8 13 -4 3 -8 8 -4 -12 6 0 -2 13 2 -2 -16 -2 5 -8 -1 11 -1 5 -53 -14 -8 -7 -12 6 8 18 -9 -12 -7 -4 -24 -7 2 -12 2 6 10 -1 0 5 -12 2 7 2 3 5 -7 -4 3 -5 -3 -10 2 -11 2 4 -14 3 -6 2 -1 -2 -8 -5 -4 6 -10 -11 7 2 1 -18 -13 2 7 -12 -5 -2 0 4 5 21 -3 -8 -3 1 -43 -3 -6 21 9 -41 6 -8 7 1 -27 -5 5 -1 0 -12 -4 -16 -19 -6 5 -12 5 2 -3 0 11 27 -10 16 7 -4 -34 8 -10 5 13 -16 -45 7 6 12 -1 3 -15 -9 0 9 2 -5 3 -20 -9 1 5 -5 4 -34 9 3 -19 -11 4 6 13 -3 -19 -8 -4 2 -6 5 -7 4 -1 2 -3 0 -1 -4 13 9 6 13 11 23 3 -53 4 21 3 -2 -1 -6 2 -13 10 -43 7 -13 -39 -10 -26 -69 2 0 -2 -9 -43 -15 4 6 -11 -10 26 -10 -16 12 -11
-14 -6 2 -6 1 9 10 31 -1 -20 -25 -16 -26 -9 -21 -14 -39 -4 -3 24 -9 -21 6 -8 4 16 3 17 -11 -18 -47 10 9 -6 -44 -2 -17 -11 1 8 17 -12 4 -9 18 -1 -1 -40 -10 -18 22 19 -9 8 -9 31 -19 1 -4 10 11 -3 -15 -9 -14 -14 -14 -3 12 14 -4 13 -3 -23 -5 -11 -70 17 3 -7 -44 -2 -15 -13 -13 -53 -49 1 -9 8 6 -42 -12 -8 -27 -22 6 -24 -30 1 8 -14 -12 -19 -26 0 -17 -23 -33 -18 -1 -8 -13 -3 0 -17 19 17 -26 -30 -3 0 -8 19 10 -13 -7 -7 -9 -1 -17 14 -3 -2 18 -8 -16 -24 -21 -11 -30 -40 -4 -3 -5 -12 4 4 -21 -6 2 -3 3 -3 -12 18 6 -15 -26 31 13 -15 -12 5 -67 4 3 -26 32 5 4 -11 -45 -6 -6 8 -13 0 -3 23 18 -18 -48 -11 -3 -5 -48 -37 -47 18 14 -8 32 -7 -2 -1 19 -10 -9 -9 7 -23 -2 -19 13 -6 -25 1 -27 12 2 -42 -16 -7 -3 8 -9 1 -17 -8 26 13 -23 -12 15 -7 1 -37 3 2 17 11 13 -34 -9 -10 15 0 -24 -8 -28 10 12 -9 -15 -3 37 6 15 -23 -13 -17 8 -16 -13 -6
1 0 0 1 0 -3 0 -1 -2 0 -1 0 -1 0 1 1 1 -1 -2 0 -1 -2 -1 0 -1 0 0 -1 -3 -2 -2 0 1 -1 1 1 1 1 1 0 -1 -1 0 -2 1 -1 1 1 -1 2 -1 -4 -2 -2 -2 0 1 1 0 -2 0 0 -1 -1 2 0 1 -2 -1 0 -1 -1 -2 0 -2 0 -1 1 -3 0 -2 -3 1 -1 -1 -2 -1 -2 -1 0 0 -1 -2 -1 0 0 0 -2 -2 -1 1 0 1 1 -2 0 -1 -1 -2 -2 -2 -2 -2 -1 -3 0 0 -2 -1 -2 0 -1 -1 -1 -1 -1 0 -1 0 -3 0 -1 0 1 -1 -2 0 1 -2 1 -2 -1 -1 -2 0 -1 -2 -2 -2 -2 1 0 0 1 -1 1 0 1 0 1 2 -1 1 1 -1 1 0 -2 -2 0 0 1 -1 -2 -2 -1 -1 -1 -2 -1 1 0 0 1 -1 0 -2 0 -2 1 1 0 -3 0 -2 0 -1 -2 1 0 0 -2 -2 0 -2 1 1 0 0 -1 0 -1 1 0 -2 -1 -2 -1 -2 0 -3 -1 0 -2 -1 0 -1 -2 -1 1 -2 -1 0 -1 0 1 -1 0 1 -2 -1 -2 1 -2 -2 -1 -1 1 -2 1 -2 1 2 -1 -2 0
-1 8 0 -3 18 -29 -4 -2 24 1 -2 14 2 3 11 -25 -19 -6 -1 0 -11 -1 1 18 -8 -2 -2 -1 11 -1 14 -9 10 -21 -15 4 -12 8 0 22 22 11 2 7 3 -30 -13 9 27 21 -13 0 -29 -3 1 -13 30 -24 -5 -5 -5 -21 -4 11 8 -25 -8 -23 10 -16 8 0 13 -6 -26 -18 -14 -23 -13 -9 8 1 -4 8 -10 13 -8 12 -14 -8 -14 16 -16 -12 10 -7 8 28 -1 9 16 6 16 -9 -6 7 -16 -1 -89 -1 -10 -15 -13 -3 -4 14 14 -15 13 6 13 12 -12 -1 -7 -8 -1 8 -7 11 5 -14 14 0 -16 -13 -41 -10 -3 -4 -17 9 -6 0 -13 6 0 2 -9 -2 9 -2 12 -19 -22 -10 -1 -2 4 17 23 -6 -1 7 -8 21 -13 11 1 -4 1 -20 -27 9 -6 15 5 2 -10 -20 1 8 -17 15 7 -5 16 2 -7 36 -12 -32 3 -21 21 5 20 8 9 1 -23 -14 -19 4 5 1 4 3 -10 -1 -1 -2 -2 -1 35 -4 -14 -2 3 -4 -16 -3 -8 -9 0 7 2 -23 7 17 2 -12 4 -19 -1 8 7 32 -30 17 0 -7 13 -8 2 2 1 -11 0 2 -82 1 -26 -27 -12 5
-14 -10 -11 4 2 -13 -15 -6 10 15 15 -26 7 7 4 15 4 -4 3 -13 5 -9 8 -15 4 -11 5 3 18 11 10 21 -19 -21 -12 -9 -3 -30 -1 -17 -26 17 -13 24 -6 -6 5 0 14 10 22 2 -7 -4 -3 0 22 -19 18 -4 -1 2 -15 -19 11 -7 -5 1 15 -33 -28 -15 16 17 3 -16 1 -23 -44 9 13 -9 13 -17 -6 6 12 -7 0 3 4 -1 24 -11 3 4 -18 4 14 -40 -2 -9 15 -26 -31 18 -18 -14 -12 2 -17 2 -4 -1 -6 1 24 17 8 6 -20 -22 -27 9 17 -8 -3 15 -3 -16 10 13 -15 -5 -6 6 -3 10 2 9 13 -2 20 0 -19 5 10 2 1 7 -22 15 3 -29 -38 -29 -17 11 -18 -5 4 21 -7 -4 6 10 1 -7 4 -3 4 4 16 -37 15 -17 -32 3 -10 -12 4 -4 1 18 4 -1 -27 -12 -31 -13 4 1 -22 10 -15 -23 -7 -1 -11 -7 -9 -22 -3 -8 1 3 -5 6 0 13 -27 3 16 -2 13 23 -3 12 -10 2 7 -6 -3 -1 -7 -28 -9 26 -5 2 -13 -7 6 -7 19 -3 -5 -12 9 -17 -29 -8 -5 -1 -6 -20 -6 14 -4 9 11 -6 0 9 -25 -11
-2 -5 7 -3 1 -1 3 -5 -2 0 -3 5 0 -3 -2 3 -2 -9 1 -12 -3 -12 0 0 -9 -12 1 -18 -5 -10 -2 6 -4 -5 -7 6 4 0 -4 -8 -2 -12 -3 0 -5 5 -12 -18 -3 -1 -5 -6 -6 -21 -15 -7 -7 1 -8 -1 -2 2 -21 -2 -2 -4 9 7 -5 -13 -5 -8 -5 0 1 -6 -2 -2 3 -18 -8 -4 -12 -18 -1 4 8 11 -5 -5 -12 8 -17 0 3 10 -8 2 -10 -12 -2 -6 -3 5 5 -11 -7 0 -13 6 12 -15 -11 -17 -4 -3 -7 -10 -6 3 -15 -8 -7 4 4 -10 -2 1 1 -6 -4 -2 0 -10 -8 6 -2 2 -15 -1 -4 -2 -9 2 0 10 4 -3 -9 -7 0 -3 1 -3 4 -4 -7 1 1 -5 -4 -10 -2 -8 -6 -6 -1 -1 -2 -4 -1 -18 -6 -8 -7 -4 -4 0 -2 6 2 -4 0 -13 -11 -4 -3 -13 1 -9 -8 -13 -3 -2 -13 -1 2 -9 -19 -1 -12 2 -2 0 -9 1 -1 -10 6 -3 -4 -12 0 -7 -11 -2 -7 -5 4 -17 2 2 5 -21 1 1 -12 -3 4 -5 -4 -11 -10 -5 0 -2 -1 -11 -13 -14 -1 -1 -16 -6 -7 2 1 0 1 0 -5 -9 -4 -9 5 -18
-35 6 -30 -17 6 6 -14 -4 9 16 -5 -1 11 -36 -17 -37 12 -3 -13 15 -3 -20 1 10 -4 5 23 -7 -23 15 -3 -20 -17 7 -10 -6 -25 2 20 11 -8 -8 12 19 -1 6 7 -4 7 1 -23 -27 -2 -3 6 15 -13 -5 12 -19 6 22 -39 -16 6 -15 -1 16 -8 -7 3 6 -22 25 -2 -33 -33 10 -7 6 14 -22 -32 13 8 -8 -2 -13 1 9 -12 -14 -16 3 -8 19 3 16 1 -8 -28 -20 -13 11 2 3 7 -22 -13 -3 -3 20 32 -24 -22 4 17 13 -34 15 -7 -22 4 -9 2 -5 -4 0 11 10 15 -3 -5 3 -17 -1 -15 8 -18 25 1 -8 -3 10 7 -23 -6 -12 1 1 -24 -21 0 -21 10 -22 7 -17 12 13 -7 45 6 27 -13 -1 8 6 17 10 -6 0 -3 5 13 11 -17 16 5 12 5 0 9 -12 20 6 0 -9 9 -6 5 -8 1 1 28 32 5 -10 -12 -5 11 4 17 -7 8 -19 -29 1 2 13 19 -1 -7 17 -57 -12 0 -12 -14 -12 -29 4 -8 -15 1 -9 -10 -17 -13 4 11 -17 -7 -5 -9 -7 19 1 -11 -2 -21 10 -4 -11 -8 -10 10 -13 -9 1 -14 2 -15 -10 -18 3
-13 -1 -3 6 6 -65 -37 8 21 3 -3 -3 4 -3 -7 -51 2 8 -9 -32 -6 15 -18 16 -29 8 -12 -20 5 9 7 2 -56 -1 -19 -16 0 10 -8 -17 -22 -14 -26 12 -11 -5 0 5 -11 -20 -28 -25 14 -9 -11 -13 6 -1 0 -28 -7 -2 8 6 -10 2 2 -2 23 -65 7 3 3 7 -1 5 -9 1 -2 -4 0 -7 -3 11 0 -6 4 -26 -2 16 7 -12 -12 2 9 12 -5 -12 9 -5 -4 4 -6 2 6 6 -19 -34 -15 -10 -18 -8 8 3 -12 18 18 10 -28 10 -6 -5 33 -1 -12 3 9 -14 11 7 -18 0 -7 -18 11 21 -54 -3 -4 2 11 2 -11 -18 9 6 -7 -7 -1 -20 4 -14 3 6 -5 0 0 -19 -4 23 -4 3 1 10 18 -10 2 12 -44 -7 13 -3 7 -14 7 -26 -7 -2 -3 -8 -40 -19 -5 -1 -16 -15 3 -8 -17 -21 -16 3 -7 3 -32 10 -31 -13 11 -10 11 -15 -6 -6 -24 -13 -40 -41 1 -19 1 -4 8 7 -5 -2 -27 -28 -16 -1 -26 6 6 -39 -1 -3 -8 -1 -9 -27 2 -25 7 -9 0 -12 1 0 -4 -8 -55 -7 12 -5 6 10 -12 -11 19 0 -4 -20 -6 10 12 7
17 -37 -24 7 -27 -19 -21 9 -1 -17 -12 10 -6 -2 -7 17 12 22 6 -18 -7 -5 5 2 18 -49 13 11 16 3 -3 7 -19 -13 22 16 4 -19 -21 -28 14 -26 -4 0 -17 6 -20 3 19 -3 -11 -10 -6 -12 6 2 4 -11 4 7 -7 1 3 15 -13 2 29 12 -9 -128 8 2 -6 6 19 -35 -6 -27 -96 -7 11 12 -13 -39 0 -22 17 -33 0 11 -5 -23 -13 -40 20 -14 -3 -9 12 -31 2 3 9 -18 -13 16 2 4 -14 -14 5 3 0 -14 2 -8 -14 20 1 -5 1 -2 -12 -31 4 -2 10 19 19 12 -15 8 -22 -17 -4 -30 -56 12 1 5 -67 4 2 3 -2 0 7 28 6 -12 -1 26 -3 -44 -23 -2 8 14 3 -7 2 -7 -16 20 -18 -11 10 -7 27 -14 8 1 12 -25 -21 13 19 -5 12 0 -19 11 -21 -20 -4 -5 6 -33 -43 6 -44 -2 10 -23 -3 -24 -11 -17 -4 -16 -43 -46 -19 -18 -18 -36 7 -9 -7 -2 2 -16 7 -4 -13 1 7 -18 -24 -43 -25 9 -4 -41 -1 4 13 38 9 -5 -16 -14 3 -15 -13 15 -25 -4 -13 7 -53 -18 2 -4 -6 -23 -19 10 -3 -60 24 -20 -54 4 12 -33
8 -22 3 5 -5 -2 1 -1 2 27 7 28 8 23 27 -8 13 5 -14 14 8 -3 -10 0 13 -12 21 23 13 16 2 0 -9 -16 4 -8 -6 11 3 -23 8 -2 -9 7 -7 1 -11 0 3 19 -1 0 6 -11 -6 -18 -10 -10 14 15 -7 -11 5 0 4 7 5 11 -1 -1 9 16 -7 11 13 4 -16 -10 -35 1 -2 -7 -34 -31 20 -5 11 3 8 8 18 -6 24 14 -13 -6 12 36 21 18 9 22 15 -7 -9 23 -6 5 -55 6 2 3 20 4 -1 4 -4 15 -3 4 -4 -3 3 -12 4 -12 -13 29 2 7 -6 0 12 11 -39 15 -54 10 4 7 -43 1 2 -3 -20 7 1 20 11 2 -2 -14 24 -3 -4 21 -29 13 -22 -6 7 -10 -7 21 -15 -20 0 -24 4 6 -16 8 -49 -36 -12 -13 4 5 8 -14 9 -6 0 9 -1 -8 4 -5 -21 8 5 -2 -3 -2 2 -4 -2 -2 -19 9 -24 3 8 22 -6 -17 27 -5 -9 -13 -5 -2 9 -3 -8 -12 5 -2 8 3 14 -2 -1 -16 8 2 15 17 3 4 -27 22 -4 22 17 6 -10 1 -7 -25 -28 -18 -3 8 4 4 -16 -6 -8 -8 -27 9 -74 3 0 5
3 6 -11 10 26 -22 7 -15 4 8 -13 -33 -18 6 14 14 -11 -11 0 -5 -5 -13 14 -5 8 5 8 -45 5 2 6 -14 10 -4 34 -1 -14 4 -3 5 -12 5 3 -2 -10 -12 11 -13 -10 -23 4 -8 11 8 -37 -6 3 3 4 -5 1 -1 -4 17 2 2 2 -16 -38 -39 10 -24 21 -3 5 -2 8 20 -30 -1 13 -35 7 3 9 0 10 4 -20 -22 -11 -11 -5 12 -13 7 23 14 4 -9 6 7 29 10 -22 -3 3 4 -28 -1 -1 3 22 -4 7 -20 -29 -66 -6 -22 8 -11 6 8 -11 -5 -33 1 1 -1 2 -41 11 -13 -18 2 -15 -8 -6 3 -5 13 13 9 20 -1 4 2 7 -18 13 -13 -20 5 -16 10 -3 -8 9 -5 -14 -2 0 14 -11 10 -1 5 -55 -5 -2 17 7 -16 17 -2 4 -38 20 -18 -3 -1 12 -7 20 -16 16 -12 -1 -7 20 8 -10 9 -9 -12 2 3 17 6 -33 -20 3 2 -26 10 11 -18 3 5 -3 8 -6 -13 -6 8 -1 3 16 24 -19 7 -12 -24 -8 9 -10 22 16 20 -1 24 11 -25 -5 -3 -35 -11 4 -43 -16 -13 -21 6 -16 -14 -10 9 6 3 -13 -24 19 3 10 -30
-6 -33 10 -15 13 -14 12 9 9 -13 -9 -26 -17 -25 4 -7 -28 16 13 -16 -7 -16 -2 -8 -18 -14 -1 -11 -15 -21 -23 -12 8 3 -67 -8 -10 -20 -15 16 12 1 -4 -6 -8 4 8 -19 -18 -5 0 -11 -4 0 -1 -9 -4 -8 -3 -6 2 -4 7 8 -21 -1 -27 -29 3 1 -11 8 -5 -23 13 -3 -103 2 -1 20 6 -6 2 14 11 -6 -13 0 -3 10 -9 -25 -6 15 -5 4 -1 -16 -39 -43 2 6 -7 -5 14 2 6 2 -85 -12 1 4 -10 4 16 -9 11 -31 14 13 -1 -27 -4 -39 4 -4 -9 -4 -8 -3 14 -18 -15 -11 9 11 3 -30 9 -21 17 -8 -3 -1 4 -13 1 -21 6 4 -17 -4 -8 -7 6 -38 -13 -2 -13 17 -15 19 3 -12 5 5 -3 -16 11 -16 4 8 -10 -4 -7 -4 -7 -31 2 -13 7 13 -4 -5 0 1 -32 4 8 -40 -22 -8 -14 -4 -2 10 6 -6 21 -24 7 13 6 -6 -5 -8 16 -7 -19 19 10 2 12 11 -38 -18 -24 -3 -14 -8 2 12 0 2 18 1 4 -25 -3 -2 10 -4 -5 -12 -30 -2 -6 12 -19 11 -14 9 20 20 -10 -25 -40 -15 5 2 -99 2 -12 -26 -12 -6
4 10 -20 -6 -7 -19 -23 14 2 -4 -24 -2 -6 -8 -22 6 -4 1 -12 -1 -8 2 -8 -5 -1 -23 -44 -2 0 -3 -13 -11 -3 4 8 -19 29 -19 -5 -40 -7 -12 -3 -19 -2 -7 -4 1 26 -7 6 4 -9 6 -24 -4 -21 -6 5 -6 17 -16 2 -8 -22 2 5 -5 -5 -55 0 0 -31 -17 -20 -7 13 -1 -76 -14 -31 -15 -4 -2 -15 -6 -5 -10 -5 -9 -4 -32 7 -4 -1 8 3 -20 -3 -6 -15 -13 -24 -23 -37 -2 1 -7 -3 -14 16 -8 -7 -17 2 4 -1 -19 -9 7 -18 -10 0 -19 -9 -4 -28 -4 6 -4 4 -14 -22 -11 -23 -10 -15 -2 -17 8 -13 -23 25 -2 -3 0 -20 3 -5 -12 -7 -6 -19 -25 -2 -7 13 4 -16 -2 4 0 -21 -4 7 -23 9 -4 15 -6 -34 20 4 -26 -12 -2 -5 -17 -28 -2 -13 4 -2 -2 -14 -2 3 -3 -18 -4 -19 -9 0 -16 -8 -7 -2 -6 -5 -1 -27 -9 0 -23 -12 -7 -10 -18 13 10 -1 -11 2 -1 -43 -13 -6 -2 10 -12 -18 -7 18 -11 -8 -8 -10 -4 -24 -21 -11 6 22 17 -3 -3 -5 -2 -5 -26 -59 -12 -12 14 -8 -15 4 9 -7 -13 24 -6 -13 14 13 -19
-1 1 2 -1 0 -1 -1 -1 -2 -2 -1 1 1 -1 -3 1 0 0 0 0 -2 1 -2 -2 -2 -1 -1 -2 -1 -2 -3 -1 -1 -2 1 0 -3 1 0 -2 -1 -3 0 1 2 0 -1 -2 0 0 -2 0 -1 -1 0 0 -1 1 -1 -1 0 -1 0 -1 1 -2 -1 -3 -1 0 1 -2 0 -2 -2 -2 -2 -1 -3 0 1 -1 1 0 -1 -2 -1 1 0 -1 0 1 -1 1 -2 -2 1 0 1 -1 1 -1 -1 0 -2 1 -2 0 -1 1 1 -1 0 -2 -2 -2 -1 -1 0 1 -1 -2 -2 -2 -2 0 2 -1 -2 -1 -2 -3 1 -3 0 0 0 -2 -2 -1 -1 -2 -1 -2 0 -1 -1 -1 0 0 1 0 1 -2 0 0 -3 -2 -1 1 2 0 2 1 -1 -1 1 0 -1 1 -1 -1 -1 0 0 0 -2 1 -1 -1 1 1 -1 -2 -2 -1 -2 0 -1 -1 -1 -1 -2 -1 1 -2 0 -1 -1 2 -3 -1 0 -1 0 -2 -1 -2 0 -2 0 -1 -1 -2 1 -1 -1 0 0 1 0 1 1 0 0 -1 1 0 -1 -2 -2 -1 -1 1 -2 -1 0 0 0 -2 -1 1 1 0 -1 1 0 -2 1 0 1 -2 -1 -1 -2 0
-17 1 13 10 10 12 6 -7 -24 -1 8 -8 -4 12 -8 -29 -3 -12 5 7 3 -4 -3 5 -4 -87 -5 16 7 11 17 -12 1 13 -67 0 -6 19 -2 -13 -7 -8 -2 7 13 11 -11 1 -8 1 0 3 -2 -19 -16 1 13 -11 19 23 3 -7 0 -6 9 21 9 4 8 -34 -6 13 3 11 -6 -3 13 2 7 16 15 -8 9 -18 -11 -12 -17 -8 -4 6 -19 0 26 -5 0 20 1 8 -35 -2 -11 -9 3 6 3 5 -23 0 -20 -16 -25 -5 -6 -5 -7 0 7 -27 6 -1 -2 2 7 -19 -2 -6 -5 12 -37 -6 3 -5 2 17 -45 -3 -18 -1 -13 -8 -74 9 -1 -17 -5 10 -12 -9 19 18 -1 11 -11 -19 -8 -11 -12 14 -4 1 -9 3 -3 -10 -21 -2 -7 2 4 -12 -3 -5 2 7 8 2 3 12 -6 -25 -9 -2 12 8 -6 -2 5 -1 -11 13 -4 -6 -5 -9 -4 16 1 -5 -10 2 -12 12 12 4 0 -6 15 1 5 11 4 16 10 -14 10 2 7 -14 16 4 10 4 4 -23 15 3 -7 -17 0 -22 -16 -7 -18 5 7 -3 5 -4 12 5 -15 19 19 -1 6 -12 9 -24 -11 3 -4 -12 6 -11 -32 12
0 0 0 2 1 -2 -1 -1 -2 -1 0 1 -1 -2 0 -2 -1 -1 -3 0 -3 -1 -1 1 -1 0 -2 2 -1 1 -4 0 0 1 1 -3 -4 -1 1 -1 -1 1 -2 0 -3 0 0 0 -2 -2 -2 -2 -1 0 -2 -2 1 0 -1 0 1 -3 0 0 -1 2 1 0 0 -4 -1 -1 -1 -2 -1 -1 -2 0 -3 0 1 0 1 -1 1 0 -1 0 0 0 0 -2 0 -2 0 0 -1 0 0 -1 -3 0 -1 1 2 2 1 0 -2 -1 -1 0 -1 -3 -3 2 -3 -3 -1 -1 -1 -2 2 0 1 1 -1 0 -4 1 1 2 1 1 -1 1 0 -2 0 -1 -1 -1 -6 -3 -2 1 0 -4 -2 -2 -1 -1 -1 -1 -2 -1 -1 0 -1 0 -2 0 -2 -1 0 0 -1 -1 1 -2 -1 1 1 0 -1 1 -2 -2 -2 0 1 -2 -1 1 -2 -3 -2 -3 -3 0 1 -1 -2 -3 1 1 0 0 0 0 -1 -1 -1 1 -1 -2 -1 -1 0 2 -3 -1 -1 -2 -1 -2 -1 1 1 -1 -2 -2 -1 0 1 0 1 -2 0 1 0 -1 -2 1 1 1 -1 1 -2 0 -4 -2 -1 1 -2 1 1 -1 0 -2 -1 -2 -2 -1 -1 1
-24 -11 -51 10 1 -8 -6 -12 -25 -21 -11 -7 -9 -2 0 -2 15 -22 -3 -27 -1 -30 19 -16 11 -11 -6 32 18 11 8 -19 -5 -11 -5 12 5 4 13 -22 -12 -28 -27 3 -45 1 -12 -10 -30 -4 -15 17 -15 -7 -29 -2 24 -14 3 -41 -14 7 -7 22 -2 3 -61 -9 8 -92 -29 -5 -7 -1 -7 -29 18 -15 -80 2 -4 -12 -14 -7 -5 4 -6 -3 16 -9 -91 6 -20 -15 13 -24 -8 -22 -7 13 -11 -17 17 12 6 22 -1 -9 -9 -10 5 -9 24 4 -3 -11 -18 10 19 10 12 -8 -25 -10 -65 -7 9 8 -16 -7 4 -59 5 -10 5 8 1 19 3 8 2 -58 -21 -35 -12 -5 -27 -9 -8 10 10 -6 4 13 -33 -3 -14 3 -26 -32 13 4 -54 -21 -38 -11 0 -35 2 -36 -7 7 -5 -28 -18 -16 -3 14 -6 -6 -31 -3 9 17 -18 -8 -6 2 -8 -4 -11 6 -16 -8 23 10 19 2 8 -71 -49 -28 -45 -31 2 -2 3 -36 -52 18 -8 -18 -11 -7 6 -13 -29 4 -18 13 -27 -2 -3 -2 -14 12 11 14 5 -26 -17 2 -14 -6 -34 6 16 -14 5 -16 -31 -2 10 7 -5 -58 -37 -34 -18 -19 2 8 -33 6 3 2
2 -30 4 3 -35 5 6 13 5 -7 -2 -2 11 -2 -6 -12 -1 -9 -8 13 -35 1 -33 27 2 -5 -11 1 0 2 -1 -4 -8 -12 -39 11 -36 2 -7 -29 19 -1 -2 -9 -12 -8 -15 -32 1 -17 11 17 13 -13 -7 6 8 5 9 -1 -20 -31 -6 -18 2 -4 14 -5 1 -28 -1 -14 11 -5 -14 23 -24 -35 1 -18 -13 -42 -19 -13 -11 -9 -2 5 -4 15 22 16 -4 5 -6 -20 12 -6 -12 -8 18 4 -13 -34 -19 -8 -34 16 -32 -5 2 -6 5 -5 8 -26 4 -2 7 2 1 13 -2 10 -3 7 -9 -6 9 -7 19 9 -5 -12 -24 -9 -31 -20 0 -19 -4 -18 -6 -11 13 -28 11 -18 -10 0 30 1 -48 5 -27 10 -3 10 -40 9 3 5 4 1 0 -9 -12 -19 -20 -8 8 -4 -9 -4 -29 -19 0 18 26 -16 -4 5 4 -3 7 -11 8 -2 -6 3 5 -3 -17 5 -30 -7 3 -4 -9 -9 -8 -28 4 -21 -12 -3 -4 3 -13 -26 11 17 -16 -9 -10 1 7 -10 14 -49 -11 -43 14 -26 -15 -29 -10 -2 1 5 -19 -24 -60 -49 -21 13 1 -42 13 -25 6 4 -5 9 -12 10 -6 6 4 -78 -41 12 -48 -10 4 15
-3 -16 -6 -62 -11 -7 -11 -36 -18 1 -11 -6 2 -2 -10 14 11 -25 -33 -38 -4 11 -21 -8 -29 -29 10 1 7 -32 -21 -9 -3 7 -23 -15 -11 2 -22 -3 6 2 -22 16 -32 -19 -3 -6 -2 3 -8 1 0 -12 3 -4 -6 -13 3 3 8 -3 2 -12 3 1 4 -15 -25 -23 4 1 9 1 -43 -3 -4 8 -28 -3 9 -40 -21 -1 5 2 2 -7 -32 -33 -9 -30 -15 -1 -5 8 -9 -11 -33 -7 -6 2 -36 0 -35 -12 9 -7 -9 -6 13 -5 -27 -6 -43 -29 -10 -31 -7 0 -2 -12 5 -35 -1 5 -9 -6 -13 -8 -1 2 3 -12 -17 -11 -33 -1 -21 -1 21 1 -4 -6 -32 -25 2 -7 1 1 -1 -11 -18 9 0 -1 -6 4 -38 1 -12 -15 3 -6 -13 -1 2 -2 -11 -23 -17 -33 -17 -10 -22 -8 3 -4 6 3 2 21 -24 -4 5 -15 -4 -12 -21 7 6 7 -3 0 -7 -3 -12 -4 -12 -51 -15 -4 -28 9 -13 -14 -30 -22 6 -9 -6 -1 -3 -23 -13 -26 -3 -6 -6 -6 -10 -30 -1 -9 -4 -4 -16 -2 -6 -16 4 -37 0 -28 0 -13 -10 -8 -25 -2 -6 3 -5 -23 7 3 -1 -5 8 -2 -11 -9 6 6 -13 -6
-4 5 8 -2 -7 -2 9 -12 -10 -3 8 -8 -10 4 1 11 -2 -4 3 1 -10 -6 -10 -1 3 1 2 -9 -1 -8 -21 -4 6 -7 -11 0 0 0 -6 -28 2 -13 -1 -4 8 -9 0 -17 -11 6 -2 -4 -18 1 -1 -7 2 -15 -10 -6 -6 -16 -7 -21 -6 9 -6 -3 2 -4 -5 3 -5 -14 -19 2 -18 -2 -10 -8 7 -21 -19 -13 -20 -10 -4 2 15 -4 -6 1 -5 4 -2 6 -5 0 -4 1 -4 2 -6 8 6 -2 -12 -8 -8 -12 -14 -5 -8 -5 7 -4 -29 -8 -2 -19 -8 -19 10 -12 -12 -8 -2 -12 0 0 2 -16 -7 0 -15 0 -5 0 -3 6 -5 -1 -8 -5 0 -23 -21 -6 -1 1 -2 -5 7 -7 -10 5 -7 4 -2 0 -9 -16 1 7 -14 9 0 3 3 -2 1 7 -20 -24 16 10 -24 -6 -2 1 -2 -3 -3 2 -10 -1 -13 -4 -2 -6 -14 -12 -5 -3 2 -11 -14 -1 -3 -13 -9 -22 1 0 7 4 0 -3 -5 1 0 -5 -1 2 -7 14 -17 -2 5 -8 0 -5 1 -12 4 -1 -5 -4 -2 -8 -4 5 1 -11 -2 -3 3 10 -7 -1 -3 -12 3 -6 -6 -3 0 -6 -3 -8 -4 -1 1 -18 0 -13
-4 7 -21 -20 -3 14 2 11 4 -14 -21 -10 -1 3 -22 5 -3 -9 8 14 12 7 -17 -24 1 3 14 4 6 10 -4 5 -1 -7 -32 -29 -22 -37 -10 2 -29 -63 3 5 -2 -7 -37 18 7 2 -3 -16 9 2 -3 -13 4 6 -9 9 -1 14 11 -18 -15 -34 1 7 1 -44 -21 13 5 -52 1 6 -76 10 -18 11 2 -9 -2 -1 6 -13 -12 -7 3 7 0 1 -24 8 23 2 0 -50 1 -4 -17 16 6 3 -12 -15 5 -1 -27 7 -4 -4 -12 -1 -9 -2 5 20 -26 -12 -6 8 4 -24 -21 2 7 12 -7 -26 14 14 -7 -1 4 -14 -12 -16 -2 4 -24 -18 -28 -21 4 1 7 -2 4 11 13 8 4 3 -5 5 6 -9 4 -19 -17 2 2 -3 -17 3 -40 -26 -11 -24 2 -7 5 -11 9 -26 4 12 -24 2 -1 -10 12 7 -15 4 -9 2 -10 -6 3 -11 -58 4 -31 4 -1 1 -29 -6 -12 -4 8 0 -44 3 -6 -1 -17 -1 -1 -23 -16 3 -4 -12 -10 -10 -4 2 3 -13 -1 -7 14 3 3 -27 -6 -1 -5 -15 11 -22 -25 -5 -2 16 -6 -50 10 -14 -10 -2 0 -15 28 -2 -4 2 3 -7 -5 -18 -28 -8
0 0 1 0 0 -1 -2 -1 1 -1 0 1 -2 0 2 -1 -2 -2 1 0 -4 -1 0 1 -2 -5 -1 0 -4 -2 0 0 -2 0 -1 -1 0 3 3 -1 -1 -2 -1 1 -2 0 2 2 -2 1 1 2 -1 -2 -2 -2 -4 2 -5 1 -1 -2 1 -2 -1 -2 1 -2 0 0 -2 0 -1 -4 -6 1 0 2 -2 0 -1 -12 -1 1 1 -2 2 0 1 -2 0 0 -1 0 -1 -1 -1 -3 -2 -1 1 -1 1 0 2 -2 0 -2 -3 -7 -4 -2 -1 -2 -1 -4 -10 -3 0 0 2 -2 0 -2 -1 -1 1 -2 -3 -1 -1 1 0 -3 -1 0 0 1 -1 0 -1 3 -7 -7 -1 1 0 0 -1 -1 1 -5 -2 -3 -4 -1 -3 -1 0 2 -3 -1 -1 -2 -4 -2 0 1 1 1 -3 -3 -1 -2 -3 -1 -1 1 -1 -6 2 -1 0 0 0 1 1 1 -2 -1 0 -2 -4 -1 -1 2 0 0 -2 0 -3 -2 -1 1 0 1 -1 -1 -2 -2 1 -3 -4 -1 0 1 2 -5 -3 1 -3 -1 0 -3 0 -5 0 -3 0 0 2 1 -1 -2 -3 0 1 0 -1 -2 -3 0 -1 -1 -2 -2 -4 -1 -3 -2 -2 -2 -2 -2 -3 0
11 7 -38 16 16 -13 -5 -14 15 -5 12 8 -19 0 -25 12 8 -17 2 -27 17 -11 -30 13 0 10 21 -10 -5 8 -9 8 -29 4 31 -8 -18 -17 13 -2 4 -14 13 -4 -29 -11 12 -3 18 -15 25 -3 -13 -3 -22 8 -17 5 -10 11 15 3 -23 -7 -5 4 1 -6 16 -67 -8 -10 13 -25 -22 1 14 -19 -48 -14 10 -10 -7 -47 -12 -7 -13 -8 14 10 12 -1 10 -2 10 3 7 -13 -3 0 -61 11 11 -7 6 -9 19 -1 -16 1 -24 0 0 -12 -3 12 16 4 -23 20 -7 6 -2 15 -46 -11 -8 0 14 -31 5 -9 -14 11 -11 -17 -16 8 10 -13 -13 22 17 -13 4 11 11 13 18 -23 -23 17 -14 -3 21 21 -7 7 17 13 -10 -15 -7 -26 -12 -4 2 -11 23 1 -7 -19 -41 3 15 -8 -6 -11 -1 4 -4 17 8 7 -5 6 11 0 -9 -30 -3 17 25 0 -30 -3 -16 -7 -37 -20 -65 -19 10 0 -35 12 1 -4 -3 11 10 -4 -6 -9 -8 -15 21 17 13 7 7 14 12 -33 7 6 -23 -47 3 20 15 -22 15 -4 -16 -2 -9 -4 12 -21 -47 14 -9 3 -6 -34 1 -23 5 -13 -17 -34 1 -7 16 9
5 16 -10 14 -6 -12 -3 7 10 -14 8 1 6 -17 11 1 19 -15 3 6 4 -3 2 8 -24 17 3 -3 -7 -6 7 17 4 5 -42 0 -75 21 12 14 -5 -7 -47 1 -2 7 -2 7 11 6 -18 16 4 7 0 21 2 -6 -7 3 9 9 -71 -18 -7 11 14 -4 6 -42 7 6 2 -1 5 0 16 6 -61 7 -4 -60 -32 6 -15 -26 8 6 -6 9 11 4 -39 -24 -3 -2 0 -8 -5 -22 3 13 -6 -8 -2 -30 0 4 -15 9 4 2 -2 -3 -90 -9 -24 7 -35 5 -1 -4 -1 -51 5 -35 -21 -7 -10 4 0 2 8 -11 -20 -2 -47 7 -14 6 -23 3 0 4 2 -8 12 -10 -5 -8 19 -36 -23 2 -2 9 -29 9 3 5 8 -9 3 -1 4 15 9 -12 -1 0 -6 11 -18 -33 6 3 10 -13 4 17 -35 8 -7 -13 -1 -2 1 -15 -11 2 12 16 -6 15 0 10 0 -10 6 5 -23 -28 -22 2 -5 -2 4 12 9 12 15 -2 1 -1 -1 -1 -6 -13 6 -28 -3 17 2 -15 3 8 10 4 6 -4 6 18 23 -55 12 3 1 7 4 8 -36 24 9 0 7 4 -2 -1 0 1 22 -15 -93 8 -9 1
-9 -5 -5 0 -16 -14 -38 -6 18 7 -24 4 1 -7 -9 -27 1 -22 -13 10 16 8 -4 1 9 18 2 -16 -18 24 20 -20 -12 12 -30 -8 14 -7 -12 -1 4 -32 1 6 -18 1 -16 -11 3 0 0 -14 -13 -4 -10 4 24 10 -7 5 -9 22 -40 -15 -19 4 -18 -19 22 7 -13 -18 -2 8 3 20 11 -2 -12 10 -15 -3 16 1 -8 -10 16 3 2 14 -24 6 21 3 10 3 -18 -19 -13 16 -3 -1 0 -7 -8 -10 -12 0 3 21 1 -20 -6 19 -2 -7 -5 -5 -20 -30 12 -24 -11 17 -21 7 3 7 -1 -27 -16 6 -16 9 -1 11 11 -21 0 -2 -5 -15 7 2 7 -5 23 -16 8 -10 21 -4 3 -3 6 10 -8 -17 -4 0 7 -5 6 -2 -14 -1 -2 8 -10 1 3 -11 -25 -3 -11 12 9 7 -10 14 -11 28 14 -22 0 28 -7 -38 4 15 5 -2 -17 7 -18 1 -31 -39 11 0 -1 10 12 -10 4 -18 -4 -22 -2 -1 -18 -4 -17 13 -10 9 13 -12 19 -6 9 -34 6 25 -7 -1 -30 -12 9 14 -18 -11 -8 17 -2 1 -6 -11 12 9 -20 15 -6 -26 -23 -34 9 12 -11 -6 -35 6 -27 20 -12 -29
-22 5 -1 -7 3 -6 -14 -12 -27 -7 -30 35 -15 17 15 3 10 4 -7 12 -6 6 0 -6 -42 -4 2 9 18 -17 -1 11 -8 16 -1 -14 -4 19 -8 0 -13 -40 -4 -19 3 -17 -11 -1 -15 2 -10 7 -7 -5 -47 -6 -4 -17 0 5 1 16 -35 -25 1 -20 19 6 -13 -18 -25 -8 25 -8 -8 1 -47 1 3 4 6 -33 -10 11 9 -14 6 19 -18 -2 28 -7 0 -32 -22 24 -5 -3 -5 -12 -3 -6 17 -5 -18 13 -21 6 -50 -23 2 2 16 35 10 -27 -24 -22 15 -11 -50 14 -24 11 10 -18 -2 7 -8 -12 9 -10 -16 -21 -5 18 -8 31 -11 -28 8 -7 -21 3 5 6 -12 -4 -3 3 10 -13 13 -18 -8 -27 -3 3 -41 -15 -25 18 -10 -25 -38 24 -6 1 12 -3 -37 7 -27 1 21 -24 -17 27 -7 14 20 -1 -7 0 23 -8 -25 0 -14 -30 3 -1 5 -6 17 -27 16 -8 -6 23 -1 -31 3 -6 8 -32 -34 16 7 -9 -24 9 -1 -8 1 2 5 26 20 -19 -5 -17 7 17 2 -18 -16 -10 -8 -9 -5 -6 -6 -3 22 -19 -7 -22 -7 -10 -9 10 10 10 -15 -4 1 -19 -19 -37 -21 -9 -12 -15 4 -3
14 -23 8 -15 -11 -9 -12 -3 -13 3 6 32 10 5 -4 -6 -12 10 -2 -22 4 0 -2 5 -4 -12 -5 -21 -12 -13 -8 -16 -11 3 -11 -42 -1 -3 -12 -8 -7 -13 1 -17 -13 -1 -7 9 3 1 -3 -1 -12 -1 -21 -4 3 -12 20 -11 -7 -15 -8 -15 1 -10 3 4 -19 -32 -22 0 -13 -2 -12 -5 2 -38 -14 -14 2 -3 -22 -14 -9 -7 -10 -13 -32 -27 9 -6 -5 -11 9 7 9 -14 -12 -23 -17 -5 7 -10 -10 2 33 -12 -22 -15 1 8 -23 -19 5 -12 -9 -26 17 -5 -5 -23 -1 8 -28 -2 -17 11 11 -1 8 17 -3 -15 -15 -7 -6 6 11 17 11 6 -10 3 -11 16 3 1 20 -10 -5 3 -9 10 -9 -5 8 17 -19 8 -19 10 -13 -14 1 -17 -4 -9 21 -25 12 2 -10 -18 11 36 -4 25 -17 17 2 -17 -3 23 -13 -25 -18 -24 -20 -14 -22 -3 -17 -14 -4 -21 -3 -9 27 3 7 -41 8 -6 -12 -20 18 -2 -7 -4 -47 0 0 -19 -2 -35 -12 10 -5 -21 -19 7 -2 8 -2 -7 -9 25 -2 -10 -1 9 9 4 -13 -12 4 -11 -14 -7 -26 14 -6 -5 -9 -35 -23 15 -14 -4 -14 8 -3 4 -1 19
9 -2 -12 -11 -2 -41 15 -3 -28 1 -27 -23 0 -13 -18 16 7 6 -4 -3 -2 -7 2 -6 -3 -23 -3 -25 0 7 3 3 -5 -4 0 -17 1 -1 -9 -14 -18 -7 21 7 11 -4 -1 -6 1 -4 -8 -6 5 2 -3 -6 -17 -25 -9 12 -10 -20 6 -11 -13 4 -15 -14 26 -13 -14 2 16 -12 4 -31 -22 -12 -41 -25 -16 -35 -7 -26 -3 -23 19 -11 0 14 12 -6 -29 -11 11 -3 -27 -14 21 7 11 -20 -24 -31 -5 23 -2 -19 -9 -18 -14 23 -7 -13 -13 9 22 -8 22 -27 -12 -33 0 -22 5 5 14 9 1 -15 -7 -14 16 -5 -2 -15 -13 -13 4 -3 19 -26 -12 -4 13 -3 12 5 -2 -13 -2 20 -12 3 4 -12 4 7 -6 -26 -25 -12 -7 -32 0 -4 -9 -19 7 -23 2 15 -16 -17 -1 0 -15 5 -8 -1 -11 26 2 -8 1 5 -22 -1 -36 15 11 7 -18 -20 -14 -21 -19 0 20 -24 9 16 -4 -4 -7 7 2 -28 14 -12 12 -4 -6 3 -1 -15 -17 -5 3 -15 18 -9 -2 5 2 0 -4 10 -5 -1 2 -13 -37 -4 -6 6 -15 -24 -3 -13 -30 -10 -3 -16 -22 2 9 -7 -3 -22 -7 9 -6 0 11 -36
-3 6 -5 16 -27 -18 -10 -4 6 -35 -37 8 4 -7 3 -7 1 -9 -1 -12 -5 -15 -19 -26 8 16 16 -15 34 11 -1 -9 -17 7 -13 -48 -34 4 22 -3 -35 5 10 15 -26 -5 -6 -33 -6 -36 -24 13 17 -5 -8 18 47 -22 24 -24 -30 -5 -63 -21 27 -6 6 -3 23 -12 2 18 -2 -14 -4 -15 -43 -4 7 -6 -36 -17 12 7 -17 -13 22 14 -18 -35 -11 10 -1 -11 9 17 5 2 3 3 -15 -4 -7 -20 -16 9 23 15 -23 -1 3 9 12 -15 2 -11 9 -6 -11 11 -17 -5 -8 -9 -16 0 -53 4 0 15 29 -15 -37 -8 -44 -10 0 11 2 10 -28 -9 -13 -9 -5 1 -24 -56 0 -8 -18 -11 30 -4 -32 -39 0 5 -25 22 -8 4 -4 -13 -11 3 9 -7 12 15 4 6 -2 -13 -22 14 -2 -4 -7 -11 -4 17 -1 -2 8 -25 -17 0 -2 0 31 6 -36 2 -9 -8 32 -23 -13 -18 -21 -9 17 -7 -29 13 9 -22 0 25 -5 20 -24 7 -23 8 14 -3 -4 -15 -33 11 18 2 29 -9 29 16 4 -3 5 -6 -11 29 3 -3 4 -8 -16 14 -15 14 26 10 -3 -26 -4 -24 -22 -13 -13 -43 -3 7 -7 -2
3 -3 -8 18 -18 7 -9 1 -10 12 -1 5 -14 -15 -22 11 3 -13 -17 -2 -4 22 -41 12 16 -2 0 3 -10 -2 -8 -19 -31 6 -7 -1 -12 6 12 -13 -28 6 12 -14 -22 -16 6 12 -27 14 -10 -11 -17 -8 -17 3 14 9 8 18 3 10 -13 -8 -4 7 0 -8 -1 6 3 -4 -12 -12 6 5 -7 -40 7 14 -39 -7 9 4 4 -2 12 -2 -13 -9 -10 3 4 -6 -11 -3 -5 -3 -5 -28 -11 -4 18 -3 -5 34 3 -26 -50 -16 -43 23 4 -16 -21 38 -17 -46 -19 -34 9 -35 -1 16 -24 -13 -7 1 -24 7 16 5 -14 9 -2 0 -50 13 -12 23 -35 26 0 -5 27 -20 -1 -43 3 3 5 -17 2 -18 -20 2 -8 1 8 10 12 -16 -11 6 -26 -22 10 -23 -9 13 7 3 -59 20 -12 15 -22 -25 14 -22 -35 -3 -18 -23 -5 26 -11 6 1 11 -10 -23 11 -17 -9 6 -6 -29 -18 -9 -8 -14 -25 16 -8 -8 6 -28 7 -13 2 -9 8 -5 -38 -24 -16 -4 16 -11 -12 0 19 -13 9 7 -1 -37 8 -16 -8 6 -23 -34 4 -3 11 -2 4 -35 -2 -13 8 17 -11 -17 2 24 9 4 -45 -12 -37 18 -35 11
4 -9 2 -4 10 6 -12 -8 -1 2 -17 -2 12 3 14 13 -11 -11 14 -5 -10 -5 9 -1 -12 4 -3 2 -25 2 -10 12 -23 3 -29 9 -4 0 -17 -3 7 -8 -3 -2 -24 -29 -14 -13 15 -9 -12 7 9 -9 -6 -15 20 13 20 -15 -10 -17 -8 -20 10 11 1 17 -17 -12 -9 6 -2 -12 -5 -21 -45 -7 5 4 -11 -23 -11 -6 -14 -4 10 -1 10 -3 4 -12 -3 -39 -1 21 -4 -13 -1 0 -12 -45 -9 0 -30 -7 -3 5 -6 12 -11 -12 4 4 9 15 -24 -13 -10 21 20 -15 20 -13 -3 -23 -33 24 -1 29 -13 11 5 -15 -29 5 -18 8 1 0 -22 -6 -1 -26 5 -12 -1 -21 2 -9 -5 1 23 -13 9 -15 -25 -18 12 -3 7 -9 -4 -5 11 0 12 5 -9 5 -5 9 0 -2 -1 5 -5 -10 -13 -10 11 -1 -4 -10 13 8 2 15 6 -14 6 -8 -4 -21 4 -20 -5 -22 -5 -14 -12 -38 0 -4 9 -4 16 -8 -8 -5 -15 3 -14 8 -9 -8 4 8 -14 -5 6 -2 -9 -37 2 -13 0 -9 -5 -6 -27 -12 -4 3 3 -4 19 14 -3 -26 -12 3 -3 12 -21 -6 5 14 -6 9 -15 -41 -6 -6 -20 -25
-7 -10 -8 8 0 -34 -10 -6 -17 5 -31 -8 -7 -20 16 0 -7 16 5 -2 -10 10 -4 -21 -6 -46 4 -20 3 5 -20 -8 -36 14 17 -2 -13 11 -2 -9 -8 46 -9 0 1 8 -9 9 6 -20 -12 8 -7 -3 43 2 0 -13 -9 -34 -30 5 -16 6 7 4 -27 13 5 -58 19 -13 6 19 7 9 15 -11 -65 -27 -13 -9 -3 -12 -19 -3 -8 -32 -2 -17 -24 3 -1 -7 8 3 -13 -19 10 -11 -1 2 -6 6 5 12 -10 -38 -6 -11 -27 -1 3 -37 -9 5 -14 -2 -19 11 -12 4 -5 -24 -21 -3 6 3 -1 -26 41 -28 -8 -5 -25 -5 -3 9 -4 -1 -71 19 -32 -2 1 -14 8 -20 -22 -13 -2 7 8 -33 -15 0 -9 -12 14 -4 -15 -27 -3 6 -58 -18 -23 -34 -5 -26 -4 -2 -3 -24 20 13 -5 -6 -25 -2 -4 -9 -27 -24 -3 -38 -11 -4 -5 5 -31 -7 23 -8 -27 -32 -6 -12 -25 0 -84 -63 -5 -12 -3 2 0 9 -20 -12 -3 -27 5 11 -13 -6 2 -13 -3 1 -11 -20 24 -20 -12 -2 27 -15 0 3 -39 -24 -17 -26 -20 -1 -12 59 6 -9 -56 -7 -1 7 -9 -60 4 -17 33 -27 22 12 -8 -21 4 -11
1 11 9 -10 0 -31 -7 -5 8 -17 -25 -25 -19 1 4 -21 -1 -23 -15 -2 4 -8 -25 29 9 -6 27 5 13 -7 -4 -11 -2 8 -23 12 22 17 -32 -6 20 -12 -28 -13 22 -23 -1 -9 5 -29 -12 17 -2 0 -2 17 8 -8 1 -21 10 -71 -24 9 -4 39 -25 3 2 7 -15 24 10 1 -13 1 -105 9 1 -26 -48 -6 -21 -2 -4 9 13 -12 11 3 -3 13 9 -15 0 -6 1 7 -40 -18 -5 -33 27 -14 15 -19 6 5 -86 34 -8 -12 -19 -7 10 9 4 -27 -17 5 -11 3 4 16 -4 -18 -18 -4 -9 -20 -20 2 5 -12 -12 -14 2 -29 13 -19 -16 10 -22 -19 2 -16 15 -48 -5 -13 11 1 -5 -7 2 0 -4 -26 0 27 -21 5 -10 -29 -19 -8 -16 -3 -3 -2 -12 17 -12 12 2 4 17 9 -14 7 -4 -15 -13 -42 9 -17 -6 -5 -9 -4 22 2 13 -1 -15 -16 -10 25 -22 -2 22 8 -18 -14 -11 -18 -9 9 -21 -2 -11 9 -18 20 -2 -50 -10 -21 12 25 20 -12 -21 -3 8 6 -20 -28 -11 19 -9 11 -15 -20 -1 -2 -9 -15 7 -10 3 2 8 -26 12 -42 19 -4 1 -7 -80 25 -22 -7 -73 -7
9 -10 -3 -68 -6 -2 -2 -34 -10 -1 -2 -3 -3 -3 -24 -4 -3 -18 -2 -9 -1 -38 -3 -3 -12 -14 -27 -1 -11 -3 -9 -1 -8 2 -7 -31 -9 -23 -1 -4 -31 -28 -20 -13 -3 -9 1 -13 1 2 -1 -41 -3 -1 1 -1 -7 -4 -17 -6 1 1 -1 0 -3 -1 -13 2 -16 -7 -18 -7 5 -12 0 -1 1 -2 -2 -5 -2 0 0 7 -12 -3 -14 4 -2 -9 -6 -11 -4 0 -4 -18 -6 -39 3 1 1 -1 1 -6 -7 -17 -1 -4 -9 3 -2 -3 -1 -23 -12 -10 -3 1 -4 -3 0 -11 -4 -1 1 -4 -2 -2 -4 -11 -17 -2 3 -13 0 -3 -5 -29 3 -4 -13 5 -55 0 0 -2 0 -3 -7 7 -16 2 1 3 -2 0 -4 3 -1 -9 3 -1 -2 -3 2 -4 -2 -19 -8 -2 -4 -2 -1 2 -26 -8 -4 -7 4 1 0 -13 -1 -6 -7 -3 6 -10 -6 -20 -1 -1 -7 3 -10 -2 -1 -1 -17 1 1 -2 1 -4 -19 -16 -6 -1 0 -7 2 -2 -3 -6 0 -21 -23 2 -3 -14 -10 1 -3 -12 -12 0 1 1 -9 -8 -6 -4 -6 4 -22 -22 -3 -41 -5 -4 7 -1 -1 -24 3 -37 2 0 -5 1 0 -12 3 1 -3 -5
3 -6 -10 -4 -6 11 -7 -1 1 11 2 -3 -8 -7 1 -9 -1 -9 5 -3 -11 -1 -3 4 -13 -13 -4 -8 -10 -11 -20 -7 3 12 -5 -19 5 -2 -9 -9 2 -22 -6 -6 -3 -23 -4 0 -1 -4 -18 -3 -23 1 -8 10 -12 2 -4 7 -7 -5 6 3 -4 -6 0 -1 -19 -1 -7 -5 -6 -2 -5 -7 -1 0 -6 -5 3 -35 -7 -20 7 -9 -3 -12 -8 -6 9 -8 0 2 -6 -4 -13 6 -1 0 -9 1 -17 -10 -5 -9 -5 5 -22 -4 -1 0 4 -5 -7 6 -5 -21 2 4 5 -5 -10 2 -2 3 -13 6 -17 -2 -2 7 -11 8 -7 7 -11 -3 -7 -8 -10 9 -1 -15 -2 1 -16 2 -10 -3 -5 -16 10 6 -11 1 0 -6 2 -15 -5 -11 -11 6 -1 -8 -2 4 -3 -5 -10 -7 -4 -3 -1 -10 -19 -1 -5 -4 -18 -5 -7 5 8 -7 -16 -11 -1 2 -13 -17 -2 8 -18 -6 -2 -13 -8 -12 -2 -11 -7 -1 -7 -3 5 -7 -1 13 -11 -12 3 -6 -8 -18 0 -6 17 6 -10 -3 -1 -7 -4 -12 1 -4 -2 0 5 -4 0 -11 -1 -10 -13 -10 2 -9 -4 -4 -6 -2 -12 -15 -23 -3 -8 2 -13 3 -1 -6 -15 -4
1 -32 11 -71 -16 -15 -50 -6 -25 1 -24 -17 -25 -18 6 -2 -40 -14 0 -7 0 -13 -2 -2 -28 -14 11 -17 -21 2 -25 -11 -13 -16 2 -5 -34 -16 -48 0 -35 8 -13 -33 10 -16 -7 -36 -13 -4 -4 7 -37 -9 -48 -25 13 -17 -1 -26 -34 1 -7 -5 -31 9 -1 9 -22 29 -20 -39 -3 -18 -17 2 -8 3 -4 -33 -8 -6 -11 -7 -31 5 -15 -15 -7 -24 -47 -4 4 -42 -1 -16 -11 -48 -16 -1 -4 10 6 -6 -3 -2 4 -30 2 -11 -10 3 -11 -17 -7 -4 -16 2 -8 -13 -41 -1 -9 -7 -38 -3 -9 -5 1 10 -11 -31 -18 -4 -2 -10 1 -61 -2 -13 1 10 -28 -35 1 8 -6 2 -18 4 -7 10 1 -32 -6 -19 -2 -16 -34 -34 -6 -27 -10 6 -5 -17 -44 -35 -25 0 -2 1 0 1 -2 -40 -2 -6 -49 -10 3 -16 26 -8 -17 -34 -30 0 -8 -20 -5 -37 -46 -9 -20 -24 -6 -29 -18 -3 -7 -27 -4 -10 -5 -11 -5 -10 -41 -3 -19 -13 -7 -3 -5 5 3 -10 -19 -22 -12 -7 -24 -10 -16 -8 -1 -30 -17 -11 -5 -25 20 -7 -11 -18 -4 -16 -15 15 -22 4 -5 -36 -80 -15 -5 -49 -22 -15 -4 -50 5 -17 -13 -11
0 -1 0 0 -1 -3 -1 -2 -1 -1 0 -2 -2 0 1 -1 0 0 -2 -1 -1 -2 -2 0 0 -2 0 0 1 -1 -2 -1 1 0 1 -2 0 -2 0 -1 -2 0 1 1 0 0 0 0 -2 1 -4 0 1 -2 -2 2 -1 -2 0 0 0 -1 2 1 -2 0 -1 1 -1 0 -1 0 -1 -1 -2 -1 0 -2 -2 -2 2 -2 1 3 -2 0 -2 0 0 0 -1 -2 -2 -2 1 -2 0 -1 -2 1 0 -1 -1 -2 -2 0 1 -1 -1 1 0 -1 -3 0 -1 -2 -1 -1 0 -2 -2 0 1 1 0 1 -1 0 -1 0 0 -1 -1 -1 0 0 0 1 -1 -1 1 0 -1 -2 0 -2 1 -1 1 -1 2 -2 -1 1 -2 0 -1 -2 -2 -1 0 0 -2 1 -1 -1 1 -2 -1 -2 1 1 0 -2 -1 0 2 -2 -2 -2 -2 -1 -1 -1 -3 -2 0 -2 -1 -1 -1 -1 -3 1 -1 -1 -1 -1 -1 -2 -3 -2 0 -1 1 -2 -2 0 1 0 0 0 -2 -1 -1 2 -2 -1 1 0 -2 1 -2 -2 -1 -2 -2 -2 0 -2 1 1 0 0 1 0 -1 1 0 -2 -2 -1 -2 -2 0 -3 0 -2 -1 -2 -3 -2 1 1 -1 -2
4 17 13 -7 -27 -6 4 11 -6 -5 5 13 -6 18 0 6 12 -2 -1 7 -7 -12 -2 9 -3 -38 -5 7 2 13 -13 -12 -1 13 -77 -7 -24 -19 6 0 12 -5 -7 11 3 7 16 2 14 9 9 -9 0 -6 -3 25 5 -19 0 8 -6 14 -5 -2 1 -3 -16 5 4 17 -4 14 -4 7 3 2 -61 0 24 8 0 6 15 10 -1 -3 -3 9 24 -6 -5 -7 -3 -8 1 -4 -5 4 0 0 4 9 4 23 -1 5 11 2 -30 4 12 5 1 9 9 7 -2 -11 -4 6 9 -9 18 13 -3 -2 24 -10 8 0 -5 -2 14 6 -17 10 3 0 8 -2 -50 -5 1 -2 1 -17 -1 -81 -3 -1 -5 5 0 -7 0 19 7 -7 2 1 9 26 -16 -2 13 9 3 -4 -5 -6 14 13 -47 -67 -16 -9 -2 -10 16 10 11 -2 11 -4 -2 1 -6 -14 -11 21 6 -1 20 -1 -7 -3 7 -4 -4 14 5 5 5 -14 -11 9 11 13 -3 9 11 6 6 -2 22 14 2 1 17 -5 -10 -26 24 5 18 3 -5 -10 -3 -2 -5 -1 -2 19 14 -2 -1 -1 14 -12 -69 5 7 -7 8 -12 21 -1 7 -7 -73 3 -32 8 -12 1
1 5 -35 -10 21 -2 -16 0 1 -1 -15 10 -1 2 19 3 -1 3 4 -11 -3 21 -1 -7 -10 12 2 -5 2 -6 7 -8 1 -55 5 17 -18 19 2 22 -3 -31 9 12 13 -10 10 5 4 -7 -11 -33 1 -16 3 -17 14 11 15 -23 -11 -3 -2 14 -5 -4 10 -1 -5 3 -10 5 -1 12 11 0 -23 -9 3 -5 -11 -2 -6 -4 -12 -12 -22 -31 -9 3 12 9 -5 -4 9 -8 19 6 10 -12 -5 2 -18 29 4 3 13 9 0 -3 -13 6 -14 -12 -8 14 5 -11 2 -36 4 3 6 6 -34 2 -17 4 -1 -29 19 7 8 -7 3 -26 -8 37 5 7 15 9 -8 7 -13 -22 -1 -37 12 12 13 -5 -6 -13 -19 -22 8 -7 2 -24 0 -17 -1 3 -10 8 -32 -9 6 9 5 -20 -9 -1 12 19 -45 1 -16 -9 -20 15 -26 -4 5 -1 20 -8 -13 -8 6 3 -15 18 8 -25 -8 -27 3 -5 11 -4 8 -4 -8 -15 -16 -16 -22 -22 -14 1 2 -6 25 7 -46 4 -2 -4 -6 -22 6 -4 -9 6 17 1 6 8 -20 -10 0 3 1 -46 -13 43 -4 -1 16 -24 20 -2 18 -26 -21 -5 -17 -6 -6 -21 -20 7 -12 -36
36 -3 -10 -25 -7 -18 10 -18 -24 -9 -9 1 21 -6 -6 -19 -8 -39 -22 -29 -12 -3 -16 -28 2 -25 2 8 -22 -26 10 -21 -52 -14 15 -9 -9 -13 9 4 -18 -13 -17 -9 13 11 3 -4 -54 -8 -61 -16 -34 -95 -18 0 -2 -17 -1 -15 -14 -35 -6 14 -53 -27 -11 -7 -4 -23 -24 -13 0 -23 -20 -1 2 -66 2 -41 -16 -43 -19 -10 3 -9 -12 2 23 -69 1 1 -15 -17 -47 -20 -29 -13 2 -32 -36 -15 14 -17 -5 -13 16 0 0 -2 -16 -36 40 -7 15 -12 -52 -16 14 -1 -2 -15 -14 -34 -18 -8 -25 3 4 23 -18 -4 -6 16 -2 4 -4 -13 -31 -11 -33 -48 -40 -12 4 0 9 -1 -8 -1 18 -1 -39 -4 -57 -7 -11 -33 6 6 -50 -13 3 -10 -8 -16 -1 -5 -3 -33 -4 -27 -39 -22 -5 -13 -32 -10 -11 -72 -7 12 3 0 -20 -11 -17 -53 0 6 -87 -10 -1 -9 -33 -36 3 15 -26 -11 1 3 -47 0 16 16 -44 -36 -11 0 -26 -20 -9 -10 -12 12 -4 -16 -60 -8 7 -7 -4 7 -21 -11 -34 22 -15 -16 -5 -4 -14 -6 6 -19 -16 -23 -6 -18 -30 -34 14 -5 10 -14 -11 -10 3 -54 -6 4 -6 12 -4 -1
9 -13 11 -6 2 -7 -5 6 6 -9 -4 4 2 -6 -3 5 -8 -13 1 -7 1 -10 -6 4 4 -24 15 -11 0 0 4 -10 -3 4 39 -7 19 -18 26 7 -6 -4 22 7 1 0 -9 -12 4 1 17 -3 -2 4 -4 10 3 -4 1 10 10 -2 3 -4 -8 0 -6 -12 -1 -101 1 5 15 -12 -9 0 22 -4 -128 0 0 -20 0 -11 -16 7 -8 0 2 -1 9 18 6 2 7 -11 -2 -2 -5 -4 -3 1 -10 11 -26 -7 16 -9 9 0 0 0 -2 1 3 0 3 14 9 1 -1 -4 -16 -5 -3 4 -26 5 1 3 1 -5 2 0 -6 -8 -25 -1 10 5 7 -4 16 -4 7 0 -10 -31 2 -13 4 13 13 2 12 17 -7 2 -5 -3 10 7 -9 3 -26 -1 1 3 11 -10 2 2 5 -8 -4 -3 21 0 -5 -15 8 -2 -20 -2 1 9 6 -1 13 6 6 -6 -2 0 1 -3 -1 -12 -6 -1 -46 -5 3 8 -8 -13 -7 11 2 13 0 1 3 -3 -1 2 -1 -3 -2 3 4 16 0 -13 14 4 -7 15 -3 4 -2 -20 -9 8 -2 4 -7 -4 1 14 -78 -2 -9 0 -14 -5 -40 -5 3 -6 20 1 -17 10 13 -4
-23 9 7 -17 2 -18 13 7 -10 10 -17 -5 -3 -24 -1 13 34 14 22 -21 4 -12 -3 4 5 6 -17 32 7 -9 1 -9 15 -11 24 8 -11 18 -7 1 15 -3 2 -28 11 -22 -11 -16 -27 -16 -6 19 20 -7 0 -13 20 -31 -7 -35 10 -12 -32 -34 10 2 7 16 -8 11 18 17 19 -19 0 -33 -17 9 6 13 -35 7 8 22 -11 7 17 -1 -12 12 6 15 -5 -22 12 13 -27 -14 1 1 5 -20 -18 11 13 -16 -17 14 -58 -3 2 -25 -7 -27 16 19 -15 -2 2 5 5 4 2 -5 -6 -18 16 5 15 -14 -5 11 15 -17 -17 -14 -22 -30 8 8 -5 -4 -12 -14 17 7 -9 9 5 6 -20 -12 -10 -22 5 3 -4 -3 10 11 1 17 -25 -12 -2 14 -11 19 -20 -5 -22 11 -15 17 8 -1 -4 -16 14 -27 -5 7 -29 -1 10 -12 -24 -12 13 27 -1 -3 19 -8 -10 17 14 1 8 -22 -3 -26 -6 -14 7 18 15 -3 -1 -2 22 18 6 8 -62 26 -20 -7 16 -10 -15 14 0 6 8 13 -3 11 -6 -27 -31 -26 0 -28 -17 6 22 -18 11 3 -12 -1 10 9 5 -3 -9 7 32 -5 -58 -3 -37 1 6 4
-13 -30 -19 -11 -3 0 -3 -8 -8 -13 -58 2 -4 -26 -17 -3 -10 -9 13 -20 -2 -7 1 -14 -24 14 10 4 4 2 -15 5 -21 -7 47 -28 -10 -3 -8 -4 -12 11 4 -8 -12 4 -20 -4 5 -9 -2 -22 3 -1 -20 -3 -11 -6 2 -3 -8 0 -6 -6 -35 7 33 4 -7 -30 -12 -10 1 12 4 -6 12 -32 -9 6 -4 -14 -2 -5 -18 -6 -11 -5 -1 -6 1 6 0 -5 -8 -8 -4 -17 1 4 -18 6 -18 15 -24 -22 -1 1 -17 -7 6 -26 -17 -4 4 -11 -6 20 -20 -5 3 -26 6 3 -10 9 -1 14 -4 -8 22 -3 -4 -13 2 -1 -12 0 8 -6 -22 6 -1 -20 -7 5 5 -20 -5 -10 -9 -4 7 8 -1 -3 -2 -5 2 -19 -45 -2 -1 1 -79 -7 -14 -12 -1 4 -5 7 -5 -34 -6 -10 0 -1 -16 15 3 0 -10 -4 -11 -5 -5 -11 -15 -4 -12 1 -7 -18 -13 7 -10 -49 -33 -6 -17 -28 8 -8 5 -3 4 -4 -4 0 -3 -23 -4 -6 -3 1 -10 5 4 -29 9 -3 3 -6 -22 5 3 0 -5 -5 5 -10 -8 7 -16 -19 -28 20 -10 6 -13 -21 -21 -19 -2 -42 41 -8 -16 -22 21 -18 -8 1 12 -12
-12 -1 -1 5 -14 -15 9 3 -3 -2 0 9 -7 2 2 -23 7 -9 -4 -6 0 -7 -1 -19 1 -1 -1 1 -9 4 -15 6 -9 -11 -10 -9 4 2 -3 2 9 1 -9 5 -3 -6 -8 -16 -1 -2 -8 -2 -2 -2 -23 1 -4 2 -11 7 -1 -4 -3 5 1 0 1 -8 -24 5 -12 -3 6 -4 -18 -15 -10 -1 10 -24 5 0 -3 -17 6 -5 4 6 -15 4 5 -1 -6 -7 -1 -4 0 -5 6 -3 1 -5 -8 13 -3 5 -15 0 -23 -9 -5 -4 -9 -2 6 -10 -10 12 -3 -2 -6 7 -17 -1 -10 -13 12 14 -6 -8 -2 -2 -3 -1 -16 1 0 -3 -4 0 -10 -1 3 0 -5 18 -15 -11 15 -16 0 -4 1 3 0 -4 -9 1 2 -8 -13 -9 -1 -1 -33 -1 1 -5 -3 -15 3 -11 -4 -5 -2 -11 4 4 -8 -8 -7 -5 1 3 0 -16 -4 -5 -3 2 -4 -8 -2 -7 -12 -9 8 6 -16 1 -7 0 -2 -1 -25 -17 -6 -2 -2 -5 -6 2 -10 -8 -2 7 0 -6 3 -9 -21 -8 9 -4 3 -3 2 -6 -3 2 -2 -4 -11 7 -2 3 -8 -4 -2 22 -20 -2 14 -10 -7 -7 -6 -4 -9 -1 -17 4 0 -3 1 3
5 5 -2 -20 -4 0 14 -1 -26 -4 -17 -14 -22 19 -21 -17 9 4 -1 20 15 -11 6 0 -9 3 -10 -12 7 6 7 2 -2 -7 12 1 12 -3 -32 -7 2 -14 1 -9 2 -6 -9 2 -1 -17 5 10 -10 -13 10 -7 -34 12 6 13 -21 -29 -24 15 -6 -9 -8 7 -18 -31 -9 2 2 -1 -4 -4 2 -10 -5 -2 0 -6 -7 -21 14 -23 -1 18 -1 13 -8 14 -10 -7 8 5 8 0 -17 -7 -19 4 -17 -2 -17 14 5 -16 -47 -8 -2 -6 0 -20 4 -21 -3 -46 -1 -9 -17 -3 -10 -19 4 -20 0 6 6 7 9 -15 -4 -11 -7 -18 19 -27 1 2 -8 18 -4 -7 -7 -13 3 -9 -23 -13 -30 -28 24 7 5 -7 -18 16 13 7 5 12 -17 -18 4 5 -2 -14 8 14 2 -9 -22 -7 25 -6 18 30 -2 -16 -4 -10 16 13 0 -2 11 -17 -2 17 -5 -8 12 -16 -1 -11 5 0 13 -16 0 -29 11 0 -4 19 9 6 -8 -3 -19 -34 -4 -39 -8 -14 -2 12 -3 3 -4 4 2 -14 -4 14 -10 -15 6 11 -4 -13 7 -29 9 6 -7 3 -1 -23 -32 7 -6 -15 3 5 -1 6 -24 -1 -12 -3 10 -27 -1 -5
