5 3 3 1 1 0 0 1 2 3 2 3 3 3 2 1 1 -1 -1 -2 -2 -2 -2 -2 -2 -2 -3 -3 -3 -4 -4 -5 -4 -4 -4 -3 -3 -3 -4 -3 -3 -4 -4 -4 -3 -4 -4 -4 -4 -4 -4 -3 -2 -1 -1 -1 0 1 0 1 0 0 -1 -1 -2 -2 -2 -1 -1 0 -1 0 0 -1 -2 -1 -2 -1 0 0 1 1 2 2 1 1 0 0 0 0 -1 0 0 1 1 0 0 -1 -1 -1 -1 -1 -1 -1 0 -1 -1 -2 -1 -2 -2 -2 -3 -2 -1 -1 -1 -1 -1 -1 -1 -2 -1 -2 -2 -1 -1 0 -1 -1 -1 -1 -1 -2 -3 -2 -2 -2 -1 0 1 1 1 1 0 0 0 0 0 1 2 2 2 1 1 0 -1 0 0 0 2 3 4 3 3 2 1 -1 -2 -2 -2 -1 1 1 3 4 4 3 2 1 -1 -2 -2 -2 -1 0 2 2 3 1 0 -2 -3 -2 0 3 6 7 7 6 3 1 -1 -1 1 4 6 9 9 9 6 3 1 -1 0 3 6 9 11 12 10 5 -1 -7 -12 -13 -12 -7 -2 3 6 5 0 -6 -13 -17 -17 -15 -8 -2 2 1 -6 -17 -27 -32 -25 -4 30 73 0 0 0 0 0 0
1 1 1 2 1 2 3 2 2 2 2 2 2 1 1 1 1 0 0 -1 -1 -1 -2 -2 -2 -2 -2 -3 -2 -2 -2 -3 -3 -3 -4 -3 -4 -4 -4 -4 -4 -3 -4 -3 -3 -3 -3 -3 -3 -4 -3 -4 -4 -4 -4 -4 -4 -3 -2 -2 -1 0 2 2 3 3 4 5 4 4 4 4 3 3 2 2 2 1 1 1 1 0 1 1 1 0 0 0 1 1 1 1 1 1 2 1 1 2 2 1 1 1 0 0 -1 -1 -1 -2 -2 -2 -3 -2 -3 -3 -2 -2 -2 -1 -1 -1 -1 0 0 1 1 1 0 1 1 1 0 0 -1 -1 -1 -1 0 0 -1 -1 0 -1 -1 -1 -1 -1 0 -1 -1 0 0 -1 -1 -2 -2 -2 -3 -3 -3 -3 -4 -3 -4 -3 -3 -3 -2 -2 -1 -2 -1 -1 0 0 1 2 3 4 4 5 5 5 5 5 4 4 5 4 3 3 3 2 2 0 0 1 1 1 0 0 -1 0 -1 -1 -1 -1 -2 -1 -1 -2 -3 -2 -3 -4 -3 -3 -3 -2 -1 0 1 1 2 2 3 4 3 3 2 1 1 -1 -1 -1 -2 -3 -2 -1 0 1 3 5 6 7 7 7 5 1 -2 -6 0 0 0 0 0 0
-1 -2 -2 -2 -2 -2 -2 -2 -1 -1 -1 -1 -2 -3 -3 -3 -3 -3 -3 -2 -1 0 1 1 0 0 1 0 0 0 -1 -1 -1 -1 -1 -1 -1 0 -1 0 1 1 0 1 1 2 2 2 2 3 3 3 2 3 2 2 2 0 0 0 0 -1 -1 -1 -1 0 1 0 1 1 1 1 0 1 1 0 0 2 1 1 1 1 1 0 0 0 1 2 1 2 3 4 4 4 4 3 2 2 2 0 0 -1 -2 -3 -4 -5 -5 -7 -7 -8 -7 -8 -8 -8 -8 -7 -7 -6 -6 -5 -4 -3 -2 -2 -1 -1 0 0 -1 -1 -1 -1 -1 -1 -1 -1 0 0 1 1 2 1 2 2 3 2 3 3 4 3 4 3 2 2 1 0 1 1 1 1 1 2 3 4 3 3 3 2 2 2 1 2 2 1 2 2 2 2 2 2 3 2 2 2 1 1 0 -1 -1 -2 -1 -1 -1 -1 -1 0 0 0 0 0 0 -1 -1 -1 0 0 -1 0 -1 -1 -2 -2 -3 -2 -3 -2 -2 -1 0 1 1 1 2 1 2 1 2 2 1 1 0 0 0 0 0 0 1 0 1 1 1 1 0 0 -1 -1 -1 -1 0 1 0 0 0 0 0 0
7 7 6 6 5 4 3 3 2 2 1 1 1 0 1 0 0 0 -1 -1 0 0 1 1 0 1 1 1 0 1 1 0 0 0 0 0 0 1 0 1 1 1 1 1 1 1 0 1 1 1 1 2 2 2 2 2 2 1 1 0 0 -1 -2 -3 -3 -3 -4 -3 -3 -4 -4 -4 -4 -5 -5 -5 -6 -5 -6 -6 -6 -6 -5 -6 -6 -6 -7 -7 -7 -8 -8 -7 -7 -7 -6 -5 -5 -4 -3 -3 -3 -4 -4 -4 -4 -4 -4 -5 -5 -5 -4 -5 -4 -5 -5 -5 -6 -7 -7 -8 -8 -9 -10 -11 -11 -11 -11 -12 -12 -12 -13 -14 -15 -15 -15 -16 -16 -16 -17 -16 -15 -15 -15 -14 -13 -13 -12 -11 -10 -10 -9 -7 -7 -6 -5 -5 -4 -3 -2 -1 0 1 1 3 3 4 3 4 4 4 3 3 2 2 1 1 1 1 1 1 1 1 2 2 2 2 2 1 1 1 1 1 0 1 1 2 2 2 2 2 3 2 1 2 1 0 0 0 -1 -2 -2 -3 -3 -2 -1 -1 -1 0 1 1 3 2 2 1 0 -1 -3 -5 -6 -7 -6 -4 -3 0 2 3 4 6 8 12 16 19 18 16 11 10 15 26 44 64 0 0 0 0 0 0
2 2 2 1 2 2 3 3 3 4 3 2 2 1 0 0 -1 -2 -1 -2 -2 -2 -2 -2 -3 -3 -2 -1 0 0 -1 0 1 0 0 0 0 0 -1 -1 -1 -1 -1 -1 -1 0 0 0 1 2 2 2 3 3 2 2 2 1 0 0 -1 -2 -3 -3 -5 -4 -6 -6 -6 -7 -6 -7 -7 -5 -5 -5 -4 -3 -3 -3 -3 -3 -3 -3 -2 -2 -1 -2 -1 -1 0 1 1 2 3 4 4 5 5 6 5 5 5 4 3 2 2 2 1 1 0 0 1 1 2 2 2 2 2 1 0 0 -1 -2 -3 -4 -4 -5 -5 -6 -5 -5 -5 -5 -5 -5 -4 -3 -2 -1 0 1 2 2 3 3 3 2 3 2 1 1 0 0 0 0 -1 0 -1 0 1 1 2 2 3 3 3 3 3 2 2 1 1 0 0 -1 -2 -2 -2 -3 -2 -2 -2 -1 -1 -2 -2 -1 -1 -2 -3 -3 -4 -4 -5 -5 -5 -4 -4 -3 -2 -1 0 0 1 1 1 1 1 0 0 0 0 0 1 1 0 0 0 1 1 1 0 1 1 3 3 3 4 4 5 4 5 4 5 5 4 5 5 4 4 2 1 0 -1 -1 -1 0 3 4 0 0 0 0 0 0
-7 -8 -7 -7 -6 -6 -6 -5 -5 -4 -4 -3 -3 -3 -5 -5 -5 -6 -6 -5 -5 -4 -4 -3 -3 -2 -3 -3 -3 -3 -5 -5 -4 -4 -5 -4 -4 -4 -3 -2 -2 -2 -1 -2 -3 -3 -3 -3 -2 -1 -2 -2 -1 -1 -2 -1 -1 -1 -2 -1 -1 0 0 0 1 1 1 1 1 0 -1 -1 -1 -2 -2 -2 -1 -1 0 1 1 0 0 0 0 -1 -1 -1 -1 -1 0 0 1 2 2 3 3 3 3 3 2 2 2 1 1 1 2 2 2 3 2 3 3 3 2 2 1 1 1 1 0 1 2 2 3 2 3 4 3 3 2 2 1 0 0 0 0 -1 0 0 0 0 -1 -1 -2 -3 -3 -3 -3 -3 -2 -3 -2 -3 -3 -3 -3 -4 -5 -5 -5 -5 -4 -4 -2 -2 -1 0 -1 0 -2 -2 -4 -5 -5 -5 -4 -4 -3 -1 1 2 3 2 1 1 0 -1 -2 -3 -3 -4 -3 -2 -1 1 1 2 3 3 3 4 4 3 2 2 1 2 2 2 2 2 2 2 3 2 2 1 1 0 -1 -1 -1 -2 -1 -1 -1 0 1 3 3 3 3 2 0 -2 -4 -5 -5 -3 0 3 8 10 11 8 1 -11 -27 -45 0 0 0 0 0 0
5 4 3 2 1 1 0 0 -1 0 0 -1 -1 -1 -1 -2 -2 -2 -2 -2 -2 -1 -2 -1 -1 0 0 1 1 1 1 1 1 0 0 -1 -1 -1 -1 -2 -2 -2 -2 -1 -1 0 -1 0 1 0 1 -1 0 -1 -1 -2 -2 -2 -2 -2 -2 -2 -1 -1 0 0 0 0 1 1 1 1 1 0 1 1 1 2 3 2 2 2 2 2 1 1 1 2 1 2 2 2 2 3 3 3 3 2 2 2 2 1 1 1 0 -1 -1 -1 -1 -1 -1 -1 -1 -2 -2 -1 -2 -2 -2 -2 -2 -2 -2 -3 -3 -3 -4 -3 -3 -4 -3 -3 -3 -3 -3 -2 -2 -1 -1 -1 0 0 1 0 1 0 1 0 1 1 0 -1 -1 -1 -2 -2 -2 -3 -3 -2 -2 -1 1 1 2 2 3 3 1 1 1 0 1 1 0 0 0 0 -1 -1 -1 -2 -1 -2 -1 -1 0 0 1 1 1 1 1 1 0 1 0 1 1 0 -1 -1 -1 -1 -1 -1 0 1 1 2 1 0 -1 -2 -3 -4 -4 -4 -3 -3 -2 -1 0 0 -1 -3 -3 -4 -5 -4 -4 -3 -1 1 2 3 5 6 8 10 12 13 15 15 14 10 4 -4 -16 -27 0 0 0 0 0 0
6 5 4 4 3 3 3 2 3 2 2 1 1 1 1 0 -1 0 -1 -2 -1 -2 -1 -2 -1 -2 -2 -1 -2 -2 -2 -1 -1 -1 -1 1 1 0 1 0 0 -1 -1 -2 -3 -4 -4 -5 -6 -5 -6 -6 -5 -5 -4 -4 -3 -1 -1 1 1 2 3 3 4 4 4 4 4 5 5 5 5 5 5 5 5 4 4 4 4 3 3 2 1 2 1 0 0 0 -1 -1 -1 -1 -2 -2 -2 -2 -3 -3 -3 -3 -4 -3 -4 -3 -4 -3 -3 -3 -3 -2 -2 -1 -1 -1 -1 0 -1 0 0 0 0 0 -1 -1 0 0 0 0 0 1 0 0 0 0 0 -1 0 -1 -1 -1 -1 -1 0 0 0 0 1 0 0 0 1 1 1 1 1 1 1 1 1 1 1 1 2 1 1 0 0 1 1 0 1 1 1 1 0 0 1 0 1 0 0 -1 -1 -2 -3 -3 -3 -3 -3 -3 -3 -2 -1 -1 0 0 1 2 1 2 2 2 2 0 -1 -1 -2 -2 -2 -2 -1 -1 -1 0 1 1 1 2 2 2 2 0 0 1 1 0 0 0 0 1 1 1 1 1 1 -1 -1 -1 0 -1 -1 -1 -1 0 2 3 5 7 0 0 0 0 0 0
-2 -2 -2 -2 -2 -2 -1 -1 0 0 1 1 0 0 1 1 0 0 -1 0 -1 0 0 0 1 1 1 2 2 1 0 0 -2 -2 -3 -3 -4 -4 -3 -4 -3 -3 -2 -2 -2 -2 -4 -4 -4 -4 -4 -3 -3 -1 0 1 0 1 -1 -1 -2 -4 -5 -6 -6 -6 -6 -7 -7 -7 -7 -7 -7 -8 -7 -6 -5 -4 -2 -2 -1 0 0 0 0 0 0 0 0 -1 -1 0 0 1 2 3 3 5 4 5 3 2 1 0 -2 -3 -4 -3 -3 -2 -1 0 1 2 2 1 1 0 0 0 0 1 1 1 2 2 1 1 0 -1 -2 -2 -2 -3 -2 -1 -1 0 1 1 1 0 0 -1 -1 -3 -3 -3 -3 -3 -3 -2 -2 -1 0 0 1 1 2 1 2 2 3 3 3 5 5 5 5 6 5 5 4 4 2 2 1 2 2 3 4 5 5 6 6 5 4 2 2 1 0 0 0 0 -1 0 0 -1 -1 -1 -2 -2 -2 -2 -2 -2 -2 -2 -2 -2 -2 -2 -2 -4 -4 -5 -6 -7 -7 -6 -4 -2 0 1 3 4 4 2 0 -2 -5 -7 -8 -8 -7 -6 -5 -3 -1 0 -1 0 -1 0 0 0 1 2 6 10 0 0 0 0 0 0
-3 -3 -2 -3 -2 -3 -3 -3 -4 -4 -4 -4 -4 -3 -2 -2 -1 -1 0 1 3 4 5 6 7 7 6 7 6 6 4 3 1 1 -1 -2 -3 -3 -3 -4 -3 -2 -2 -1 0 1 2 2 2 2 1 0 -1 -2 -3 -4 -4 -5 -5 -6 -6 -6 -5 -5 -4 -3 -1 -1 0 1 2 2 2 1 2 1 0 -1 -1 -1 -1 -1 -1 -1 -1 1 1 3 3 4 6 6 7 6 6 6 4 3 1 0 -1 -3 -3 -3 -4 -4 -4 -3 -3 -2 -2 -2 0 0 0 0 1 1 1 0 -1 -1 -1 -2 -2 -2 -2 -2 -2 -2 -2 -2 -1 -1 -2 -1 -1 -2 -1 -1 -1 -1 -1 -1 -2 -1 -2 -3 -3 -2 -2 -2 -1 0 1 2 2 3 3 5 4 5 5 5 5 4 4 3 3 2 2 1 1 0 0 0 1 1 2 1 1 1 1 0 -1 -2 -2 -3 -4 -5 -5 -4 -4 -5 -4 -4 -3 -2 -3 -1 -1 -1 -1 0 -1 -1 -2 -1 -2 -2 -2 -3 -4 -5 -6 -5 -6 -6 -5 -3 -2 0 2 4 5 6 6 6 6 5 4 4 3 2 0 0 0 1 1 2 4 5 7 8 9 9 7 3 -2 -7 0 0 0 0 0 0
4 4 3 2 2 1 1 1 2 1 2 3 2 2 3 2 2 1 0 1 1 1 0 0 0 -1 0 -1 -1 -1 -3 -3 -4 -3 -4 -4 -4 -3 -3 -2 -1 -1 -1 -2 -2 -3 -4 -5 -6 -5 -5 -5 -5 -4 -4 -3 -3 -3 -2 -2 -3 -3 -2 -2 -1 -1 0 0 1 1 1 0 -1 -2 -3 -3 -3 -3 -1 0 2 4 5 7 6 5 4 2 2 0 0 -2 -2 -1 -1 1 1 2 1 2 1 0 0 0 1 1 1 2 3 3 3 3 2 1 0 -2 -3 -4 -4 -4 -4 -3 -2 -1 -1 -1 0 -1 -2 -3 -3 -3 -4 -4 -3 -3 -1 -1 0 0 -1 -1 -2 -3 -3 -4 -4 -4 -2 -1 0 1 2 3 2 2 0 -1 -1 -2 -1 0 1 2 3 4 5 5 4 3 2 1 -1 -1 -1 -2 -1 0 1 1 2 1 1 -1 -2 -3 -4 -5 -5 -4 -3 -2 -1 -1 0 -1 -1 -2 -3 -3 -2 -2 -2 -1 0 1 1 3 2 2 2 2 1 1 1 1 1 2 3 3 5 6 6 6 5 4 4 4 3 3 3 3 4 5 6 8 8 8 8 6 4 1 -1 -5 -7 -8 -9 -8 -6 -5 0 0 0 0 0 0
2 2 2 2 2 1 1 1 1 1 1 1 0 0 0 -1 -1 -1 -1 -2 -3 -3 -3 -3 -3 -2 -2 -2 -2 -2 -2 -2 -1 -1 -1 -1 -1 -1 -1 -3 -3 -4 -4 -3 -4 -3 -2 -2 -1 0 0 1 2 3 3 4 3 3 3 3 2 2 1 1 1 1 2 2 3 3 3 3 3 2 3 2 3 2 1 1 0 0 0 -1 -1 -1 -2 -2 -2 -2 -1 -1 0 1 1 1 1 0 0 -1 -1 -3 -4 -4 -5 -5 -5 -5 -5 -4 -4 -5 -4 -3 -2 -1 0 2 3 4 4 3 3 3 3 2 2 1 1 -1 -1 -2 -2 -3 -3 -2 -3 -2 -1 0 -1 0 0 1 1 1 2 2 1 1 1 1 1 1 1 0 0 -2 -1 -2 -2 -2 -2 -2 -1 -1 0 0 -1 0 -1 0 -1 -1 0 0 0 1 1 1 1 0 0 0 0 0 2 2 3 4 4 4 4 3 3 1 1 -1 -1 -2 -2 -3 -2 -3 -2 -2 -1 0 0 2 3 5 6 6 6 6 5 3 2 -1 -2 -3 -4 -5 -4 -4 -3 -1 -2 -1 0 1 2 3 3 4 3 2 0 -3 -7 -10 -13 -14 -15 -11 -5 7 21 38 0 0 0 0 0 0
1 1 1 0 1 0 -1 0 -1 -1 0 -1 -1 -1 0 -1 0 -1 -1 -1 -1 -1 -1 0 0 1 1 1 2 2 2 2 2 2 2 1 1 1 1 1 0 0 1 0 0 0 0 0 -1 0 1 1 0 1 0 0 0 0 -1 -2 -2 -3 -3 -3 -4 -4 -3 -2 -2 -1 -1 1 1 2 2 3 2 2 2 2 2 2 1 1 0 0 -1 0 -1 0 -1 0 -1 0 0 -1 0 -1 -1 -1 0 -1 -1 -1 -1 -1 -1 -2 -1 -1 0 0 0 -1 0 -1 -1 -1 -1 -1 -1 -1 -1 0 0 1 1 2 2 2 2 2 2 2 2 2 2 2 2 1 1 1 1 0 0 1 1 1 2 2 3 4 3 4 3 3 2 2 1 0 0 0 0 0 0 1 0 -2 -3 -4 -5 -6 -8 -9 -9 -9 -9 -9 -7 -5 -5 -3 -2 -1 -1 -1 -2 -3 -3 -3 -2 -2 -1 -1 -1 0 1 2 2 2 2 2 2 2 2 3 4 4 5 6 5 5 4 4 2 1 1 0 0 0 1 1 1 0 1 0 -1 -2 -1 -1 -1 1 2 3 4 4 4 4 3 2 0 -2 -4 -5 -7 -7 -6 -4 -1 5 0 0 0 0 0 0
2 1 1 1 1 2 2 3 4 4 5 5 5 4 4 3 2 2 2 1 0 0 0 -1 -1 -1 -1 -2 -2 -2 -2 -3 -3 -3 -2 -3 -3 -3 -4 -5 -5 -5 -6 -5 -5 -6 -5 -5 -4 -4 -4 -3 -2 -2 -1 -1 0 0 0 1 0 1 2 2 2 1 1 0 1 1 1 1 2 3 3 5 5 6 7 6 6 6 6 4 4 4 3 3 2 2 2 1 0 -1 -1 -1 -1 0 1 1 2 1 1 0 -1 -2 -3 -3 -3 -3 -2 -2 -2 -2 -2 -4 -5 -5 -6 -6 -6 -6 -5 -4 -4 -4 -5 -6 -7 -7 -8 -7 -7 -6 -5 -4 -3 -3 -2 -3 -3 -3 -2 -3 -1 0 1 1 3 3 2 1 1 0 0 0 1 1 2 2 4 3 4 3 3 2 2 1 2 1 1 1 0 0 -1 -1 -2 -2 -3 -3 -4 -3 -3 -2 -2 -2 -2 -1 -1 -1 0 0 0 0 0 0 0 0 0 0 -1 0 0 0 0 0 0 0 0 0 0 1 1 2 2 2 3 2 1 0 0 -1 -1 -1 -1 0 0 1 1 1 0 0 0 1 2 3 5 7 8 8 8 7 6 4 2 1 0 0 2 3 0 0 0 0 0 0
7 8 7 6 6 6 6 4 4 2 2 0 -1 -2 -4 -5 -6 -8 -8 -8 -9 -8 -8 -7 -6 -5 -3 -1 0 2 4 6 8 9 9 10 10 9 8 7 6 5 3 3 2 2 1 0 1 1 0 1 0 -1 -1 -1 -3 -3 -4 -5 -6 -7 -8 -9 -9 -9 -8 -8 -7 -7 -6 -5 -5 -4 -3 -3 -2 -2 -1 0 0 0 1 1 2 2 3 3 4 5 5 6 6 6 6 6 5 5 4 3 3 3 3 3 3 3 3 3 3 3 1 1 0 -1 -2 -2 -3 -2 -2 -2 -2 -2 -1 -1 -1 0 0 0 1 1 2 2 1 1 1 0 0 -1 -1 -1 -1 -1 0 0 0 0 -1 -1 -1 -1 -2 -2 -2 -2 -2 -2 -2 -2 -2 -3 -4 -4 -5 -4 -5 -5 -5 -5 -4 -4 -3 -3 -2 -2 -1 -1 -1 -1 -1 0 0 -1 -1 -1 -1 -1 -2 -2 -2 -2 -1 -1 0 0 1 1 2 2 2 2 2 3 3 3 3 3 3 3 3 2 1 1 1 -1 -1 -1 -2 -1 -2 -2 -3 -3 -3 -3 -2 -2 -1 -1 0 1 2 1 2 0 0 -1 -2 -3 -3 -3 -2 -2 0 1 2 4 5 7 9 9 0 0 0 0 0 0
-6 -6 -5 -5 -5 -5 -5 -6 -6 -5 -5 -5 -4 -3 -1 0 0 1 1 2 2 2 2 3 3 3 4 4 3 4 3 2 2 2 2 1 1 1 1 1 0 1 0 -1 -1 -2 -2 -2 -2 -1 0 0 1 0 0 0 -1 -1 -1 -2 -2 -2 -1 -2 -2 -2 -2 -3 -4 -3 -3 -4 -3 -2 -2 -1 0 0 0 -1 -1 -2 -2 -2 -1 -1 -1 -1 0 0 0 1 2 2 2 3 2 3 4 3 3 3 3 1 2 1 1 1 0 1 1 1 1 0 0 0 -1 0 0 1 1 1 0 0 0 -1 -2 -3 -2 -3 -3 -2 -2 -2 -1 -1 -1 -1 -1 -1 0 1 1 2 1 2 2 2 1 0 -1 -1 -2 -2 -2 -2 -2 -1 0 1 1 2 1 2 2 1 1 1 1 1 0 0 -1 -1 -2 -2 -3 -2 -3 -2 -2 -2 -2 -2 -3 -3 -3 -3 -3 -1 0 2 3 4 4 3 2 0 -2 -3 -3 -3 -2 0 2 2 2 1 -2 -3 -3 -4 -3 0 3 6 7 7 6 3 1 -2 -4 -6 -5 -4 -2 0 1 1 1 0 0 -1 0 1 3 3 4 3 -1 -4 -8 -11 -12 -10 -2 11 28 49 0 0 0 0 0 0
-2 -1 -2 -2 -2 -2 -2 -1 -1 -1 -1 -1 -1 -1 -1 0 0 0 1 1 1 2 2 1 2 2 1 2 1 1 1 1 1 2 1 1 1 1 1 1 1 0 0 0 0 0 -1 0 0 0 1 1 1 0 0 0 1 0 0 0 0 0 -1 0 -1 -1 -1 -1 -1 -1 -1 -2 -1 -2 -2 -2 -2 -1 -1 -2 -1 -1 -1 -2 -2 -1 -1 -1 -1 -1 1 0 0 1 1 0 0 0 0 0 0 -1 0 -1 -1 -1 0 0 -1 -1 -1 -1 -2 -2 -1 -1 -2 -1 -2 -2 -1 -2 -2 -3 -2 -2 -2 -2 -1 0 0 1 1 1 2 1 1 1 0 0 -1 0 0 0 0 0 0 0 0 0 0 0 -1 -1 -2 -2 -2 -2 -3 -3 -3 -4 -3 -4 -5 -5 -6 -5 -6 -6 -6 -6 -6 -7 -7 -6 -6 -7 -6 -6 -6 -6 -6 -5 -5 -5 -3 -3 -3 -2 -1 -1 -1 0 1 2 3 2 3 3 3 2 2 1 1 0 0 -1 -1 -1 -1 -1 -1 -1 0 1 1 2 2 2 2 2 1 1 1 1 0 -1 0 0 0 1 1 3 3 3 3 3 2 1 0 0 -1 1 2 6 11 16 23 30 0 0 0 0 0 0
4 4 4 3 4 3 3 1 2 1 0 -1 -1 -2 -1 -1 -1 0 0 0 0 0 0 0 -1 0 -1 0 0 0 0 0 0 0 0 0 1 1 1 1 2 2 2 1 1 -1 -1 -1 -2 -1 -1 0 0 1 1 2 2 3 2 2 2 1 1 0 0 1 1 0 0 0 0 1 1 1 1 1 1 1 0 0 -1 -1 -2 -2 -1 0 0 1 2 1 2 2 1 -1 -2 -2 -3 -3 -3 -3 -4 -3 -3 -2 -2 -2 -1 0 1 2 3 3 3 4 3 3 2 2 1 0 0 1 1 1 3 3 4 4 4 4 4 3 3 1 1 0 -1 -1 -2 -2 -3 -3 -2 -3 -1 -1 0 0 0 0 -1 -1 -2 -2 -2 -1 -1 0 0 1 0 1 1 1 1 1 1 1 1 0 1 0 0 0 0 -1 -1 0 0 0 1 1 2 0 0 -1 -2 -3 -4 -5 -5 -6 -5 -4 -4 -3 -3 -2 -2 -2 -3 -4 -5 -6 -6 -5 -5 -5 -4 -3 -1 0 3 3 5 4 5 3 2 0 -1 -1 -1 -1 0 1 4 5 6 6 6 5 2 -1 -2 -5 -6 -6 -6 -3 -1 1 2 3 3 2 1 -2 -4 -6 0 0 0 0 0 0
2 3 3 4 4 4 4 4 4 2 1 1 0 1 0 1 1 1 1 0 -1 -1 -2 -2 -3 -4 -4 -4 -3 -3 -3 -3 -3 -3 -4 -3 -3 -3 -3 -3 -3 -3 -2 -2 -3 -2 -1 -1 0 0 1 1 2 2 2 2 1 1 1 0 1 1 1 0 0 0 0 0 -1 0 -1 0 0 -1 -1 0 -1 0 -1 -1 -2 -3 -3 -2 -3 -2 -2 -1 0 1 1 2 3 3 3 3 3 3 2 2 1 1 0 0 -1 -1 -2 -1 -1 0 -1 0 0 -1 -1 -1 -1 0 0 1 1 1 0 0 -1 -2 -2 -2 -1 0 0 1 2 1 2 2 1 1 1 1 2 3 3 3 4 4 3 2 0 -1 -3 -4 -5 -5 -5 -5 -5 -5 -6 -8 -9 -10 -11 -10 -10 -8 -6 -4 -3 -2 -2 -1 -2 -1 -1 0 1 2 3 5 5 5 4 2 1 0 -1 -1 0 1 1 2 2 1 0 0 -1 -1 0 0 2 4 5 6 6 5 3 2 0 -1 -2 -1 -1 1 2 4 4 3 2 0 -1 -2 -2 0 1 4 4 6 5 3 1 -4 -7 -10 -12 -13 -12 -9 -7 -4 -2 0 2 3 4 6 10 14 17 22 0 0 0 0 0 0
-2 -2 -2 -3 -3 -3 -2 -2 -1 -1 -1 0 0 1 1 2 1 2 2 2 3 2 2 2 2 2 1 1 2 1 0 0 0 0 -2 -1 -2 -3 -2 -2 -2 -1 -1 -1 0 -1 0 0 -1 -1 0 1 0 0 0 1 1 0 0 0 0 0 1 1 1 1 2 2 2 2 1 1 1 1 1 1 1 0 0 -1 -2 -2 -2 -2 -2 -1 0 -1 1 1 1 1 1 1 2 1 1 1 1 1 0 1 0 -1 -2 -1 -2 -2 -2 -2 -1 0 0 1 1 1 2 2 1 1 1 1 1 1 0 -1 -1 -2 -2 -2 -4 -4 -3 -3 -3 -2 -1 0 1 1 2 3 3 3 2 3 2 3 2 1 1 1 0 -1 -1 -1 -2 -2 -2 -2 -2 -2 -2 -1 -1 0 1 1 2 3 3 3 2 2 1 1 0 -1 -1 -2 -2 -1 -2 -2 -2 -1 -1 0 1 2 4 4 5 5 6 4 3 2 -1 -2 -4 -5 -7 -8 -9 -8 -9 -8 -8 -8 -6 -5 -2 0 2 4 6 7 9 9 10 9 8 8 7 5 3 1 0 -3 -5 -8 -10 -11 -11 -11 -10 -10 -7 -5 -2 1 3 5 7 8 9 8 7 6 0 0 0 0 0 0
-5 -5 -4 -3 -3 -2 -2 -2 -1 -2 -2 -2 -1 -1 -1 -1 1 0 2 2 4 3 5 5 6 5 6 7 7 7 6 6 4 5 4 3 2 2 1 0 -1 -1 -2 -2 -2 -3 -3 -3 -3 -4 -4 -4 -4 -4 -5 -5 -5 -5 -5 -5 -5 -5 -4 -3 -3 -2 -2 -2 -2 -1 -1 0 1 1 1 2 3 3 2 3 3 2 1 1 0 0 0 1 1 1 2 2 2 3 3 2 3 2 1 1 0 0 0 -1 -1 -2 -2 -2 -3 -3 -3 -4 -3 -2 -2 -1 0 0 1 0 1 2 2 2 2 2 2 2 2 2 2 2 2 2 2 2 2 2 2 2 1 2 2 0 0 0 -1 -1 -2 -2 -3 -3 -4 -4 -5 -5 -5 -4 -4 -3 -2 -2 0 0 0 1 1 1 1 1 2 1 0 0 0 0 -1 -1 -1 -1 -1 0 1 2 2 3 3 4 3 4 2 3 2 1 2 0 0 -1 -1 -1 -2 -2 -3 -3 -4 -4 -3 -3 -3 -2 -2 -1 0 0 0 0 0 1 1 2 2 3 4 4 5 6 7 7 7 7 6 4 2 -1 -4 -6 -8 -9 -9 -7 -6 -4 -2 1 3 4 5 3 1 -1 0 0 0 0 0 0
-1 -1 0 -1 0 0 0 1 0 0 0 1 1 1 0 0 0 -1 -1 -2 -2 -2 -2 -1 -2 -2 -1 -1 0 1 0 1 1 1 1 1 1 1 0 0 0 0 -1 -1 0 1 1 1 2 2 2 2 2 3 2 3 3 3 3 3 2 3 2 2 1 2 1 1 1 1 0 0 0 -1 -1 -1 -1 -1 -1 -1 0 -1 -1 -1 -1 -2 -2 -2 -2 -3 -3 -2 -2 -3 -2 -2 -2 -2 -2 -2 -2 -2 -2 -3 -3 -3 -3 -3 -3 -3 -4 -3 -4 -4 -4 -3 -3 -2 -2 -1 -1 -1 -1 0 0 1 1 0 1 1 2 2 3 2 3 3 3 3 3 3 3 3 3 2 2 2 2 1 2 1 0 0 0 -1 -1 -1 -2 -2 -2 -2 -2 -2 -2 -2 -3 -3 -3 -2 -3 -2 -2 -2 0 -1 1 1 2 2 2 2 2 1 1 2 1 2 2 1 2 1 1 1 1 1 -1 0 -1 -2 -1 -3 -2 -2 -3 -2 -2 -1 0 0 1 0 0 1 1 0 -1 -1 -1 -1 0 -1 0 0 0 1 1 1 1 1 1 2 1 0 -1 -1 -2 -2 -2 -3 -2 -2 -1 0 0 1 2 3 4 6 7 8 0 0 0 0 0 0
1 1 0 1 1 1 2 3 3 3 2 2 2 1 1 1 1 2 1 2 1 2 1 0 -1 -1 -1 -2 -1 -1 -2 -2 -1 -2 -2 -2 -2 -2 -2 -2 -1 -1 -1 -2 -3 -4 -4 -4 -4 -3 -2 -1 -1 1 0 0 0 0 0 0 1 1 1 3 3 5 5 4 4 3 2 2 3 3 4 4 5 5 5 4 3 1 -1 -2 -3 -3 -3 -2 -2 -1 -2 -2 -3 -4 -5 -6 -6 -6 -6 -5 -3 -3 -2 -1 -2 -2 -2 -1 -1 0 1 1 1 2 2 1 0 0 0 -1 1 1 2 2 3 2 1 0 -2 -2 -2 -2 -1 -1 0 0 0 0 -2 -3 -4 -6 -7 -6 -5 -4 -3 -1 1 1 0 0 -2 -4 -5 -6 -7 -6 -4 -4 -3 -2 -1 -2 -2 -3 -4 -5 -6 -6 -5 -5 -3 -2 -2 -1 -1 0 -1 -1 -2 -2 -3 -4 -5 -5 -5 -4 -3 -1 0 1 2 2 1 0 -2 -4 -5 -5 -5 -4 -3 -2 1 2 1 1 -1 -2 -5 -7 -7 -7 -4 -2 1 4 6 6 5 3 0 -2 -4 -4 -4 -2 2 5 8 9 7 3 -2 -10 -16 -22 -23 -20 -14 -5 6 16 22 25 21 11 -6 -27 0 0 0 0 0 0
1 0 0 -1 0 -1 0 0 1 0 0 0 0 -1 -1 -1 -2 -3 -2 -3 -3 -3 -3 -2 -1 0 0 1 1 2 3 4 4 4 4 4 4 3 3 2 2 1 0 -1 -2 -3 -4 -5 -6 -6 -6 -7 -6 -6 -5 -5 -4 -3 -2 -1 -1 0 0 -1 -1 -1 -1 -1 -1 -1 -1 -2 -1 -2 0 0 0 1 1 1 1 1 1 1 1 0 -1 -1 -1 -1 -1 -1 -1 0 -1 0 -1 0 1 0 1 1 2 2 2 2 2 2 2 3 3 2 2 2 3 2 2 2 1 0 1 -1 -1 -2 -3 -3 -4 -5 -5 -6 -5 -6 -6 -4 -4 -3 -2 -1 0 2 2 4 5 6 6 7 7 6 5 4 4 2 1 0 -1 -1 -2 -2 -3 -3 -3 -3 -2 -2 -1 -1 -1 -2 -1 -1 -2 -2 -2 -2 -3 -3 -4 -4 -3 -2 -1 -1 -1 1 1 2 2 3 3 3 2 1 1 0 0 0 0 0 0 0 1 2 2 2 2 3 5 5 6 6 6 7 6 6 6 6 6 5 4 3 2 1 0 0 -1 -1 -1 -1 0 0 1 0 1 1 0 0 0 -1 -1 -2 -3 -4 -5 -7 -8 -8 -8 -7 -6 -4 0 0 0 0 0 0
-1 -1 0 0 0 1 0 1 1 1 0 0 0 0 -1 0 1 1 1 0 0 0 0 0 0 0 0 0 0 0 0 -1 -1 -1 -2 -1 -1 1 0 1 2 1 0 0 0 -1 -3 -2 -3 -3 -3 -1 -1 0 -1 0 -1 -2 -2 -3 -2 -1 -1 0 1 0 0 0 -1 -2 -3 -3 -4 -3 -3 -3 -2 -2 -1 -1 -1 -1 -1 -1 -1 -1 0 -1 0 -1 0 -1 -1 0 0 -1 0 1 0 0 1 1 0 0 1 1 1 1 1 1 1 0 0 0 -1 -2 -2 -2 -2 0 0 0 -1 -1 0 -1 -1 -2 -2 -2 -2 -3 -3 -2 -2 -1 1 0 0 0 -1 -2 -3 -3 -3 -2 -1 0 0 1 2 2 2 2 0 0 -1 -1 -1 0 0 2 3 2 2 2 2 2 1 0 0 0 1 0 1 1 1 2 1 1 0 0 -1 -1 -1 -1 -1 -2 -2 -3 -3 -3 -2 -2 -2 -2 -1 -2 -1 -2 -2 -3 -2 -2 -2 -2 -2 -1 -2 -1 -2 -2 -2 -3 -3 -3 -2 -1 -1 0 1 1 1 1 0 -1 -3 -6 -7 -10 -12 -12 -11 -8 -2 4 10 15 15 11 4 -6 -17 -29 -37 -39 -34 -18 7 40 0 0 0 0 0 0
2 2 1 1 1 1 1 2 1 1 0 0 0 0 -1 -2 -1 -2 -1 -1 0 1 0 0 0 -1 -3 -3 -4 -4 -4 -5 -4 -3 -2 -2 -1 -1 0 -1 -1 0 0 1 1 1 2 1 1 1 1 1 1 0 1 1 2 2 2 1 0 0 -1 0 -1 1 1 1 1 1 0 0 -2 -2 -1 -2 -1 -1 0 1 1 0 1 0 0 -1 -1 0 0 1 1 1 2 2 1 0 0 -1 -2 -2 -1 0 0 0 0 1 0 0 0 -1 0 -1 -1 0 0 1 1 1 1 1 2 2 2 2 3 2 1 1 0 0 -1 -1 -1 0 0 1 0 1 1 0 0 -2 -1 -2 -2 -2 -1 0 1 2 2 2 0 0 -1 -3 -3 -3 -3 -3 -1 0 0 1 1 1 0 -1 -2 -3 -3 -3 -3 -1 -1 0 2 2 3 2 2 0 0 0 0 1 0 1 0 -1 -1 -2 -3 -3 -2 -2 0 2 2 1 -1 -3 -6 -8 -8 -7 -3 0 4 6 7 5 2 -3 -8 -12 -13 -10 -5 1 7 12 14 10 4 -5 -13 -20 -22 -20 -14 -3 8 16 20 16 8 -3 -16 -25 -27 -24 -15 -1 11 20 22 14 -1 -22 0 0 0 0 0 0
-11 -11 -10 -11 -11 -11 -10 -10 -10 -9 -8 -7 -6 -5 -4 -3 -3 -2 -1 -1 -2 -1 -1 -1 -1 0 -1 0 1 0 0 0 1 1 1 2 2 3 3 3 3 3 3 3 3 3 2 2 2 2 3 2 2 3 2 2 2 2 2 2 2 1 1 1 1 0 1 0 0 0 0 -1 -1 -1 -2 -1 -2 -2 -2 -2 -3 -3 -3 -3 -2 -3 -2 -2 -3 -3 -3 -2 -3 -3 -2 -2 -1 -1 -1 -1 -1 0 0 1 1 3 3 3 3 4 3 3 3 2 1 1 1 0 0 0 0 -1 -1 -1 -1 -1 -1 0 -1 0 1 2 2 2 2 1 2 1 2 1 2 3 3 3 3 3 3 3 4 5 5 6 7 7 7 7 7 6 5 4 4 4 4 3 2 3 2 1 1 1 1 2 3 2 2 2 0 0 -1 -2 -2 -2 -2 -1 -2 -2 -2 -2 -2 -2 -2 -2 -2 0 0 1 1 0 -1 -2 -4 -5 -5 -6 -6 -6 -5 -5 -5 -4 -5 -4 -4 -4 -4 -4 -3 -3 -4 -4 -6 -7 -8 -8 -8 -6 -6 -4 -4 -3 -3 -4 -4 -5 -5 -3 -2 0 2 2 2 1 -1 -3 -5 -5 -3 1 7 15 0 0 0 0 0 0
8 8 8 7 8 7 6 6 5 4 3 2 0 -1 -2 -2 -4 -4 -5 -6 -6 -6 -5 -5 -5 -5 -4 -4 -4 -3 -3 -2 -2 -2 -2 -1 -1 -1 0 0 0 0 -1 0 0 0 0 0 0 -1 0 0 1 0 2 1 2 3 4 3 3 4 4 4 3 4 4 5 5 5 4 4 3 3 4 3 3 2 1 0 0 0 -1 -1 -2 -1 -2 -1 -1 -2 -1 -2 -2 -2 -3 -2 -2 -1 -1 -1 -1 -1 -2 -1 -2 -3 -3 -5 -4 -4 -3 -3 -2 -1 -1 -1 -1 -2 -2 -2 -2 -3 -3 -3 -3 -4 -4 -4 -5 -5 -5 -4 -5 -3 -2 -1 -1 1 1 1 1 2 2 2 2 3 2 2 2 2 2 1 1 0 0 1 0 1 0 1 1 1 0 0 0 0 0 0 0 0 1 0 1 0 0 -2 -2 -2 -3 -2 -3 -1 -2 -1 -2 -2 -1 -2 -3 -3 -3 -3 -2 -2 -1 0 1 2 3 3 3 3 3 3 2 2 1 1 0 0 -1 -1 -1 -1 0 0 0 1 0 0 0 0 0 -1 -1 -1 -2 -2 -1 -1 -2 -1 -1 -1 -1 -2 -2 -2 -2 -3 -2 -3 -3 -3 -1 2 5 10 16 22 0 0 0 0 0 0
1 1 0 -1 -3 -2 -4 -3 -4 -4 -4 -4 -5 -6 -6 -6 -7 -5 -5 -4 -4 -3 -2 0 0 0 1 1 0 0 -2 -1 -1 -2 -1 -1 -1 -1 -1 -1 -2 -2 -3 -3 -4 -4 -5 -5 -3 -3 -2 -2 -1 1 1 1 1 1 1 1 1 1 1 2 1 2 2 2 2 3 1 2 1 1 1 0 0 1 1 0 1 1 0 0 0 -1 -1 -2 -2 -2 -2 -1 -1 -1 0 0 0 1 1 0 0 1 1 1 1 2 3 2 3 2 2 1 1 0 -1 -2 -2 -2 -1 -2 -1 -1 -1 -2 -2 -3 -2 -3 -3 -3 -3 -1 -1 -1 -1 1 0 1 1 1 1 2 2 3 2 2 3 2 3 3 3 2 3 3 3 2 2 2 1 2 1 2 2 3 3 3 2 2 1 0 -1 -2 -3 -3 -3 -3 -3 -2 -1 -1 -1 -2 -1 -2 -2 -2 -1 -1 0 1 2 4 4 3 3 2 1 -1 -2 -4 -5 -6 -7 -7 -7 -8 -6 -5 -5 -2 -1 0 1 3 3 3 2 1 0 -1 0 2 5 7 9 9 9 6 2 -3 -7 -10 -11 -10 -6 0 7 12 15 14 8 0 -10 -18 -25 -25 -19 -6 13 38 0 0 0 0 0 0
3 4 4 4 4 3 3 3 2 2 1 1 1 1 1 0 0 -1 0 0 -1 -2 -3 -2 -4 -4 -4 -5 -4 -5 -4 -5 -5 -5 -5 -6 -6 -6 -6 -6 -4 -4 -4 -2 -2 -1 -1 -1 0 0 0 1 0 0 1 1 1 1 1 1 1 1 1 1 1 1 2 2 2 3 3 3 3 3 3 4 3 3 3 3 2 2 2 1 0 1 0 0 0 0 -1 -1 -1 -1 -1 -2 -2 -2 -2 -2 -2 -2 -2 -3 -2 -2 -3 -2 -2 -2 -2 -1 -1 -1 -1 0 1 1 2 2 2 2 2 3 2 2 1 1 1 1 1 0 1 1 1 1 2 2 2 2 2 1 1 -1 -1 -3 -3 -4 -6 -6 -6 -6 -7 -5 -5 -4 -3 -2 -2 -1 0 0 1 0 1 0 1 1 1 1 1 1 2 2 1 2 2 1 2 2 2 3 2 3 2 2 3 2 1 0 0 0 0 0 1 2 3 4 4 4 4 4 3 3 3 3 2 1 1 1 1 1 0 0 -1 -1 -1 -1 -1 -1 -1 -1 0 0 1 1 1 2 3 4 5 4 4 3 2 1 0 -2 -2 -2 -2 -2 -1 -2 -2 -3 -4 -6 -9 -13 0 0 0 0 0 0
-3 -2 -2 -2 -1 -2 -1 -1 -2 -2 -2 -2 -2 -2 -2 -1 -2 -1 -1 0 0 -1 0 0 0 -1 0 0 0 0 1 1 0 1 0 1 0 0 1 0 0 0 0 0 0 0 0 1 1 1 2 2 2 3 3 2 2 1 1 0 0 0 1 1 1 1 1 0 0 -1 -2 -3 -3 -4 -4 -3 -4 -3 -2 -3 -2 -1 0 -1 0 1 0 1 1 2 2 3 2 4 3 3 3 3 2 2 2 2 2 1 1 0 0 0 0 0 -1 -1 -1 -1 -2 -3 -3 -3 -3 -4 -3 -2 -1 -1 0 1 1 1 1 2 2 2 2 2 2 2 2 3 3 2 2 2 1 1 1 1 1 0 1 0 0 -1 -1 -2 -1 -2 -2 -2 -2 -1 -1 -1 -1 -1 -1 -1 -1 -2 -1 -1 -1 0 1 2 3 4 4 5 5 5 5 6 6 5 4 4 3 3 3 3 3 4 4 4 4 4 3 2 1 1 0 -1 0 0 0 0 1 1 0 0 1 0 0 0 0 0 -1 -1 -2 -4 -6 -7 -8 -10 -10 -10 -10 -9 -8 -8 -8 -8 -9 -8 -9 -8 -7 -6 -4 -4 -2 -2 -1 0 1 3 5 8 13 17 0 0 0 0 0 0
2 2 1 1 0 0 -2 -2 -3 -4 -4 -4 -4 -4 -5 -4 -5 -4 -5 -4 -4 -3 -3 -2 -2 0 -1 0 1 0 1 1 0 1 1 1 2 2 2 1 1 1 1 1 2 1 2 2 1 2 2 1 2 1 0 0 0 0 -1 -1 0 -1 -1 -2 -2 -2 -2 -2 -2 -2 -1 -1 0 0 0 0 0 0 -1 0 -1 -1 0 -1 0 1 1 0 1 1 2 2 3 3 4 4 4 4 4 4 2 2 2 1 1 0 0 0 -2 -2 -2 -3 -3 -3 -3 -4 -5 -4 -5 -5 -6 -6 -7 -8 -8 -7 -7 -5 -5 -4 -4 -3 -3 -3 -3 -2 -2 -1 1 1 2 4 4 5 5 5 5 5 5 5 5 6 6 5 5 4 5 4 2 2 1 1 1 2 2 2 1 0 -1 -2 -3 -5 -5 -6 -6 -6 -4 -4 -3 -3 -4 -5 -5 -4 -4 -3 -1 1 2 3 3 2 1 1 0 -1 0 1 1 2 3 4 4 3 3 2 1 1 0 1 1 1 1 0 0 -1 -3 -4 -3 -2 -2 -1 0 1 -1 -2 -3 -5 -6 -6 -5 -3 0 1 3 4 3 1 -2 -4 -5 -6 -5 -3 -1 4 9 14 19 23 0 0 0 0 0 0
-2 -3 -3 -4 -5 -5 -5 -4 -3 -3 -2 -2 -2 -2 -2 -1 -2 -2 -3 -2 -3 -4 -4 -4 -5 -5 -6 -6 -5 -4 -3 -2 -2 -1 -1 -1 -1 0 -1 -1 0 -1 0 1 0 0 1 0 0 -1 -1 -2 -2 -1 -1 -1 0 -1 0 0 -1 -1 -1 -1 -1 -2 -1 -2 -2 -2 -2 -2 -2 -2 -2 -3 -3 -2 -2 -2 -2 -3 -3 -2 -2 -2 -2 0 0 1 1 2 3 2 3 3 2 2 2 1 1 1 2 2 2 3 3 3 3 4 3 3 3 3 2 3 3 2 2 2 2 2 2 1 1 0 -1 -1 -1 -2 -3 -3 -3 -4 -4 -3 -3 -4 -4 -3 -3 -3 -3 -3 -2 -2 -2 -1 -1 -1 -2 -3 -4 -5 -5 -5 -4 -3 -2 -1 0 0 0 -1 -2 -2 -3 -3 -3 -2 -2 -1 0 1 0 0 1 -1 -2 -2 -3 -3 -3 -5 -4 -5 -4 -3 -2 -1 0 1 2 3 4 4 4 3 2 2 1 1 1 2 2 2 2 2 2 1 1 0 -1 -1 -3 -3 -3 -1 -1 1 1 0 0 0 1 1 1 0 1 0 -2 -4 -7 -10 -14 -17 -17 -17 -13 -8 -1 8 17 24 28 29 23 13 -3 -23 0 0 0 0 0 0
-3 -2 -1 -1 -1 0 0 0 0 0 1 0 0 0 0 0 0 0 1 1 2 1 2 2 1 2 1 1 1 0 0 0 0 0 1 1 1 0 0 0 1 1 1 2 2 2 1 1 1 1 0 0 1 1 1 1 1 1 0 0 0 0 0 0 0 -1 0 1 0 0 0 1 0 0 0 0 -1 -1 -2 -2 -4 -4 -5 -6 -6 -7 -7 -7 -7 -7 -6 -5 -5 -4 -3 -2 -2 -1 0 0 0 0 1 2 1 2 2 1 2 3 3 3 3 2 3 3 2 3 2 2 2 1 1 2 1 1 1 2 1 1 0 0 -1 -1 -1 -2 -2 -2 -2 -2 -2 -1 -1 0 1 1 2 2 2 2 1 2 1 1 0 0 0 0 -1 -1 0 0 0 0 1 1 0 1 1 1 1 0 1 1 1 1 0 1 1 0 0 0 0 -1 -1 0 -1 -2 -1 -1 -1 -1 0 0 -1 0 -1 0 -1 0 -1 -1 -2 -2 -4 -5 -6 -6 -7 -6 -6 -6 -4 -3 -1 -1 0 1 1 1 0 0 1 1 2 3 4 4 5 4 4 4 3 3 2 1 2 1 2 1 0 0 -2 -3 -3 -2 1 4 10 16 0 0 0 0 0 0
-1 -1 -1 -2 -3 -3 -3 -3 -2 -2 -2 -2 -1 -2 -1 -1 -1 -1 -1 -1 -1 -2 -2 -2 -2 -1 -2 -1 -1 -1 -1 -2 -2 -2 -4 -3 -4 -3 -3 -2 -2 -1 -1 0 0 0 -1 -1 -1 0 -1 -1 0 1 0 1 0 -1 -1 -1 -2 -3 -2 -2 -1 0 -1 0 1 1 0 0 -1 -1 -1 -1 0 1 2 1 1 1 0 0 -1 -1 -1 -1 -1 0 -1 0 -1 0 -1 0 -1 -1 -1 -1 -1 -1 0 0 -1 -1 -1 -2 -1 -1 -1 -1 0 -1 -1 -1 0 0 -1 0 0 0 0 0 1 1 1 1 0 0 0 -1 -1 -1 -2 -1 -1 0 0 0 0 0 -1 -1 0 -1 -1 -1 -1 -1 0 0 1 1 1 0 1 0 -1 -1 -1 -1 -1 -1 0 0 0 0 0 0 0 -1 -1 -1 -2 -2 -1 -1 0 1 0 0 0 0 0 1 0 0 0 0 1 1 1 1 2 1 0 0 0 0 0 -1 -2 -2 -2 -2 -2 -1 0 0 2 2 3 3 3 1 0 -2 -3 -3 -3 -1 2 4 6 7 7 4 1 -4 -9 -13 -14 -12 -6 2 11 18 21 19 11 0 -13 -24 -32 -33 -24 -4 26 62 0 0 0 0 0 0
-1 -1 -2 -2 -2 -3 -3 -4 -3 -3 -3 -4 -4 -4 -3 -2 -1 -1 1 2 3 3 4 3 4 4 4 4 5 5 4 4 4 4 3 2 2 0 0 0 0 1 1 1 2 1 1 0 -1 -2 -4 -4 -5 -6 -7 -6 -6 -7 -6 -6 -5 -5 -4 -3 -1 1 2 4 3 4 4 4 3 3 2 1 1 1 1 1 1 1 1 1 0 0 0 0 1 1 2 3 2 2 2 3 3 2 2 2 2 2 2 1 1 0 -1 -1 -1 0 0 1 1 2 2 3 3 2 2 2 1 1 2 1 1 1 1 1 1 0 0 0 -1 -1 -1 -1 -1 -1 -2 -2 -3 -3 -3 -3 -4 -4 -4 -3 -3 -3 -3 -2 -1 -1 -1 0 0 0 1 1 0 0 -1 -2 -1 -2 -3 -3 -3 -4 -4 -4 -3 -3 -4 -4 -3 -2 0 1 2 4 5 7 7 7 7 7 7 6 5 4 4 3 2 1 2 1 1 2 1 1 1 1 1 0 0 -1 -2 -2 -3 -4 -5 -4 -4 -3 -2 -1 1 2 2 3 2 2 0 0 -1 -1 -1 -1 -1 -2 -3 -4 -7 -10 -12 -14 -13 -11 -7 -2 3 8 10 12 10 5 -3 -13 0 0 0 0 0 0
-1 -1 -2 -1 -2 -2 -2 -1 -1 0 1 1 1 2 2 3 2 2 2 2 2 1 1 1 1 0 -1 -1 -1 -2 -2 -2 -3 -3 -3 -4 -4 -4 -4 -3 -3 -3 -2 -2 -1 -1 -1 0 0 0 1 1 0 1 0 0 0 0 0 0 0 -1 -1 0 -1 -1 0 0 -1 -1 -2 -2 -3 -4 -4 -4 -4 -3 -3 -3 -3 -2 -2 -1 -1 0 0 1 1 3 2 3 3 3 3 3 3 3 4 3 3 4 3 3 3 3 2 2 2 2 1 1 0 0 0 -1 -1 -1 -1 -2 -2 -2 -2 -2 -2 -2 -2 -2 -2 -1 -1 -1 0 0 2 2 3 3 3 2 2 1 1 0 0 0 0 -1 0 0 -1 0 0 -1 -2 -2 -2 -3 -3 -3 -3 -4 -4 -5 -4 -4 -5 -5 -4 -4 -3 -3 -2 -1 0 -1 0 1 1 1 1 2 2 2 2 2 2 1 1 1 1 2 1 2 2 2 2 2 1 2 2 1 1 1 0 0 1 0 1 1 1 0 1 1 0 1 1 1 2 2 3 4 4 5 5 5 5 5 5 4 4 5 3 4 3 3 1 2 1 1 1 1 -1 -1 -2 -3 -3 -5 -7 -8 0 0 0 0 0 0
-7 -6 -6 -6 -6 -6 -5 -5 -4 -4 -4 -4 -2 -2 -2 -2 -1 -1 -1 0 0 0 0 1 1 1 1 1 1 1 1 1 1 1 2 1 1 1 0 0 0 0 0 1 1 1 1 0 1 1 0 0 1 0 0 0 0 1 0 0 0 1 1 0 1 1 0 0 -1 -1 -1 -2 -2 -3 -2 -3 -2 -2 -2 -1 -1 -1 -1 0 0 1 1 2 2 2 2 2 2 1 1 1 1 1 0 0 -1 0 0 -1 -1 -1 -1 -2 -3 -3 -4 -4 -4 -4 -5 -5 -4 -4 -4 -4 -4 -2 -2 -2 -1 0 0 1 1 2 2 2 3 3 3 3 3 4 4 3 3 4 3 4 4 3 3 3 3 4 3 4 4 4 3 4 3 3 2 1 1 0 0 0 0 -1 -1 -2 -2 -2 -2 -2 -2 -2 -1 -1 0 0 1 1 2 2 3 3 3 3 3 3 2 2 1 1 1 -1 -1 -2 -2 -3 -3 -3 -4 -4 -4 -3 -2 -2 -2 -1 0 0 0 1 1 1 1 2 2 2 2 3 2 2 2 2 1 0 -1 -1 -2 -3 -2 -2 -3 -3 -3 -3 -2 -2 -2 -1 -1 -1 1 1 2 3 5 6 6 6 0 0 0 0 0 0
4 4 3 3 3 3 2 2 1 1 0 -1 -2 -1 -3 -3 -4 -3 -4 -4 -4 -3 -3 -3 -2 -3 -2 -1 -2 -1 -1 -1 -1 -2 -2 -1 -2 -1 -2 -1 -2 -2 -3 -3 -2 -3 -3 -3 -4 -3 -2 -2 -2 -2 -2 -3 -3 -3 -4 -5 -5 -4 -5 -6 -5 -5 -5 -4 -3 -4 -4 -4 -3 -3 -3 -2 -3 -3 -3 -3 -3 -3 -4 -4 -3 -3 -3 -3 -3 -1 -2 -1 0 1 1 1 2 3 3 3 3 3 2 2 2 2 2 2 1 1 1 0 0 -1 -1 -1 -1 -1 -2 -1 -1 -1 -2 -2 -1 0 0 0 0 1 1 1 2 2 2 1 2 1 1 1 1 2 2 1 2 1 1 1 1 2 1 1 0 0 -1 -1 -2 -2 -2 -2 -2 -2 -2 -3 -3 -3 -3 -4 -4 -4 -3 -2 -1 0 -1 0 0 0 -1 0 0 1 1 2 3 3 2 2 2 0 1 1 2 3 4 3 4 3 2 1 1 -1 0 1 1 3 3 3 3 2 0 -1 -2 -1 0 0 1 2 1 -1 -3 -5 -7 -8 -8 -8 -5 -4 -1 -1 0 -3 -5 -7 -8 -8 -7 -4 0 3 5 5 5 4 4 6 9 12 19 25 0 0 0 0 0 0
1 1 1 1 0 0 -1 -1 -2 -2 -2 -1 -1 -2 -1 -2 -2 -1 -1 -1 -1 -2 -1 -1 -1 0 1 1 2 2 3 3 3 3 3 3 3 3 2 2 1 0 0 0 -1 -3 -3 -3 -3 -4 -3 -3 -3 -4 -4 -3 -3 -2 -2 -3 -3 -2 -2 -2 -2 -1 -1 -1 0 0 -1 0 1 1 0 2 2 2 2 1 1 2 1 1 1 0 -1 0 -1 -1 -1 -1 -1 -1 -1 -1 -1 0 0 1 1 1 1 2 2 2 1 1 1 1 1 0 0 -1 -1 -1 -1 -1 0 0 1 1 2 1 1 1 1 1 0 0 -1 -1 -1 -2 -2 -2 -2 -2 -1 0 -1 0 1 0 1 1 2 2 3 2 3 2 1 0 -1 -2 -3 -4 -6 -6 -7 -7 -8 -8 -7 -7 -6 -5 -4 -3 -2 0 1 1 2 3 2 2 3 2 2 2 2 1 2 1 2 2 2 2 2 3 2 2 3 2 1 1 0 -1 -2 -4 -5 -4 -5 -5 -4 -4 -2 -2 -1 -1 0 0 0 0 1 0 1 0 1 1 1 0 0 -1 -2 -2 -1 -1 0 1 2 4 5 6 7 8 9 10 9 11 10 10 9 6 2 -3 -9 -16 0 0 0 0 0 0
0 -1 -1 0 -1 -1 0 -1 0 -1 0 0 1 1 1 1 1 1 1 1 1 1 1 1 1 1 1 1 1 1 2 1 1 1 2 1 1 1 1 1 1 1 1 1 0 0 1 1 1 1 0 -1 -1 -1 -1 -1 -1 -3 -3 -3 -3 -3 -3 -3 -3 -3 -2 -2 -3 -3 -3 -2 -1 -2 -1 -1 -1 -1 -2 -1 -1 -1 -3 -2 -2 -2 -1 -1 -1 0 0 1 1 1 1 1 1 1 0 0 1 0 0 0 1 0 1 2 1 2 3 2 3 3 3 4 3 3 3 3 3 2 2 3 2 3 3 2 2 2 2 2 1 1 1 1 1 1 1 1 1 1 1 0 -1 -1 -1 -2 -2 -3 -3 -3 -4 -4 -4 -4 -4 -4 -4 -3 -4 -3 -3 -3 -3 -2 -2 -2 -2 -1 -2 -1 -1 0 0 -1 0 0 0 -1 -1 -1 -2 -2 -3 -2 -3 -3 -2 -2 -2 -2 0 -1 0 0 1 1 1 1 1 0 1 0 0 0 0 1 2 2 2 3 3 2 1 1 0 0 0 0 1 1 2 3 3 5 6 6 7 6 6 6 4 3 3 2 2 3 3 3 2 2 2 1 -1 -3 -6 -9 -12 -16 0 0 0 0 0 0
-1 -2 -1 0 -1 1 1 2 2 2 2 1 1 1 2 1 2 2 3 2 2 0 0 -1 -1 -1 0 0 2 3 3 4 4 5 4 2 2 1 1 0 1 0 0 0 -1 0 0 0 0 1 2 3 3 4 4 3 4 3 3 2 2 2 3 3 4 4 3 3 0 -1 -2 -3 -3 -3 -3 -1 0 1 1 1 1 0 -1 -1 -1 -2 -2 -1 0 1 0 -1 -1 -2 -3 -3 -4 -3 -2 0 1 2 2 1 0 0 -1 -1 -2 -1 0 1 2 1 2 1 0 -1 -2 -3 -3 -2 -1 0 2 3 3 2 2 2 1 1 2 1 2 3 2 2 2 1 0 -2 -2 -4 -3 -3 -2 0 0 1 1 0 0 -2 -2 -2 -3 -3 -3 -2 -1 -2 -2 -2 -2 -2 -3 -2 0 0 2 2 2 2 2 1 1 0 -1 0 0 1 2 2 2 1 1 1 0 -2 -2 -3 -2 -2 0 0 -1 0 -2 -4 -6 -6 -6 -5 -5 -4 -2 -1 0 0 -1 -2 -4 -5 -6 -7 -8 -7 -7 -6 -5 -5 -3 -3 -2 -1 0 1 2 1 2 1 -1 -3 -5 -9 -10 -10 -9 -8 -3 1 5 8 8 4 -5 -17 -35 -55 0 0 0 0 0 0
-1 -1 0 0 -1 -1 -1 0 0 2 2 4 4 4 4 3 3 2 1 1 1 0 0 0 0 0 0 -1 -1 -1 0 0 0 1 0 1 -1 -2 -2 -2 -3 -3 -3 -3 -2 -2 -1 -1 -2 -2 -3 -3 -3 -2 -2 -1 -1 1 1 1 1 0 -1 -1 -2 -2 -3 -3 -2 -2 0 0 0 -1 -2 -3 -3 -4 -3 -2 -1 1 2 3 3 4 3 3 3 3 3 3 3 3 3 4 4 3 2 1 1 0 0 0 -1 -1 -1 -2 -1 -2 -3 -3 -3 -3 -3 -2 -1 -1 0 1 1 0 0 0 0 1 1 2 2 2 2 2 0 0 -1 -2 -2 -2 -1 -1 1 0 1 2 2 0 0 -1 -1 -1 -1 -1 0 1 2 3 3 3 3 2 2 2 3 4 4 3 4 3 2 2 0 -1 -2 -3 -4 -6 -7 -8 -10 -11 -11 -13 -13 -13 -12 -11 -10 -9 -9 -9 -9 -10 -9 -9 -9 -7 -5 -3 -1 0 0 1 0 -1 -2 0 0 2 3 5 7 7 7 5 4 1 -1 -2 -2 -1 1 3 5 5 5 3 2 1 0 1 1 4 7 10 12 12 11 9 6 3 2 1 1 2 3 1 -1 -6 -11 -18 0 0 0 0 0 0
1 1 1 1 0 1 0 0 0 0 0 0 0 1 1 2 2 2 2 3 3 3 3 2 2 2 1 1 0 -1 -1 -2 -2 -3 -2 -3 -3 -4 -4 -4 -3 -4 -3 -3 -3 -2 -1 -1 -1 0 0 1 1 2 1 2 2 2 2 2 2 2 3 3 3 2 2 1 2 1 1 1 0 0 1 0 1 1 1 1 1 2 1 2 2 1 1 1 0 0 -1 -1 -2 -1 -2 -3 -2 -2 -2 -2 -2 -1 -2 -1 -1 -1 -2 -2 -3 -3 -3 -4 -5 -5 -6 -5 -5 -4 -5 -4 -3 -2 -1 1 1 2 4 5 6 6 6 6 5 6 4 4 2 1 0 0 -2 -3 -4 -4 -5 -5 -7 -7 -7 -7 -7 -6 -5 -5 -4 -3 -2 -1 1 2 3 5 5 5 6 6 5 5 3 3 2 0 -1 -2 -3 -4 -4 -4 -3 -4 -2 -2 -1 -1 0 0 0 0 1 0 -1 0 -1 0 0 -1 -1 0 0 0 0 0 0 -1 -2 -2 -3 -3 -4 -3 -3 -3 -3 -2 -1 0 1 1 1 2 3 4 4 4 5 5 5 4 4 4 3 1 1 0 0 1 0 1 1 1 1 0 0 -1 -1 -1 1 3 7 11 0 0 0 0 0 0
1 1 0 -1 -1 -1 -2 -2 -2 -2 -2 -2 -2 -1 -2 -1 0 -1 0 1 0 1 1 1 1 2 2 2 3 3 3 4 3 2 1 -1 -2 -4 -3 -4 -5 -3 -3 -3 -2 -2 -1 -1 -2 -2 -2 -1 -2 -1 0 0 2 3 3 3 3 2 2 2 1 1 1 1 0 1 1 1 2 2 3 3 2 1 1 1 0 0 -1 -1 -1 -2 -1 0 0 0 1 0 0 -1 -2 -3 -4 -3 -3 -2 -1 0 0 1 1 2 1 2 1 1 2 1 1 3 3 2 1 1 0 -1 -2 -3 -3 -2 -1 -1 0 0 1 1 1 1 2 1 2 1 1 1 1 0 0 1 1 1 1 1 0 0 0 -1 -1 -2 -2 -2 -1 -2 -1 0 1 1 2 2 3 3 3 4 3 4 5 5 6 6 5 5 4 3 2 1 0 -1 -2 -3 -3 -3 -3 -3 -4 -3 -3 -3 -4 -3 -3 -3 -2 -2 -1 -1 -1 -1 0 0 -1 0 0 0 0 0 -1 -2 -2 -4 -5 -6 -6 -6 -5 -5 -4 -3 -2 -2 -1 -1 -1 -1 -1 0 -1 0 -1 -2 -2 -3 -3 -5 -5 -4 -3 0 3 8 11 14 15 14 10 2 -9 -22 0 0 0 0 0 0
1 1 2 3 2 2 1 1 1 0 0 -1 0 0 0 0 0 0 -1 -1 -1 -1 -1 -1 -1 -1 -2 -2 -2 -3 -3 -2 -2 -2 0 0 1 2 1 1 0 0 0 0 1 0 1 2 3 2 2 2 0 0 0 -1 -2 -1 -1 0 1 0 0 0 0 -1 -1 -2 -1 -2 -2 -1 -1 -1 -2 -2 -3 -3 -4 -3 -3 -3 -3 -3 -3 -3 -3 -4 -4 -4 -4 -4 -2 -1 -1 0 -1 -1 -2 -2 -2 -2 -2 -1 -1 0 1 1 1 0 -1 -2 -2 -2 -2 -2 -1 1 1 1 1 0 -1 -3 -3 -3 -4 -3 -2 -1 0 0 -1 0 -1 -2 -3 -3 -3 -3 -1 0 1 1 1 0 0 -1 -2 -3 -4 -3 -2 -1 -1 0 -1 -1 -3 -4 -5 -6 -6 -5 -4 -3 -2 -2 -1 -1 -2 -4 -4 -4 -3 -1 0 2 4 4 4 2 1 -1 -2 -2 -1 1 2 4 4 4 2 0 -1 -3 -4 -4 -3 -2 0 1 2 2 0 -3 -5 -5 -6 -5 -3 0 2 3 4 2 2 -1 -2 -2 -2 0 2 3 5 5 2 -1 -4 -7 -9 -8 -7 -3 2 6 10 11 8 3 -5 -14 -22 -26 -28 -23 -13 5 29 57 0 0 0 0 0 0
-1 -1 -1 -2 -2 -2 -2 -2 -3 -3 -2 -2 -1 -2 -1 -1 -1 0 0 1 0 1 0 1 1 2 2 2 2 2 1 2 2 2 2 2 2 2 1 2 1 1 0 0 1 0 -1 -1 -1 -1 -1 -2 -3 -2 -3 -3 -3 -3 -2 -2 -2 -1 -1 0 0 1 0 0 1 1 2 1 1 1 0 1 0 0 0 0 -1 -1 -1 -1 -2 -2 -2 -3 -3 -3 -3 -3 -4 -3 -4 -4 -4 -4 -5 -5 -5 -4 -4 -4 -4 -3 -1 0 0 1 2 3 4 4 4 3 4 3 3 3 3 2 2 2 3 3 3 3 3 2 2 2 3 2 1 1 1 0 0 -1 -2 -2 -1 -2 -2 -3 -3 -3 -3 -3 -4 -3 -3 -3 -2 -3 -2 -1 -2 -1 0 0 1 1 2 2 3 3 3 3 4 3 3 3 3 2 2 2 2 1 1 1 0 0 -1 -1 -1 -1 -2 -2 -2 -2 -2 -1 -2 -1 0 0 1 0 1 1 1 1 1 2 2 2 1 2 2 3 2 2 2 2 1 2 0 1 0 0 0 -2 -2 -2 -2 -2 -1 -2 -2 -1 -1 0 0 0 0 0 0 -1 -1 -1 0 0 1 1 1 3 4 5 0 0 0 0 0 0
4 5 5 4 4 3 3 3 2 1 1 0 -1 0 -2 -2 -3 -3 -3 -4 -3 -4 -4 -3 -3 -3 -3 -2 -2 -2 -1 -1 -1 -1 -1 -2 -2 -2 -1 -2 -2 -1 -2 -2 -1 -1 -1 -1 -1 0 0 1 0 1 1 1 1 2 2 2 3 3 3 3 2 3 2 2 1 1 1 1 1 0 1 1 1 0 0 1 1 0 0 1 0 1 0 0 1 0 1 0 0 0 0 -1 -1 -2 -3 -4 -4 -4 -4 -5 -6 -6 -5 -5 -4 -4 -4 -3 -2 -1 0 1 2 2 3 3 3 3 3 4 4 4 5 3 4 4 3 3 2 2 2 1 0 1 0 0 0 0 0 0 0 0 -1 -1 -1 -1 -2 -2 -2 -2 -3 -3 -3 -3 -3 -3 -3 -3 -2 -2 -2 -2 -1 -1 0 0 1 2 2 2 3 2 2 3 2 3 2 2 2 1 2 0 0 0 0 -1 -1 -1 -1 -2 -1 -1 -1 -1 -2 -2 -3 -4 -4 -4 -4 -4 -4 -4 -3 -3 -3 -3 -3 -1 -1 -1 0 1 1 2 3 3 4 3 4 3 4 4 4 4 3 3 2 1 1 0 -1 0 -1 0 0 1 2 2 3 3 2 1 1 -1 0 0 0 0 0 0
5 4 4 3 2 1 1 0 0 0 1 0 0 0 0 -1 -2 -3 -4 -4 -3 -3 -3 -2 -3 -3 -3 -4 -4 -5 -5 -5 -5 -5 -4 -3 -2 -1 -2 -2 -3 -4 -4 -4 -5 -4 -4 -3 -3 -3 -2 -1 -1 -1 0 -1 0 -1 -1 -1 -1 -1 0 -1 -1 0 -1 0 0 0 0 0 0 0 0 1 2 1 1 2 2 2 1 1 0 1 1 0 1 1 1 1 2 2 2 2 2 2 2 3 3 2 3 2 3 1 1 0 1 0 -1 0 -1 0 -1 -1 0 0 0 -1 0 -1 -1 0 -1 0 0 0 1 1 0 0 -1 -2 -3 -3 -3 -3 -2 -2 -2 -1 -1 -2 -3 -3 -3 -3 -2 -1 0 0 0 -1 -2 -2 -3 -2 -1 0 1 3 4 6 6 5 5 4 2 3 2 4 4 6 6 7 6 4 2 1 -1 -2 -3 -2 -1 0 -1 -2 -3 -4 -6 -7 -8 -7 -6 -5 -3 -3 -3 -4 -4 -4 -5 -5 -3 -1 0 2 3 3 3 2 1 0 0 0 1 0 1 0 -1 -2 -3 -4 -4 -3 -2 -1 1 2 2 1 1 1 1 1 2 3 4 3 0 -5 -9 -15 -17 -17 -10 3 21 43 0 0 0 0 0 0
-6 -6 -6 -6 -6 -6 -6 -5 -4 -4 -5 -4 -4 -4 -4 -4 -3 -2 -2 -2 -1 0 1 0 1 1 1 1 1 1 1 2 1 0 0 0 0 0 0 0 1 2 2 3 3 4 3 4 3 2 2 1 -1 -1 -2 -3 -4 -4 -4 -5 -4 -4 -3 -3 -3 -1 0 -1 -1 0 0 0 0 0 -1 0 -1 -1 -1 -1 -1 -2 -3 -2 -3 -3 -4 -3 -3 -2 -2 -2 -2 -2 -2 -2 -1 -1 0 0 0 0 0 -1 -1 -1 -2 -1 -2 -1 0 0 0 1 1 2 2 2 2 2 2 2 2 2 2 1 2 1 1 0 0 -1 0 -1 0 0 0 1 1 1 2 1 1 1 1 2 1 2 1 2 2 1 1 1 0 0 -1 -1 -1 0 0 1 0 1 1 1 2 2 1 2 1 2 1 1 1 1 0 -1 -1 -1 -2 -3 -4 -4 -4 -5 -5 -5 -6 -5 -5 -6 -5 -5 -5 -5 -4 -5 -4 -4 -4 -4 -3 -3 -3 -3 -2 -1 -1 -1 -1 -1 -1 -1 -2 -3 -2 -1 -2 0 0 1 3 4 5 5 6 6 7 6 7 7 6 7 6 6 5 6 5 6 8 8 9 10 10 10 8 5 0 -5 0 0 0 0 0 0
1 1 1 1 1 1 1 0 -1 -1 -1 -2 -3 -3 -4 -4 -4 -3 -3 -2 -1 -1 0 1 1 2 2 2 2 2 2 1 1 1 0 -1 -1 -1 -1 -2 -2 -2 -2 -2 -2 -2 -3 -2 -3 -3 -2 -1 -2 -1 0 1 1 2 3 3 3 3 3 3 2 2 1 1 0 0 0 0 0 -1 -1 -1 -1 -1 0 -1 -1 1 0 0 0 1 0 -1 -1 -1 -2 -2 -2 -3 -3 -2 -2 -1 -1 0 0 1 2 3 5 5 5 6 6 6 6 5 4 4 4 3 4 3 3 3 3 3 3 3 4 4 3 4 3 3 2 0 -1 -1 -2 -3 -3 -3 -4 -4 -5 -5 -5 -6 -6 -6 -5 -5 -5 -5 -6 -6 -6 -6 -7 -7 -7 -6 -5 -4 -3 -3 -4 -3 -4 -4 -5 -5 -5 -5 -4 -4 -4 -4 -4 -4 -4 -5 -5 -5 -4 -4 -2 -2 -2 -3 -3 -5 -5 -6 -6 -4 -3 -2 0 1 2 2 1 0 -1 -2 -3 -4 -4 -4 -4 -4 -2 -1 -1 2 3 4 5 6 5 4 2 0 -2 -3 -4 -3 -2 -2 0 0 2 2 3 2 3 4 4 5 7 8 8 7 3 0 -4 -8 -11 -11 -7 2 14 29 0 0 0 0 0 0
0 0 0 0 -1 0 -1 0 -1 0 0 -1 -1 -1 -2 -2 -2 -2 -2 -2 -1 -1 -1 -1 -1 -1 -1 -1 -1 0 0 0 1 0 0 0 0 0 1 0 0 0 0 0 -1 -1 0 -1 -1 -1 0 0 0 1 1 0 2 1 1 1 2 2 2 3 3 3 3 2 2 2 1 0 0 1 0 0 0 0 -1 0 -1 0 0 0 0 0 0 -1 -1 -1 -2 -2 -2 -2 -2 -1 -1 -1 -1 0 0 1 1 0 1 1 1 2 1 1 1 1 1 1 0 0 0 -1 0 -1 -1 -1 -1 0 0 0 -1 -1 -2 -2 -3 -3 -4 -4 -4 -4 -4 -3 -3 -2 -1 -1 0 1 2 3 3 3 3 4 4 4 4 4 4 4 4 3 3 3 3 3 3 3 2 2 2 2 2 2 2 2 2 3 3 2 2 1 0 0 -2 -3 -3 -3 -4 -4 -5 -5 -6 -5 -4 -4 -4 -3 -2 0 0 1 3 3 4 5 5 4 4 3 2 0 -1 -2 -4 -4 -4 -4 -3 -2 0 0 2 3 4 4 5 4 4 3 2 1 0 -2 -3 -3 -4 -5 -5 -5 -6 -6 -6 -6 -6 -5 -4 -3 -1 1 4 7 11 14 0 0 0 0 0 0
0 0 0 1 1 1 2 2 2 2 3 2 2 2 2 1 2 2 2 2 2 3 2 2 2 1 0 -1 -1 -2 -4 -3 -4 -5 -5 -4 -4 -4 -4 -4 -4 -3 -2 -2 -2 -2 -1 0 0 1 1 1 0 0 -1 -1 -1 -1 -1 0 1 2 3 4 5 5 6 6 6 6 5 5 5 4 3 3 4 3 2 2 0 -1 -1 -2 -3 -2 -3 -4 -5 -4 -5 -5 -6 -7 -7 -7 -7 -8 -7 -8 -7 -6 -6 -6 -5 -5 -5 -4 -5 -4 -4 -3 -2 -2 -1 -1 0 1 2 4 5 5 6 7 8 7 8 7 7 6 5 4 4 4 3 2 2 3 2 2 1 0 0 0 -1 -1 -1 -1 -2 -2 -2 -2 -3 -4 -4 -5 -5 -5 -6 -6 -5 -4 -3 -2 -1 0 0 0 1 2 1 1 1 1 1 0 1 0 0 0 0 -1 -1 -2 -2 -2 -2 -2 -2 -2 -1 0 0 0 0 0 0 -1 0 0 0 0 0 1 0 1 1 1 0 0 0 2 2 3 4 4 4 3 2 1 1 0 1 1 2 3 3 4 3 2 1 -1 -3 -3 -3 -3 -1 0 2 3 3 3 1 0 -2 -3 -3 -2 0 1 0 0 0 0 0 0
0 0 -1 -2 -2 -3 -2 -2 -1 -1 -1 -1 -1 -2 -1 -1 0 1 2 2 3 4 4 4 3 4 3 2 3 2 2 2 1 1 0 -1 -2 -3 -3 -4 -4 -4 -3 -4 -4 -3 -3 -3 -3 -4 -3 -3 -3 -2 -1 -1 0 0 0 0 0 1 1 0 1 0 0 0 0 0 0 0 0 0 0 1 1 1 1 0 0 0 0 -1 0 0 1 0 1 1 1 2 2 1 2 1 2 2 3 3 2 1 1 0 -1 -3 -4 -4 -4 -5 -3 -4 -3 -2 -2 -4 -4 -4 -4 -5 -5 -5 -4 -2 -1 -1 1 0 1 2 2 2 3 3 4 4 4 3 3 2 2 0 -1 -2 -2 -2 -2 -1 -1 -1 -1 -2 -2 -2 -2 -2 -1 -1 1 3 3 4 3 2 2 1 1 2 2 3 4 4 5 4 3 1 -1 -3 -3 -3 -4 -2 -2 -2 -3 -4 -6 -7 -10 -11 -12 -11 -11 -9 -8 -7 -6 -6 -7 -7 -7 -7 -6 -6 -4 -2 -1 0 0 0 -1 -1 -2 -2 -1 -1 1 1 2 2 2 2 2 1 2 2 2 3 1 1 -1 -1 -3 -2 -2 0 2 3 5 4 3 0 -3 -5 -5 -2 4 15 29 43 0 0 0 0 0 0
-1 -1 0 0 0 1 1 0 0 -2 -2 -4 -4 -3 -3 -3 -2 0 0 1 1 2 0 -1 -2 -2 -2 -1 -2 -1 1 0 1 1 1 1 1 0 0 1 1 0 0 0 0 0 -1 -1 -1 -1 -1 0 0 1 0 0 1 2 1 1 2 2 2 2 1 2 1 0 -1 -1 -2 -3 -2 -1 0 1 1 2 3 2 2 2 2 1 1 2 3 3 3 4 3 3 3 1 0 -1 -1 -1 -1 -1 1 1 2 2 2 3 3 2 2 2 2 2 0 -1 -2 -3 -5 -5 -6 -6 -6 -6 -4 -4 -2 -2 0 0 1 1 0 0 -1 -1 -1 -2 -2 -3 -4 -4 -5 -5 -5 -5 -5 -4 -4 -2 -1 0 1 2 2 2 2 1 2 2 2 2 2 2 2 2 1 0 0 -1 0 -1 0 0 0 0 -1 -2 -3 -3 -4 -4 -4 -3 -2 -2 -1 0 0 1 1 1 2 1 2 2 4 5 5 5 6 5 4 2 1 0 -1 -1 -1 -1 -1 1 2 3 4 5 5 5 4 3 3 2 0 -1 0 -1 0 1 2 2 4 3 3 3 1 -1 -3 -5 -7 -8 -7 -5 -1 3 6 7 7 4 -1 -11 -22 -34 0 0 0 0 0 0
-3 -3 -2 -2 -2 -2 -1 0 0 0 0 0 0 1 1 1 2 1 2 1 2 2 1 1 1 1 1 1 2 2 1 1 0 0 -1 -1 -2 -3 -3 -3 -5 -5 -5 -5 -5 -5 -5 -4 -5 -3 -3 -3 -2 -1 0 0 2 2 3 3 3 3 3 3 3 2 3 3 3 2 2 2 1 1 1 0 -1 0 -1 -1 -2 -2 -2 -2 -2 -2 -2 -2 -2 -1 -1 -1 -1 -1 0 -1 0 0 0 0 1 0 1 1 1 1 1 1 1 1 1 0 0 -1 -1 -1 -1 -1 -1 0 -1 -1 0 1 1 0 2 1 1 2 3 2 2 3 2 3 2 2 2 1 1 1 0 1 0 0 0 0 -1 -1 0 0 0 0 0 0 0 1 0 1 0 0 -1 -1 -1 -1 -1 -1 -1 -1 -1 0 0 0 1 1 0 0 1 0 0 0 0 0 -2 -2 -2 -3 -3 -3 -3 -4 -4 -4 -4 -3 -3 -3 -4 -3 -2 -2 -2 -1 -1 0 1 1 2 2 4 4 5 5 6 5 4 4 3 2 1 1 0 0 0 0 1 0 -1 0 -1 -2 -3 -4 -4 -5 -4 -5 -4 -3 -3 -2 -1 0 0 3 5 9 12 16 0 0 0 0 0 0
-5 -5 -5 -5 -6 -6 -5 -5 -5 -5 -4 -3 -3 -3 -2 -1 -1 -1 0 1 1 1 2 1 0 1 1 -1 0 -1 -1 -1 -2 -2 -3 -3 -3 -3 -2 -3 -2 -2 -2 -2 -1 -1 -1 -1 -1 0 0 1 1 0 0 1 1 0 1 0 1 0 0 0 1 1 1 1 1 0 0 -1 -1 -1 -1 -3 -2 -2 -2 -3 -3 -3 -3 -4 -3 -3 -3 -4 -3 -3 -2 -3 -2 -2 -1 -1 -1 0 0 0 0 0 0 1 1 0 1 1 1 2 3 4 4 5 6 6 6 6 5 5 5 3 3 2 2 0 0 -2 -3 -3 -4 -5 -5 -5 -5 -5 -4 -3 -3 -3 -3 -3 -3 -4 -4 -4 -5 -4 -4 -3 -3 -2 -1 0 0 1 2 3 4 4 6 6 7 7 7 7 6 5 4 4 4 4 3 3 3 3 3 2 3 3 3 3 3 3 3 3 2 1 0 -1 -2 -4 -5 -5 -6 -6 -6 -6 -7 -7 -8 -8 -8 -8 -8 -7 -6 -5 -4 -3 -2 -3 -2 -2 -1 -2 -1 -1 0 1 2 3 4 5 5 5 5 4 3 2 1 1 0 0 0 1 2 3 5 6 5 5 5 3 2 -1 -3 -5 -8 -9 0 0 0 0 0 0
-3 -4 -4 -5 -5 -4 -2 -3 -2 -3 -3 -3 -3 -1 -1 0 1 1 2 1 0 -1 -2 -3 -4 -4 -4 -5 -5 -6 -7 -8 -9 -11 -11 -12 -12 -11 -10 -9 -7 -5 -4 -4 -4 -5 -6 -7 -7 -7 -6 -5 -4 -2 -1 -1 -1 -1 -2 -3 -3 -2 -2 0 1 2 3 2 1 1 0 -1 -1 -1 -2 -1 0 1 1 1 0 0 -1 0 0 1 3 3 4 4 3 3 1 0 0 -1 -1 -1 0 0 0 0 -1 -2 -3 -4 -5 -4 -5 -4 -3 -2 -2 -3 -3 -5 -7 -8 -8 -9 -8 -7 -5 -5 -4 -2 -2 -2 -2 -2 -1 0 0 2 4 4 6 7 6 6 5 4 4 3 3 2 3 3 3 2 1 0 -1 -2 -2 -2 -2 0 0 0 0 -1 -1 -3 -4 -5 -5 -6 -5 -3 -3 -2 -2 -3 -4 -5 -6 -7 -7 -5 -5 -2 1 3 3 4 3 2 0 -1 -1 0 1 3 5 6 6 5 3 1 -1 -2 -3 -2 0 2 4 6 7 7 5 4 2 -1 -1 -1 0 2 3 4 4 3 1 -1 -4 -6 -7 -7 -6 -4 -1 2 4 5 5 5 3 3 2 2 4 6 8 9 8 5 -1 -10 -21 -31 0 0 0 0 0 0
1 1 1 0 0 -1 -1 0 -1 -1 -2 -2 -2 -2 -1 -1 -1 -1 -1 -2 -2 -1 -2 -2 -1 0 0 1 2 2 2 2 2 1 2 2 1 1 1 1 1 1 1 1 1 1 0 1 1 2 2 2 3 2 2 1 0 -1 -1 -2 -3 -3 -4 -5 -5 -5 -5 -5 -4 -4 -3 -1 0 2 2 4 5 5 5 6 6 6 5 4 2 2 1 -2 -2 -3 -4 -4 -3 -3 -2 -1 -1 -1 -1 -1 -1 -1 -2 -3 -2 -2 -1 -1 0 0 1 1 1 1 1 1 1 1 1 0 0 0 0 -1 -1 -2 -2 -2 -3 -3 -2 -3 -3 -2 -2 -2 -1 -2 -1 0 1 1 1 2 3 3 2 1 1 2 1 1 1 2 2 2 2 2 1 1 1 1 2 1 1 2 1 2 1 0 -1 -2 -3 -4 -4 -4 -4 -3 -3 -2 -2 -1 -2 -1 -1 0 1 1 1 1 1 0 1 1 0 0 0 0 0 0 0 0 -1 -1 -3 -2 -2 -2 -2 -1 0 2 3 3 4 3 2 1 0 -2 -2 -3 -2 -1 0 0 1 1 1 0 0 -2 -2 -1 0 1 2 1 1 -2 -4 -6 -9 -11 -10 -7 0 10 24 40 0 0 0 0 0 0
1 0 0 0 -1 -1 0 -1 -1 0 0 1 1 0 0 0 0 -1 -1 -2 -2 -1 -1 -1 -1 0 -1 0 0 0 -1 -1 -1 0 0 1 0 0 -1 -1 -2 -2 -4 -5 -6 -7 -8 -7 -7 -7 -6 -5 -4 -4 -2 -1 -1 0 1 2 2 1 1 2 0 0 -1 -1 -2 -3 -2 -3 -2 -2 -2 -1 0 1 2 2 2 3 3 3 2 2 1 0 -1 -2 -2 -3 -3 -3 -2 -2 0 0 1 2 2 3 4 4 5 5 5 6 5 4 5 5 4 3 2 2 0 -1 -2 -2 -2 -2 -2 -2 -3 -3 -1 -1 -1 0 -1 0 0 -1 -1 0 -1 -1 -2 -1 -1 -1 -1 0 0 0 0 0 0 -1 -1 -2 -3 -2 -3 -3 -4 -3 -4 -3 -4 -4 -4 -4 -4 -5 -5 -5 -4 -4 -4 -4 -5 -4 -4 -4 -4 -4 -5 -4 -4 -3 -3 -2 -2 -2 -2 -2 -2 -1 -1 -1 0 1 1 1 1 0 0 -1 -1 -1 -1 -1 -2 -1 -2 -2 -1 -2 -1 0 2 2 4 4 5 5 4 3 2 1 0 0 0 0 0 0 0 0 -1 -1 -1 -1 -1 1 1 2 3 2 1 -1 -4 -5 -5 -4 0 7 16 25 0 0 0 0 0 0
3 3 3 2 2 1 0 0 0 0 -1 0 0 0 0 0 0 0 2 2 2 3 3 3 2 1 0 -1 -1 -1 -1 -2 -3 -3 -4 -4 -5 -4 -4 -4 -4 -3 -3 -3 -3 -3 -2 -2 -3 -3 -4 -4 -4 -5 -4 -4 -3 -2 -2 -1 -1 0 0 1 1 1 1 0 0 0 -1 0 0 0 0 1 2 1 1 1 2 1 1 1 1 1 1 1 2 2 3 3 2 2 2 1 1 1 1 0 0 0 -1 -1 -2 -1 -2 -2 -1 0 0 1 1 1 3 3 3 2 2 2 2 2 2 2 1 2 3 2 3 4 4 5 4 4 3 4 3 3 1 1 -1 -1 -1 -3 -3 -3 -3 -3 -3 -2 -3 -3 -4 -4 -4 -5 -4 -4 -4 -4 -3 -3 -4 -4 -4 -3 -4 -4 -3 -3 -2 -2 -1 -1 -1 0 -1 0 0 0 0 0 1 0 0 0 -2 -4 -5 -5 -6 -6 -6 -5 -4 -4 -3 -2 -2 -3 -3 -4 -4 -4 -3 -4 -3 -3 -2 -3 -4 -4 -5 -5 -5 -4 -3 -2 0 1 1 1 2 2 2 2 3 3 3 3 3 2 1 0 0 -1 0 1 3 5 7 9 10 10 11 10 9 8 5 2 0 0 0 0 0 0
-7 -8 -8 -8 -7 -7 -6 -5 -4 -4 -4 -4 -3 -2 -2 -1 -1 0 1 0 0 -1 -1 0 0 0 0 -1 0 0 0 0 -1 -1 -1 -2 -2 -2 -3 -3 -4 -4 -5 -5 -6 -6 -6 -5 -6 -5 -5 -5 -5 -4 -5 -4 -3 -3 -3 -2 -3 -3 -4 -3 -4 -4 -4 -4 -4 -4 -4 -3 -3 -3 -2 -1 -1 -1 -1 -1 0 -1 0 -1 0 0 0 1 1 2 2 2 3 3 3 3 3 4 3 3 4 3 2 2 1 0 -1 -2 -2 -3 -4 -4 -5 -5 -5 -5 -5 -4 -5 -5 -4 -4 -4 -3 -4 -4 -3 -3 -2 -2 -1 -1 0 0 0 0 0 -1 -1 0 1 1 2 2 3 3 3 2 2 0 0 -1 -1 0 0 0 0 1 0 -1 -1 -1 -2 -3 -3 -2 -2 -2 -2 -2 -1 0 0 0 0 0 0 1 1 1 0 0 0 0 0 0 1 2 2 1 2 1 1 0 -1 -2 -3 -4 -3 -4 -3 -3 -3 -4 -4 -5 -5 -5 -5 -3 -2 1 2 4 6 7 7 6 4 3 2 2 2 2 3 4 5 5 6 5 4 2 1 1 0 0 0 0 -2 -4 -6 -9 -12 -12 -11 -7 0 13 28 45 0 0 0 0 0 0
-2 1 2 3 3 2 2 3 2 2 3 4 5 5 6 5 6 4 3 2 2 2 1 1 2 2 2 1 -1 -2 -3 -5 -6 -7 -6 -6 -6 -4 -4 -4 -5 -6 -7 -7 -8 -7 -6 -5 -3 -1 0 0 0 1 -1 0 -1 0 1 2 3 4 5 4 4 4 3 3 3 3 4 5 6 6 8 7 6 5 4 3 4 3 4 5 5 4 3 2 -1 -3 -4 -5 -5 -5 -5 -4 -4 -4 -4 -6 -7 -8 -9 -9 -8 -5 -3 -1 1 2 2 1 0 -1 -3 -2 -2 -1 0 1 2 2 2 1 -1 -2 -3 -3 -2 -1 1 3 4 4 4 2 1 0 -1 -1 0 1 3 5 7 6 7 5 3 2 1 1 1 2 4 5 6 6 5 4 1 -1 -3 -4 -5 -5 -3 -1 0 0 -2 -4 -7 -9 -11 -11 -10 -8 -5 -1 1 3 2 1 -1 -4 -5 -6 -5 -4 -3 -1 1 2 2 1 -2 -3 -6 -7 -7 -5 -4 0 3 5 7 7 5 2 -2 -5 -6 -6 -4 0 4 8 10 11 10 7 3 -1 -3 -3 1 7 13 19 24 23 17 7 -4 -14 -20 -20 -14 -6 2 4 -4 -18 -34 -44 -41 -20 16 61 0 0 0 0 0 0
1 1 1 1 1 1 2 2 1 1 1 2 2 1 1 1 2 1 1 0 0 0 -1 -1 -1 -2 -2 -2 -2 -2 -3 -3 -3 -4 -3 -4 -4 -4 -4 -4 -4 -4 -3 -3 -3 -3 -2 -2 -1 -1 0 1 0 1 1 2 2 2 3 3 3 3 4 3 3 3 2 2 1 0 0 -1 -2 -2 -3 -3 -4 -3 -3 -3 -4 -3 -3 -2 -1 -2 -1 -1 0 0 0 0 0 -1 0 0 -1 0 0 0 0 0 0 1 1 1 1 1 1 1 0 1 1 1 1 1 2 1 2 2 2 2 2 3 2 3 3 3 3 3 3 3 3 4 4 3 3 3 3 3 3 3 4 3 3 3 2 2 2 1 0 0 -1 -2 -3 -4 -4 -5 -7 -6 -8 -9 -9 -10 -10 -11 -10 -10 -9 -8 -7 -6 -6 -5 -4 -4 -4 -3 -3 -2 -1 1 1 3 3 4 4 5 5 6 5 5 4 3 2 2 0 -1 -3 -4 -6 -6 -7 -7 -7 -7 -6 -6 -4 -3 -2 -1 0 0 2 2 2 2 3 4 4 3 3 3 3 4 4 3 3 3 3 3 2 3 2 2 1 2 1 2 3 4 4 5 5 4 2 1 -2 -6 0 0 0 0 0 0
5 4 3 3 3 3 2 2 2 2 2 2 2 2 2 3 2 2 2 1 1 1 1 0 -1 -1 -1 -1 -2 -2 -3 -3 -3 -3 -3 -3 -2 -1 -1 -1 0 0 0 1 0 1 0 1 0 1 1 1 1 2 2 2 2 2 1 1 1 1 1 0 0 0 0 0 0 0 0 0 1 1 0 0 -1 -1 -1 -2 -3 -2 -4 -5 -5 -5 -4 -4 -4 -4 -4 -3 -2 -2 -1 -2 -2 -2 -3 -3 -3 -4 -5 -4 -5 -4 -3 -2 -1 1 1 3 3 4 4 3 3 3 2 2 2 2 2 2 2 3 3 3 3 3 2 1 1 0 0 -1 -1 -2 -2 -2 -2 -3 -2 -1 -1 0 1 1 1 0 0 1 0 0 -1 -1 -3 -3 -4 -3 -3 -3 -3 -3 -2 -3 -4 -4 -5 -5 -5 -5 -4 -4 -4 -2 -2 0 1 1 1 2 1 2 2 1 1 1 0 1 1 1 2 2 3 3 3 3 3 3 3 1 1 1 1 0 1 2 3 3 4 4 5 6 6 7 7 5 4 4 2 2 1 -1 -1 -2 -3 -4 -3 -4 -3 -2 0 1 3 4 5 4 4 1 -1 -4 -7 -10 -11 -12 -11 -6 -2 6 0 0 0 0 0 0
0 0 1 1 0 -1 -1 -1 -2 -3 -3 -4 -3 -2 -2 -1 -1 0 0 2 2 2 2 2 3 2 2 1 0 -1 -2 -3 -4 -3 -5 -5 -4 -4 -4 -4 -3 -3 -2 -1 0 1 1 2 3 3 3 2 2 2 2 1 0 0 -1 0 0 0 0 0 1 1 1 2 2 3 3 3 3 3 3 3 3 3 3 3 2 2 1 1 1 0 -1 0 0 0 0 0 0 -1 -2 -2 -2 -3 -3 -4 -3 -4 -4 -5 -4 -5 -5 -6 -6 -6 -6 -6 -6 -5 -6 -6 -5 -4 -3 -3 -1 0 1 2 2 4 4 5 6 5 6 6 6 6 5 5 6 6 5 4 4 4 5 5 5 4 4 3 2 1 0 0 -2 -2 -2 -3 -3 -4 -4 -4 -5 -4 -4 -5 -4 -4 -4 -3 -3 -3 -3 -3 -2 -2 -2 -1 1 1 1 2 2 3 3 4 3 4 4 4 4 5 4 4 5 4 4 5 4 4 4 4 3 3 2 2 1 1 -1 -1 -2 -2 -2 -3 -3 -3 -4 -3 -3 -3 -2 -1 0 0 0 1 0 0 -1 -1 -3 -3 -5 -6 -8 -8 -8 -9 -9 -8 -7 -5 -3 -1 1 3 4 5 6 8 9 8 0 0 0 0 0 0
1 1 2 1 2 2 2 2 2 2 2 1 1 1 1 1 1 1 0 -1 -1 -1 -1 -2 -2 -1 -1 0 1 2 1 1 1 1 1 0 -1 -1 -2 -3 -3 -3 -3 -4 -4 -4 -4 -3 -3 -3 -2 -1 -1 1 1 1 2 2 3 3 2 1 1 -1 -2 -2 -3 -3 -3 -2 -1 -1 0 1 2 1 2 1 1 0 -1 -1 -2 -2 -2 -3 -3 -3 -4 -3 -3 -3 -3 -3 -3 -2 -1 -1 0 0 1 2 2 0 0 -1 -2 -2 -3 -4 -5 -5 -5 -3 -3 -3 -2 -2 -2 -3 -3 -4 -5 -5 -5 -5 -4 -3 -2 -2 -1 0 0 0 -1 -1 0 -1 -1 -1 -1 0 0 0 -1 -1 -3 -3 -3 -4 -5 -5 -4 -4 -2 -1 0 1 1 2 3 3 3 2 2 2 0 1 0 0 -1 -1 -2 -1 -2 -2 -2 -3 -3 -3 -3 -2 -2 0 0 0 1 0 1 0 -2 -2 -2 -2 -3 -2 -2 -2 -2 -1 -1 -2 -2 -2 -2 -2 -1 -2 -2 -2 -2 -2 -1 -2 -2 -2 -2 -3 -2 -2 -1 -1 1 2 2 3 4 4 4 5 3 3 3 2 2 2 2 3 3 5 6 6 7 8 9 11 13 14 17 19 0 0 0 0 0 0
0 -1 -1 -1 0 -1 -1 -1 -2 -1 -2 -2 -2 -2 -3 -3 -4 -5 -5 -5 -6 -5 -6 -5 -4 -4 -4 -4 -4 -4 -4 -4 -4 -4 -4 -4 -3 -4 -4 -5 -5 -6 -7 -7 -8 -8 -7 -6 -5 -5 -3 -1 -1 0 0 1 1 2 2 2 2 2 1 1 0 -1 -1 -1 -2 -2 -2 -2 -1 -2 -1 -1 0 0 0 0 0 0 0 1 1 0 0 0 -1 0 -1 0 0 1 1 3 2 2 2 2 1 1 2 2 2 2 2 3 3 3 2 2 2 1 1 1 0 0 -1 -1 -1 -1 -2 -2 -3 -5 -4 -5 -5 -5 -5 -5 -4 -5 -4 -4 -3 -2 -2 -1 -2 -2 -2 -2 -2 -2 -1 -1 0 0 1 2 4 5 5 5 5 5 6 5 4 4 5 5 5 4 4 4 3 2 2 2 1 1 2 1 2 2 1 1 0 -1 -2 -2 -3 -5 -5 -5 -5 -5 -5 -3 -3 -2 0 1 1 1 1 2 1 2 2 2 2 2 2 3 3 3 3 3 4 5 5 5 4 3 2 1 0 -1 -2 -2 -1 -2 -2 -2 -3 -3 -2 -3 -3 -1 0 1 2 1 -1 -4 -8 -13 -17 -20 -22 -21 -15 -5 9 26 0 0 0 0 0 0
6 7 6 5 6 5 5 5 4 3 3 2 2 2 1 0 0 0 0 -1 -1 -1 -1 0 -1 -1 -2 -2 -4 -4 -5 -4 -5 -5 -5 -5 -4 -3 -3 -1 0 1 1 1 1 1 0 0 -1 -1 -1 -1 -2 -2 -2 -1 -1 0 0 0 1 1 1 1 1 0 0 -1 -1 -1 -2 -3 -2 -3 -2 -2 -1 0 1 1 2 2 3 2 2 2 2 2 2 2 1 1 1 0 0 -1 -1 -1 -1 -1 0 0 0 1 1 1 2 2 2 2 2 2 2 2 2 1 2 1 1 0 0 1 0 1 1 1 0 1 1 1 1 1 0 0 0 0 -1 -2 -3 -4 -5 -6 -8 -8 -8 -9 -9 -9 -9 -8 -8 -7 -6 -5 -4 -2 -1 1 2 4 4 6 7 7 8 7 7 6 6 3 3 1 0 -1 -1 -2 -3 -2 -3 -2 -2 -1 -1 -1 0 -1 0 0 -1 -1 -1 -1 -1 -1 -1 -1 -1 0 0 0 1 0 1 1 1 0 0 0 -1 -1 -1 -1 -1 0 0 0 1 2 3 4 4 4 5 4 3 2 2 1 0 0 -1 -1 -1 -2 -3 -3 -3 -3 -2 -2 0 1 3 3 4 4 3 2 -1 -5 0 0 0 0 0 0
-1 0 1 1 1 1 1 1 1 0 0 0 0 0 0 0 0 0 0 0 0 0 0 0 -1 -1 0 -1 0 0 0 0 0 0 -2 -2 -2 -2 -2 -1 0 1 0 0 0 -1 -1 -2 -2 -2 -2 -1 -2 -1 0 1 1 1 1 1 1 1 0 0 1 1 2 1 2 1 0 0 -1 0 0 0 0 0 1 2 1 0 0 -1 -1 0 0 0 1 1 2 2 1 0 0 0 -1 0 0 1 1 1 1 1 0 0 0 -2 -2 -2 -1 0 0 1 0 1 0 0 -1 -1 -2 -2 -1 -1 0 1 0 1 -1 -1 -1 -1 -1 0 0 0 0 0 -1 -1 -1 -2 -2 -2 -1 0 0 1 1 0 0 0 -2 -1 -2 -2 -2 -1 0 1 1 1 2 1 1 0 0 0 1 1 1 2 2 2 0 0 -2 -2 -3 -3 -2 -2 0 0 1 1 1 0 -1 -2 -2 -1 -1 0 2 2 4 3 2 1 0 0 -1 0 1 2 3 4 4 5 3 2 1 1 1 1 1 2 2 1 -1 -3 -4 -3 -2 0 2 2 1 -1 -4 -5 -5 -2 3 8 11 9 4 -5 -10 -11 0 17 36 48 41 7 -53 -129 0 0 0 0 0 0
1 1 0 1 0 0 0 1 1 1 1 2 1 2 1 1 2 2 3 4 3 4 5 5 5 4 4 3 3 3 1 1 0 -1 -1 -1 -3 -3 -2 -3 -3 -3 -2 -1 -1 -2 -1 -1 -2 -2 -3 -3 -3 -3 -3 -3 -3 -3 -2 -3 -2 -2 -1 -1 0 0 1 0 1 0 0 -1 -1 -1 -2 -2 -2 -2 -2 -2 -2 -1 -1 -1 0 0 0 1 2 3 4 5 4 5 5 4 4 4 2 2 1 -1 -1 -2 -3 -3 -3 -3 -2 -2 -1 -1 0 1 0 0 1 1 0 1 0 1 0 1 1 1 2 2 2 3 2 2 2 2 1 1 1 0 0 0 0 -1 -1 -1 -1 -1 -1 -2 -1 -2 -2 -3 -2 -2 -2 -2 -2 0 0 1 1 2 2 2 3 3 3 3 3 2 3 2 2 1 1 0 0 0 0 0 1 1 0 1 0 0 -1 -1 -1 -2 -2 -3 -3 -3 -2 -2 -2 -2 -2 -2 -2 -2 -2 -1 -2 -2 -2 -3 -2 -3 -3 -4 -4 -3 -4 -4 -4 -4 -4 -4 -4 -3 -2 0 0 1 3 3 4 4 3 2 1 0 -1 -2 -2 -2 -1 0 2 4 5 6 6 6 4 3 0 -3 0 0 0 0 0 0
1 1 1 1 1 1 1 1 0 0 0 -1 -1 -2 -3 -3 -3 -3 -3 -3 -3 -2 -3 -2 -2 -2 -2 -1 0 0 2 2 3 4 4 5 5 5 5 5 5 5 4 4 3 3 3 1 1 1 0 -1 -1 -1 -1 -1 -1 0 0 0 0 0 1 0 1 0 0 0 -1 -1 -1 -1 -2 0 -1 -1 0 0 0 0 -1 -1 -1 -2 -3 -4 -4 -4 -5 -5 -5 -4 -5 -5 -5 -4 -4 -3 -3 -2 -2 -1 -1 0 -1 0 -1 -1 -1 -2 -2 -1 -2 -2 -2 -2 -2 -2 -2 -3 -4 -5 -5 -5 -6 -7 -6 -6 -5 -4 -2 -1 0 2 2 4 4 5 6 7 7 6 6 6 6 5 5 4 3 2 2 1 0 -1 -2 -1 -2 -2 -2 -2 -2 -2 -1 -2 -2 -2 -3 -3 -3 -4 -3 -2 -3 -2 -2 -1 -2 -1 -1 -1 -1 -1 -1 -1 0 -1 0 0 0 0 -1 -1 -1 -1 -1 -1 -2 -2 -1 -2 -1 -1 0 1 0 0 0 -1 -2 -3 -2 -3 -3 -3 -2 -2 -1 0 0 1 1 2 2 2 2 2 2 2 2 2 2 2 1 1 0 0 0 0 0 0 1 3 4 5 6 8 9 11 12 13 0 0 0 0 0 0
3 3 2 2 2 3 3 3 4 3 2 2 2 2 1 1 0 0 -2 -1 -2 -3 -3 -4 -4 -4 -3 -4 -3 -3 -3 -2 -1 -1 0 1 1 0 1 1 0 1 1 1 1 1 0 1 1 1 1 1 0 0 -1 -3 -3 -4 -5 -6 -7 -7 -7 -8 -8 -7 -7 -6 -5 -5 -4 -2 -1 1 1 3 3 4 4 5 5 4 4 4 3 2 2 2 1 2 1 1 2 2 3 2 2 2 1 1 1 0 0 -1 -1 -1 -1 -1 0 0 0 0 0 0 0 1 1 1 1 0 1 0 1 0 0 0 -1 -1 -3 -3 -5 -5 -5 -5 -5 -5 -5 -4 -4 -2 -2 0 1 2 3 4 4 5 5 4 4 3 2 1 0 -1 -3 -2 -4 -4 -4 -4 -4 -3 -4 -4 -3 -3 -1 -1 0 1 1 1 2 1 1 0 -1 -1 -2 -2 -3 -3 -3 -2 -2 -1 0 1 1 2 3 3 4 4 5 5 5 5 5 5 4 3 3 3 2 2 2 2 1 1 1 0 1 1 1 1 2 2 1 0 1 1 1 1 2 2 2 3 4 3 2 1 1 0 -2 -3 -4 -4 -4 -5 -5 -4 -4 -5 -3 -2 0 1 0 0 0 0 0 0
5 5 5 4 3 2 1 0 0 0 -1 0 -1 0 0 1 1 2 1 1 1 1 0 -1 -1 -2 -3 -4 -3 -3 -5 -4 -5 -6 -6 -6 -6 -7 -6 -6 -5 -5 -4 -4 -2 -2 -3 -3 -3 -3 -4 -4 -4 -4 -4 -3 -3 -2 -1 -1 0 0 0 0 1 2 3 3 4 4 4 3 2 2 0 -1 -2 -2 -3 -4 -4 -4 -4 -3 -3 -3 -2 -2 -3 -3 -3 -4 -4 -5 -5 -4 -3 -2 -2 -1 0 0 0 0 0 0 0 1 1 2 1 1 0 0 -1 -1 -3 -4 -3 -3 -3 -3 -4 -3 -2 -2 -2 -2 -2 -2 -1 -1 -1 -1 -1 -1 -1 -1 -2 -2 -2 -2 -2 -3 -3 -2 -2 -1 -1 1 1 2 2 2 2 3 2 2 0 0 -1 -1 -2 -2 -2 -1 -2 -1 -1 -1 0 0 0 1 1 1 1 1 0 0 -1 0 0 0 0 1 1 1 2 3 3 4 4 4 4 6 6 7 7 8 7 6 6 5 5 5 4 3 4 3 2 3 2 2 1 1 1 1 1 2 2 2 3 2 3 2 3 2 2 1 0 -1 -2 -2 -4 -4 -3 -1 0 3 5 6 7 7 5 1 -3 -8 -15 -22 0 0 0 0 0 0
1 0 0 0 0 0 0 -1 -2 -2 -3 -3 -3 -3 -3 -4 -3 -4 -3 -4 -5 -5 -5 -6 -5 -5 -6 -5 -5 -5 -4 -4 -4 -3 -3 -1 -1 -1 -1 0 -1 -1 -2 -2 -2 -3 -3 -2 -3 -2 -1 -1 -2 -1 0 1 1 1 2 3 3 2 1 2 0 0 -1 -1 -1 -2 0 -1 0 0 1 0 0 1 1 1 2 2 3 4 4 4 3 3 2 2 1 1 1 1 2 3 2 2 1 0 0 0 0 0 0 1 3 3 3 2 1 0 -2 -4 -4 -5 -5 -4 -3 -3 -3 -2 -3 -3 -3 -3 -2 -1 0 0 1 0 1 0 -2 -2 -4 -5 -4 -5 -4 -3 -3 -2 -2 -2 -1 -1 -2 -1 0 1 1 2 3 4 4 3 3 3 3 3 3 4 4 4 4 5 5 4 4 2 2 1 0 1 0 0 0 0 1 1 1 1 1 1 1 2 2 3 2 2 2 1 0 -1 -2 -3 -3 -2 -1 0 0 1 1 0 0 -1 -2 -2 -2 -1 0 -1 -1 -2 -3 -5 -7 -8 -10 -10 -9 -8 -7 -4 -2 -1 -1 -1 0 0 0 0 0 0 -2 -3 -6 -8 -9 -10 -11 -10 -7 -2 6 16 27 41 0 0 0 0 0 0
0 0 -1 -1 -1 0 0 1 1 1 1 1 0 1 0 -1 -1 -1 -1 -1 -1 -1 -1 -2 -2 -2 -2 -3 -3 -2 -2 -2 -2 -2 0 0 0 1 1 1 2 2 3 4 3 3 3 2 2 2 1 1 1 0 1 0 1 1 1 1 1 0 0 0 -1 0 0 -1 -1 -1 -1 -1 -1 -2 -2 -2 -2 -3 -2 -3 -2 -3 -3 -4 -4 -4 -5 -6 -5 -6 -5 -5 -5 -5 -4 -4 -4 -3 -4 -3 -2 -2 -2 -1 -1 0 0 0 0 0 1 1 1 1 2 2 2 2 2 2 2 2 2 3 2 2 1 1 1 1 1 0 0 1 1 2 1 2 1 3 2 1 2 1 1 1 0 1 1 2 2 1 1 1 1 1 1 0 0 0 1 1 1 1 1 0 0 -1 0 -1 -1 -1 0 0 1 0 0 0 -2 -2 -2 -3 -3 -4 -4 -3 -3 -4 -4 -3 -3 -1 -1 0 1 1 1 1 0 -1 -2 -3 -3 -3 -2 -2 -1 -1 0 0 1 0 0 -1 -1 -2 -2 -1 -1 0 2 4 5 6 6 7 7 7 6 6 4 2 0 -3 -4 -4 -5 -4 -2 0 3 6 7 8 9 6 1 -5 -14 -22 0 0 0 0 0 0
3 2 2 1 1 -1 0 -1 0 -1 -1 -2 -1 -1 -1 -1 0 -1 0 0 1 0 0 0 0 0 0 -1 0 0 1 0 1 0 0 0 1 0 0 0 0 -1 0 0 -1 0 0 0 1 0 0 1 0 1 1 1 0 0 -1 0 0 0 0 -1 0 0 0 -1 0 -1 -1 -1 -1 -1 -1 -1 0 -1 -1 -2 -1 0 -1 0 1 1 0 0 -1 -1 -1 -2 -2 -2 -2 -1 -1 -1 0 0 0 0 1 1 0 1 1 1 2 2 2 2 1 1 1 1 0 0 1 1 0 1 1 1 0 0 0 0 -1 0 -1 -2 -1 -1 -2 -1 -1 -1 0 0 0 1 1 1 0 1 0 0 1 0 0 0 0 0 1 2 2 2 2 2 2 1 1 0 -1 0 -1 0 0 1 2 2 1 1 -1 -1 -1 -1 0 0 1 1 1 0 0 -2 -2 -2 -3 -2 -1 1 1 1 2 3 2 2 2 1 1 1 1 0 0 0 -1 -1 -1 -1 0 2 2 3 2 1 -1 -3 -4 -4 -3 -1 0 2 3 5 5 5 6 6 5 3 -2 -6 -10 -11 -8 0 10 21 26 24 8 -17 -45 -64 -62 -30 33 112 0 0 0 0 0 0
3 2 2 2 1 1 0 1 1 1 1 2 2 2 2 2 1 1 1 0 0 2 1 2 2 2 2 2 3 3 1 2 2 3 4 4 3 4 2 2 0 -1 -2 -3 -3 -3 -4 -4 -3 -3 -2 -1 -1 -2 -1 -2 -3 -3 -4 -3 -3 -4 -4 -4 -3 -4 -3 -4 -4 -5 -5 -5 -5 -5 -5 -4 -4 -3 -3 -2 -2 -2 -2 -2 -2 -1 -2 -1 -1 -1 -1 -1 -1 -2 -2 -3 -3 -3 -4 -4 -3 -4 -3 -3 -2 -3 -2 -2 -3 -3 -2 -2 -2 -2 -1 -1 -2 -1 -1 0 2 2 3 3 3 2 2 0 0 -1 -2 -3 -2 -2 -1 -1 0 1 1 1 0 -1 -2 -2 -2 -2 -2 -1 0 1 1 1 0 -1 -1 -2 -4 -5 -5 -5 -4 -3 -3 -2 -1 -2 -2 -4 -4 -4 -5 -6 -5 -5 -5 -5 -4 -3 -4 -5 -6 -7 -8 -9 -7 -7 -4 -2 1 3 4 5 6 5 3 2 1 1 -1 0 0 0 0 1 1 1 0 -1 0 -2 -2 -2 -1 -1 0 1 2 2 3 3 2 1 1 1 1 1 1 0 0 -2 -3 -4 -4 -5 -4 -2 0 3 6 9 12 15 15 16 15 13 9 5 -2 -8 0 0 0 0 0 0
-5 -6 -6 -6 -5 -5 -6 -6 -6 -7 -7 -6 -6 -6 -5 -5 -4 -3 -3 -3 -2 -1 -1 0 -1 0 0 0 1 1 1 1 1 1 0 0 0 0 -1 -1 -1 -1 -1 -1 -1 -2 -2 -3 -3 -3 -4 -3 -3 -3 -3 -3 -2 -1 -1 -1 -1 -1 -1 -1 0 0 0 0 0 0 0 0 1 0 0 0 -1 0 -1 0 -1 -1 -1 -2 -1 -1 -1 -2 -2 -2 -2 -2 -2 -4 -3 -4 -4 -4 -3 -3 -3 -2 -1 0 0 2 2 2 3 3 3 4 3 4 4 3 4 4 3 2 1 2 1 1 1 2 2 2 2 2 2 3 2 1 1 1 2 2 2 2 3 3 3 3 3 2 3 2 3 3 2 2 3 2 1 0 0 -2 -2 -3 -2 -2 -1 -2 -1 -2 -3 -4 -5 -5 -6 -5 -6 -5 -5 -5 -5 -5 -6 -6 -6 -5 -5 -3 -2 -1 -2 -1 -2 -2 -2 -1 0 1 2 4 5 5 5 4 3 3 3 4 5 7 8 9 9 7 6 5 3 3 3 5 6 7 7 5 3 2 0 -1 -2 0 2 3 4 3 2 -1 -2 -3 -3 -2 -1 -1 -2 -3 -2 3 12 26 38 44 34 4 -45 -104 0 0 0 0 0 0
-2 -2 -2 -2 -3 -3 -4 -4 -4 -4 -4 -4 -3 -3 -3 -3 -2 -2 -2 -2 -2 -1 0 1 1 1 2 2 2 2 2 2 2 3 4 4 4 4 4 3 3 3 3 2 1 1 0 0 0 1 0 0 0 1 1 1 1 1 2 2 2 3 2 1 1 0 0 -1 -1 -3 -2 -2 -1 -1 -1 0 0 0 -2 -2 -2 -2 -2 -2 -1 -2 -2 -1 -1 -2 -3 -4 -4 -5 -5 -6 -7 -6 -5 -3 -2 0 1 3 4 4 4 4 3 1 1 0 -1 -1 -1 -1 0 0 1 2 2 3 3 2 2 1 1 1 1 1 2 1 2 1 1 1 0 0 -1 0 0 0 0 0 0 0 0 -1 -1 -1 -2 -1 -1 -1 0 0 2 2 2 2 2 1 0 0 -1 -2 -2 -2 -1 -1 0 0 1 2 1 2 1 1 0 0 -1 -1 -2 -2 -2 -1 0 0 1 2 1 1 1 0 -1 -2 -2 -2 -2 0 1 3 4 6 5 5 3 2 -1 -1 -1 -1 0 2 4 6 7 7 5 4 0 -3 -5 -6 -6 -4 -2 1 3 5 4 4 1 -2 -5 -8 -10 -12 -11 -10 -9 -8 -7 -5 -3 0 3 7 10 14 0 0 0 0 0 0
2 1 1 0 -1 -2 -3 -3 -3 -2 -2 -1 -1 0 1 1 1 0 0 -2 -2 -3 -3 -3 -4 -3 -3 -2 -3 -2 -2 0 -1 1 1 1 3 2 2 2 1 0 1 -1 -2 -2 -3 -2 -2 -1 -1 0 1 1 2 2 3 3 2 1 1 0 0 -1 -1 -2 -2 -2 -2 -2 -2 -1 -2 -2 -1 -1 0 0 0 1 1 1 1 1 2 1 1 0 0 0 0 0 0 2 1 2 2 2 3 2 3 3 2 2 2 2 2 1 2 2 2 1 1 1 0 -1 -1 -2 -2 -2 -3 -3 -3 -2 -2 -2 -2 -2 -1 -1 -1 -2 -3 -2 -3 -4 -5 -5 -4 -5 -5 -6 -5 -6 -5 -4 -4 -4 -3 -2 -1 0 1 1 2 1 1 0 -1 -2 -3 -3 -3 -3 -4 -3 -2 -1 0 1 3 5 6 7 6 7 6 6 5 3 1 0 -2 -2 -3 -4 -4 -3 -3 -2 0 2 3 4 4 4 3 2 1 -1 -3 -4 -5 -6 -6 -5 -5 -4 -3 -1 1 2 3 3 3 1 0 -2 -5 -6 -6 -7 -6 -5 -3 -1 1 3 4 5 4 4 4 3 3 3 4 4 3 2 -1 -3 -6 -9 -9 -6 -1 9 22 38 0 0 0 0 0 0
2 1 -1 -2 -3 -3 -3 -2 -1 0 1 2 2 1 0 -2 -3 -4 -3 -2 -1 0 2 2 1 1 -1 -3 -4 -6 -6 -6 -4 -4 -3 -2 -2 -2 -3 -4 -5 -6 -6 -5 -4 -3 -2 -1 -1 -1 -1 -2 -3 -4 -4 -5 -4 -5 -4 -4 -5 -4 -5 -5 -5 -6 -6 -6 -6 -6 -7 -7 -8 -9 -10 -11 -11 -12 -11 -10 -11 -10 -10 -10 -9 -9 -9 -8 -7 -6 -5 -3 -2 -1 -1 -1 -1 -2 -3 -4 -4 -4 -2 -2 -1 -1 -1 -1 -2 -2 -4 -4 -4 -4 -2 -1 1 2 2 2 1 0 -1 -2 -2 -2 -1 0 1 2 2 2 2 2 2 3 3 4 6 7 8 7 6 6 3 2 2 2 2 4 4 6 6 6 5 3 2 0 0 2 4 5 7 8 8 6 3 1 -3 -5 -6 -6 -4 -2 0 3 3 4 2 1 -2 -3 -4 -3 -1 1 4 5 5 4 2 -1 -4 -7 -8 -9 -8 -6 -4 -3 0 -1 -2 -3 -5 -8 -9 -10 -11 -11 -9 -8 -5 -2 -1 -1 -1 -1 -4 -7 -10 -12 -13 -11 -9 -4 1 4 6 6 4 -1 -6 -10 -13 -11 -7 1 10 19 25 28 25 18 9 2 -4 -2 4 13 0 0 0 0 0 0
0 1 0 1 0 0 1 1 0 1 1 0 0 1 1 0 1 0 1 1 1 1 1 2 1 2 3 3 3 4 3 4 3 3 4 4 3 2 2 1 1 -1 -1 -2 -2 -3 -3 -4 -4 -4 -4 -4 -4 -4 -4 -3 -2 -2 -2 -2 -1 -2 -2 -3 -3 -3 -4 -5 -4 -3 -3 -3 -3 -3 -3 -3 -3 -3 -4 -4 -4 -4 -4 -4 -3 -3 -1 -1 -1 0 0 0 0 1 1 1 1 2 1 1 1 1 1 2 1 2 2 2 2 2 2 2 2 2 2 3 3 3 2 4 3 3 3 3 2 2 2 2 2 2 1 0 0 -1 -2 -2 -3 -2 -2 -2 -2 -1 -1 0 -1 0 -2 -2 -2 -3 -3 -3 -3 -4 -3 -3 -3 -3 -4 -5 -6 -7 -7 -6 -6 -5 -5 -4 -2 -2 -2 -1 -1 0 1 1 2 3 3 4 4 5 6 6 6 7 6 6 5 4 3 3 1 0 0 0 -1 -1 0 -1 0 0 0 0 0 0 0 1 1 1 1 2 2 3 3 2 2 3 3 2 3 4 3 4 3 3 2 1 0 1 0 0 0 0 0 -1 -2 -3 -4 -3 -3 -3 -3 -2 -1 -1 -1 -3 -6 -9 0 0 0 0 0 0
0 -1 -1 -1 -3 -4 -4 -4 -4 -3 -3 -2 -1 -1 -1 -1 -1 -2 -2 -2 -2 -1 -1 0 -1 -1 -1 -1 -3 -3 -3 -3 -3 -2 -3 -2 -2 -2 -2 -2 -2 -2 -2 -2 -2 -1 0 0 2 2 2 1 0 -1 -2 -2 -1 -1 0 0 1 1 2 2 2 2 0 0 0 -1 -1 0 0 0 1 0 0 1 0 0 1 0 0 -1 -1 -1 -2 -2 -2 -2 -1 -1 -1 -1 -1 -1 -1 -1 0 -1 -1 0 0 1 0 1 1 1 2 2 1 1 1 0 1 0 -1 -1 -1 -2 -2 -2 -2 -2 -1 -1 0 1 1 1 2 2 2 2 1 1 0 0 0 0 -1 -1 -1 -1 -1 -1 -1 0 1 0 1 0 0 0 1 1 1 1 2 1 2 1 1 1 0 0 0 -1 0 0 1 1 2 2 2 2 2 3 1 1 1 2 2 2 2 2 2 2 2 1 1 0 -1 -1 -1 -1 0 0 1 0 0 0 -1 -2 -3 -2 -3 -2 -2 -1 0 0 0 -1 -1 -1 -1 -1 -1 -1 0 1 0 0 0 0 1 2 4 5 7 5 3 -2 -8 -15 -21 -25 -24 -20 -11 1 14 26 33 34 26 9 -18 -50 0 0 0 0 0 0
2 2 2 1 1 1 1 2 2 2 3 2 4 3 3 2 2 2 0 1 0 -2 -2 -2 -3 -3 -3 -4 -3 -3 -2 -1 0 0 1 1 1 1 2 2 2 3 3 3 2 2 1 2 1 0 0 -1 -2 -3 -3 -3 -4 -4 -4 -4 -3 -4 -4 -3 -3 -2 -1 -1 -1 0 0 0 0 -1 0 -1 0 0 0 0 0 0 0 0 1 0 0 1 1 1 1 0 1 0 1 1 0 0 0 0 1 0 0 0 0 0 0 0 -1 -1 -1 -1 -2 -1 -1 0 0 0 1 1 0 0 0 0 1 1 1 0 1 1 1 1 1 0 0 1 0 1 0 0 1 0 0 0 0 0 0 0 0 -1 0 0 0 0 0 0 -1 -1 -1 -2 -2 -3 -3 -3 -4 -4 -4 -4 -4 -4 -5 -5 -4 -5 -4 -3 -3 -3 -2 -2 -1 0 -1 0 1 1 1 1 1 1 1 0 0 0 -1 -2 -2 -2 -3 -2 -2 -2 -1 -1 0 1 1 2 2 2 3 4 3 3 3 3 3 3 3 2 2 2 1 1 1 0 1 0 1 1 2 3 3 4 4 4 4 4 4 4 3 3 3 3 3 1 -1 -3 -6 -8 0 0 0 0 0 0
2 2 3 3 2 2 2 3 2 1 1 1 1 0 0 -1 -1 -2 -2 -2 -2 -3 -3 -3 -2 -3 -3 -2 -2 -2 -2 -2 -1 -2 -1 -1 -2 -1 -1 -2 -1 -1 0 0 1 1 1 2 1 1 2 2 1 1 1 0 -1 -1 -2 -3 -3 -3 -4 -4 -4 -5 -4 -4 -4 -4 -4 -4 -4 -3 -3 -3 -1 -1 0 -1 0 0 1 2 3 2 3 4 4 5 6 5 5 4 5 4 4 4 5 5 5 5 4 5 4 3 3 2 2 0 0 -1 -1 -2 -3 -4 -4 -5 -5 -4 -4 -4 -4 -3 -2 -2 -2 -2 -2 -2 -2 -3 -3 -3 -4 -4 -4 -4 -4 -3 -4 -3 -3 -3 -2 -1 0 1 1 2 3 2 2 3 2 1 1 1 1 1 0 0 0 0 1 0 1 2 2 2 3 2 3 3 2 3 2 2 1 1 0 0 0 1 0 1 1 2 2 2 2 3 3 3 3 4 3 3 3 4 3 3 3 4 3 3 3 3 3 2 2 1 -1 -1 -1 -2 -4 -4 -4 -4 -4 -5 -6 -6 -7 -7 -6 -6 -5 -3 -3 -2 -1 -1 0 -1 -1 0 0 1 2 2 4 5 4 5 3 1 -3 -6 0 0 0 0 0 0
3 2 2 2 0 0 0 -1 -1 -2 -2 -3 -2 -2 -2 -3 -3 -2 -3 -3 -2 -1 -1 0 1 1 1 3 3 3 4 3 4 3 3 3 3 3 2 2 2 1 0 0 -1 -1 -2 -2 -2 -3 -3 -3 -3 -3 -3 -3 -3 -2 -2 -2 -2 -2 -1 -1 0 0 0 0 0 1 1 1 1 1 0 1 1 1 0 -1 -1 -1 -2 -2 -2 -2 -2 -2 -2 -2 -2 -1 -1 -1 0 0 0 0 0 0 1 1 1 1 1 1 1 2 1 2 2 2 1 1 2 1 1 0 0 -1 0 -1 -2 -1 -1 -1 -1 0 0 0 0 1 1 1 1 1 1 1 1 1 1 2 1 3 2 3 2 2 1 1 1 0 -1 -1 -1 -1 -2 -2 -2 -2 -1 -2 -2 -2 -3 -3 -4 -4 -5 -6 -6 -6 -7 -6 -7 -6 -6 -6 -5 -5 -4 -3 -1 -1 0 0 1 2 3 2 3 3 3 3 3 3 3 3 2 2 1 1 0 0 -1 -3 -3 -3 -4 -3 -3 -2 -2 -1 0 0 0 1 1 1 1 2 2 2 3 3 3 3 3 3 2 2 2 2 1 0 0 -1 -2 -3 -4 -5 -5 -5 -3 -1 4 11 19 27 0 0 0 0 0 0
-4 -4 -4 -4 -3 -4 -3 -3 -3 -3 -2 -1 0 1 2 2 4 3 4 4 5 4 5 4 4 3 3 1 1 0 0 0 0 0 1 1 1 1 1 2 2 2 1 1 1 1 0 0 1 0 0 -1 -1 -1 -3 -3 -4 -4 -4 -4 -4 -4 -5 -4 -4 -4 -2 -2 -1 -1 0 1 1 2 2 2 2 3 2 3 3 3 2 2 2 2 2 2 3 3 3 4 4 3 4 3 2 2 2 2 1 1 1 0 0 -1 -1 -1 -3 -3 -4 -3 -4 -4 -4 -3 -3 -3 -3 -3 -3 -4 -3 -4 -3 -3 -3 -2 0 0 1 1 1 2 3 2 3 3 3 3 4 3 3 3 3 3 3 2 3 2 1 1 1 0 -1 -1 -2 -3 -3 -3 -3 -3 -4 -4 -4 -3 -3 -3 -3 -2 -2 -1 0 0 1 1 1 1 1 1 1 1 1 0 0 0 -1 -1 -1 0 -1 -1 -1 1 1 2 2 2 2 2 2 3 2 2 1 1 0 -1 -1 -3 -3 -3 -5 -5 -5 -6 -5 -5 -6 -5 -5 -5 -5 -4 -5 -3 -3 -2 -1 0 0 2 3 4 4 5 5 5 5 4 5 5 5 4 5 4 4 2 2 0 0 0 0 0 0 0
0 0 0 0 -1 -2 -2 -3 -3 -4 -4 -4 -4 -4 -3 -3 -3 -2 -2 0 0 1 1 1 1 1 2 2 2 2 2 2 2 2 2 2 3 3 4 3 3 2 3 2 3 2 2 1 1 2 1 1 2 1 1 1 0 1 0 1 1 1 1 1 1 1 1 1 1 1 1 1 0 0 -1 0 -1 -1 -2 -2 -2 -2 -2 -2 -3 -3 -3 -3 -3 -3 -4 -4 -4 -4 -3 -3 -3 -3 -3 -4 -4 -3 -3 -3 -1 -1 0 1 2 2 2 1 1 0 -1 -1 -2 -2 -2 -1 -2 -1 0 0 2 3 3 4 5 6 5 5 5 5 4 3 3 2 2 1 1 0 0 -1 -3 -3 -4 -4 -4 -3 -3 -1 -2 -1 -1 -1 -2 -2 -2 -3 -3 -2 -2 -1 -1 -1 -1 -1 -2 -2 -2 -2 0 2 3 4 6 6 7 6 5 4 2 1 1 1 0 0 0 -1 -2 -3 -4 -5 -5 -5 -4 -3 -2 -2 -1 -2 -2 -2 -3 -3 -2 -2 -1 -1 0 0 0 -1 -2 -3 -4 -3 -2 -1 2 3 3 4 3 2 0 -1 -3 -3 -4 -4 -3 -4 -4 -4 -5 -5 -6 -6 -5 -3 -1 3 7 10 13 15 16 17 0 0 0 0 0 0
-3 -3 -3 -2 -1 -1 -1 0 0 0 0 1 1 1 1 1 2 1 2 1 1 1 1 1 0 0 0 0 0 0 0 0 0 1 0 1 0 1 0 0 0 0 0 0 0 1 1 1 0 0 -1 -1 0 0 0 1 0 1 1 1 2 2 2 2 1 0 0 0 0 0 -1 -1 -1 0 0 1 0 1 2 1 2 2 2 2 2 2 2 2 1 1 0 -1 -1 -2 -2 -3 -3 -3 -3 -3 -2 -2 -1 -1 0 1 2 4 4 4 4 5 5 5 4 4 5 4 3 2 2 1 -1 -1 -1 -2 -2 -3 -2 -2 -2 -3 -3 -4 -4 -5 -6 -6 -6 -7 -7 -6 -6 -6 -5 -5 -3 -2 -1 0 1 0 1 2 1 1 0 0 0 1 1 1 2 3 3 4 5 6 6 6 5 4 3 3 1 1 0 1 1 2 2 2 2 3 3 3 2 1 -1 -2 -3 -4 -5 -5 -6 -6 -5 -6 -5 -4 -4 -4 -4 -4 -5 -6 -6 -7 -6 -7 -6 -6 -4 -1 0 2 4 4 5 5 4 3 2 0 0 -2 -2 -2 -1 0 2 4 5 6 6 5 5 3 2 0 0 -1 -1 -1 -2 -1 -1 -2 -2 -2 0 0 0 0 0 0
-2 -2 -1 0 0 1 3 3 4 5 5 6 6 5 5 4 3 2 2 1 0 -1 -1 -1 -2 -2 -3 -3 -3 -3 -3 -3 -3 -3 -4 -3 -4 -4 -4 -4 -3 -2 -2 -2 -1 -1 0 0 1 1 2 1 2 1 1 1 0 0 -1 -1 -1 -2 -2 -1 -1 -1 -1 -1 0 0 -1 0 0 0 1 0 1 2 1 2 1 0 1 0 0 0 -1 -1 -2 -3 -2 -1 -2 -1 0 0 1 2 2 2 2 3 3 3 2 2 1 0 -1 -2 -1 -1 -1 -1 -1 0 0 0 1 1 2 2 2 2 1 0 0 -1 -1 -2 -2 -2 -2 -1 -2 -2 -1 0 1 2 3 4 4 4 4 5 4 3 2 1 1 0 0 -1 -2 -2 -2 -2 -2 -2 0 0 1 2 3 2 3 2 2 1 1 0 0 -1 -2 -3 -4 -4 -4 -5 -4 -4 -3 -2 -2 -2 -1 -1 -1 -1 -2 -3 -3 -4 -5 -7 -7 -8 -8 -9 -8 -8 -6 -5 -3 -1 2 4 5 7 8 8 8 8 7 6 4 3 2 0 -1 0 0 0 2 3 5 6 8 7 6 4 1 -1 -3 -5 -5 -6 -7 -7 -9 -9 -11 -10 -10 -8 -3 8 21 38 0 0 0 0 0 0
3 2 2 1 1 1 0 0 0 0 1 0 1 0 1 1 2 1 2 2 1 2 1 1 1 1 0 0 -1 -1 -2 -1 -2 -1 -2 -2 -1 -2 -1 -1 -2 -2 -1 -2 -1 -2 -1 -2 -1 -1 0 -1 -1 -1 -1 -1 0 -1 -1 -2 -2 -3 -3 -4 -4 -4 -5 -5 -5 -5 -5 -4 -3 -3 -2 -2 0 0 1 2 3 3 3 4 5 4 5 6 5 5 6 6 6 5 5 4 3 3 1 0 -1 -2 -3 -4 -5 -5 -5 -6 -6 -6 -6 -6 -5 -4 -4 -3 -3 -2 -1 0 0 1 1 2 3 3 4 4 4 5 5 4 5 5 4 3 3 1 1 0 -1 -1 -2 -2 -3 -3 -3 -3 -3 -4 -4 -4 -4 -4 -3 -4 -4 -3 -4 -4 -4 -5 -4 -4 -4 -3 -3 -3 -3 -2 -1 0 1 2 3 3 4 5 4 6 5 5 4 3 3 2 1 1 0 -1 -1 -1 -2 -1 0 -1 -1 0 1 1 2 3 3 3 3 3 4 4 5 4 4 3 3 3 2 1 1 0 -1 -1 -1 -2 -3 -3 -2 -3 -1 -2 -2 0 0 1 2 1 1 1 2 2 1 1 1 0 0 -1 -1 -1 0 -1 -1 -2 0 0 0 0 0 0
0 0 1 1 1 1 1 1 2 2 2 1 1 1 1 0 0 0 0 -1 -1 -1 -1 -1 -1 -1 -1 -1 0 0 0 0 1 1 1 0 0 -2 -1 -3 -3 -3 -3 -2 -2 -3 -2 -1 -1 -1 0 1 1 2 2 3 3 3 3 2 2 1 1 0 -1 -2 -2 -2 -3 -3 -3 -4 -4 -5 -4 -5 -5 -6 -5 -5 -5 -5 -5 -5 -4 -3 -2 -2 0 0 1 1 2 2 3 3 3 3 3 3 3 3 1 1 1 0 -1 -1 -1 -1 -1 -1 -1 -1 0 -1 0 0 0 0 1 1 1 2 3 4 5 4 5 4 4 4 3 2 2 1 0 -1 -1 -2 -2 -2 -3 -3 -3 -4 -4 -3 -3 -3 -2 -3 -2 -2 -3 -4 -4 -4 -5 -4 -5 -4 -3 -3 -2 -2 -1 -1 -1 0 2 2 2 3 3 4 4 4 4 4 3 3 2 0 0 -1 -2 -2 -3 -4 -4 -5 -5 -5 -5 -5 -5 -4 -3 -3 -2 -1 0 1 1 2 2 3 4 4 4 5 6 8 7 8 8 7 6 6 4 3 3 2 3 3 3 3 3 3 3 2 1 0 -1 -1 -1 -2 -3 -3 -4 -7 -8 -9 -9 -8 -4 0 6 14 0 0 0 0 0 0
0 0 0 0 1 1 1 1 1 1 1 1 1 1 1 2 2 2 1 2 2 1 1 1 2 2 2 2 2 2 2 1 1 1 1 1 0 -1 -1 -1 -2 -3 -2 -4 -4 -4 -4 -4 -5 -5 -6 -6 -6 -5 -5 -4 -4 -3 -3 -2 -1 -1 -1 0 -1 0 0 0 0 1 1 2 3 4 4 5 5 5 4 4 4 4 3 3 3 3 2 3 3 2 1 1 2 1 1 1 0 0 -1 -1 -2 -3 -3 -2 -3 -3 -3 -2 -3 -2 -3 -3 -2 -3 -3 -3 -2 -2 -2 -3 -3 -2 -3 -2 -2 -1 -1 -1 1 1 1 1 1 1 0 0 -1 -1 0 -1 0 0 0 1 1 1 1 2 1 2 2 2 4 3 4 4 4 3 3 3 2 2 0 1 0 1 1 1 1 1 -1 -2 -1 -2 -2 -2 -2 -1 -1 0 1 0 0 -1 -1 -1 -1 -1 -2 -2 -1 -2 -2 -3 -3 -2 -3 -2 -2 -2 -1 -2 -3 -4 -3 -4 -3 -2 -1 1 1 1 1 1 0 0 -1 0 1 1 2 3 2 0 -1 -3 -5 -6 -4 -2 2 7 11 13 14 13 9 5 0 -2 -2 -1 2 6 7 6 1 -7 -19 -33 0 0 0 0 0 0
-1 -2 -1 -2 -1 -1 -1 0 0 0 0 1 1 1 1 1 2 2 2 3 3 2 3 2 3 3 2 2 2 2 1 1 1 0 -1 -1 -2 -2 -3 -3 -3 -4 -4 -4 -4 -4 -3 -2 -2 -2 -2 -1 -1 0 0 1 1 1 2 3 3 3 3 3 4 3 3 2 2 1 1 -1 -1 -2 -3 -3 -4 -4 -3 -4 -4 -4 -3 -3 -3 -3 -2 -2 -1 0 0 0 1 1 1 1 2 3 3 3 3 4 4 4 5 4 4 4 4 5 5 4 4 3 3 3 3 2 2 2 1 1 0 0 -1 -1 -2 -2 -2 -3 -3 -4 -4 -3 -3 -4 -3 -3 -2 -2 -2 -1 0 0 1 1 1 1 1 2 3 3 3 4 4 3 4 3 2 2 2 1 1 0 0 0 -2 -2 -2 -4 -4 -5 -6 -6 -7 -7 -7 -6 -7 -7 -5 -4 -3 -2 -1 0 2 3 3 4 3 3 3 2 2 1 1 2 1 2 2 2 3 3 2 2 2 2 2 0 0 0 0 -1 -1 -1 -1 -1 -1 -1 -1 1 1 1 3 3 4 3 2 2 1 1 -1 -1 0 -1 -1 -2 -2 -4 -5 -7 -8 -10 -10 -9 -7 -2 4 11 0 0 0 0 0 0
1 0 0 0 0 0 -1 -2 -1 -2 -1 -1 -2 -1 -1 -1 -1 0 0 0 1 1 1 2 2 2 2 3 2 2 2 2 1 1 0 -1 0 0 0 -2 -2 -1 -2 -3 -3 -4 -4 -4 -5 -4 -4 -4 -4 -4 -3 -2 -2 -2 -2 -1 0 1 1 2 3 2 3 3 3 3 4 3 3 3 3 2 3 1 1 1 0 0 0 -1 -1 0 -1 0 -1 0 -1 0 0 0 0 0 0 0 0 0 -1 -1 0 -1 -1 -2 -1 -1 -1 -1 -1 -1 -1 -1 -1 0 0 1 1 0 1 1 2 2 2 3 2 3 2 2 2 1 1 2 2 1 1 2 1 1 0 0 -1 -1 -1 -2 -2 -2 -2 -3 -3 -3 -3 -3 -3 -4 -4 -4 -5 -4 -4 -5 -4 -4 -3 -2 -2 0 1 1 2 3 4 5 4 5 5 5 5 5 5 5 4 3 3 1 1 -1 -1 -2 -2 -4 -4 -4 -4 -5 -5 -5 -5 -5 -4 -4 -4 -2 -2 -1 0 0 1 1 2 2 3 3 3 3 3 3 2 3 3 4 4 4 3 4 3 2 2 0 0 -2 -2 -2 -2 -2 -2 -3 -2 -2 -2 -2 -1 -2 -1 0 0 1 3 4 0 0 0 0 0 0
0 1 1 1 1 1 2 2 2 1 1 1 2 1 1 2 1 1 1 2 1 1 0 0 -1 -1 -2 -2 -2 -2 -2 -2 -2 -2 -2 -3 -2 -3 -3 -4 -4 -4 -4 -4 -4 -4 -4 -3 -3 -3 -1 -1 0 1 2 3 3 4 4 4 3 2 3 2 1 1 0 1 1 -1 0 0 -1 0 0 -1 1 0 0 0 0 0 1 0 0 1 1 0 1 1 1 0 -1 0 0 -1 -1 -1 -1 -1 -1 -2 -1 0 0 0 1 0 1 1 0 0 0 -1 -1 0 -1 -1 -1 -2 -2 -2 -2 -2 -2 -2 -2 -2 -2 -1 -1 -1 -1 0 0 0 1 1 1 1 1 1 2 2 1 1 0 0 0 0 1 1 1 1 1 2 2 3 2 2 2 2 1 1 1 0 -1 -2 -1 -1 -2 -1 -1 -1 -1 0 0 0 -1 0 0 0 0 0 -1 -1 -1 -1 0 0 1 0 1 0 1 1 0 0 -2 -3 -4 -4 -6 -6 -6 -7 -6 -5 -4 -2 -1 0 2 3 4 6 6 6 5 5 4 2 2 2 2 2 3 3 4 5 5 6 5 3 2 0 -1 -3 -3 -4 -4 -4 -3 -2 0 0 1 1 0 0 0 0 0 0 0 0
-13 -9 -7 -5 -4 -3 -1 -1 -1 -1 0 0 0 1 1 0 0 0 0 0 0 0 0 0 0 0 1 1 1 1 1 0 0 0 0 0 0 0 0 0 0 1 1 1 1 2 2 2 2 2 2 3 3 3 2 2 2 2 2 2 2 3 3 2 3 3 3 3 2 2 2 1 2 1 1 0 1 0 -1 0 -1 -2 -2 -1 -2 -2 -1 -2 -1 -2 -1 -2 -1 -2 -1 -2 -2 -2 -1 -2 -2 -2 -2 -3 -3 -2 -3 -2 -2 -2 -2 -2 -1 -1 -1 -2 -1 -1 -1 -1 0 -1 0 0 0 0 0 -1 -1 0 -1 -1 -1 -1 -2 -1 -3 -3 -4 -5 -6 -7 -7 -8 -9 -10 -11 -12 -13 -15 -16 -17 -18 -19 -19 -19 -18 -18 -18 -17 -17 -16 -15 -15 -14 -13 -11 -10 -7 -6 -5 -3 -3 -2 -2 -2 -2 -1 -2 -2 -1 -1 -1 -1 -2 -2 -1 -1 -1 -1 -1 0 0 0 1 0 1 1 0 0 0 0 0 -1 -1 -1 -1 -1 -1 0 0 2 1 2 2 2 3 3 4 4 4 5 5 7 8 9 9 10 11 11 10 10 9 9 8 8 6 5 4 2 -1 -4 -7 -8 -4 2 2 -2 -14 -28 0 0 0 0 0 0
-4 -4 -4 -3 -3 -4 -4 -4 -3 -4 -3 -4 -4 -4 -4 -4 -4 -5 -5 -5 -4 -4 -3 -3 -2 -1 -2 -2 -3 -4 -3 -4 -4 -3 -3 -3 -2 -2 -2 -2 -3 -2 -3 -3 -2 -2 -2 -1 -1 0 0 0 -1 -1 0 -1 -1 0 0 1 1 2 2 2 1 1 0 0 -1 -1 -1 -1 -1 -2 -2 -2 -1 -1 -2 -1 -1 -1 -1 0 0 0 0 0 0 0 0 0 1 1 1 2 1 1 1 0 0 0 1 1 1 2 2 2 2 1 1 0 -1 -1 -3 -2 -3 -3 -2 -2 -2 -1 -2 -2 -1 0 0 1 2 3 3 4 4 3 3 2 1 1 0 0 0 0 0 -1 -1 -2 -1 -2 -1 -2 -2 -1 -1 -2 -1 -2 -2 -2 -1 -1 0 1 1 1 2 2 3 2 2 2 2 3 3 3 3 3 3 4 4 4 4 3 4 4 3 4 4 4 3 4 3 3 2 2 1 -1 -2 -3 -3 -3 -3 -4 -3 -2 -1 -1 -1 -2 -2 -4 -4 -4 -4 -4 -3 -2 -1 -2 -1 -1 -1 0 0 1 3 5 7 9 9 10 9 7 5 3 2 2 1 -1 -2 -5 -8 -12 -18 -21 -23 -21 -14 -4 12 33 0 0 0 0 0 0
-2 -2 -1 -1 -1 0 0 0 0 0 0 1 1 1 0 0 0 0 0 1 1 0 0 0 0 0 0 0 0 1 1 1 2 2 2 3 3 3 3 2 1 0 0 0 -2 -2 -2 -2 -3 -3 -3 -3 -2 -2 -2 -2 -2 -2 -1 0 -1 0 0 0 1 1 1 2 1 1 1 2 1 0 0 -1 -1 -1 -2 -3 -3 -3 -3 -3 -3 -2 -2 0 0 0 2 2 3 3 4 3 3 3 3 2 1 1 0 0 -1 -1 -1 -2 -2 -1 -1 -1 0 0 1 2 2 3 3 4 4 3 3 2 1 1 0 0 -1 -2 -2 -2 -2 -2 -3 -2 -2 -2 -2 -2 -1 -1 0 0 1 1 2 2 2 2 2 2 1 1 1 0 0 1 0 0 0 -1 0 0 0 0 0 0 -1 -1 0 0 0 0 0 1 0 0 0 1 0 0 1 1 2 2 2 1 2 2 2 2 1 2 1 1 0 -1 -2 -3 -5 -5 -6 -6 -6 -6 -5 -6 -4 -4 -4 -3 -3 -1 -1 1 2 3 4 6 6 8 8 8 9 8 7 7 6 6 6 5 4 3 2 2 1 0 -1 -1 -2 -3 -5 -6 -7 -7 -9 -10 -11 -13 0 0 0 0 0 0
8 7 7 7 6 5 6 5 5 5 5 5 4 4 3 3 3 3 4 3 3 3 2 3 2 2 1 1 1 1 1 0 1 1 0 -1 -2 -2 -2 -3 -3 -3 -2 -2 -2 -3 -3 -2 -3 -2 -3 -2 -3 -4 -4 -4 -4 -4 -4 -3 -3 -3 -2 -2 -2 -3 -2 -2 -3 -2 -2 -1 0 0 0 1 1 0 0 -1 -1 -2 -3 -3 -2 -3 -2 -2 -2 -2 -1 -1 -1 -1 -1 -1 -1 -1 0 1 2 3 5 5 6 6 6 5 5 4 4 3 3 2 2 2 1 0 -1 -2 -4 -4 -6 -6 -7 -7 -7 -7 -6 -5 -5 -4 -4 -3 -2 -2 -2 -2 -2 -2 -3 -3 -4 -4 -3 -3 -1 -1 -1 0 -1 -2 -2 -3 -5 -5 -6 -6 -6 -5 -4 -4 -4 -3 -4 -4 -4 -5 -4 -3 -4 -2 -1 -1 -1 -1 -1 -2 -2 -2 -2 -1 -1 0 0 1 1 1 1 2 1 0 -1 -1 -1 -1 -1 -1 -1 0 0 0 0 0 0 -1 -1 -1 -1 -2 -1 -3 -3 -3 -3 -3 -2 -3 -2 -3 -3 -3 -3 -2 -2 -1 -1 0 0 2 2 3 3 4 5 5 6 6 6 6 7 6 5 5 5 4 4 5 6 7 0 0 0 0 0 0
-3 -2 -2 -1 0 -1 0 1 1 2 2 3 3 3 3 4 4 3 3 2 2 0 1 0 0 -1 -1 -1 -1 -1 -1 -2 -2 -2 -3 -2 -2 -3 -3 -4 -5 -5 -5 -5 -5 -4 -3 -2 -1 0 0 1 2 1 2 2 1 0 0 0 0 -1 -1 -1 0 0 0 0 0 1 2 2 2 2 3 3 3 3 3 2 2 1 1 0 -1 0 -2 -1 -2 -2 -2 -2 -1 -2 -1 0 0 0 0 1 0 1 0 1 0 1 0 -1 0 -1 -1 -1 -1 -1 -1 0 0 1 1 1 2 1 1 1 1 1 1 1 1 0 0 1 0 0 0 0 1 0 0 0 0 0 0 -1 -1 -1 -1 -1 -2 -1 -1 0 0 -1 0 0 1 1 1 1 1 1 1 1 1 1 0 0 0 0 -2 -1 -2 -2 -2 -3 -3 -3 -3 -4 -4 -5 -5 -4 -4 -4 -3 -2 0 1 1 1 1 2 2 1 0 0 0 0 0 1 1 2 3 4 5 7 7 9 8 8 9 8 7 6 4 1 0 -2 -2 -2 -2 -1 0 1 2 4 5 6 6 4 4 2 1 -2 -5 -7 -11 -13 -15 -15 -15 -15 -13 -9 -4 4 15 26 0 0 0 0 0 0
6 5 5 5 5 5 5 6 6 5 6 5 5 4 3 2 2 1 0 -1 -2 -2 -3 -3 -5 -5 -5 -5 -5 -5 -4 -3 -3 -3 -3 -3 -3 -3 -2 -2 -3 -2 -2 -2 -1 -1 -2 -2 -2 -2 -2 -2 -2 -2 -2 -1 0 -1 -1 -1 -1 -2 -2 -2 -3 -3 -2 -2 -2 -2 -1 -2 -2 0 0 1 3 3 5 5 6 5 4 5 3 2 1 0 0 -1 -2 -2 -2 -2 -2 -2 -1 0 1 0 1 2 1 2 1 0 0 -1 -1 -2 -2 -3 -3 -3 -4 -4 -3 -3 -2 -2 0 1 2 3 4 5 6 5 3 3 2 1 0 -1 -2 -3 -4 -4 -4 -5 -4 -5 -5 -4 -3 -3 -3 -2 -2 -1 0 0 0 -1 -1 -1 -1 -1 -1 0 0 0 1 1 1 2 1 2 1 1 0 -2 -2 -4 -4 -5 -5 -4 -4 -3 -2 -1 0 2 3 3 3 3 5 5 6 5 6 5 6 5 4 3 2 1 0 -1 -1 -2 -2 -1 -1 0 0 0 -1 -1 -2 -3 -3 -3 -3 -3 -3 -3 -2 -2 -2 -2 -2 -1 -1 -1 0 1 2 3 4 5 5 5 6 6 6 6 6 5 4 2 1 -1 -2 -3 -5 -6 0 0 0 0 0 0
0 0 -1 -1 0 -1 0 -1 0 1 0 0 1 1 1 2 2 2 2 2 2 2 2 2 1 1 1 0 0 -1 -1 -1 -1 -1 -2 -2 -1 -1 -1 0 0 0 0 0 0 1 1 1 1 1 1 1 1 1 1 0 0 1 1 1 0 0 0 0 0 0 -1 -1 -1 -1 -1 -1 -2 -2 -2 -1 -2 -1 -1 -1 -1 -1 -1 -1 -1 0 1 1 1 3 2 4 4 5 5 4 4 3 3 2 2 2 1 0 0 0 0 -1 -1 -1 -1 0 0 0 -1 -1 -1 -3 -4 -5 -5 -6 -6 -6 -6 -6 -5 -5 -5 -4 -4 -3 -3 -2 -2 -1 0 0 0 0 0 -2 -1 -1 -2 -1 -1 -1 0 0 0 0 0 0 0 0 0 1 2 1 2 3 3 3 3 3 3 3 2 2 0 0 -1 -2 -3 -3 -2 -2 -2 -1 0 1 1 1 1 1 0 -1 -1 -1 -2 -1 -1 -1 -1 -1 0 0 0 0 1 1 0 -1 -1 -1 -2 -3 -4 -5 -5 -5 -4 -4 -2 -2 -1 0 -1 0 0 -1 -1 -1 -1 0 0 1 1 2 2 3 3 4 3 4 5 5 5 5 5 5 4 4 3 3 3 2 2 3 0 0 0 0 0 0
0 0 0 -1 -1 -2 -1 -1 -1 -1 0 -1 -1 0 -1 -1 -1 -1 -2 -3 -3 -3 -3 -3 -3 -2 -1 0 1 2 3 4 5 4 5 5 6 5 6 5 5 4 3 2 2 1 0 -1 -2 -1 -1 -2 -1 -1 0 0 1 1 1 1 1 0 -1 -1 -2 -3 -4 -5 -5 -6 -7 -7 -7 -6 -6 -4 -4 -3 -3 -3 -1 -2 -2 -1 -1 -1 -1 -2 -2 -3 -3 -3 -4 -4 -5 -4 -4 -4 -3 -2 0 0 1 1 2 3 3 3 2 1 1 0 0 0 -1 -1 0 0 0 2 2 3 3 3 4 4 5 4 5 5 4 3 3 2 2 1 0 -2 -3 -4 -5 -5 -6 -7 -8 -8 -8 -8 -8 -8 -8 -8 -6 -7 -6 -6 -5 -4 -4 -3 -3 -3 -3 -2 -1 -1 -1 0 0 1 1 1 0 0 -1 -1 -2 -1 -1 0 0 0 0 1 3 3 3 3 3 3 3 2 2 2 2 2 2 2 1 1 1 0 1 0 1 0 0 0 0 1 1 1 1 1 1 0 -1 -1 -2 -3 -4 -4 -5 -4 -4 -4 -3 -2 -1 -1 -2 -2 -1 -1 0 0 2 4 6 8 9 9 9 8 9 8 7 8 9 10 0 0 0 0 0 0
-3 -2 -2 -2 -2 -1 -1 -2 -2 -2 -2 -1 -1 -1 0 0 1 1 1 0 1 0 1 1 1 1 1 1 2 2 2 2 3 3 3 3 3 2 3 2 3 2 1 0 0 1 0 -1 0 -1 -1 -1 -2 -2 -3 -4 -5 -5 -4 -3 -2 0 1 2 4 5 4 4 4 2 1 0 -1 -2 -4 -4 -4 -4 -4 -5 -4 -5 -6 -6 -5 -5 -5 -5 -4 -4 -1 1 2 4 6 7 8 8 8 6 5 3 2 0 0 -2 -2 -1 -1 -1 0 0 -1 -1 0 -1 -1 1 2 3 5 5 6 6 5 6 5 3 3 2 1 1 1 1 1 2 3 2 2 2 1 1 0 0 0 -1 -1 -1 -1 0 0 0 0 1 3 3 2 2 1 0 -2 -2 -4 -4 -5 -4 -4 -3 -3 -2 -2 -2 -1 -1 0 1 1 1 1 1 0 1 1 0 0 0 0 -1 0 0 -1 -1 -2 -2 -2 -3 -4 -4 -4 -4 -3 -3 -1 0 2 2 1 1 1 0 -1 -1 -2 -3 -3 -4 -4 -5 -4 -3 -3 -1 0 0 0 1 1 0 -1 -1 -3 -4 -5 -5 -5 -2 0 3 5 6 5 4 0 -2 -5 -7 -7 -4 2 9 0 0 0 0 0 0
-3 -3 -3 -2 -1 1 2 2 3 3 2 1 2 0 1 1 1 2 1 3 2 2 1 2 1 1 0 2 2 2 1 1 1 1 0 -2 -3 -3 -4 -3 -3 -1 -1 -1 0 0 1 1 0 -1 -1 -1 -1 -1 0 1 0 1 1 1 1 1 1 -1 -1 -1 -2 -2 -1 -2 -1 -1 -1 -1 -1 -2 -2 -2 -3 -3 -2 -2 -1 0 1 2 2 3 2 1 0 -1 -3 -3 -2 -3 -2 -2 -1 -2 -2 -2 -3 -3 -2 -2 -2 0 1 2 3 3 2 1 -1 -1 -3 -2 -2 -2 -2 0 1 0 0 -1 -2 -2 -2 -2 0 0 2 3 5 4 4 2 1 0 0 0 0 1 2 3 4 4 3 1 0 -3 -4 -4 -4 -3 -1 -1 0 0 -1 -2 -4 -5 -6 -6 -5 -3 -1 2 3 3 2 1 -1 -3 -4 -4 -5 -4 -1 1 2 3 3 3 2 -1 -1 -2 -2 -1 1 3 4 5 4 4 2 0 -2 -2 -3 -2 -1 0 0 1 1 0 -2 -4 -6 -7 -8 -8 -7 -6 -4 -2 -2 -2 -3 -3 -4 -5 -4 -4 -3 -1 0 2 5 6 7 8 7 6 4 2 0 -1 -3 -4 -4 -1 2 9 18 27 0 0 0 0 0 0
-6 -6 -7 -7 -7 -7 -5 -6 -5 -4 -4 -4 -4 -3 -3 -3 -1 -1 -1 0 0 0 0 0 0 1 1 2 2 2 2 3 3 3 3 3 3 4 2 2 2 1 1 0 0 0 -1 -1 -1 -2 -2 -3 -3 -2 -3 -3 -3 -3 -2 -2 -2 -2 -1 0 0 1 1 1 2 2 3 3 4 3 3 3 3 3 3 3 2 2 2 1 1 2 1 1 1 -1 -1 -1 -1 -1 -2 -2 -2 -2 -2 -3 -3 -3 -2 -2 -3 -2 -1 -1 -1 -2 -1 -2 -1 -1 -2 -1 -2 -2 -2 -1 -2 -1 -2 -1 -2 -1 -1 0 0 0 1 0 1 1 1 1 1 2 2 2 2 3 2 2 3 3 3 3 3 4 4 3 4 3 3 4 4 4 4 4 3 3 4 3 3 2 1 1 0 0 -1 0 -1 -1 -1 -1 -1 0 0 0 0 -1 -1 -2 -1 -1 -2 -2 -3 -3 -4 -4 -4 -3 -2 -2 -3 -3 -3 -3 -4 -4 -4 -6 -5 -5 -5 -4 -3 -3 -3 -2 -3 -2 -2 -2 -3 -2 -3 -3 -3 -4 -4 -5 -4 -4 -4 -2 -1 0 2 4 5 6 6 6 6 6 5 6 5 5 5 5 4 3 1 -1 -2 -5 0 0 0 0 0 0
3 2 1 0 0 0 -1 -1 0 -1 -1 -2 -2 -2 -2 -2 -2 -2 -1 -1 -2 -1 -1 -1 -1 -1 0 0 0 1 1 1 1 1 1 1 2 2 1 1 2 1 2 1 2 1 2 1 2 1 1 1 2 2 1 2 1 0 0 0 -1 -1 0 0 0 0 0 0 -1 -1 0 0 -1 0 -1 -1 -1 -1 -2 -2 -2 -2 -1 -2 -1 -2 -1 -1 -1 -1 -2 -1 -1 -1 -1 -1 -1 -1 -1 -1 -1 -1 0 0 1 1 2 2 2 1 1 1 1 1 1 1 1 0 1 0 0 0 0 0 -1 -1 0 -1 0 0 0 0 0 0 -1 -1 -1 0 0 0 -1 0 0 -1 0 0 0 0 0 -1 -1 0 -1 -1 -2 -2 -1 -2 -3 -2 -2 -2 -2 -3 -3 -3 -3 -3 -2 -2 -1 -1 0 1 1 1 1 2 2 3 2 2 2 2 2 2 1 2 2 1 1 1 0 0 0 0 0 1 1 2 2 3 2 2 1 0 -1 -1 -1 0 1 1 1 1 0 -1 -2 -2 -2 -1 0 1 2 1 -1 -3 -5 -5 -3 0 4 6 7 4 0 -5 -9 -8 -4 3 8 6 -2 -20 -39 -50 -43 -8 51 126 0 0 0 0 0 0
-5 -5 -4 -4 -4 -4 -4 -3 -2 -2 -2 -1 -1 0 0 0 1 1 1 0 0 0 -1 -2 -2 -3 -3 -2 -2 -1 -1 -1 0 0 0 -1 -1 -1 -1 0 0 0 0 1 1 0 0 0 -1 -1 -1 -1 -1 -1 0 0 0 1 1 0 0 0 -1 -1 -2 -3 -3 -3 -2 -2 -1 0 0 1 1 1 1 1 0 -1 -1 0 1 2 2 3 4 4 3 2 1 0 0 -1 -1 -1 -1 1 0 0 0 0 -1 -2 -4 -4 -4 -4 -4 -3 -2 -2 -1 0 -1 -2 -2 -2 -1 -1 0 0 1 2 1 1 1 0 -2 -2 -3 -4 -3 -2 -2 -2 -1 -1 -1 0 -2 -1 -1 0 0 1 2 2 3 1 1 0 0 0 0 1 2 3 4 5 6 5 4 3 3 2 2 1 2 2 3 2 2 0 -1 -2 -3 -4 -3 -2 -1 -1 0 0 0 -2 -3 -4 -6 -7 -5 -4 -1 2 4 6 7 7 5 3 1 -1 -1 -1 1 3 5 7 7 7 4 1 -1 -4 -5 -4 -2 0 4 7 10 11 9 7 3 -1 -4 -6 -7 -7 -4 -2 2 6 9 10 9 5 1 -4 -10 -15 -19 -21 -20 -17 -9 1 17 34 0 0 0 0 0 0
-9 -8 -6 -6 -5 -5 -4 -4 -4 -4 -4 -3 -3 -1 -1 0 0 2 2 3 2 2 3 2 2 1 1 1 1 1 2 2 1 2 2 3 2 2 1 1 0 0 -1 -2 -1 -1 -2 -1 -1 -1 -2 -3 -4 -5 -6 -6 -6 -7 -7 -7 -7 -7 -6 -6 -6 -5 -5 -5 -6 -5 -5 -4 -3 -3 -2 -1 0 0 0 -1 -1 -1 -2 -1 -1 -1 0 1 2 3 3 4 4 5 4 4 3 3 3 3 2 2 2 2 1 2 0 0 -1 -1 -1 -1 -2 -1 0 0 0 1 2 2 2 2 2 2 2 2 2 2 2 3 3 3 4 4 3 2 3 2 1 1 0 0 0 0 0 0 0 0 0 -1 -2 -3 -4 -5 -5 -5 -4 -3 -3 -2 -2 -1 -1 -1 -2 -3 -3 -3 -4 -3 -2 -2 -2 -2 -1 -2 -3 -3 -4 -4 -4 -4 -4 -4 -3 -2 -2 -2 -2 -2 -2 -3 -4 -3 -4 -4 -4 -4 -4 -4 -4 -4 -3 -3 -2 -2 -2 -1 -1 -1 -1 -1 -1 -1 -2 -2 -2 -3 -2 -3 -3 -3 -3 -3 -1 0 2 4 5 7 6 7 5 4 2 0 -1 -1 0 1 4 7 9 12 13 14 12 9 5 -2 0 0 0 0 0 0
0 1 1 1 1 1 0 0 0 0 0 -1 -1 0 0 0 0 0 2 2 2 1 2 1 1 1 0 -1 -2 -2 -3 -2 -3 -2 -2 -2 -1 0 0 0 1 1 1 1 1 1 0 0 1 0 1 1 2 2 2 1 2 2 2 1 2 1 1 1 0 0 -1 0 -1 -2 -2 -2 -2 -2 -2 -3 -3 -2 -3 -3 -3 -3 -1 -1 -1 -1 0 1 1 1 2 3 3 4 4 3 3 2 1 0 -1 -2 -2 -2 -3 -3 -3 -3 -2 -2 0 0 1 2 3 3 3 3 4 3 3 4 4 4 3 3 3 2 1 0 -1 -1 -1 -2 -1 -1 -1 0 2 2 3 3 4 5 5 5 5 4 4 4 3 3 2 3 3 3 3 3 3 1 2 1 -1 0 -1 -2 -3 -4 -3 -4 -4 -4 -4 -4 -5 -5 -6 -6 -6 -7 -7 -8 -7 -7 -7 -7 -7 -8 -8 -8 -8 -7 -6 -6 -5 -3 -3 -1 0 1 2 3 3 3 5 4 4 3 2 2 2 2 1 2 2 3 3 4 4 3 3 2 2 1 0 0 -1 -1 -2 -2 -3 -3 -3 -3 -3 -2 -2 -2 -2 -2 -2 -3 -4 -4 -5 -4 -1 3 9 16 0 0 0 0 0 0
-2 -2 -2 -1 -1 -1 0 0 1 1 1 1 1 1 2 1 1 1 1 1 1 2 1 1 2 1 1 1 1 1 2 2 2 2 2 1 2 1 1 0 -1 -1 -1 -1 -2 0 -1 -2 -2 -1 -2 -2 -3 -3 -3 -3 -4 -3 -2 -2 -1 -1 -1 0 0 0 0 0 -1 -1 -1 -2 -2 -2 -2 -3 -3 -4 -5 -5 -4 -4 -3 -3 -1 0 1 3 4 4 5 6 6 5 4 4 3 1 0 -1 -2 -2 -1 -1 0 1 3 3 3 4 4 3 2 1 1 -1 -2 -3 -3 -3 -2 -3 -3 -2 -1 0 1 3 4 4 5 5 4 4 3 2 0 -1 -2 -2 -3 -3 -4 -4 -4 -4 -3 -2 -1 1 3 4 5 5 5 3 2 -1 -2 -4 -4 -3 -3 -2 -1 1 2 2 3 2 2 2 1 1 0 0 0 0 0 1 1 1 0 0 0 0 -1 -1 -2 -2 -2 -3 -3 -3 -4 -4 -3 -4 -3 -3 -2 -2 -2 -4 -3 -4 -4 -4 -3 -3 -2 -2 -2 -1 -1 0 0 1 1 3 3 4 4 5 3 3 2 1 -1 -2 -2 -1 0 2 6 9 11 12 11 8 4 0 -4 -8 -10 -11 -10 -6 1 11 0 0 0 0 0 0
-47 -41 -37 -33 -30 -26 -23 -20 -16 -13 -11 -8 -8 -8 -6 -6 -6 -6 -6 -5 -4 -4 -4 -3 -4 -3 -4 -4 -4 -3 -3 -3 -1 -1 -1 -1 0 -1 -1 -1 -1 -1 -1 -2 -2 -2 -2 -2 -2 -2 -1 0 1 1 2 2 2 1 1 1 1 1 2 4 5 5 6 6 5 5 4 3 3 3 4 5 6 6 7 6 5 5 4 3 4 3 4 5 6 7 6 6 4 3 2 0 0 -1 0 0 1 1 1 0 0 -1 -2 -4 -4 -3 -3 -2 -1 -1 -1 -1 -1 -2 -2 -3 -3 -1 0 1 1 1 1 0 -1 -2 -3 -4 -3 -3 -3 -1 -1 -1 -1 -1 -2 -3 -5 -6 -6 -7 -6 -6 -6 -6 -6 -7 -8 -9 -9 -10 -9 -9 -7 -6 -5 -6 -5 -7 -8 -9 -11 -12 -13 -13 -13 -12 -12 -12 -12 -14 -14 -16 -17 -17 -17 -17 -16 -15 -13 -11 -10 -9 -9 -9 -9 -9 -9 -9 -8 -6 -4 -2 1 3 4 5 6 6 4 4 2 1 1 1 2 4 6 7 7 6 5 2 -1 -3 -5 -5 -4 -1 3 5 8 10 10 8 4 2 0 -2 0 4 9 15 19 23 24 23 19 14 9 4 1 2 9 14 0 0 0 0 0 0
0 -1 -1 -1 -1 0 0 1 2 2 2 1 0 -1 -2 -2 -2 -2 -1 0 0 0 -1 -1 -2 -2 -3 -3 -2 -2 -1 1 3 3 3 3 4 3 3 2 1 1 0 0 1 1 1 2 1 1 1 1 1 0 1 0 0 0 0 -1 -1 0 0 -1 -1 0 -1 -1 -2 -1 -2 -2 -2 -1 -1 -1 0 0 0 0 0 0 -2 -1 -2 -2 -2 -1 -1 -1 -2 -2 -2 -3 -3 -4 -4 -4 -2 -2 0 2 3 3 3 3 2 2 2 2 3 3 4 4 5 5 5 5 4 3 2 2 2 3 2 3 2 3 2 2 1 1 1 0 1 1 1 1 1 1 1 -1 -1 -1 -1 -1 -1 -2 -1 -3 -4 -5 -6 -8 -9 -10 -9 -7 -6 -4 -3 -1 -1 -1 -1 -2 -2 -2 -2 0 1 4 5 6 5 4 3 1 0 -2 -2 -2 -2 0 1 2 3 2 3 1 0 -1 -2 -2 -3 -2 -1 0 1 2 2 2 1 0 0 -1 -1 -1 0 0 2 4 5 5 6 6 4 2 1 -1 -3 -4 -4 -3 -2 -1 -1 -1 -1 -3 -5 -6 -8 -9 -8 -7 -4 0 5 7 10 11 11 10 7 3 -1 -6 -12 -17 0 0 0 0 0 0
6 6 6 5 5 4 4 4 2 3 2 1 0 1 0 -1 0 0 -1 -1 -2 -2 -3 -3 -3 -4 -3 -3 -3 -2 -2 -2 -2 -1 -1 -1 0 0 1 1 1 2 3 3 2 3 1 2 2 1 1 0 0 -1 -1 -1 -1 -2 -1 0 -1 1 1 1 2 2 2 2 1 1 0 0 0 0 0 1 0 1 1 1 1 1 1 2 2 2 2 1 2 1 0 0 -1 -2 -2 -3 -3 -2 -3 -3 -3 -3 -3 -4 -4 -5 -4 -5 -4 -4 -4 -4 -3 -2 -2 -1 1 2 2 3 3 4 5 5 5 5 5 6 6 6 6 5 4 3 2 2 1 0 -1 -3 -3 -4 -5 -5 -6 -6 -6 -6 -7 -7 -7 -7 -6 -6 -5 -5 -4 -3 -2 -1 -1 0 1 2 2 2 3 2 3 3 3 3 3 4 3 4 4 3 3 3 3 4 3 3 2 2 1 0 -1 -1 -2 -2 -3 -3 -4 -4 -4 -5 -5 -5 -4 -4 -3 -2 -2 -2 -1 -1 -1 0 0 0 0 0 0 1 0 0 0 0 0 0 0 0 1 1 2 2 2 1 1 -1 -1 -2 -2 -4 -3 -4 -3 -4 -3 -2 -2 0 1 3 6 9 14 18 0 0 0 0 0 0
2 1 0 0 -1 -2 -2 -2 -1 -2 -1 -2 -2 -2 -2 -2 -2 -2 -1 -1 -2 -2 -1 -2 -2 -2 -3 -4 -3 -4 -4 -5 -6 -5 -5 -4 -4 -4 -4 -4 -4 -4 -4 -4 -4 -3 -3 -3 -2 -2 -1 -1 0 0 0 -2 -2 -3 -3 -3 -3 -2 -2 0 1 0 2 2 2 2 2 2 2 2 2 2 2 2 2 2 2 1 1 0 0 0 0 0 1 1 1 1 2 2 2 2 2 2 2 3 3 2 3 3 3 4 3 3 3 3 3 2 1 1 0 0 -1 -1 -1 -1 -1 -1 0 0 0 0 -1 -1 -2 -3 -4 -5 -5 -5 -5 -5 -4 -4 -5 -5 -6 -6 -6 -5 -5 -4 -2 -1 -1 -1 -1 -1 -1 -1 -1 -2 -1 -1 0 1 2 2 3 2 2 2 1 1 0 0 0 -1 0 0 0 -1 -2 -1 -2 -1 -2 -1 -2 -2 -2 -3 -4 -5 -5 -5 -5 -4 -3 -2 -1 0 1 1 0 0 0 -1 -1 -1 0 0 0 2 2 2 3 4 5 6 6 6 4 3 2 0 -1 -2 -2 -1 -1 0 2 3 3 3 3 2 2 1 2 3 4 4 4 3 0 -4 -7 -11 -13 -11 -7 2 15 31 0 0 0 0 0 0
1 1 0 0 -1 -1 -1 0 1 2 2 2 2 3 3 2 2 2 2 2 2 2 1 1 1 1 1 1 0 -1 -1 -1 -1 -1 0 -1 -1 -2 -2 -3 -3 -4 -5 -4 -4 -3 -2 -2 -1 0 0 -1 0 0 -1 -2 -2 -2 -2 -2 -1 -1 -1 -1 0 -1 0 0 1 1 1 2 3 3 4 5 4 4 4 4 3 5 5 5 6 6 6 5 5 4 3 1 0 0 0 0 0 -1 -1 -2 -2 -2 -2 -3 -3 -2 -3 -3 -2 -2 -2 -3 -3 -3 -4 -3 -4 -3 -2 -2 -1 0 0 0 0 -1 -2 -2 -2 -2 -2 -2 -1 -1 0 0 2 2 2 2 1 1 1 1 1 1 1 1 1 1 2 2 2 3 3 3 3 3 2 3 2 1 1 1 1 0 1 1 2 3 3 3 2 1 1 0 -1 -1 -2 -1 -3 -2 -4 -4 -4 -4 -4 -4 -3 -2 -1 0 -1 -1 -1 -1 -1 -2 -1 -1 -2 -1 -1 -2 -1 -1 0 1 2 2 3 3 2 1 -1 -2 -3 -3 -2 1 4 8 10 9 7 6 3 1 0 2 5 7 8 8 5 3 1 2 5 8 10 5 -7 -28 -50 -66 -62 -31 26 101 0 0 0 0 0 0
-1 0 0 1 0 0 0 0 0 0 0 0 0 0 1 0 0 0 0 0 -1 -1 -2 -2 -2 -2 0 1 2 2 3 3 3 3 2 1 1 0 1 0 0 1 0 0 0 -1 -1 -2 -2 -1 -1 -1 0 0 1 1 1 0 1 0 0 0 0 0 -1 -1 -1 -1 -2 -2 -3 -2 -2 -2 -2 -1 -1 0 1 2 3 3 4 4 5 4 4 3 3 3 2 2 2 2 0 1 0 0 -1 0 -1 -1 -1 -2 -2 -1 -2 -2 -1 -1 -1 -1 0 -1 0 0 0 1 1 2 2 2 1 1 0 0 0 -1 -1 0 -1 -1 0 0 1 1 2 2 2 2 2 2 1 2 1 1 1 0 0 0 0 0 -1 0 0 0 -1 -2 -2 -2 -3 -2 -1 -1 0 1 1 2 3 3 3 2 2 1 0 0 -1 -2 -1 -2 -3 -4 -4 -3 -3 -3 -3 -1 1 3 3 4 5 5 5 4 3 2 0 0 -1 -1 0 2 2 4 4 4 4 3 2 1 0 0 -1 -1 0 0 0 0 1 2 2 2 2 2 1 0 -2 -4 -6 -8 -9 -9 -8 -5 -1 2 4 4 2 -2 -7 -13 -18 -20 -17 -10 5 24 0 0 0 0 0 0
-1 -1 -1 1 1 2 1 2 3 3 3 3 3 3 3 2 2 2 2 1 1 0 1 0 0 0 0 0 -1 0 0 0 0 -1 -1 -1 -1 -1 -1 0 0 0 -1 0 -1 -1 -1 -1 -1 -1 -1 -1 -2 -1 -2 -2 -2 -2 -3 -3 -3 -3 -2 -3 -2 -3 -3 -2 -2 -1 -1 -1 -1 0 1 1 2 2 4 4 5 6 6 7 7 6 6 6 5 5 4 4 3 3 2 1 1 -1 -1 -2 -3 -2 -4 -4 -4 -5 -4 -4 -4 -4 -4 -4 -4 -3 -4 -3 -3 -2 -2 -2 -2 -2 -1 -1 -1 0 0 1 1 1 1 1 1 0 1 0 -1 -1 -1 -1 -1 -1 -1 0 -1 0 0 -1 -1 0 0 1 0 1 0 0 0 0 0 0 0 0 0 1 1 1 2 2 3 2 2 2 2 1 1 1 1 2 2 3 3 2 2 2 1 0 -1 -1 -2 -3 -3 -4 -4 -4 -4 -4 -3 -3 -2 -2 -2 -2 -1 0 1 1 1 2 2 1 1 1 0 1 0 1 0 -1 -1 -1 -1 -2 -1 -1 0 2 3 3 4 3 3 3 2 2 2 2 1 1 0 0 -2 -3 -4 -5 -6 -5 -3 1 6 10 0 0 0 0 0 0
1 0 1 0 0 0 0 0 0 0 0 1 0 0 0 0 -1 0 1 1 2 2 2 2 1 0 -1 -1 -1 -1 0 1 1 1 0 0 -2 -3 -4 -4 -4 -3 -2 -1 0 1 2 1 0 -1 -2 -3 -3 -3 -4 -3 -2 -2 -2 -1 -1 -2 -1 -1 0 -1 1 0 0 0 0 0 -1 -1 -1 -1 -1 -1 0 -1 0 -1 -1 -1 -1 0 -1 -1 0 -1 0 0 0 0 1 1 1 1 1 0 0 0 0 0 0 -1 -2 -2 -2 -2 -2 -3 -2 -1 -2 0 -1 -1 0 -1 -2 -1 -2 -3 -2 -2 -3 -2 -2 -1 0 0 0 1 1 1 0 -1 -1 -1 -1 -1 -1 0 -1 0 0 0 1 2 2 2 3 4 4 4 5 5 3 2 2 0 0 0 -1 -1 -1 0 -1 0 0 1 2 2 3 5 4 5 5 4 4 2 1 0 -1 -1 0 1 2 2 4 3 2 -1 -4 -6 -7 -7 -6 -4 -2 0 -1 -2 -4 -7 -8 -8 -6 -3 1 4 6 5 4 1 -2 -3 -2 2 6 12 16 18 17 12 5 -3 -10 -15 -15 -13 -9 -3 1 2 -1 -7 -13 -18 -17 -12 -3 9 19 24 20 5 -19 -50 0 0 0 0 0 0
1 1 0 0 0 0 0 -2 -1 -1 -1 -1 0 1 0 1 1 2 2 2 1 2 1 1 0 0 0 0 -1 -1 -2 -2 -3 -4 -4 -5 -5 -5 -4 -4 -2 0 1 2 3 5 5 5 5 4 4 2 2 1 0 1 0 0 0 0 0 -1 -1 -2 -1 -1 -1 -1 -1 -1 0 0 -1 0 -1 0 0 0 -1 0 0 0 1 1 1 1 1 1 0 -1 -2 -1 -2 -3 -4 -4 -3 -2 -2 -1 -1 -1 -1 -1 -1 -1 -1 -1 -1 0 0 1 0 0 0 -1 -2 -3 -4 -5 -6 -6 -7 -6 -6 -5 -4 -4 -2 -2 -1 -1 -1 -2 -2 -2 -2 -2 -1 -1 0 0 0 0 1 1 1 1 2 1 2 2 1 2 2 3 3 3 2 2 1 0 0 -1 -1 -1 -1 -1 0 0 0 0 0 0 0 0 -1 0 1 0 1 1 1 1 2 0 -1 -2 -4 -4 -4 -5 -5 -4 -4 -3 -2 -1 -1 -1 -2 -2 -2 -3 -3 -4 -4 -4 -5 -5 -5 -4 -3 -4 -4 -3 -4 -3 -3 -2 -2 -2 -1 0 1 2 2 3 4 3 3 3 2 2 3 3 3 6 8 11 14 17 18 18 17 13 8 0 -10 -21 0 0 0 0 0 0
0 0 0 0 0 0 0 0 0 1 1 2 1 2 2 1 1 2 1 2 2 2 1 2 2 1 1 2 2 1 1 0 0 0 -1 -1 -1 -1 -1 -1 -2 -1 -2 -2 -2 -2 -2 -2 -2 -3 -3 -3 -4 -3 -3 -3 -3 -2 -3 -3 -2 -3 -2 -2 -2 -1 -1 0 -1 0 0 0 -1 0 1 1 1 0 0 0 1 1 0 0 1 1 0 0 0 1 1 1 0 0 0 0 0 0 0 0 -1 -1 -1 -2 -1 -3 -2 -3 -3 -4 -4 -4 -4 -3 -4 -4 -3 -3 -3 -2 -2 -1 -1 1 1 1 2 2 3 3 3 4 4 3 4 4 3 3 4 3 3 3 2 2 2 2 1 2 1 1 0 0 0 0 0 0 0 -1 0 -1 -1 -1 -1 -1 -1 -1 -1 -1 -2 -2 -2 -2 -3 -3 -3 -3 -4 -4 -4 -3 -2 -2 -1 0 -1 0 1 2 1 2 2 3 1 2 1 0 0 0 -1 0 -1 -1 0 -1 0 0 0 0 1 0 1 0 1 1 1 1 1 1 1 0 1 1 2 2 2 2 2 3 3 3 3 3 1 0 0 0 0 0 0 2 2 2 2 1 0 1 -1 -2 -3 -4 0 0 0 0 0 0
2 0 1 1 1 1 3 2 3 1 0 -2 -3 -4 -4 -4 -3 -2 -1 0 1 0 1 -1 -1 -2 -3 -2 -1 0 1 1 2 2 2 1 0 0 -1 -1 0 1 2 2 2 2 2 0 1 -1 -2 -1 -2 -2 -1 -1 -1 -2 -3 -3 -5 -4 -4 -2 -1 -1 0 0 0 0 0 -2 -2 -2 -1 -1 1 1 2 1 0 -1 -2 -4 -4 -4 -4 -3 -2 -1 0 0 -1 -1 -1 -2 -3 -2 -1 0 1 2 2 2 1 0 0 -2 -1 -1 0 2 2 3 4 4 3 1 0 -1 -1 -2 -1 -1 0 1 0 0 -1 -2 -3 -4 -4 -3 -3 -1 1 2 2 2 2 1 -1 -2 -3 -2 -1 0 1 2 2 2 2 0 -1 -2 -3 -1 0 2 3 5 6 5 4 3 1 -1 -3 -3 -3 -2 0 1 2 3 2 0 -1 -3 -4 -5 -3 -1 1 4 6 6 6 5 2 -1 -4 -6 -7 -6 -3 0 3 4 5 2 -1 -5 -8 -11 -10 -7 -3 2 5 6 4 1 -5 -11 -15 -17 -15 -9 -3 4 9 11 9 3 -3 -10 -14 -14 -10 -3 7 14 19 19 15 6 -3 -10 -14 -13 -6 3 11 17 14 5 -11 -32 0 0 0 0 0 0
4 4 4 4 4 3 2 2 1 1 0 -1 -1 -3 -3 -2 -3 -2 -2 -1 0 0 0 0 -1 0 1 1 1 2 3 2 3 2 2 0 -1 -2 -2 -2 -2 -3 -2 -1 -2 -2 -2 -4 -4 -5 -6 -6 -5 -6 -4 -3 -3 -2 -2 -1 -3 -3 -3 -4 -5 -5 -4 -5 -3 -3 -2 -1 0 1 2 3 3 4 4 5 4 3 4 3 3 2 3 3 3 3 4 3 3 3 3 2 2 2 2 2 2 3 4 4 4 3 3 2 1 0 0 -1 0 -1 -1 -1 0 -1 0 -1 -2 -2 -2 -3 -2 -1 -1 0 0 0 0 0 -1 -2 -2 -3 -4 -4 -4 -4 -4 -4 -4 -5 -5 -5 -5 -5 -5 -5 -4 -4 -3 -4 -3 -4 -4 -4 -4 -3 -2 -1 1 2 3 4 5 4 4 3 3 1 1 0 -1 -2 -2 -2 -1 -2 -1 -1 -1 0 0 1 2 2 2 3 3 3 2 2 2 2 2 2 2 3 3 3 2 2 1 1 1 0 -1 -1 -1 -2 -1 -2 -2 -1 -2 -1 0 0 0 1 1 0 0 -1 -2 -2 -3 -3 -2 0 2 4 5 7 8 7 6 4 2 -1 -3 -5 -6 -6 -4 -1 3 7 0 0 0 0 0 0
-4 -3 -4 -4 -3 -2 -2 -2 -1 -1 0 0 0 1 2 2 2 3 3 4 4 5 4 4 4 3 2 2 2 1 1 0 -1 -2 -2 -3 -4 -4 -5 -5 -5 -6 -5 -5 -5 -4 -4 -3 -3 -1 -1 0 1 2 2 2 2 3 3 3 4 3 4 4 4 4 4 3 3 2 2 1 2 1 1 0 -1 -1 -1 -1 -2 -2 -2 -3 -2 -3 -2 -2 -2 -3 -2 -2 -2 -2 0 0 1 1 2 2 2 2 2 1 2 1 1 1 1 2 1 1 2 0 1 0 -1 -2 -2 -2 -2 -2 -1 0 0 0 0 0 0 1 0 0 0 0 0 0 -2 -2 -2 -3 -4 -4 -3 -3 -3 -2 -2 -1 -1 -1 -1 0 0 0 2 2 2 3 4 4 4 3 3 2 2 1 1 1 2 2 2 3 3 4 4 3 3 3 2 2 3 3 3 4 3 1 0 -2 -3 -4 -6 -7 -7 -8 -7 -6 -5 -5 -3 -4 -3 -3 -2 -3 -2 -1 1 2 4 5 5 5 5 3 2 0 0 -2 -1 -1 1 2 4 4 5 3 3 2 1 1 1 1 2 2 3 4 2 0 -3 -6 -9 -11 -13 -14 -12 -10 -5 3 12 22 0 0 0 0 0 0
0 1 0 0 0 -1 -2 -2 -2 -2 -1 0 0 1 2 2 1 0 0 0 0 0 1 2 3 3 3 3 2 2 2 0 1 0 1 2 1 1 1 -1 -1 -3 -3 -3 -4 -3 -1 0 0 0 0 0 -1 -2 -1 -2 -2 -1 0 2 1 2 0 0 -1 -2 -2 -2 -2 -1 1 1 2 1 1 0 -1 -2 -2 -3 -2 -1 0 1 1 2 0 -1 -1 -2 -1 -1 0 2 3 4 4 3 2 1 0 -2 -1 -1 -1 0 1 3 2 1 1 0 -2 -2 -2 -1 -1 1 2 2 2 0 -1 -3 -4 -5 -4 -2 -1 2 4 5 4 2 1 -2 -4 -4 -4 -3 -1 2 4 5 5 4 2 0 -3 -4 -5 -4 -3 -1 1 2 2 1 0 -3 -4 -6 -6 -4 -2 0 3 4 3 2 1 -2 -4 -5 -5 -3 -1 1 5 6 6 6 4 1 -1 -3 -3 -3 -1 1 4 5 5 4 2 -2 -5 -6 -7 -5 -3 -1 2 3 3 1 -1 -4 -7 -7 -7 -6 -1 2 6 8 9 7 2 -2 -7 -9 -9 -8 -5 -1 3 5 5 3 0 -3 -7 -8 -7 -4 0 4 7 8 6 2 -4 -9 -11 -9 -1 12 27 45 0 0 0 0 0 0
-2 -2 -1 -2 -2 -1 -2 -1 -2 -1 0 1 0 1 2 2 1 2 2 2 1 1 1 0 0 0 -1 0 0 -1 -1 -1 -2 -1 -1 -2 -1 -1 -1 -2 -2 -2 -1 -1 0 0 0 2 2 3 2 3 2 2 2 1 1 -1 -1 -1 -1 -1 -1 -2 -2 -2 -2 -3 -3 -3 -3 -3 -3 -3 -2 -2 -1 0 0 1 1 1 2 2 2 2 1 1 1 0 1 1 1 2 3 3 5 5 5 4 4 2 1 0 -1 -2 -4 -5 -6 -6 -6 -6 -6 -5 -4 -1 0 3 4 6 7 7 6 6 5 3 2 2 1 0 0 0 0 -1 -1 -2 -2 -2 -2 -2 -3 -3 -4 -4 -4 -5 -4 -4 -3 -2 0 1 4 5 6 6 6 6 4 2 0 -2 -3 -4 -4 -4 -2 -2 -1 0 2 2 3 3 3 3 3 2 0 0 -2 -2 -4 -4 -6 -6 -5 -2 -1 0 2 4 4 4 3 2 1 1 0 0 0 1 1 2 2 3 3 3 3 3 3 1 0 -2 -4 -6 -9 -11 -12 -11 -10 -7 -4 1 4 8 12 14 16 15 14 10 7 4 1 -2 -4 -5 -6 -8 -9 -10 -10 -10 -10 -9 -6 -1 6 16 0 0 0 0 0 0
-7 -6 -7 -7 -6 -5 -4 -3 -2 -1 -2 -2 -3 -3 -4 -4 -3 -4 -3 -2 -2 -2 -2 -3 -3 -2 -1 -1 1 3 6 7 8 8 8 8 7 6 5 5 4 5 6 6 6 6 5 3 2 3 1 2 2 3 4 4 4 2 1 -1 -2 -3 -4 -5 -4 -4 -3 -2 -1 -2 -2 -3 -3 -4 -4 -4 -4 -2 -2 -1 1 1 2 1 0 -1 -2 -3 -3 -3 -3 -2 -2 -2 -2 -3 -3 -3 -4 -3 -2 -1 -1 0 0 1 1 1 1 1 0 1 1 2 2 2 3 3 3 3 4 3 4 4 4 5 4 3 3 2 2 1 1 1 2 3 4 6 6 7 7 7 7 6 5 5 4 4 4 5 5 6 6 7 6 6 5 3 3 1 0 -1 -1 -2 -3 -2 -1 -2 0 0 -1 -2 -2 -2 -3 -2 -2 -2 -1 -1 -2 -2 -4 -6 -6 -7 -8 -8 -7 -6 -5 -4 -4 -4 -5 -6 -7 -8 -8 -9 -8 -7 -6 -6 -5 -5 -5 -5 -4 -3 -3 -2 -1 0 1 2 1 2 1 0 0 0 2 3 5 7 7 7 7 7 6 8 10 14 17 19 19 17 13 6 -1 -4 -5 -3 0 0 -5 -19 -40 -65 0 0 0 0 0 0
4 3 4 4 4 4 4 5 4 4 4 3 2 2 2 1 1 1 1 0 -1 0 0 0 -1 -1 -1 0 0 1 0 1 1 0 1 1 1 1 1 1 1 1 1 1 2 2 3 2 2 2 1 0 -1 -2 -2 -3 -3 -3 -4 -3 -2 -2 -1 0 1 2 2 3 4 4 4 3 3 4 3 4 5 4 5 4 4 4 4 3 3 2 3 3 2 2 2 2 2 2 3 3 2 3 3 3 3 4 3 2 2 1 0 -1 -1 -2 -3 -3 -4 -4 -4 -5 -5 -7 -7 -7 -6 -5 -4 -3 -1 0 1 0 1 0 0 -1 -2 -2 -1 -1 0 0 0 1 1 1 1 0 1 0 0 0 0 -1 -1 -2 -3 -4 -3 -4 -4 -3 -4 -3 -3 -3 -3 -3 -2 -3 -2 -2 -2 -1 0 0 0 0 1 1 1 0 1 0 0 -1 -2 -1 -1 -1 -3 -3 -2 -4 -4 -4 -4 -4 -4 -4 -2 -2 -1 -2 -1 -1 -1 -1 -3 -3 -2 -3 -2 -2 -2 -3 -3 -3 -4 -5 -5 -5 -5 -5 -5 -4 -4 -4 -3 -3 -2 -2 -2 -2 -3 -5 -7 -7 -7 -8 -7 -6 -4 -3 -2 -2 -2 -2 -4 -5 -7 -9 -10 -10 0 0 0 0 0 0
0 1 1 2 3 2 3 3 3 2 3 1 1 0 0 -1 -2 -2 -3 -2 -2 -1 -2 -1 0 1 2 2 3 3 4 5 4 3 3 2 2 1 0 -1 -2 -3 -4 -5 -6 -6 -6 -6 -7 -6 -6 -5 -4 -3 -3 -1 1 2 3 4 5 5 4 5 4 4 3 2 2 1 0 -1 -1 -1 -2 -2 -1 -1 -2 -1 -1 -1 0 1 0 0 1 1 0 0 0 -1 -2 -2 -3 -3 -4 -4 -4 -4 -4 -4 -3 -3 -2 -1 0 1 2 3 4 4 3 3 4 3 3 1 1 1 0 -1 -1 -1 -2 -1 -1 -1 0 0 0 0 0 1 1 1 1 0 0 0 -1 -2 -2 -2 -2 -3 -2 -3 -3 -3 -1 -1 -1 -1 0 1 1 1 2 2 3 3 3 4 3 3 2 1 1 1 1 1 0 -1 -1 -1 -1 -1 -1 -1 -1 -1 -1 -1 0 0 1 1 2 2 2 3 2 2 2 0 0 -1 -1 -2 -2 -3 -3 -2 -2 -1 -1 0 1 2 2 3 3 3 3 2 1 1 0 0 0 0 0 0 1 1 1 1 1 1 1 1 0 0 0 0 0 -1 0 0 1 0 0 -1 -2 -3 -4 -4 -6 -8 0 0 0 0 0 0
2 1 1 0 0 -1 -1 -1 -2 -2 -2 -1 0 -1 0 1 0 0 1 0 1 1 2 2 3 4 4 5 5 4 3 2 2 0 0 -2 -3 -3 -2 -1 -1 -1 0 0 -1 -1 -1 -2 -2 -3 -3 -3 -3 -3 -2 -1 -1 0 1 0 1 0 0 -1 -1 -2 -1 -2 -2 -1 -1 -2 -2 -3 -2 -3 -2 -1 -1 1 2 3 3 3 3 2 0 -1 -3 -4 -4 -5 -5 -5 -4 -2 -2 1 2 2 3 3 3 2 3 2 2 2 2 2 3 3 3 4 3 4 3 2 2 2 2 2 2 1 2 3 3 3 3 2 1 1 0 0 -1 -2 -2 -2 -2 -1 -1 -1 -1 -1 -2 -3 -4 -4 -3 -4 -4 -4 -3 -3 -3 -3 -3 -4 -3 -3 -3 -3 -2 -1 0 1 2 2 1 1 0 -1 -3 -4 -5 -6 -6 -6 -6 -6 -5 -3 -3 -4 -4 -4 -5 -6 -6 -7 -7 -6 -5 -4 -2 -1 1 3 5 6 6 6 7 7 6 6 5 5 5 4 3 2 1 0 -1 -2 -2 -2 -2 -1 -1 -1 1 1 1 0 0 0 -1 -3 -3 -5 -5 -6 -4 -2 0 2 3 5 5 6 6 5 5 3 4 4 3 3 0 0 0 0 0 0
0 0 0 -1 -1 -1 -2 -3 -3 -3 -3 -3 -2 -2 -2 -2 -1 -2 -1 -1 -1 -1 0 -1 0 -1 -1 -1 -1 -1 -1 0 -1 0 1 1 1 2 2 3 3 3 3 3 3 3 2 2 1 2 2 1 0 0 -1 -2 -2 -3 -4 -5 -5 -6 -6 -6 -6 -6 -5 -4 -4 -3 -3 -2 -1 0 0 1 2 2 3 3 3 4 3 4 3 4 4 4 4 3 3 3 3 2 1 1 0 0 -1 -2 -2 -3 -3 -3 -2 -3 -2 -2 -1 0 0 0 1 2 1 1 1 2 1 1 2 1 1 1 1 0 -1 -1 -1 -1 -1 -2 -2 -1 -2 -1 0 0 0 1 1 2 1 2 2 3 2 2 2 2 2 2 1 1 -1 -2 -2 -4 -4 -5 -6 -6 -5 -5 -4 -4 -3 -2 -1 0 2 2 3 5 4 5 5 6 5 5 5 5 4 3 3 1 1 0 0 0 0 0 0 0 1 1 1 1 1 1 1 0 0 -1 -1 -1 -1 -2 0 0 0 0 1 2 2 2 2 2 2 1 1 1 0 0 0 0 0 0 1 2 2 3 4 4 5 4 3 3 1 0 -1 -3 -4 -7 -7 -8 -9 -8 -6 -5 0 0 0 0 0 0
3 2 3 2 2 1 1 0 0 -1 -1 -1 -2 -2 -2 -2 -2 -2 -1 -2 -2 -1 -1 -1 -1 -1 -1 0 -1 -1 -1 -1 -1 -1 -1 -2 -2 -2 -2 -2 -2 -2 -2 0 0 0 1 1 1 2 2 2 2 1 2 2 1 2 2 2 2 4 3 5 5 5 5 5 5 4 3 2 2 2 1 1 0 0 0 0 0 -1 -1 0 -1 -1 -1 -1 -2 -2 -3 -3 -3 -4 -4 -4 -4 -4 -3 -2 -1 0 0 1 1 1 2 2 2 2 2 2 2 1 2 2 2 4 5 5 6 7 7 7 6 6 5 5 4 3 1 1 0 -1 -2 -2 -3 -4 -4 -4 -4 -5 -4 -4 -3 -4 -3 -2 -2 -1 -1 -1 -1 -1 0 0 1 0 1 -1 -1 -2 -3 -4 -4 -5 -4 -4 -4 -4 -3 -2 -1 -1 1 1 2 3 4 4 4 4 3 3 3 2 2 1 1 0 0 0 -1 0 0 0 -1 -1 -1 -1 -2 -2 -1 -1 -1 0 1 1 1 1 1 0 0 0 -1 -1 -1 0 0 1 1 1 1 1 0 0 -1 -3 -3 -4 -3 -4 -3 -1 1 3 5 5 5 4 1 0 -3 -5 -8 -10 -9 -7 -2 2 0 0 0 0 0 0
-3 -3 -3 -2 -2 -1 -1 -1 -2 -3 -3 -4 -4 -4 -4 -4 -3 -3 -3 -3 -2 -3 -3 -3 -2 -3 -2 -1 0 1 1 2 2 2 2 2 2 1 1 2 2 2 3 3 3 2 1 1 0 -2 -1 -2 -3 -2 -1 -1 -1 -1 0 -1 -1 -2 -2 -3 -3 -3 -2 -1 -1 -2 -1 0 -1 0 -1 -1 -1 -1 0 -1 -1 -1 -2 -2 -2 -2 -3 -3 -4 -3 -3 -3 -3 -4 -4 -4 -3 -3 -2 -1 0 0 2 3 3 3 3 3 3 3 3 4 5 6 6 7 5 6 5 4 3 2 3 2 2 2 1 1 1 -1 -2 -2 -3 -3 -3 -2 -3 -2 -2 -2 -2 -3 -3 -3 -3 -3 -3 -2 -1 -1 0 0 -1 -2 -1 -1 -2 -1 -1 -1 -1 -1 -1 -2 -2 -1 -1 0 0 1 1 2 1 2 1 1 1 1 0 0 2 2 3 4 5 5 4 4 3 2 1 -2 -2 -3 -3 -1 0 1 3 4 3 1 -2 -5 -7 -8 -7 -3 0 4 7 8 6 1 -4 -9 -13 -14 -12 -6 0 6 11 13 10 4 -3 -10 -15 -15 -10 -2 7 14 18 17 10 -1 -13 -23 -27 -23 -13 3 20 32 36 28 10 -15 0 0 0 0 0 0
-2 -1 -1 -1 -1 -2 -2 -3 -3 -4 -4 -4 -4 -3 -3 -3 -3 -3 -3 -2 -2 0 1 2 2 2 3 4 4 5 4 5 5 5 4 4 3 2 3 2 1 1 2 2 2 1 2 1 2 1 2 1 0 0 0 -1 -1 -2 -3 -3 -3 -3 -3 -3 -2 -2 -2 -2 -1 -1 0 0 1 1 0 1 1 0 0 0 -1 -1 -1 -2 -3 -3 -2 -3 -3 -4 -4 -4 -4 -4 -3 -3 -3 -2 -2 -1 0 1 1 2 2 2 3 3 3 3 3 3 4 4 4 3 3 3 2 2 3 2 2 1 2 2 2 1 1 0 1 0 0 0 -1 -2 -2 -3 -3 -4 -4 -4 -4 -4 -4 -4 -4 -3 -3 -3 -1 0 0 2 2 2 3 3 4 4 4 3 3 3 2 2 2 1 1 1 1 1 1 1 2 2 2 2 2 3 2 2 3 3 2 1 1 0 -1 -1 -2 -4 -4 -5 -6 -7 -7 -8 -7 -7 -7 -7 -6 -4 -2 -1 0 2 2 4 4 5 5 5 5 5 4 3 4 3 3 3 2 2 1 1 1 0 1 -1 -1 -1 -1 -1 -2 -2 -1 -1 -1 1 1 1 2 3 2 1 -1 -4 -6 -9 0 0 0 0 0 0
4 3 3 2 2 1 1 0 1 1 1 1 0 0 0 -1 0 0 0 0 0 1 0 -1 -1 -1 -2 -2 -3 -3 -4 -4 -4 -4 -4 -4 -3 -3 -2 -3 -2 -1 0 1 2 3 3 4 5 4 4 3 3 2 2 0 0 -1 -1 -1 -1 -1 -1 -1 -1 0 0 0 0 0 1 0 -1 0 -1 -2 -3 -3 -4 -4 -4 -4 -3 -4 -3 -2 0 -1 0 0 -1 -1 -1 -1 -2 -1 -1 -2 -1 -1 -1 0 -1 -1 0 -1 0 0 1 1 2 2 3 3 2 2 2 2 1 2 2 2 1 1 1 0 0 -1 -1 -2 -2 -2 -1 -1 0 0 0 0 -1 -1 0 -2 -2 -1 -1 -2 -2 -2 -2 -3 -3 -2 -3 -2 -3 -2 -2 0 0 0 0 0 0 -1 -1 -2 -2 -1 -2 -2 -2 -1 -1 -1 0 0 0 1 0 0 0 0 0 -1 0 0 0 -1 -1 -1 -2 -3 -4 -5 -5 -5 -3 -4 -2 -1 0 1 1 1 1 1 1 1 2 1 1 1 1 0 -2 -3 -4 -6 -7 -8 -7 -7 -6 -5 -3 -1 -1 0 0 1 0 1 1 2 2 2 4 5 7 8 10 11 12 13 13 12 11 9 6 2 0 0 0 0 0 0
-1 -1 -1 -1 -1 -2 -2 -2 -3 -2 -3 -3 -4 -3 -3 -3 -2 -3 -3 -3 -2 -2 -2 -2 -2 -1 -2 -2 -1 -2 -2 -2 -2 -2 -2 -1 -1 -1 -1 -1 0 0 0 0 0 1 1 0 0 0 0 0 0 0 0 0 -1 -1 -1 0 0 0 0 -1 0 1 0 0 1 2 2 1 1 1 0 0 0 0 0 -1 0 -1 -1 0 -1 -1 -2 -1 -1 0 -1 0 0 1 0 0 1 0 0 0 0 -1 -1 -1 -1 0 -1 0 0 0 1 0 1 0 1 0 -1 -1 0 -1 -2 -3 -3 -3 -3 -3 -2 -3 -2 -2 -1 -2 -1 -1 -1 -1 -1 0 0 0 -1 0 -1 -2 -2 -3 -3 -3 -4 -3 -3 -2 -2 -1 -1 0 -1 -1 -1 -1 -1 -1 0 0 0 0 0 1 0 -1 0 0 0 0 1 0 1 2 2 2 2 1 1 1 1 1 1 1 0 1 1 2 3 4 4 5 5 6 4 5 4 3 2 1 0 0 0 0 0 0 2 1 2 3 3 3 2 1 1 -1 -2 -3 -4 -4 -4 -4 -3 -2 -2 0 0 2 2 2 3 3 2 1 -1 -1 -2 -4 -5 -5 -3 0 5 12 22 32 0 0 0 0 0 0
-4 -3 -3 -4 -3 -4 -3 -3 -3 -2 -2 -2 -1 -1 -1 -1 -1 0 0 -1 0 0 0 0 1 0 0 1 1 1 2 2 2 1 1 0 1 0 0 -1 -1 0 0 1 1 1 1 2 2 2 3 2 2 2 1 0 1 0 0 -1 -1 -1 0 0 -1 0 1 1 1 2 2 2 2 1 2 1 0 0 0 -1 -1 -1 -2 -2 -2 -2 -2 -3 -3 -3 -2 -2 -2 -1 -1 0 0 1 1 2 3 3 3 2 3 4 3 3 3 3 3 3 3 2 1 0 -1 -1 -1 -2 -2 -3 -3 -3 -2 -2 -2 -1 -1 0 1 0 0 0 -1 -1 -1 -2 -3 -2 -2 -1 1 2 4 5 5 5 5 5 4 3 2 1 0 1 1 1 1 1 2 2 2 1 1 0 -2 -3 -3 -3 -2 -2 0 1 2 3 4 3 3 2 0 -1 -2 -3 -4 -5 -4 -4 -3 -1 0 0 1 0 0 -2 -3 -4 -4 -4 -4 -3 -2 0 2 3 4 5 4 3 1 0 -2 -3 -4 -4 -3 -2 0 1 3 4 4 3 2 1 0 -2 -2 -3 -2 -2 -1 1 4 5 5 5 4 1 0 -3 -5 -7 -8 -9 -8 -6 -2 4 0 0 0 0 0 0
-3 -3 -3 -4 -4 -4 -5 -6 -6 -6 -5 -5 -4 -4 -3 -2 -1 0 1 2 3 4 5 6 6 6 6 6 5 4 4 2 1 0 0 0 1 0 1 1 0 1 0 0 -1 -1 -2 -1 -2 -2 -1 -1 -1 0 0 1 1 2 2 2 2 3 3 2 2 2 2 2 1 0 0 -1 -1 -2 -2 -2 -3 -3 -3 -3 -3 -3 -2 -1 -1 0 0 0 1 1 1 1 0 1 0 -1 -1 -1 -2 -2 -3 -3 -4 -4 -3 -3 -3 -2 -2 -2 -2 -2 -1 -1 -1 -1 -1 0 0 1 1 2 1 2 3 3 3 3 3 4 4 5 4 4 5 5 4 4 4 3 3 2 1 1 0 -1 0 -1 -1 0 -1 0 0 2 2 1 1 0 0 -1 -1 -1 -1 -1 -1 -1 -1 -1 -1 -1 -2 -2 -2 -2 -2 -1 0 2 3 5 6 6 7 6 6 5 4 4 3 1 0 1 0 1 2 1 2 1 1 1 1 0 -1 -2 -3 -4 -4 -5 -5 -5 -4 -4 -3 -3 -2 -2 -1 -2 -1 0 1 2 3 5 6 6 6 4 3 1 0 -2 -3 -3 -1 0 1 1 0 -2 -6 -10 -14 -18 -21 -19 -14 -5 8 26 0 0 0 0 0 0
3 1 0 0 -1 1 1 2 2 1 0 -1 -3 -5 -5 -4 -3 -2 0 1 0 1 0 -1 -2 -3 -3 -2 -2 1 2 4 3 4 3 1 0 -1 -1 -2 0 1 2 2 2 1 0 -1 -2 -3 -2 -1 1 2 3 3 3 2 0 -2 -3 -3 -2 -1 1 2 3 4 3 1 0 -1 -3 -3 -2 -1 0 1 2 1 1 -1 -3 -4 -5 -4 -3 0 1 3 2 3 2 0 -1 -2 -2 -2 0 2 4 4 4 3 1 -2 -4 -5 -5 -3 -1 1 3 5 5 4 2 1 -1 -2 -3 -2 1 3 5 6 5 4 1 -2 -5 -7 -7 -6 -4 -1 2 4 5 5 2 0 -2 -4 -4 -2 1 4 6 7 7 6 3 0 -4 -5 -5 -3 1 4 6 7 6 3 0 -5 -8 -10 -10 -7 -2 2 6 8 7 5 1 -5 -8 -9 -7 -4 1 6 9 9 7 2 -4 -9 -12 -12 -8 -4 3 8 11 12 8 1 -5 -11 -13 -13 -9 -2 5 11 13 13 9 2 -5 -11 -13 -13 -10 -4 2 6 8 8 4 -2 -8 -11 -12 -11 -6 -2 3 7 7 5 1 -3 -8 -11 -12 -10 -6 -2 2 5 8 8 9 8 8 8 0 0 0 0 0 0
-1 -1 -1 -1 0 0 0 0 1 1 1 0 0 0 -1 -1 -1 -1 -2 -2 -2 -2 -2 -1 -1 0 -1 -1 0 0 0 1 0 0 0 0 -1 0 0 -1 -1 0 -1 0 0 0 0 1 1 1 0 0 1 0 0 0 0 -1 -1 -1 0 0 0 0 1 1 2 3 4 3 4 4 3 3 2 2 1 0 -1 -2 -2 -3 -4 -4 -4 -4 -4 -2 -2 -1 -1 0 -1 -1 -1 0 1 0 0 0 0 0 0 0 0 0 0 0 1 1 0 1 1 2 2 2 2 1 0 1 0 -1 -1 0 0 0 0 0 0 0 0 0 1 1 1 1 0 1 1 0 1 1 1 2 2 1 2 2 2 2 2 2 1 0 0 0 0 0 1 0 0 0 0 0 -1 -1 -2 -2 -4 -5 -5 -6 -6 -6 -5 -5 -5 -4 -2 -2 -1 0 0 1 1 1 2 3 3 4 5 6 8 8 9 10 10 9 8 8 6 5 4 3 3 3 3 3 3 4 3 3 3 1 0 -1 -3 -3 -4 -4 -5 -5 -5 -5 -4 -4 -3 -4 -3 -3 -3 -4 -4 -5 -6 -5 -6 -5 -4 -2 0 2 2 3 3 0 -2 -6 -12 -18 0 0 0 0 0 0
5 4 5 5 3 3 2 2 1 0 -1 -1 -2 -3 -3 -4 -4 -4 -4 -4 -5 -4 -4 -4 -3 -3 -3 -3 -2 -2 -2 0 -1 0 0 0 1 1 2 3 3 4 5 6 6 7 6 7 7 7 6 6 5 4 4 4 4 4 4 3 4 3 4 3 3 3 3 3 3 3 2 2 2 2 2 1 0 -2 -2 -3 -4 -4 -5 -4 -4 -4 -3 -3 -3 -3 -3 -3 -3 -3 -3 -3 -4 -5 -5 -5 -6 -6 -7 -7 -8 -8 -8 -7 -6 -5 -3 -2 0 1 2 3 4 5 6 6 6 7 6 6 6 7 6 6 6 6 6 5 3 3 3 1 0 -1 -2 -2 -3 -3 -3 -3 -4 -3 -3 -3 -4 -4 -4 -4 -4 -5 -6 -6 -6 -7 -8 -8 -8 -8 -7 -6 -5 -4 -4 -2 -1 -2 -1 0 0 0 2 2 3 3 3 4 4 4 4 4 4 4 5 5 4 4 4 3 4 3 3 4 4 4 5 5 6 7 7 8 7 7 7 6 6 6 6 6 5 6 6 6 6 6 5 5 5 4 6 6 6 6 6 7 6 4 3 0 -2 -4 -5 -6 -5 -5 -7 -12 -19 -26 -30 -31 -30 -26 -27 -32 -42 -54 0 0 0 0 0 0
-1 0 0 0 -1 0 0 0 1 1 2 1 1 0 1 0 0 0 1 0 1 1 1 1 1 1 1 0 1 1 1 1 1 2 2 2 2 2 2 2 2 1 1 0 1 0 1 1 0 1 2 1 2 2 3 3 3 3 2 2 2 1 1 0 1 1 1 1 1 0 1 0 0 -1 0 0 0 1 1 1 1 0 1 0 0 0 -1 -1 0 -1 0 -1 -1 -1 0 0 0 0 0 1 1 1 2 1 1 1 0 0 0 -1 0 -1 0 -1 -1 -2 -3 -3 -4 -3 -3 -2 -2 -1 1 1 1 0 1 0 0 -1 -1 -1 -1 -1 -1 -1 -1 -1 -1 -1 -1 -2 -3 -3 -2 -2 -2 -1 0 0 0 1 1 1 1 -1 -1 -1 -2 -2 -3 -3 -4 -4 -4 -5 -6 -6 -6 -6 -5 -5 -4 -4 -4 -4 -3 -4 -2 -2 -1 -1 0 -1 -2 -2 -4 -5 -7 -8 -8 -7 -7 -5 -4 -3 -2 -2 -2 -2 -2 -3 -3 -2 -2 -2 0 0 -1 -1 -3 -3 -5 -5 -6 -7 -6 -6 -6 -6 -6 -8 -8 -8 -7 -4 -1 1 5 6 6 3 -3 -8 -14 -19 -21 -19 -14 -4 6 15 23 26 23 14 -2 -23 0 0 0 0 0 0
-1 -1 -1 -2 -2 -2 -2 -2 -2 -1 -2 -1 -1 -2 -2 -3 -3 -2 -2 -2 -1 -1 0 1 2 2 3 4 3 2 3 2 0 0 0 -1 -2 -3 -3 -3 -3 -2 -2 0 1 2 2 3 3 3 3 3 2 1 1 1 0 0 0 0 -1 0 0 0 0 -1 0 -1 0 -1 0 0 -1 -1 -1 -1 -2 -2 -1 -2 -2 -2 -2 -2 -3 -3 -4 -5 -5 -6 -6 -6 -6 -6 -6 -6 -5 -4 -3 -3 -1 0 1 1 2 3 3 3 3 3 2 2 2 2 2 1 1 1 1 0 1 1 0 0 0 1 1 2 2 3 5 5 6 5 6 6 6 5 4 3 2 0 -1 -3 -5 -6 -7 -6 -7 -6 -6 -5 -4 -4 -3 -2 -3 -2 -1 -1 -2 -3 -2 -3 -3 -3 -2 -2 -2 0 0 1 3 4 4 6 6 7 7 7 7 6 5 4 3 3 2 1 1 0 0 0 0 0 0 0 0 -1 -2 -2 -3 -4 -6 -5 -5 -4 -2 -1 0 1 1 1 1 -1 -1 -4 -5 -6 -8 -8 -7 -6 -4 -2 0 2 4 5 5 5 6 4 3 1 1 0 1 2 3 5 6 6 7 8 8 7 5 3 -1 -4 0 0 0 0 0 0
1 1 1 1 2 3 3 2 2 1 0 1 -1 0 -1 0 0 1 1 0 0 0 1 0 -1 -1 0 -1 0 0 0 -1 -1 -2 -1 -2 -3 -3 -3 -2 -1 -1 -1 1 1 1 1 0 0 -1 0 -1 0 0 0 -2 -1 -2 -2 -3 -3 -3 -3 -2 -3 -1 -1 -1 -1 -1 -1 -1 -2 -1 -1 -1 -1 -1 -2 -1 -2 -1 -2 -1 -2 -2 -2 -1 -1 -1 -1 -1 -1 -2 -2 -2 -1 -1 1 0 2 3 3 2 2 2 0 0 0 -1 -1 0 0 1 0 0 0 -1 0 -2 -1 -2 -2 -2 -3 -3 -4 -3 -3 -3 -3 -3 -3 -3 -2 -2 -1 -1 0 1 0 0 1 1 1 2 2 2 3 3 3 3 2 2 1 -1 -2 -1 -2 -2 -1 0 0 1 1 1 0 0 0 0 0 0 1 1 1 2 1 1 1 1 0 0 0 0 1 1 3 4 4 5 6 5 5 5 4 5 4 3 3 3 3 3 1 1 0 -1 -1 -3 -4 -5 -7 -7 -9 -10 -9 -10 -10 -10 -8 -8 -6 -5 -4 -3 -2 -2 -1 -1 0 0 0 1 0 1 2 2 4 3 3 0 -2 -4 -8 -10 -12 -13 -12 -9 -3 5 0 0 0 0 0 0
-2 -3 -4 -4 -4 -5 -4 -4 -4 -4 -4 -3 -3 -4 -4 -4 -5 -5 -4 -4 -3 -2 -1 0 0 -1 -1 -1 -2 -2 -3 -3 -3 -2 -2 -1 0 1 0 0 -1 -2 -4 -4 -5 -5 -4 -3 -2 -1 0 0 0 0 0 -1 -2 -2 -2 -1 -2 -1 -1 -1 -1 -1 -2 -2 -3 -3 -2 -2 -1 -1 0 1 1 2 1 2 1 2 2 2 4 3 3 3 4 3 2 2 2 2 1 2 1 1 1 0 -1 -2 -2 -2 -3 -3 -3 -2 -1 -1 -1 -2 -2 -3 -3 -4 -5 -4 -5 -5 -4 -3 -2 -1 -1 -1 -1 0 0 0 0 1 1 1 1 1 0 -1 -1 -2 -3 -2 -3 -2 -3 -3 -3 -3 -3 -3 -3 -3 -2 -2 -1 0 1 1 2 2 2 2 3 3 3 4 5 6 6 5 4 3 1 1 2 2 3 4 4 5 5 3 2 0 -2 -5 -5 -4 -3 -2 -1 0 -1 -1 -1 -3 -4 -4 -3 -1 1 3 5 4 4 1 -1 -4 -6 -7 -7 -6 -4 -3 -1 0 0 0 -2 -2 -3 -3 -2 -1 0 -1 -2 -3 -4 -6 -8 -9 -8 -6 -5 -2 -1 1 1 0 -1 -1 -2 -2 0 4 9 14 19 22 0 0 0 0 0 0
16 15 13 11 10 9 8 7 6 6 5 4 2 1 0 -1 -3 -3 -4 -5 -6 -6 -5 -5 -5 -5 -4 -3 -2 -2 -1 -1 -1 0 1 2 3 4 4 5 4 3 3 3 2 3 2 2 2 2 3 3 3 2 1 1 -1 -1 -2 -1 -2 -1 -2 -1 -2 -3 -3 -5 -5 -6 -6 -5 -5 -4 -4 -3 -3 -4 -4 -5 -4 -4 -5 -4 -3 -2 -1 0 1 2 2 2 1 2 1 1 1 1 2 2 1 2 2 2 2 2 1 1 1 1 1 1 1 1 0 -1 -2 -3 -4 -4 -4 -5 -4 -3 -3 -3 -3 -2 -2 -2 -2 -1 -1 -1 -1 0 -1 -1 -2 -1 -1 -1 0 1 2 3 4 5 4 3 3 2 1 0 0 0 0 2 2 1 1 0 -1 -3 -5 -5 -6 -7 -6 -6 -6 -6 -6 -6 -6 -5 -5 -3 -2 1 2 4 5 5 5 5 4 3 3 3 2 2 3 2 0 0 -2 -2 -3 -1 0 0 1 2 2 1 0 -1 -2 -3 -4 -3 -3 -3 -4 -4 -7 -8 -9 -8 -8 -6 -5 -2 0 1 2 3 3 4 4 5 4 3 4 5 8 11 15 16 15 9 -3 -18 -32 -38 -31 -7 36 86 0 0 0 0 0 0
2 3 2 1 1 1 1 1 2 1 1 0 -1 -2 -2 -3 -3 -4 -4 -4 -4 -3 -2 -1 -1 0 0 0 0 0 0 0 0 0 0 1 1 2 2 2 1 2 1 1 2 2 2 1 1 1 2 2 3 2 4 3 3 3 3 3 3 2 2 1 1 0 0 0 -1 -1 -1 -3 -3 -3 -3 -3 -3 -3 -2 -2 -1 0 -1 0 0 0 0 0 0 0 0 0 1 2 2 2 2 2 0 0 -1 -2 -2 -2 -2 -2 -2 -2 -1 -1 -1 0 0 0 -2 -1 -2 -2 -2 -3 -3 -3 -3 -3 -3 -2 -1 -1 -1 0 0 1 2 2 3 3 3 3 2 2 1 0 0 -1 -2 -1 -1 -1 -1 0 0 0 0 1 2 1 1 2 2 2 3 3 3 3 3 2 1 -1 -2 -3 -4 -5 -5 -4 -3 -3 -1 0 1 1 2 1 0 0 0 -1 -1 0 0 1 2 2 2 2 1 0 0 -2 -1 -2 -1 -1 0 1 2 3 4 4 3 2 0 -1 -3 -4 -5 -5 -4 -3 -2 0 1 2 2 1 -2 -3 -5 -7 -7 -7 -6 -4 0 4 6 9 9 8 6 3 -2 -5 -8 -10 -10 -8 -3 4 14 24 0 0 0 0 0 0
2 2 3 3 2 2 1 1 -1 -1 -1 -2 -2 -2 -1 0 0 -1 -1 -1 -2 -2 -2 -2 -2 -1 -1 0 1 1 2 2 2 1 1 0 1 0 1 1 1 0 0 -1 -1 -2 -1 -1 0 -1 0 0 -1 -1 -1 -2 -1 -1 0 1 1 2 2 3 2 1 1 -1 -1 -2 -1 0 1 2 2 3 2 0 -1 -2 -3 -4 -3 -2 -1 0 2 2 2 2 1 0 -1 -2 -2 -2 -2 -1 1 1 1 1 1 0 0 0 0 1 2 4 4 4 5 4 3 2 1 -1 -1 -2 -2 0 -1 0 0 1 1 2 1 0 0 0 -1 0 -1 -2 -3 -5 -5 -5 -5 -3 -2 -1 1 3 2 2 1 1 -1 -2 -2 -2 -1 1 2 3 3 3 1 0 -1 -2 -3 -3 -2 0 1 2 3 3 2 1 -1 -2 -2 -2 -1 0 1 3 4 5 6 5 3 2 1 0 -1 0 1 2 3 3 5 5 5 4 3 2 1 0 0 0 -1 -1 1 1 3 3 4 5 4 4 2 1 0 -1 -3 -4 -5 -5 -5 -4 -2 1 2 4 6 6 5 1 -4 -10 -15 -20 -21 -19 -13 -6 2 9 13 12 4 -11 -33 -58 0 0 0 0 0 0
-2 -2 -2 -2 -2 -2 -2 -3 -2 -3 -2 -3 -2 -2 -2 -2 -1 0 0 0 0 0 1 1 2 1 1 1 0 0 0 -1 -1 -2 -2 -3 -3 -3 -4 -4 -4 -2 -3 -2 -1 -1 0 0 1 1 1 2 2 1 1 2 1 1 1 1 2 2 2 3 2 3 3 3 3 4 3 3 4 3 3 4 3 3 2 2 1 0 0 0 0 -1 -1 -1 -1 -1 -1 -1 -1 -1 0 -1 0 0 0 0 0 -1 -1 -1 -1 -2 -2 -2 -2 -3 -3 -3 -3 -3 -2 -3 -2 -2 -2 -2 0 -1 0 0 1 1 1 1 0 1 0 0 0 -1 -2 -2 -3 -4 -3 -4 -4 -4 -3 -2 -2 -1 -1 0 0 1 2 2 3 2 3 3 2 2 2 1 1 1 1 1 1 1 1 2 3 2 2 2 2 2 2 1 2 1 2 2 2 2 2 2 2 2 1 1 1 0 -1 -1 -1 -2 -2 -2 -2 -2 -2 -2 -2 -2 -2 -3 -3 -2 -3 -3 -3 -2 -2 -2 -2 -1 0 0 1 2 4 4 4 5 6 5 6 6 5 4 4 2 0 0 -3 -3 -5 -5 -6 -5 -5 -4 -3 -1 1 1 2 3 3 2 0 -1 0 0 0 0 0 0
-4 -3 -4 -2 -2 -1 -1 -1 -1 0 0 0 0 0 1 1 1 2 2 2 2 2 1 0 0 -1 -1 0 -1 0 1 1 1 1 1 1 0 1 0 1 1 2 1 1 2 1 2 2 1 1 0 0 0 0 0 0 0 0 0 1 0 1 1 1 0 0 -1 -2 -2 -2 -2 -2 -2 -1 -1 0 1 2 1 2 2 1 0 0 0 0 1 0 2 3 2 4 3 4 4 4 2 2 2 1 0 -1 -1 -1 -2 -2 -2 -3 -3 -3 -3 -3 -3 -3 -2 -3 -2 -1 -2 -2 -2 -2 -2 -2 -2 -1 -1 0 1 2 1 2 1 1 1 1 0 -1 -1 -1 -1 -3 -3 -3 -4 -4 -3 -3 -2 -2 -2 -1 0 0 1 1 2 1 1 1 1 0 1 1 2 2 2 2 2 2 2 2 2 2 1 2 1 2 1 1 1 1 1 1 0 0 0 -1 0 -1 -1 0 1 0 1 1 0 -1 -1 0 0 0 2 1 1 0 -1 -1 -2 -2 -3 -3 -3 -2 -1 -1 -1 -2 -3 -4 -5 -5 -4 -3 -1 0 2 3 3 3 1 -2 -3 -3 -2 2 5 8 10 8 4 -3 -11 -18 -22 -23 -16 -2 19 47 0 0 0 0 0 0
0 0 0 0 1 1 0 1 1 0 1 1 0 0 0 0 0 0 0 0 0 0 0 1 1 1 2 2 2 2 3 3 3 4 3 3 3 3 3 3 3 3 3 3 3 2 3 2 2 2 1 0 0 -1 -1 -1 -2 -3 -2 -3 -3 -3 -3 -3 -3 -3 -4 -4 -3 -2 -2 -2 -2 -2 -2 -3 -2 -2 -2 -1 -1 -2 -2 -2 -2 -1 -1 0 0 1 1 1 2 1 3 2 3 3 3 3 3 4 3 3 3 3 2 1 1 0 0 0 0 0 -1 0 0 0 -1 0 0 -1 0 0 0 0 0 0 0 -1 0 -1 0 0 0 0 0 0 -1 -3 -3 -4 -5 -6 -6 -5 -5 -5 -4 -4 -3 -2 -2 -2 -3 -3 -3 -2 -2 -1 -1 -1 0 1 1 2 2 3 3 3 3 2 2 1 0 0 -1 -1 -1 0 0 0 0 1 1 1 0 0 -1 -3 -3 -5 -6 -6 -6 -5 -4 -2 -1 0 0 1 0 0 0 -2 -2 -2 -2 -2 -2 -1 -1 0 -1 0 0 0 0 1 1 2 2 2 1 1 1 0 -1 -1 -1 0 0 1 2 3 4 4 4 3 3 1 1 1 0 0 0 2 4 6 0 0 0 0 0 0
-4 -3 -2 -3 -3 -3 -3 -3 -2 -2 -2 -1 -2 -2 -2 -1 -1 -2 -1 -1 -1 -2 -2 -1 -1 -1 -1 0 -1 -1 -1 -1 -1 -2 -3 -4 -5 -5 -5 -5 -6 -5 -5 -5 -4 -3 -2 -3 -3 -4 -4 -5 -5 -5 -4 -4 -4 -3 -3 -3 -2 -1 -1 -2 -1 -1 -2 -2 -1 -2 -1 -2 -1 -1 -2 -1 -1 -2 -2 -3 -2 -3 -3 -2 -3 -3 -2 -1 -1 -1 -1 -1 -2 -1 -2 -3 -3 -3 -3 -3 -3 -3 -3 -4 -4 -5 -5 -5 -6 -6 -5 -5 -4 -3 -2 -2 -1 -1 -1 0 -1 0 -1 -1 -1 -1 -1 -1 0 0 0 0 0 0 0 1 0 1 1 1 1 1 1 2 2 3 3 2 1 2 0 -1 -1 -2 -2 -2 -2 -2 -2 -2 -4 -4 -4 -4 -4 -3 -2 -3 -2 -2 -1 -1 -1 0 -1 0 1 1 2 2 2 1 1 1 1 1 2 2 4 4 4 3 3 2 0 0 -2 -1 -1 0 1 1 0 0 -1 -2 -2 -2 -1 1 3 4 5 5 3 2 0 -2 -1 -1 1 2 4 6 6 6 5 4 2 2 2 1 1 1 -2 -5 -8 -11 -12 -11 -7 -2 6 13 18 18 11 -2 -21 -44 0 0 0 0 0 0
-4 -5 -5 -5 -5 -5 -5 -5 -4 -4 -3 -2 -2 -1 -1 0 0 0 0 0 1 1 0 0 -1 -1 -1 -2 -2 -1 -1 -2 -1 -1 -1 -1 -2 -2 -1 -2 -1 -1 -1 0 0 1 1 2 2 2 2 3 2 3 4 4 3 3 2 2 2 1 1 0 0 -1 0 -1 -1 -1 -1 -2 -2 -2 -3 -3 -3 -3 -3 -4 -4 -5 -5 -6 -5 -6 -6 -6 -6 -6 -4 -4 -3 -2 -2 -2 0 0 1 1 1 1 0 0 -1 -1 -1 -2 -1 -1 0 0 1 1 1 2 3 3 3 4 4 5 6 6 5 5 5 4 3 2 1 0 0 0 1 0 2 2 3 3 3 2 2 1 1 0 1 -1 -1 -1 -1 -1 -1 -1 -3 -3 -4 -4 -5 -4 -5 -4 -4 -5 -3 -4 -3 -3 -3 -3 -2 -1 -1 0 0 0 0 0 0 0 -1 0 0 1 1 1 1 0 0 0 -1 -2 -2 -1 0 0 1 1 0 -1 -3 -3 -4 -5 -5 -4 -5 -3 -2 -2 -2 -1 -2 -4 -4 -5 -6 -7 -6 -6 -6 -5 -4 -4 -4 -3 -3 -2 0 1 3 6 7 10 11 13 13 14 15 15 15 14 13 11 9 4 -1 -7 -15 -22 0 0 0 0 0 0
-2 -2 -2 -2 -1 -2 -3 -4 -4 -5 -6 -5 -5 -5 -4 -2 -1 0 1 1 2 2 2 3 2 2 3 2 2 1 1 0 0 0 -2 -1 -1 -2 -2 -2 -2 -1 -1 -1 -1 0 0 0 2 1 2 1 2 1 1 0 -1 -2 -2 -3 -3 -2 -2 -3 -2 -2 -1 -1 -1 1 1 1 2 2 1 1 1 2 1 1 1 0 0 0 0 0 0 1 1 1 0 0 -1 0 -2 -1 -1 0 1 1 1 2 2 1 2 1 1 1 1 1 0 0 -1 -1 -1 -1 -1 0 0 0 0 1 1 3 3 3 2 2 2 1 0 0 -1 -2 -2 -2 -2 -2 -2 -1 0 -1 0 0 1 0 0 1 1 1 2 2 3 3 3 4 3 3 2 2 2 2 1 0 0 -1 -1 -1 -2 -2 -2 -2 -2 -2 -1 -1 -1 -1 0 -1 -1 -2 -4 -4 -6 -7 -6 -7 -7 -5 -5 -4 -2 0 2 4 5 7 9 9 10 10 9 9 8 6 5 4 3 2 0 0 0 0 0 0 0 0 0 0 0 0 0 0 1 1 2 3 4 4 4 4 4 3 1 1 0 -3 -4 -6 -7 -8 -10 -10 -11 -10 -8 -3 1 7 0 0 0 0 0 0
-4 -3 -2 -1 -1 0 1 0 0 0 1 2 3 4 4 5 6 6 5 5 5 4 3 3 4 4 5 3 3 3 3 2 2 0 0 -1 -1 0 0 1 1 0 0 -1 -2 -2 -3 -3 -2 -3 -1 -1 -1 1 0 0 0 1 0 0 0 0 1 1 0 0 0 -1 0 0 -1 -1 -2 -2 -3 -3 -3 -2 -2 -1 0 1 1 2 3 4 4 4 5 5 5 6 6 7 7 7 6 7 6 5 4 2 0 -1 -2 -4 -5 -5 -5 -6 -6 -6 -7 -7 -6 -6 -6 -5 -3 -2 -1 0 1 2 3 3 4 4 4 4 4 3 3 3 2 2 1 1 1 1 1 0 0 0 0 -1 -1 -1 -2 -2 -2 -2 0 1 1 1 2 3 3 3 3 4 4 6 7 8 8 9 9 8 7 5 3 2 1 0 -1 -1 -1 -3 -4 -6 -8 -11 -13 -15 -15 -15 -14 -14 -13 -12 -12 -12 -13 -15 -14 -13 -11 -9 -6 -3 -2 -2 -2 -4 -5 -5 -4 -3 0 2 5 6 6 5 0 -3 -5 -8 -8 -8 -5 -4 -3 -4 -5 -8 -10 -12 -13 -12 -9 -4 0 2 2 1 -2 -5 -5 -3 2 10 17 21 18 8 -9 -31 0 0 0 0 0 0
0 -1 -1 -1 0 0 1 1 2 1 0 0 -1 -2 -2 -4 -3 -4 -4 -3 -3 -3 -3 -3 -2 -1 0 1 0 0 1 1 1 1 2 2 2 2 3 3 3 3 3 3 3 3 3 2 1 1 2 2 1 0 1 0 -1 -1 -2 -2 -2 -2 -2 -3 -2 -3 -2 -2 -2 -3 -2 -2 -2 -1 -1 0 0 1 1 1 2 2 1 2 2 2 2 1 2 2 1 2 1 1 1 1 1 2 1 2 1 1 0 0 0 -1 -2 -2 -2 -3 -2 -3 -2 -3 -2 -1 -1 0 1 1 1 1 1 0 0 -1 0 -1 0 0 1 1 2 2 2 3 3 3 2 3 2 2 2 2 3 3 2 2 2 2 1 1 1 0 0 -1 -1 -1 -1 -1 -2 -2 -2 -3 -3 -4 -4 -4 -5 -6 -6 -6 -6 -5 -5 -5 -5 -5 -4 -3 -2 -1 -1 0 1 2 2 3 3 3 3 4 3 3 3 3 2 2 1 1 0 1 2 2 1 1 1 2 1 2 1 -1 -1 -1 -1 -1 -2 -3 -3 -4 -5 -5 -5 -4 -4 -3 -2 -2 -1 -2 -2 -3 -3 -1 1 5 7 9 9 6 3 -4 -10 -16 -19 -18 -11 3 24 49 0 0 0 0 0 0
